48 79 -96 76 91 
-52 49 -81 -100 16 
5 75 101 41 -9 
-9 -80 113 -31 11 
-45 124 119 -15 40 

-106 3 6 106 100 
74 -8 -29 102 -28 
-112 -101 -81 97 118 
-119 55 -76 -39 72 
20 2 108 29 101 

-106 101 -47 16 94 
-13 35 -42 -29 106 
118 36 51 -62 -24 
-68 34 -8 117 -70 
65 -5 9 91 -51 

-65 50 103 -91 78 
-92 -104 -104 -41 -1 
-42 70 16 -27 28 
115 81 -41 30 -122 
-100 41 71 8 118 

21 53 79 -34 103 
62 119 29 -54 105 
99 14 107 -70 125 
-76 27 -33 92 -48 
-70 -101 95 -6 -20 

47 88 97 25 51 
110 -4 43 -85 -50 
13 -109 -100 -97 -80 
-72 23 -77 66 -14 
54 -28 -122 95 -118 

10 -36 122 -82 13 
33 -73 64 14 36 
125 -12 -39 -75 -90 
-116 119 82 -24 -21 
-88 45 121 -30 24 

50 15 -127 69 -6 
-70 -5 -34 96 -80 
-103 -22 -89 14 43 
-81 -126 -81 15 -112 
-54 103 88 -107 -55 


106 80 19 -127 92 
93 -43 -25 -33 -65 
-20 -81 -18 -49 101 
61 28 -51 -92 -57 
100 79 73 43 98 

61 55 -69 -20 -128 
91 -30 -86 78 0 
47 -65 -40 -26 -123 
123 25 -9 94 -93 
-33 113 14 36 -69 

85 122 -97 -84 -119 
-66 65 -76 -77 94 
14 46 -23 -1 -57 
-10 118 -18 -85 111 
-88 84 88 61 -2 

-76 -99 -105 -83 115 
21 48 28 -87 -3 
-74 -95 68 12 26 
31 4 -79 6 -40 
-96 -61 39 -32 81 

91 -101 43 -67 -74 
-23 -70 -28 24 -114 
-122 -92 -26 -93 49 
-44 -5 -102 -76 -93 
-111 -82 -53 -64 3 

-65 26 -37 -102 -104 
69 54 -2 101 -91 
80 7 -109 -90 -30 
-122 -69 3 39 -11 
-96 6 -16 -51 66 

-127 27 -95 -9 81 
-5 108 99 -97 68 
118 122 -5 123 15 
1 -68 46 1 127 
27 -17 5 83 -69 

-105 -78 -36 -18 -52 
-105 17 85 111 99 
-11 -50 44 14 6 
-68 63 60 -59 -95 
60 56 108 29 102 


53 -40 88 -67 59 
-50 -90 -10 17 -45 
50 28 -87 -24 -106 
126 45 105 59 83 
99 99 29 98 -29 

-27 -99 43 26 -107 
-38 42 1 70 -89 
-114 -113 122 2 -75 
-25 27 90 32 17 
-16 -115 -4 37 13 

100 -37 78 -27 23 
-99 -74 86 65 41 
62 -34 -81 -98 52 
-78 -126 -8 25 -100 
17 -7 -61 30 43 

-65 86 -31 126 -78 
111 -31 -30 -53 27 
-110 -77 -48 78 79 
-113 19 31 -88 88 
-97 -51 60 -123 -71 

-62 -6 56 56 102 
-124 124 2 50 -35 
-71 14 7 18 111 
-2 -115 16 125 -127 
89 71 -98 68 -72 

-22 -4 38 86 -37 
-61 7 -88 89 -29 
75 -15 -26 -72 -102 
25 -120 -102 7 118 
37 -56 -82 -127 64 

104 -69 97 70 -43 
-113 118 -31 -126 39 
121 24 94 -97 -106 
-2 -25 50 76 -55 
73 -38 82 47 -25 

75 -45 -110 -46 -10 
-56 -83 -27 -62 -33 
49 17 -15 41 -52 
-14 -123 60 20 -31 
-24 -5 44 -49 22 


-107 -48 39 50 -95 
10 14 -68 -58 69 
-90 7 -3 -80 16 
26 -19 -25 118 70 
118 -35 46 34 63 

106 16 -104 126 -111 
-46 -60 68 120 -98 
78 76 13 57 -84 
-116 -109 -52 39 -14 
-17 -114 71 53 99 

38 15 -33 -82 -96 
118 47 -29 65 -107 
-57 -113 38 110 -32 
-11 80 -29 23 70 
62 108 -44 85 -104 

61 -17 -11 69 -113 
-108 121 -43 33 -104 
-94 19 80 -55 -107 
-121 -51 34 104 28 
123 55 -75 21 69 

122 -101 10 -3 100 
-66 14 69 57 122 
-92 99 -61 88 40 
97 12 24 97 73 
-38 58 -43 70 123 

-38 -70 96 -118 -125 
-117 -7 112 -54 124 
3 63 76 -66 18 
-21 25 15 -29 59 
-73 118 66 73 99 

-55 126 36 101 106 
-18 -84 59 91 45 
-111 -102 3 77 89 
56 -76 -6 119 -119 
48 -111 68 124 -62 

80 96 75 61 22 
60 -97 28 -109 91 
-121 88 -75 36 17 
-93 106 120 6 62 
-92 73 125 93 65 


-32 -15 -13 70 80 
-97 7 18 56 82 
38 -123 87 58 -24 
-88 -62 102 58 -59 
-6 -124 47 65 54 

-68 -58 21 -3 -31 
19 -92 -71 63 8 
-44 -60 65 -95 -62 
112 -83 -19 -21 48 
22 43 -90 -11 -49 

98 -20 62 -107 29 
-90 8 -11 -33 -34 
-77 119 -34 -31 112 
-7 65 -28 -81 -114 
25 -59 -89 94 -2 

61 77 -69 -126 -59 
-56 -114 50 112 35 
-31 -104 -50 80 78 
61 -3 -97 63 21 
-54 -69 21 58 -25 

20 121 -67 -15 102 
80 -3 -74 58 118 
-105 1 70 -97 52 
91 34 106 100 109 
78 33 -128 61 -69 

-73 -118 101 -5 -101 
43 101 123 103 -35 
-99 67 -42 -54 18 
37 -117 98 73 -85 
-75 -76 49 -81 110 

104 81 -33 -79 -39 
-119 -9 125 78 -58 
-72 -89 4 97 -71 
-94 -44 -50 31 1 
59 -90 -92 45 8 

-79 -13 4 -87 -28 
118 94 59 -41 47 
66 -67 -85 107 -89 
71 -3 -19 111 -97 
87 -1 -109 -87 69 


-97 -112 72 -7 -88 
-89 -19 -86 -90 -72 
-37 33 -75 -111 1 
34 90 3 46 -97 
-105 42 -70 -9 -119 

107 -102 121 -76 81 
25 37 -72 -16 99 
-106 -44 124 45 -24 
-122 58 -38 70 44 
31 32 -110 -17 35 

-16 84 -55 -2 -2 
-58 6 118 -2 39 
81 -40 -29 75 66 
41 105 0 114 68 
100 120 -80 109 -76 

-113 122 -96 -67 16 
-68 -93 58 87 -94 
-124 -121 116 -55 -16 
90 12 104 36 -91 
-50 -112 64 59 -49 

-76 77 100 -64 71 
51 -126 -84 -4 -76 
-118 53 50 -2 -127 
-63 33 -34 -5 76 
14 90 72 108 17 

-113 -116 -61 -82 -89 
-57 -78 55 -17 41 
11 107 97 123 -3 
-76 26 -35 45 -86 
13 -127 -113 -71 80 

-3 94 -123 -127 88 
-34 104 59 79 -107 
-81 -99 -23 -28 -93 
15 110 -92 -66 -120 
-59 7 77 56 -71 

-85 -45 66 -80 -22 
19 -12 10 55 109 
111 -22 -117 -119 -68 
102 -79 76 -97 -98 
-51 -83 -105 8 -68 


-125 -109 45 -1 -61 
44 -22 -116 55 -87 
-89 84 -121 -48 102 
-16 18 10 -30 -4 
98 40 91 -102 -1 

34 99 -19 49 1 
6 119 79 44 -32 
-28 -30 51 52 42 
111 -5 28 -92 50 
-7 -13 85 -107 60 

-55 -2 67 27 7 
-55 16 -3 46 -106 
-110 -33 63 -16 42 
20 80 9 -39 5 
85 -5 54 -49 -42 

72 -81 -14 75 -26 
106 -100 96 -29 -10 
110 -52 62 102 -37 
13 19 -50 -72 125 
73 -92 73 -92 8 

33 -38 42 -67 -19 
47 12 -109 119 -127 
73 -80 103 58 -52 
-15 -92 98 -80 -65 
-38 73 -14 -81 97 

-72 -4 66 59 9 
-15 -75 -86 86 -12 
125 106 -24 113 -20 
93 60 71 -5 17 
-45 32 -15 76 -8 

25 -67 126 -30 -101 
-67 -124 -6 31 -113 
-24 48 115 99 -50 
47 -54 4 21 -7 
-25 -98 85 -119 -95 

31 25 -61 -26 17 
61 -85 85 -31 119 
-35 126 100 -94 -89 
68 69 59 83 116 
11 40 -120 -78 -51 


-3 88 66 40 82 
-51 -11 -34 106 52 
-117 114 -110 -19 49 
-77 78 -90 95 45 
-23 -6 -126 -44 -45 

27 -115 36 -30 60 
-120 -99 16 76 85 
-127 -33 -6 -82 -117 
101 -112 -95 66 83 
88 63 7 -62 -49 

-11 53 5 -16 -20 
-54 -85 96 87 -4 
82 116 66 117 -116 
79 -110 -61 93 76 
61 78 -34 -109 -126 

51 119 -41 78 -36 
-108 56 78 -107 94 
2 123 14 -99 51 
-114 30 73 -68 -54 
-52 -85 -22 113 -120 

41 -56 -42 58 126 
99 -38 -9 2 39 
122 115 -86 39 -123 
89 44 -13 47 29 
-13 58 -10 47 -66 

-3 67 -67 100 -62 
-69 115 -18 -50 -73 
-110 -87 76 -121 48 
-38 78 41 -10 98 
-90 83 13 68 105 

17 -85 -48 -7 108 
29 -66 74 -73 57 
-71 -30 97 93 70 
-9 -114 -107 -29 -39 
103 102 -88 37 115 

-33 80 72 50 74 
72 -55 -46 -5 -41 
115 24 -47 -14 76 
-73 -112 -14 -98 -34 
-35 -43 -43 -107 9 


