48 -52 5 -9 -45 
79 49 75 -80 124 
-96 -81 101 113 119 
76 -100 41 -31 -15 
91 16 -9 11 40 

-106 74 -112 -119 20 
3 -8 -101 55 2 
6 -29 -81 -76 108 
106 102 97 -39 29 
100 -28 118 72 101 

-106 -13 118 -68 65 
101 35 36 34 -5 
-47 -42 51 -8 9 
16 -29 -62 117 91 
94 106 -24 -70 -51 

-65 -92 -42 115 -100 
50 -104 70 81 41 
103 -104 16 -41 71 
-91 -41 -27 30 8 
78 -1 28 -122 118 

21 62 99 -76 -70 
53 119 14 27 -101 
79 29 107 -33 95 
-34 -54 -70 92 -6 
103 105 125 -48 -20 

47 110 13 -72 54 
88 -4 -109 23 -28 
97 43 -100 -77 -122 
25 -85 -97 66 95 
51 -50 -80 -14 -118 

10 33 125 -116 -88 
-36 -73 -12 119 45 
122 64 -39 82 121 
-82 14 -75 -24 -30 
13 36 -90 -21 24 

50 -70 -103 -81 -54 
15 -5 -22 -126 103 
-127 -34 -89 -81 88 
69 96 14 15 -107 
-6 -80 43 -112 -55 


48 -52 5 -9 -45 
79 49 75 -80 124 
-96 -81 101 113 119 
76 -100 41 -31 -15 
91 16 -9 11 40 

-106 74 -112 -119 20 
3 -8 -101 55 2 
6 -29 -81 -76 108 
106 102 97 -39 29 
100 -28 118 72 101 

-106 -13 118 -68 65 
101 35 36 34 -5 
-47 -42 51 -8 9 
16 -29 -62 117 91 
94 106 -24 -70 -51 

-65 -92 -42 115 -100 
50 -104 70 81 41 
103 -104 16 -41 71 
-91 -41 -27 30 8 
78 -1 28 -122 118 

21 62 99 -76 -70 
53 119 14 27 -101 
79 29 107 -33 95 
-34 -54 -70 92 -6 
103 105 125 -48 -20 

47 110 13 -72 54 
88 -4 -109 23 -28 
97 43 -100 -77 -122 
25 -85 -97 66 95 
51 -50 -80 -14 -118 

10 33 125 -116 -88 
-36 -73 -12 119 45 
122 64 -39 82 121 
-82 14 -75 -24 -30 
13 36 -90 -21 24 

50 -70 -103 -81 -54 
15 -5 -22 -126 103 
-127 -34 -89 -81 88 
69 96 14 15 -107 
-6 -80 43 -112 -55 


48 -52 5 -9 -45 
79 49 75 -80 124 
-96 -81 101 113 119 
76 -100 41 -31 -15 
91 16 -9 11 40 

-106 74 -112 -119 20 
3 -8 -101 55 2 
6 -29 -81 -76 108 
106 102 97 -39 29 
100 -28 118 72 101 

-106 -13 118 -68 65 
101 35 36 34 -5 
-47 -42 51 -8 9 
16 -29 -62 117 91 
94 106 -24 -70 -51 

-65 -92 -42 115 -100 
50 -104 70 81 41 
103 -104 16 -41 71 
-91 -41 -27 30 8 
78 -1 28 -122 118 

21 62 99 -76 -70 
53 119 14 27 -101 
79 29 107 -33 95 
-34 -54 -70 92 -6 
103 105 125 -48 -20 

47 110 13 -72 54 
88 -4 -109 23 -28 
97 43 -100 -77 -122 
25 -85 -97 66 95 
51 -50 -80 -14 -118 

10 33 125 -116 -88 
-36 -73 -12 119 45 
122 64 -39 82 121 
-82 14 -75 -24 -30 
13 36 -90 -21 24 

50 -70 -103 -81 -54 
15 -5 -22 -126 103 
-127 -34 -89 -81 88 
69 96 14 15 -107 
-6 -80 43 -112 -55 


48 -52 5 -9 -45 
79 49 75 -80 124 
-96 -81 101 113 119 
76 -100 41 -31 -15 
91 16 -9 11 40 

-106 74 -112 -119 20 
3 -8 -101 55 2 
6 -29 -81 -76 108 
106 102 97 -39 29 
100 -28 118 72 101 

-106 -13 118 -68 65 
101 35 36 34 -5 
-47 -42 51 -8 9 
16 -29 -62 117 91 
94 106 -24 -70 -51 

-65 -92 -42 115 -100 
50 -104 70 81 41 
103 -104 16 -41 71 
-91 -41 -27 30 8 
78 -1 28 -122 118 

21 62 99 -76 -70 
53 119 14 27 -101 
79 29 107 -33 95 
-34 -54 -70 92 -6 
103 105 125 -48 -20 

47 110 13 -72 54 
88 -4 -109 23 -28 
97 43 -100 -77 -122 
25 -85 -97 66 95 
51 -50 -80 -14 -118 

10 33 125 -116 -88 
-36 -73 -12 119 45 
122 64 -39 82 121 
-82 14 -75 -24 -30 
13 36 -90 -21 24 

50 -70 -103 -81 -54 
15 -5 -22 -126 103 
-127 -34 -89 -81 88 
69 96 14 15 -107 
-6 -80 43 -112 -55 



48 -52 5 -9 -45 
79 49 75 -80 124 
-96 -81 101 113 119 
76 -100 41 -31 -15 
91 16 -9 11 40 

-106 74 -112 -119 20 
3 -8 -101 55 2 
6 -29 -81 -76 108 
106 102 97 -39 29 
100 -28 118 72 101 

-106 -13 118 -68 65 
101 35 36 34 -5 
-47 -42 51 -8 9 
16 -29 -62 117 91 
94 106 -24 -70 -51 

-65 -92 -42 115 -100 
50 -104 70 81 41 
103 -104 16 -41 71 
-91 -41 -27 30 8 
78 -1 28 -122 118 

21 62 99 -76 -70 
53 119 14 27 -101 
79 29 107 -33 95 
-34 -54 -70 92 -6 
103 105 125 -48 -20 

47 110 13 -72 54 
88 -4 -109 23 -28 
97 43 -100 -77 -122 
25 -85 -97 66 95 
51 -50 -80 -14 -118 

10 33 125 -116 -88 
-36 -73 -12 119 45 
122 64 -39 82 121 
-82 14 -75 -24 -30 
13 36 -90 -21 24 

50 -70 -103 -81 -54 
15 -5 -22 -126 103 
-127 -34 -89 -81 88 
69 96 14 15 -107 
-6 -80 43 -112 -55 


48 -52 5 -9 -45 
79 49 75 -80 124 
-96 -81 101 113 119 
76 -100 41 -31 -15 
91 16 -9 11 40 

-106 74 -112 -119 20 
3 -8 -101 55 2 
6 -29 -81 -76 108 
106 102 97 -39 29 
100 -28 118 72 101 

-106 -13 118 -68 65 
101 35 36 34 -5 
-47 -42 51 -8 9 
16 -29 -62 117 91 
94 106 -24 -70 -51 

-65 -92 -42 115 -100 
50 -104 70 81 41 
103 -104 16 -41 71 
-91 -41 -27 30 8 
78 -1 28 -122 118 

21 62 99 -76 -70 
53 119 14 27 -101 
79 29 107 -33 95 
-34 -54 -70 92 -6 
103 105 125 -48 -20 

47 110 13 -72 54 
88 -4 -109 23 -28 
97 43 -100 -77 -122 
25 -85 -97 66 95 
51 -50 -80 -14 -118 

10 33 125 -116 -88 
-36 -73 -12 119 45 
122 64 -39 82 121 
-82 14 -75 -24 -30 
13 36 -90 -21 24 

50 -70 -103 -81 -54 
15 -5 -22 -126 103 
-127 -34 -89 -81 88 
69 96 14 15 -107 
-6 -80 43 -112 -55 


48 -52 5 -9 -45 
79 49 75 -80 124 
-96 -81 101 113 119 
76 -100 41 -31 -15 
91 16 -9 11 40 

-106 74 -112 -119 20 
3 -8 -101 55 2 
6 -29 -81 -76 108 
106 102 97 -39 29 
100 -28 118 72 101 

-106 -13 118 -68 65 
101 35 36 34 -5 
-47 -42 51 -8 9 
16 -29 -62 117 91 
94 106 -24 -70 -51 

-65 -92 -42 115 -100 
50 -104 70 81 41 
103 -104 16 -41 71 
-91 -41 -27 30 8 
78 -1 28 -122 118 

21 62 99 -76 -70 
53 119 14 27 -101 
79 29 107 -33 95 
-34 -54 -70 92 -6 
103 105 125 -48 -20 

47 110 13 -72 54 
88 -4 -109 23 -28 
97 43 -100 -77 -122 
25 -85 -97 66 95 
51 -50 -80 -14 -118 

10 33 125 -116 -88 
-36 -73 -12 119 45 
122 64 -39 82 121 
-82 14 -75 -24 -30 
13 36 -90 -21 24 

50 -70 -103 -81 -54 
15 -5 -22 -126 103 
-127 -34 -89 -81 88 
69 96 14 15 -107 
-6 -80 43 -112 -55 


48 -52 5 -9 -45 
79 49 75 -80 124 
-96 -81 101 113 119 
76 -100 41 -31 -15 
91 16 -9 11 40 

-106 74 -112 -119 20 
3 -8 -101 55 2 
6 -29 -81 -76 108 
106 102 97 -39 29 
100 -28 118 72 101 

-106 -13 118 -68 65 
101 35 36 34 -5 
-47 -42 51 -8 9 
16 -29 -62 117 91 
94 106 -24 -70 -51 

-65 -92 -42 115 -100 
50 -104 70 81 41 
103 -104 16 -41 71 
-91 -41 -27 30 8 
78 -1 28 -122 118 

21 62 99 -76 -70 
53 119 14 27 -101 
79 29 107 -33 95 
-34 -54 -70 92 -6 
103 105 125 -48 -20 

47 110 13 -72 54 
88 -4 -109 23 -28 
97 43 -100 -77 -122 
25 -85 -97 66 95 
51 -50 -80 -14 -118 

10 33 125 -116 -88 
-36 -73 -12 119 45 
122 64 -39 82 121 
-82 14 -75 -24 -30 
13 36 -90 -21 24 

50 -70 -103 -81 -54 
15 -5 -22 -126 103 
-127 -34 -89 -81 88 
69 96 14 15 -107 
-6 -80 43 -112 -55 



48 -52 5 -9 -45 
79 49 75 -80 124 
-96 -81 101 113 119 
76 -100 41 -31 -15 
91 16 -9 11 40 

-106 74 -112 -119 20 
3 -8 -101 55 2 
6 -29 -81 -76 108 
106 102 97 -39 29 
100 -28 118 72 101 

-106 -13 118 -68 65 
101 35 36 34 -5 
-47 -42 51 -8 9 
16 -29 -62 117 91 
94 106 -24 -70 -51 

-65 -92 -42 115 -100 
50 -104 70 81 41 
103 -104 16 -41 71 
-91 -41 -27 30 8 
78 -1 28 -122 118 

21 62 99 -76 -70 
53 119 14 27 -101 
79 29 107 -33 95 
-34 -54 -70 92 -6 
103 105 125 -48 -20 

47 110 13 -72 54 
88 -4 -109 23 -28 
97 43 -100 -77 -122 
25 -85 -97 66 95 
51 -50 -80 -14 -118 

10 33 125 -116 -88 
-36 -73 -12 119 45 
122 64 -39 82 121 
-82 14 -75 -24 -30 
13 36 -90 -21 24 

50 -70 -103 -81 -54 
15 -5 -22 -126 103 
-127 -34 -89 -81 88 
69 96 14 15 -107 
-6 -80 43 -112 -55 


48 -52 5 -9 -45 
79 49 75 -80 124 
-96 -81 101 113 119 
76 -100 41 -31 -15 
91 16 -9 11 40 

-106 74 -112 -119 20 
3 -8 -101 55 2 
6 -29 -81 -76 108 
106 102 97 -39 29 
100 -28 118 72 101 

-106 -13 118 -68 65 
101 35 36 34 -5 
-47 -42 51 -8 9 
16 -29 -62 117 91 
94 106 -24 -70 -51 

-65 -92 -42 115 -100 
50 -104 70 81 41 
103 -104 16 -41 71 
-91 -41 -27 30 8 
78 -1 28 -122 118 

21 62 99 -76 -70 
53 119 14 27 -101 
79 29 107 -33 95 
-34 -54 -70 92 -6 
103 105 125 -48 -20 

47 110 13 -72 54 
88 -4 -109 23 -28 
97 43 -100 -77 -122 
25 -85 -97 66 95 
51 -50 -80 -14 -118 

10 33 125 -116 -88 
-36 -73 -12 119 45 
122 64 -39 82 121 
-82 14 -75 -24 -30 
13 36 -90 -21 24 

50 -70 -103 -81 -54 
15 -5 -22 -126 103 
-127 -34 -89 -81 88 
69 96 14 15 -107 
-6 -80 43 -112 -55 


48 -52 5 -9 -45 
79 49 75 -80 124 
-96 -81 101 113 119 
76 -100 41 -31 -15 
91 16 -9 11 40 

-106 74 -112 -119 20 
3 -8 -101 55 2 
6 -29 -81 -76 108 
106 102 97 -39 29 
100 -28 118 72 101 

-106 -13 118 -68 65 
101 35 36 34 -5 
-47 -42 51 -8 9 
16 -29 -62 117 91 
94 106 -24 -70 -51 

-65 -92 -42 115 -100 
50 -104 70 81 41 
103 -104 16 -41 71 
-91 -41 -27 30 8 
78 -1 28 -122 118 

21 62 99 -76 -70 
53 119 14 27 -101 
79 29 107 -33 95 
-34 -54 -70 92 -6 
103 105 125 -48 -20 

47 110 13 -72 54 
88 -4 -109 23 -28 
97 43 -100 -77 -122 
25 -85 -97 66 95 
51 -50 -80 -14 -118 

10 33 125 -116 -88 
-36 -73 -12 119 45 
122 64 -39 82 121 
-82 14 -75 -24 -30 
13 36 -90 -21 24 

50 -70 -103 -81 -54 
15 -5 -22 -126 103 
-127 -34 -89 -81 88 
69 96 14 15 -107 
-6 -80 43 -112 -55 


48 -52 5 -9 -45 
79 49 75 -80 124 
-96 -81 101 113 119 
76 -100 41 -31 -15 
91 16 -9 11 40 

-106 74 -112 -119 20 
3 -8 -101 55 2 
6 -29 -81 -76 108 
106 102 97 -39 29 
100 -28 118 72 101 

-106 -13 118 -68 65 
101 35 36 34 -5 
-47 -42 51 -8 9 
16 -29 -62 117 91 
94 106 -24 -70 -51 

-65 -92 -42 115 -100 
50 -104 70 81 41 
103 -104 16 -41 71 
-91 -41 -27 30 8 
78 -1 28 -122 118 

21 62 99 -76 -70 
53 119 14 27 -101 
79 29 107 -33 95 
-34 -54 -70 92 -6 
103 105 125 -48 -20 

47 110 13 -72 54 
88 -4 -109 23 -28 
97 43 -100 -77 -122 
25 -85 -97 66 95 
51 -50 -80 -14 -118 

10 33 125 -116 -88 
-36 -73 -12 119 45 
122 64 -39 82 121 
-82 14 -75 -24 -30 
13 36 -90 -21 24 

50 -70 -103 -81 -54 
15 -5 -22 -126 103 
-127 -34 -89 -81 88 
69 96 14 15 -107 
-6 -80 43 -112 -55 



48 -52 5 -9 -45 
79 49 75 -80 124 
-96 -81 101 113 119 
76 -100 41 -31 -15 
91 16 -9 11 40 

-106 74 -112 -119 20 
3 -8 -101 55 2 
6 -29 -81 -76 108 
106 102 97 -39 29 
100 -28 118 72 101 

-106 -13 118 -68 65 
101 35 36 34 -5 
-47 -42 51 -8 9 
16 -29 -62 117 91 
94 106 -24 -70 -51 

-65 -92 -42 115 -100 
50 -104 70 81 41 
103 -104 16 -41 71 
-91 -41 -27 30 8 
78 -1 28 -122 118 

21 62 99 -76 -70 
53 119 14 27 -101 
79 29 107 -33 95 
-34 -54 -70 92 -6 
103 105 125 -48 -20 

47 110 13 -72 54 
88 -4 -109 23 -28 
97 43 -100 -77 -122 
25 -85 -97 66 95 
51 -50 -80 -14 -118 

10 33 125 -116 -88 
-36 -73 -12 119 45 
122 64 -39 82 121 
-82 14 -75 -24 -30 
13 36 -90 -21 24 

50 -70 -103 -81 -54 
15 -5 -22 -126 103 
-127 -34 -89 -81 88 
69 96 14 15 -107 
-6 -80 43 -112 -55 


48 -52 5 -9 -45 
79 49 75 -80 124 
-96 -81 101 113 119 
76 -100 41 -31 -15 
91 16 -9 11 40 

-106 74 -112 -119 20 
3 -8 -101 55 2 
6 -29 -81 -76 108 
106 102 97 -39 29 
100 -28 118 72 101 

-106 -13 118 -68 65 
101 35 36 34 -5 
-47 -42 51 -8 9 
16 -29 -62 117 91 
94 106 -24 -70 -51 

-65 -92 -42 115 -100 
50 -104 70 81 41 
103 -104 16 -41 71 
-91 -41 -27 30 8 
78 -1 28 -122 118 

21 62 99 -76 -70 
53 119 14 27 -101 
79 29 107 -33 95 
-34 -54 -70 92 -6 
103 105 125 -48 -20 

47 110 13 -72 54 
88 -4 -109 23 -28 
97 43 -100 -77 -122 
25 -85 -97 66 95 
51 -50 -80 -14 -118 

10 33 125 -116 -88 
-36 -73 -12 119 45 
122 64 -39 82 121 
-82 14 -75 -24 -30 
13 36 -90 -21 24 

50 -70 -103 -81 -54 
15 -5 -22 -126 103 
-127 -34 -89 -81 88 
69 96 14 15 -107 
-6 -80 43 -112 -55 


48 -52 5 -9 -45 
79 49 75 -80 124 
-96 -81 101 113 119 
76 -100 41 -31 -15 
91 16 -9 11 40 

-106 74 -112 -119 20 
3 -8 -101 55 2 
6 -29 -81 -76 108 
106 102 97 -39 29 
100 -28 118 72 101 

-106 -13 118 -68 65 
101 35 36 34 -5 
-47 -42 51 -8 9 
16 -29 -62 117 91 
94 106 -24 -70 -51 

-65 -92 -42 115 -100 
50 -104 70 81 41 
103 -104 16 -41 71 
-91 -41 -27 30 8 
78 -1 28 -122 118 

21 62 99 -76 -70 
53 119 14 27 -101 
79 29 107 -33 95 
-34 -54 -70 92 -6 
103 105 125 -48 -20 

47 110 13 -72 54 
88 -4 -109 23 -28 
97 43 -100 -77 -122 
25 -85 -97 66 95 
51 -50 -80 -14 -118 

10 33 125 -116 -88 
-36 -73 -12 119 45 
122 64 -39 82 121 
-82 14 -75 -24 -30 
13 36 -90 -21 24 

50 -70 -103 -81 -54 
15 -5 -22 -126 103 
-127 -34 -89 -81 88 
69 96 14 15 -107 
-6 -80 43 -112 -55 


48 -52 5 -9 -45 
79 49 75 -80 124 
-96 -81 101 113 119 
76 -100 41 -31 -15 
91 16 -9 11 40 

-106 74 -112 -119 20 
3 -8 -101 55 2 
6 -29 -81 -76 108 
106 102 97 -39 29 
100 -28 118 72 101 

-106 -13 118 -68 65 
101 35 36 34 -5 
-47 -42 51 -8 9 
16 -29 -62 117 91 
94 106 -24 -70 -51 

-65 -92 -42 115 -100 
50 -104 70 81 41 
103 -104 16 -41 71 
-91 -41 -27 30 8 
78 -1 28 -122 118 

21 62 99 -76 -70 
53 119 14 27 -101 
79 29 107 -33 95 
-34 -54 -70 92 -6 
103 105 125 -48 -20 

47 110 13 -72 54 
88 -4 -109 23 -28 
97 43 -100 -77 -122 
25 -85 -97 66 95 
51 -50 -80 -14 -118 

10 33 125 -116 -88 
-36 -73 -12 119 45 
122 64 -39 82 121 
-82 14 -75 -24 -30 
13 36 -90 -21 24 

50 -70 -103 -81 -54 
15 -5 -22 -126 103 
-127 -34 -89 -81 88 
69 96 14 15 -107 
-6 -80 43 -112 -55 



48 -52 5 -9 -45 
79 49 75 -80 124 
-96 -81 101 113 119 
76 -100 41 -31 -15 
91 16 -9 11 40 

-106 74 -112 -119 20 
3 -8 -101 55 2 
6 -29 -81 -76 108 
106 102 97 -39 29 
100 -28 118 72 101 

-106 -13 118 -68 65 
101 35 36 34 -5 
-47 -42 51 -8 9 
16 -29 -62 117 91 
94 106 -24 -70 -51 

-65 -92 -42 115 -100 
50 -104 70 81 41 
103 -104 16 -41 71 
-91 -41 -27 30 8 
78 -1 28 -122 118 

21 62 99 -76 -70 
53 119 14 27 -101 
79 29 107 -33 95 
-34 -54 -70 92 -6 
103 105 125 -48 -20 

47 110 13 -72 54 
88 -4 -109 23 -28 
97 43 -100 -77 -122 
25 -85 -97 66 95 
51 -50 -80 -14 -118 

10 33 125 -116 -88 
-36 -73 -12 119 45 
122 64 -39 82 121 
-82 14 -75 -24 -30 
13 36 -90 -21 24 

50 -70 -103 -81 -54 
15 -5 -22 -126 103 
-127 -34 -89 -81 88 
69 96 14 15 -107 
-6 -80 43 -112 -55 


48 -52 5 -9 -45 
79 49 75 -80 124 
-96 -81 101 113 119 
76 -100 41 -31 -15 
91 16 -9 11 40 

-106 74 -112 -119 20 
3 -8 -101 55 2 
6 -29 -81 -76 108 
106 102 97 -39 29 
100 -28 118 72 101 

-106 -13 118 -68 65 
101 35 36 34 -5 
-47 -42 51 -8 9 
16 -29 -62 117 91 
94 106 -24 -70 -51 

-65 -92 -42 115 -100 
50 -104 70 81 41 
103 -104 16 -41 71 
-91 -41 -27 30 8 
78 -1 28 -122 118 

21 62 99 -76 -70 
53 119 14 27 -101 
79 29 107 -33 95 
-34 -54 -70 92 -6 
103 105 125 -48 -20 

47 110 13 -72 54 
88 -4 -109 23 -28 
97 43 -100 -77 -122 
25 -85 -97 66 95 
51 -50 -80 -14 -118 

10 33 125 -116 -88 
-36 -73 -12 119 45 
122 64 -39 82 121 
-82 14 -75 -24 -30 
13 36 -90 -21 24 

50 -70 -103 -81 -54 
15 -5 -22 -126 103 
-127 -34 -89 -81 88 
69 96 14 15 -107 
-6 -80 43 -112 -55 


48 -52 5 -9 -45 
79 49 75 -80 124 
-96 -81 101 113 119 
76 -100 41 -31 -15 
91 16 -9 11 40 

-106 74 -112 -119 20 
3 -8 -101 55 2 
6 -29 -81 -76 108 
106 102 97 -39 29 
100 -28 118 72 101 

-106 -13 118 -68 65 
101 35 36 34 -5 
-47 -42 51 -8 9 
16 -29 -62 117 91 
94 106 -24 -70 -51 

-65 -92 -42 115 -100 
50 -104 70 81 41 
103 -104 16 -41 71 
-91 -41 -27 30 8 
78 -1 28 -122 118 

21 62 99 -76 -70 
53 119 14 27 -101 
79 29 107 -33 95 
-34 -54 -70 92 -6 
103 105 125 -48 -20 

47 110 13 -72 54 
88 -4 -109 23 -28 
97 43 -100 -77 -122 
25 -85 -97 66 95 
51 -50 -80 -14 -118 

10 33 125 -116 -88 
-36 -73 -12 119 45 
122 64 -39 82 121 
-82 14 -75 -24 -30 
13 36 -90 -21 24 

50 -70 -103 -81 -54 
15 -5 -22 -126 103 
-127 -34 -89 -81 88 
69 96 14 15 -107 
-6 -80 43 -112 -55 


48 -52 5 -9 -45 
79 49 75 -80 124 
-96 -81 101 113 119 
76 -100 41 -31 -15 
91 16 -9 11 40 

-106 74 -112 -119 20 
3 -8 -101 55 2 
6 -29 -81 -76 108 
106 102 97 -39 29 
100 -28 118 72 101 

-106 -13 118 -68 65 
101 35 36 34 -5 
-47 -42 51 -8 9 
16 -29 -62 117 91 
94 106 -24 -70 -51 

-65 -92 -42 115 -100 
50 -104 70 81 41 
103 -104 16 -41 71 
-91 -41 -27 30 8 
78 -1 28 -122 118 

21 62 99 -76 -70 
53 119 14 27 -101 
79 29 107 -33 95 
-34 -54 -70 92 -6 
103 105 125 -48 -20 

47 110 13 -72 54 
88 -4 -109 23 -28 
97 43 -100 -77 -122 
25 -85 -97 66 95 
51 -50 -80 -14 -118 

10 33 125 -116 -88 
-36 -73 -12 119 45 
122 64 -39 82 121 
-82 14 -75 -24 -30 
13 36 -90 -21 24 

50 -70 -103 -81 -54 
15 -5 -22 -126 103 
-127 -34 -89 -81 88 
69 96 14 15 -107 
-6 -80 43 -112 -55 



48 -52 5 -9 -45 
79 49 75 -80 124 
-96 -81 101 113 119 
76 -100 41 -31 -15 
91 16 -9 11 40 

-106 74 -112 -119 20 
3 -8 -101 55 2 
6 -29 -81 -76 108 
106 102 97 -39 29 
100 -28 118 72 101 

-106 -13 118 -68 65 
101 35 36 34 -5 
-47 -42 51 -8 9 
16 -29 -62 117 91 
94 106 -24 -70 -51 

-65 -92 -42 115 -100 
50 -104 70 81 41 
103 -104 16 -41 71 
-91 -41 -27 30 8 
78 -1 28 -122 118 

21 62 99 -76 -70 
53 119 14 27 -101 
79 29 107 -33 95 
-34 -54 -70 92 -6 
103 105 125 -48 -20 

47 110 13 -72 54 
88 -4 -109 23 -28 
97 43 -100 -77 -122 
25 -85 -97 66 95 
51 -50 -80 -14 -118 

10 33 125 -116 -88 
-36 -73 -12 119 45 
122 64 -39 82 121 
-82 14 -75 -24 -30 
13 36 -90 -21 24 

50 -70 -103 -81 -54 
15 -5 -22 -126 103 
-127 -34 -89 -81 88 
69 96 14 15 -107 
-6 -80 43 -112 -55 


48 -52 5 -9 -45 
79 49 75 -80 124 
-96 -81 101 113 119 
76 -100 41 -31 -15 
91 16 -9 11 40 

-106 74 -112 -119 20 
3 -8 -101 55 2 
6 -29 -81 -76 108 
106 102 97 -39 29 
100 -28 118 72 101 

-106 -13 118 -68 65 
101 35 36 34 -5 
-47 -42 51 -8 9 
16 -29 -62 117 91 
94 106 -24 -70 -51 

-65 -92 -42 115 -100 
50 -104 70 81 41 
103 -104 16 -41 71 
-91 -41 -27 30 8 
78 -1 28 -122 118 

21 62 99 -76 -70 
53 119 14 27 -101 
79 29 107 -33 95 
-34 -54 -70 92 -6 
103 105 125 -48 -20 

47 110 13 -72 54 
88 -4 -109 23 -28 
97 43 -100 -77 -122 
25 -85 -97 66 95 
51 -50 -80 -14 -118 

10 33 125 -116 -88 
-36 -73 -12 119 45 
122 64 -39 82 121 
-82 14 -75 -24 -30 
13 36 -90 -21 24 

50 -70 -103 -81 -54 
15 -5 -22 -126 103 
-127 -34 -89 -81 88 
69 96 14 15 -107 
-6 -80 43 -112 -55 


48 -52 5 -9 -45 
79 49 75 -80 124 
-96 -81 101 113 119 
76 -100 41 -31 -15 
91 16 -9 11 40 

-106 74 -112 -119 20 
3 -8 -101 55 2 
6 -29 -81 -76 108 
106 102 97 -39 29 
100 -28 118 72 101 

-106 -13 118 -68 65 
101 35 36 34 -5 
-47 -42 51 -8 9 
16 -29 -62 117 91 
94 106 -24 -70 -51 

-65 -92 -42 115 -100 
50 -104 70 81 41 
103 -104 16 -41 71 
-91 -41 -27 30 8 
78 -1 28 -122 118 

21 62 99 -76 -70 
53 119 14 27 -101 
79 29 107 -33 95 
-34 -54 -70 92 -6 
103 105 125 -48 -20 

47 110 13 -72 54 
88 -4 -109 23 -28 
97 43 -100 -77 -122 
25 -85 -97 66 95 
51 -50 -80 -14 -118 

10 33 125 -116 -88 
-36 -73 -12 119 45 
122 64 -39 82 121 
-82 14 -75 -24 -30 
13 36 -90 -21 24 

50 -70 -103 -81 -54 
15 -5 -22 -126 103 
-127 -34 -89 -81 88 
69 96 14 15 -107 
-6 -80 43 -112 -55 


48 -52 5 -9 -45 
79 49 75 -80 124 
-96 -81 101 113 119 
76 -100 41 -31 -15 
91 16 -9 11 40 

-106 74 -112 -119 20 
3 -8 -101 55 2 
6 -29 -81 -76 108 
106 102 97 -39 29 
100 -28 118 72 101 

-106 -13 118 -68 65 
101 35 36 34 -5 
-47 -42 51 -8 9 
16 -29 -62 117 91 
94 106 -24 -70 -51 

-65 -92 -42 115 -100 
50 -104 70 81 41 
103 -104 16 -41 71 
-91 -41 -27 30 8 
78 -1 28 -122 118 

21 62 99 -76 -70 
53 119 14 27 -101 
79 29 107 -33 95 
-34 -54 -70 92 -6 
103 105 125 -48 -20 

47 110 13 -72 54 
88 -4 -109 23 -28 
97 43 -100 -77 -122 
25 -85 -97 66 95 
51 -50 -80 -14 -118 

10 33 125 -116 -88 
-36 -73 -12 119 45 
122 64 -39 82 121 
-82 14 -75 -24 -30 
13 36 -90 -21 24 

50 -70 -103 -81 -54 
15 -5 -22 -126 103 
-127 -34 -89 -81 88 
69 96 14 15 -107 
-6 -80 43 -112 -55 



48 -52 5 -9 -45 
79 49 75 -80 124 
-96 -81 101 113 119 
76 -100 41 -31 -15 
91 16 -9 11 40 

-106 74 -112 -119 20 
3 -8 -101 55 2 
6 -29 -81 -76 108 
106 102 97 -39 29 
100 -28 118 72 101 

-106 -13 118 -68 65 
101 35 36 34 -5 
-47 -42 51 -8 9 
16 -29 -62 117 91 
94 106 -24 -70 -51 

-65 -92 -42 115 -100 
50 -104 70 81 41 
103 -104 16 -41 71 
-91 -41 -27 30 8 
78 -1 28 -122 118 

21 62 99 -76 -70 
53 119 14 27 -101 
79 29 107 -33 95 
-34 -54 -70 92 -6 
103 105 125 -48 -20 

47 110 13 -72 54 
88 -4 -109 23 -28 
97 43 -100 -77 -122 
25 -85 -97 66 95 
51 -50 -80 -14 -118 

10 33 125 -116 -88 
-36 -73 -12 119 45 
122 64 -39 82 121 
-82 14 -75 -24 -30 
13 36 -90 -21 24 

50 -70 -103 -81 -54 
15 -5 -22 -126 103 
-127 -34 -89 -81 88 
69 96 14 15 -107 
-6 -80 43 -112 -55 


48 -52 5 -9 -45 
79 49 75 -80 124 
-96 -81 101 113 119 
76 -100 41 -31 -15 
91 16 -9 11 40 

-106 74 -112 -119 20 
3 -8 -101 55 2 
6 -29 -81 -76 108 
106 102 97 -39 29 
100 -28 118 72 101 

-106 -13 118 -68 65 
101 35 36 34 -5 
-47 -42 51 -8 9 
16 -29 -62 117 91 
94 106 -24 -70 -51 

-65 -92 -42 115 -100 
50 -104 70 81 41 
103 -104 16 -41 71 
-91 -41 -27 30 8 
78 -1 28 -122 118 

21 62 99 -76 -70 
53 119 14 27 -101 
79 29 107 -33 95 
-34 -54 -70 92 -6 
103 105 125 -48 -20 

47 110 13 -72 54 
88 -4 -109 23 -28 
97 43 -100 -77 -122 
25 -85 -97 66 95 
51 -50 -80 -14 -118 

10 33 125 -116 -88 
-36 -73 -12 119 45 
122 64 -39 82 121 
-82 14 -75 -24 -30 
13 36 -90 -21 24 

50 -70 -103 -81 -54 
15 -5 -22 -126 103 
-127 -34 -89 -81 88 
69 96 14 15 -107 
-6 -80 43 -112 -55 


48 -52 5 -9 -45 
79 49 75 -80 124 
-96 -81 101 113 119 
76 -100 41 -31 -15 
91 16 -9 11 40 

-106 74 -112 -119 20 
3 -8 -101 55 2 
6 -29 -81 -76 108 
106 102 97 -39 29 
100 -28 118 72 101 

-106 -13 118 -68 65 
101 35 36 34 -5 
-47 -42 51 -8 9 
16 -29 -62 117 91 
94 106 -24 -70 -51 

-65 -92 -42 115 -100 
50 -104 70 81 41 
103 -104 16 -41 71 
-91 -41 -27 30 8 
78 -1 28 -122 118 

21 62 99 -76 -70 
53 119 14 27 -101 
79 29 107 -33 95 
-34 -54 -70 92 -6 
103 105 125 -48 -20 

47 110 13 -72 54 
88 -4 -109 23 -28 
97 43 -100 -77 -122 
25 -85 -97 66 95 
51 -50 -80 -14 -118 

10 33 125 -116 -88 
-36 -73 -12 119 45 
122 64 -39 82 121 
-82 14 -75 -24 -30 
13 36 -90 -21 24 

50 -70 -103 -81 -54 
15 -5 -22 -126 103 
-127 -34 -89 -81 88 
69 96 14 15 -107 
-6 -80 43 -112 -55 


48 -52 5 -9 -45 
79 49 75 -80 124 
-96 -81 101 113 119 
76 -100 41 -31 -15 
91 16 -9 11 40 

-106 74 -112 -119 20 
3 -8 -101 55 2 
6 -29 -81 -76 108 
106 102 97 -39 29 
100 -28 118 72 101 

-106 -13 118 -68 65 
101 35 36 34 -5 
-47 -42 51 -8 9 
16 -29 -62 117 91 
94 106 -24 -70 -51 

-65 -92 -42 115 -100 
50 -104 70 81 41 
103 -104 16 -41 71 
-91 -41 -27 30 8 
78 -1 28 -122 118 

21 62 99 -76 -70 
53 119 14 27 -101 
79 29 107 -33 95 
-34 -54 -70 92 -6 
103 105 125 -48 -20 

47 110 13 -72 54 
88 -4 -109 23 -28 
97 43 -100 -77 -122 
25 -85 -97 66 95 
51 -50 -80 -14 -118 

10 33 125 -116 -88 
-36 -73 -12 119 45 
122 64 -39 82 121 
-82 14 -75 -24 -30 
13 36 -90 -21 24 

50 -70 -103 -81 -54 
15 -5 -22 -126 103 
-127 -34 -89 -81 88 
69 96 14 15 -107 
-6 -80 43 -112 -55 



48 -52 5 -9 -45 
79 49 75 -80 124 
-96 -81 101 113 119 
76 -100 41 -31 -15 
91 16 -9 11 40 

-106 74 -112 -119 20 
3 -8 -101 55 2 
6 -29 -81 -76 108 
106 102 97 -39 29 
100 -28 118 72 101 

-106 -13 118 -68 65 
101 35 36 34 -5 
-47 -42 51 -8 9 
16 -29 -62 117 91 
94 106 -24 -70 -51 

-65 -92 -42 115 -100 
50 -104 70 81 41 
103 -104 16 -41 71 
-91 -41 -27 30 8 
78 -1 28 -122 118 

21 62 99 -76 -70 
53 119 14 27 -101 
79 29 107 -33 95 
-34 -54 -70 92 -6 
103 105 125 -48 -20 

47 110 13 -72 54 
88 -4 -109 23 -28 
97 43 -100 -77 -122 
25 -85 -97 66 95 
51 -50 -80 -14 -118 

10 33 125 -116 -88 
-36 -73 -12 119 45 
122 64 -39 82 121 
-82 14 -75 -24 -30 
13 36 -90 -21 24 

50 -70 -103 -81 -54 
15 -5 -22 -126 103 
-127 -34 -89 -81 88 
69 96 14 15 -107 
-6 -80 43 -112 -55 


48 -52 5 -9 -45 
79 49 75 -80 124 
-96 -81 101 113 119 
76 -100 41 -31 -15 
91 16 -9 11 40 

-106 74 -112 -119 20 
3 -8 -101 55 2 
6 -29 -81 -76 108 
106 102 97 -39 29 
100 -28 118 72 101 

-106 -13 118 -68 65 
101 35 36 34 -5 
-47 -42 51 -8 9 
16 -29 -62 117 91 
94 106 -24 -70 -51 

-65 -92 -42 115 -100 
50 -104 70 81 41 
103 -104 16 -41 71 
-91 -41 -27 30 8 
78 -1 28 -122 118 

21 62 99 -76 -70 
53 119 14 27 -101 
79 29 107 -33 95 
-34 -54 -70 92 -6 
103 105 125 -48 -20 

47 110 13 -72 54 
88 -4 -109 23 -28 
97 43 -100 -77 -122 
25 -85 -97 66 95 
51 -50 -80 -14 -118 

10 33 125 -116 -88 
-36 -73 -12 119 45 
122 64 -39 82 121 
-82 14 -75 -24 -30 
13 36 -90 -21 24 

50 -70 -103 -81 -54 
15 -5 -22 -126 103 
-127 -34 -89 -81 88 
69 96 14 15 -107 
-6 -80 43 -112 -55 


48 -52 5 -9 -45 
79 49 75 -80 124 
-96 -81 101 113 119 
76 -100 41 -31 -15 
91 16 -9 11 40 

-106 74 -112 -119 20 
3 -8 -101 55 2 
6 -29 -81 -76 108 
106 102 97 -39 29 
100 -28 118 72 101 

-106 -13 118 -68 65 
101 35 36 34 -5 
-47 -42 51 -8 9 
16 -29 -62 117 91 
94 106 -24 -70 -51 

-65 -92 -42 115 -100 
50 -104 70 81 41 
103 -104 16 -41 71 
-91 -41 -27 30 8 
78 -1 28 -122 118 

21 62 99 -76 -70 
53 119 14 27 -101 
79 29 107 -33 95 
-34 -54 -70 92 -6 
103 105 125 -48 -20 

47 110 13 -72 54 
88 -4 -109 23 -28 
97 43 -100 -77 -122 
25 -85 -97 66 95 
51 -50 -80 -14 -118 

10 33 125 -116 -88 
-36 -73 -12 119 45 
122 64 -39 82 121 
-82 14 -75 -24 -30 
13 36 -90 -21 24 

50 -70 -103 -81 -54 
15 -5 -22 -126 103 
-127 -34 -89 -81 88 
69 96 14 15 -107 
-6 -80 43 -112 -55 


48 -52 5 -9 -45 
79 49 75 -80 124 
-96 -81 101 113 119 
76 -100 41 -31 -15 
91 16 -9 11 40 

-106 74 -112 -119 20 
3 -8 -101 55 2 
6 -29 -81 -76 108 
106 102 97 -39 29 
100 -28 118 72 101 

-106 -13 118 -68 65 
101 35 36 34 -5 
-47 -42 51 -8 9 
16 -29 -62 117 91 
94 106 -24 -70 -51 

-65 -92 -42 115 -100 
50 -104 70 81 41 
103 -104 16 -41 71 
-91 -41 -27 30 8 
78 -1 28 -122 118 

21 62 99 -76 -70 
53 119 14 27 -101 
79 29 107 -33 95 
-34 -54 -70 92 -6 
103 105 125 -48 -20 

47 110 13 -72 54 
88 -4 -109 23 -28 
97 43 -100 -77 -122 
25 -85 -97 66 95 
51 -50 -80 -14 -118 

10 33 125 -116 -88 
-36 -73 -12 119 45 
122 64 -39 82 121 
-82 14 -75 -24 -30 
13 36 -90 -21 24 

50 -70 -103 -81 -54 
15 -5 -22 -126 103 
-127 -34 -89 -81 88 
69 96 14 15 -107 
-6 -80 43 -112 -55 



48 -52 5 -9 -45 
79 49 75 -80 124 
-96 -81 101 113 119 
76 -100 41 -31 -15 
91 16 -9 11 40 

-106 74 -112 -119 20 
3 -8 -101 55 2 
6 -29 -81 -76 108 
106 102 97 -39 29 
100 -28 118 72 101 

-106 -13 118 -68 65 
101 35 36 34 -5 
-47 -42 51 -8 9 
16 -29 -62 117 91 
94 106 -24 -70 -51 

-65 -92 -42 115 -100 
50 -104 70 81 41 
103 -104 16 -41 71 
-91 -41 -27 30 8 
78 -1 28 -122 118 

21 62 99 -76 -70 
53 119 14 27 -101 
79 29 107 -33 95 
-34 -54 -70 92 -6 
103 105 125 -48 -20 

47 110 13 -72 54 
88 -4 -109 23 -28 
97 43 -100 -77 -122 
25 -85 -97 66 95 
51 -50 -80 -14 -118 

10 33 125 -116 -88 
-36 -73 -12 119 45 
122 64 -39 82 121 
-82 14 -75 -24 -30 
13 36 -90 -21 24 

50 -70 -103 -81 -54 
15 -5 -22 -126 103 
-127 -34 -89 -81 88 
69 96 14 15 -107 
-6 -80 43 -112 -55 


48 -52 5 -9 -45 
79 49 75 -80 124 
-96 -81 101 113 119 
76 -100 41 -31 -15 
91 16 -9 11 40 

-106 74 -112 -119 20 
3 -8 -101 55 2 
6 -29 -81 -76 108 
106 102 97 -39 29 
100 -28 118 72 101 

-106 -13 118 -68 65 
101 35 36 34 -5 
-47 -42 51 -8 9 
16 -29 -62 117 91 
94 106 -24 -70 -51 

-65 -92 -42 115 -100 
50 -104 70 81 41 
103 -104 16 -41 71 
-91 -41 -27 30 8 
78 -1 28 -122 118 

21 62 99 -76 -70 
53 119 14 27 -101 
79 29 107 -33 95 
-34 -54 -70 92 -6 
103 105 125 -48 -20 

47 110 13 -72 54 
88 -4 -109 23 -28 
97 43 -100 -77 -122 
25 -85 -97 66 95 
51 -50 -80 -14 -118 

10 33 125 -116 -88 
-36 -73 -12 119 45 
122 64 -39 82 121 
-82 14 -75 -24 -30 
13 36 -90 -21 24 

50 -70 -103 -81 -54 
15 -5 -22 -126 103 
-127 -34 -89 -81 88 
69 96 14 15 -107 
-6 -80 43 -112 -55 


48 -52 5 -9 -45 
79 49 75 -80 124 
-96 -81 101 113 119 
76 -100 41 -31 -15 
91 16 -9 11 40 

-106 74 -112 -119 20 
3 -8 -101 55 2 
6 -29 -81 -76 108 
106 102 97 -39 29 
100 -28 118 72 101 

-106 -13 118 -68 65 
101 35 36 34 -5 
-47 -42 51 -8 9 
16 -29 -62 117 91 
94 106 -24 -70 -51 

-65 -92 -42 115 -100 
50 -104 70 81 41 
103 -104 16 -41 71 
-91 -41 -27 30 8 
78 -1 28 -122 118 

21 62 99 -76 -70 
53 119 14 27 -101 
79 29 107 -33 95 
-34 -54 -70 92 -6 
103 105 125 -48 -20 

47 110 13 -72 54 
88 -4 -109 23 -28 
97 43 -100 -77 -122 
25 -85 -97 66 95 
51 -50 -80 -14 -118 

10 33 125 -116 -88 
-36 -73 -12 119 45 
122 64 -39 82 121 
-82 14 -75 -24 -30 
13 36 -90 -21 24 

50 -70 -103 -81 -54 
15 -5 -22 -126 103 
-127 -34 -89 -81 88 
69 96 14 15 -107 
-6 -80 43 -112 -55 


48 -52 5 -9 -45 
79 49 75 -80 124 
-96 -81 101 113 119 
76 -100 41 -31 -15 
91 16 -9 11 40 

-106 74 -112 -119 20 
3 -8 -101 55 2 
6 -29 -81 -76 108 
106 102 97 -39 29 
100 -28 118 72 101 

-106 -13 118 -68 65 
101 35 36 34 -5 
-47 -42 51 -8 9 
16 -29 -62 117 91 
94 106 -24 -70 -51 

-65 -92 -42 115 -100 
50 -104 70 81 41 
103 -104 16 -41 71 
-91 -41 -27 30 8 
78 -1 28 -122 118 

21 62 99 -76 -70 
53 119 14 27 -101 
79 29 107 -33 95 
-34 -54 -70 92 -6 
103 105 125 -48 -20 

47 110 13 -72 54 
88 -4 -109 23 -28 
97 43 -100 -77 -122 
25 -85 -97 66 95 
51 -50 -80 -14 -118 

10 33 125 -116 -88 
-36 -73 -12 119 45 
122 64 -39 82 121 
-82 14 -75 -24 -30 
13 36 -90 -21 24 

50 -70 -103 -81 -54 
15 -5 -22 -126 103 
-127 -34 -89 -81 88 
69 96 14 15 -107 
-6 -80 43 -112 -55 



48 -52 5 -9 -45 
79 49 75 -80 124 
-96 -81 101 113 119 
76 -100 41 -31 -15 
91 16 -9 11 40 

-106 74 -112 -119 20 
3 -8 -101 55 2 
6 -29 -81 -76 108 
106 102 97 -39 29 
100 -28 118 72 101 

-106 -13 118 -68 65 
101 35 36 34 -5 
-47 -42 51 -8 9 
16 -29 -62 117 91 
94 106 -24 -70 -51 

-65 -92 -42 115 -100 
50 -104 70 81 41 
103 -104 16 -41 71 
-91 -41 -27 30 8 
78 -1 28 -122 118 

21 62 99 -76 -70 
53 119 14 27 -101 
79 29 107 -33 95 
-34 -54 -70 92 -6 
103 105 125 -48 -20 

47 110 13 -72 54 
88 -4 -109 23 -28 
97 43 -100 -77 -122 
25 -85 -97 66 95 
51 -50 -80 -14 -118 

10 33 125 -116 -88 
-36 -73 -12 119 45 
122 64 -39 82 121 
-82 14 -75 -24 -30 
13 36 -90 -21 24 

50 -70 -103 -81 -54 
15 -5 -22 -126 103 
-127 -34 -89 -81 88 
69 96 14 15 -107 
-6 -80 43 -112 -55 


48 -52 5 -9 -45 
79 49 75 -80 124 
-96 -81 101 113 119 
76 -100 41 -31 -15 
91 16 -9 11 40 

-106 74 -112 -119 20 
3 -8 -101 55 2 
6 -29 -81 -76 108 
106 102 97 -39 29 
100 -28 118 72 101 

-106 -13 118 -68 65 
101 35 36 34 -5 
-47 -42 51 -8 9 
16 -29 -62 117 91 
94 106 -24 -70 -51 

-65 -92 -42 115 -100 
50 -104 70 81 41 
103 -104 16 -41 71 
-91 -41 -27 30 8 
78 -1 28 -122 118 

21 62 99 -76 -70 
53 119 14 27 -101 
79 29 107 -33 95 
-34 -54 -70 92 -6 
103 105 125 -48 -20 

47 110 13 -72 54 
88 -4 -109 23 -28 
97 43 -100 -77 -122 
25 -85 -97 66 95 
51 -50 -80 -14 -118 

10 33 125 -116 -88 
-36 -73 -12 119 45 
122 64 -39 82 121 
-82 14 -75 -24 -30 
13 36 -90 -21 24 

50 -70 -103 -81 -54 
15 -5 -22 -126 103 
-127 -34 -89 -81 88 
69 96 14 15 -107 
-6 -80 43 -112 -55 


48 -52 5 -9 -45 
79 49 75 -80 124 
-96 -81 101 113 119 
76 -100 41 -31 -15 
91 16 -9 11 40 

-106 74 -112 -119 20 
3 -8 -101 55 2 
6 -29 -81 -76 108 
106 102 97 -39 29 
100 -28 118 72 101 

-106 -13 118 -68 65 
101 35 36 34 -5 
-47 -42 51 -8 9 
16 -29 -62 117 91 
94 106 -24 -70 -51 

-65 -92 -42 115 -100 
50 -104 70 81 41 
103 -104 16 -41 71 
-91 -41 -27 30 8 
78 -1 28 -122 118 

21 62 99 -76 -70 
53 119 14 27 -101 
79 29 107 -33 95 
-34 -54 -70 92 -6 
103 105 125 -48 -20 

47 110 13 -72 54 
88 -4 -109 23 -28 
97 43 -100 -77 -122 
25 -85 -97 66 95 
51 -50 -80 -14 -118 

10 33 125 -116 -88 
-36 -73 -12 119 45 
122 64 -39 82 121 
-82 14 -75 -24 -30 
13 36 -90 -21 24 

50 -70 -103 -81 -54 
15 -5 -22 -126 103 
-127 -34 -89 -81 88 
69 96 14 15 -107 
-6 -80 43 -112 -55 


48 -52 5 -9 -45 
79 49 75 -80 124 
-96 -81 101 113 119 
76 -100 41 -31 -15 
91 16 -9 11 40 

-106 74 -112 -119 20 
3 -8 -101 55 2 
6 -29 -81 -76 108 
106 102 97 -39 29 
100 -28 118 72 101 

-106 -13 118 -68 65 
101 35 36 34 -5 
-47 -42 51 -8 9 
16 -29 -62 117 91 
94 106 -24 -70 -51 

-65 -92 -42 115 -100 
50 -104 70 81 41 
103 -104 16 -41 71 
-91 -41 -27 30 8 
78 -1 28 -122 118 

21 62 99 -76 -70 
53 119 14 27 -101 
79 29 107 -33 95 
-34 -54 -70 92 -6 
103 105 125 -48 -20 

47 110 13 -72 54 
88 -4 -109 23 -28 
97 43 -100 -77 -122 
25 -85 -97 66 95 
51 -50 -80 -14 -118 

10 33 125 -116 -88 
-36 -73 -12 119 45 
122 64 -39 82 121 
-82 14 -75 -24 -30 
13 36 -90 -21 24 

50 -70 -103 -81 -54 
15 -5 -22 -126 103 
-127 -34 -89 -81 88 
69 96 14 15 -107 
-6 -80 43 -112 -55 



48 -52 5 -9 -45 
79 49 75 -80 124 
-96 -81 101 113 119 
76 -100 41 -31 -15 
91 16 -9 11 40 

-106 74 -112 -119 20 
3 -8 -101 55 2 
6 -29 -81 -76 108 
106 102 97 -39 29 
100 -28 118 72 101 

-106 -13 118 -68 65 
101 35 36 34 -5 
-47 -42 51 -8 9 
16 -29 -62 117 91 
94 106 -24 -70 -51 

-65 -92 -42 115 -100 
50 -104 70 81 41 
103 -104 16 -41 71 
-91 -41 -27 30 8 
78 -1 28 -122 118 

21 62 99 -76 -70 
53 119 14 27 -101 
79 29 107 -33 95 
-34 -54 -70 92 -6 
103 105 125 -48 -20 

47 110 13 -72 54 
88 -4 -109 23 -28 
97 43 -100 -77 -122 
25 -85 -97 66 95 
51 -50 -80 -14 -118 

10 33 125 -116 -88 
-36 -73 -12 119 45 
122 64 -39 82 121 
-82 14 -75 -24 -30 
13 36 -90 -21 24 

50 -70 -103 -81 -54 
15 -5 -22 -126 103 
-127 -34 -89 -81 88 
69 96 14 15 -107 
-6 -80 43 -112 -55 


48 -52 5 -9 -45 
79 49 75 -80 124 
-96 -81 101 113 119 
76 -100 41 -31 -15 
91 16 -9 11 40 

-106 74 -112 -119 20 
3 -8 -101 55 2 
6 -29 -81 -76 108 
106 102 97 -39 29 
100 -28 118 72 101 

-106 -13 118 -68 65 
101 35 36 34 -5 
-47 -42 51 -8 9 
16 -29 -62 117 91 
94 106 -24 -70 -51 

-65 -92 -42 115 -100 
50 -104 70 81 41 
103 -104 16 -41 71 
-91 -41 -27 30 8 
78 -1 28 -122 118 

21 62 99 -76 -70 
53 119 14 27 -101 
79 29 107 -33 95 
-34 -54 -70 92 -6 
103 105 125 -48 -20 

47 110 13 -72 54 
88 -4 -109 23 -28 
97 43 -100 -77 -122 
25 -85 -97 66 95 
51 -50 -80 -14 -118 

10 33 125 -116 -88 
-36 -73 -12 119 45 
122 64 -39 82 121 
-82 14 -75 -24 -30 
13 36 -90 -21 24 

50 -70 -103 -81 -54 
15 -5 -22 -126 103 
-127 -34 -89 -81 88 
69 96 14 15 -107 
-6 -80 43 -112 -55 


48 -52 5 -9 -45 
79 49 75 -80 124 
-96 -81 101 113 119 
76 -100 41 -31 -15 
91 16 -9 11 40 

-106 74 -112 -119 20 
3 -8 -101 55 2 
6 -29 -81 -76 108 
106 102 97 -39 29 
100 -28 118 72 101 

-106 -13 118 -68 65 
101 35 36 34 -5 
-47 -42 51 -8 9 
16 -29 -62 117 91 
94 106 -24 -70 -51 

-65 -92 -42 115 -100 
50 -104 70 81 41 
103 -104 16 -41 71 
-91 -41 -27 30 8 
78 -1 28 -122 118 

21 62 99 -76 -70 
53 119 14 27 -101 
79 29 107 -33 95 
-34 -54 -70 92 -6 
103 105 125 -48 -20 

47 110 13 -72 54 
88 -4 -109 23 -28 
97 43 -100 -77 -122 
25 -85 -97 66 95 
51 -50 -80 -14 -118 

10 33 125 -116 -88 
-36 -73 -12 119 45 
122 64 -39 82 121 
-82 14 -75 -24 -30 
13 36 -90 -21 24 

50 -70 -103 -81 -54 
15 -5 -22 -126 103 
-127 -34 -89 -81 88 
69 96 14 15 -107 
-6 -80 43 -112 -55 


48 -52 5 -9 -45 
79 49 75 -80 124 
-96 -81 101 113 119 
76 -100 41 -31 -15 
91 16 -9 11 40 

-106 74 -112 -119 20 
3 -8 -101 55 2 
6 -29 -81 -76 108 
106 102 97 -39 29 
100 -28 118 72 101 

-106 -13 118 -68 65 
101 35 36 34 -5 
-47 -42 51 -8 9 
16 -29 -62 117 91 
94 106 -24 -70 -51 

-65 -92 -42 115 -100 
50 -104 70 81 41 
103 -104 16 -41 71 
-91 -41 -27 30 8 
78 -1 28 -122 118 

21 62 99 -76 -70 
53 119 14 27 -101 
79 29 107 -33 95 
-34 -54 -70 92 -6 
103 105 125 -48 -20 

47 110 13 -72 54 
88 -4 -109 23 -28 
97 43 -100 -77 -122 
25 -85 -97 66 95 
51 -50 -80 -14 -118 

10 33 125 -116 -88 
-36 -73 -12 119 45 
122 64 -39 82 121 
-82 14 -75 -24 -30 
13 36 -90 -21 24 

50 -70 -103 -81 -54 
15 -5 -22 -126 103 
-127 -34 -89 -81 88 
69 96 14 15 -107 
-6 -80 43 -112 -55 



48 -52 5 -9 -45 
79 49 75 -80 124 
-96 -81 101 113 119 
76 -100 41 -31 -15 
91 16 -9 11 40 

-106 74 -112 -119 20 
3 -8 -101 55 2 
6 -29 -81 -76 108 
106 102 97 -39 29 
100 -28 118 72 101 

-106 -13 118 -68 65 
101 35 36 34 -5 
-47 -42 51 -8 9 
16 -29 -62 117 91 
94 106 -24 -70 -51 

-65 -92 -42 115 -100 
50 -104 70 81 41 
103 -104 16 -41 71 
-91 -41 -27 30 8 
78 -1 28 -122 118 

21 62 99 -76 -70 
53 119 14 27 -101 
79 29 107 -33 95 
-34 -54 -70 92 -6 
103 105 125 -48 -20 

47 110 13 -72 54 
88 -4 -109 23 -28 
97 43 -100 -77 -122 
25 -85 -97 66 95 
51 -50 -80 -14 -118 

10 33 125 -116 -88 
-36 -73 -12 119 45 
122 64 -39 82 121 
-82 14 -75 -24 -30 
13 36 -90 -21 24 

50 -70 -103 -81 -54 
15 -5 -22 -126 103 
-127 -34 -89 -81 88 
69 96 14 15 -107 
-6 -80 43 -112 -55 


48 -52 5 -9 -45 
79 49 75 -80 124 
-96 -81 101 113 119 
76 -100 41 -31 -15 
91 16 -9 11 40 

-106 74 -112 -119 20 
3 -8 -101 55 2 
6 -29 -81 -76 108 
106 102 97 -39 29 
100 -28 118 72 101 

-106 -13 118 -68 65 
101 35 36 34 -5 
-47 -42 51 -8 9 
16 -29 -62 117 91 
94 106 -24 -70 -51 

-65 -92 -42 115 -100 
50 -104 70 81 41 
103 -104 16 -41 71 
-91 -41 -27 30 8 
78 -1 28 -122 118 

21 62 99 -76 -70 
53 119 14 27 -101 
79 29 107 -33 95 
-34 -54 -70 92 -6 
103 105 125 -48 -20 

47 110 13 -72 54 
88 -4 -109 23 -28 
97 43 -100 -77 -122 
25 -85 -97 66 95 
51 -50 -80 -14 -118 

10 33 125 -116 -88 
-36 -73 -12 119 45 
122 64 -39 82 121 
-82 14 -75 -24 -30 
13 36 -90 -21 24 

50 -70 -103 -81 -54 
15 -5 -22 -126 103 
-127 -34 -89 -81 88 
69 96 14 15 -107 
-6 -80 43 -112 -55 


48 -52 5 -9 -45 
79 49 75 -80 124 
-96 -81 101 113 119 
76 -100 41 -31 -15 
91 16 -9 11 40 

-106 74 -112 -119 20 
3 -8 -101 55 2 
6 -29 -81 -76 108 
106 102 97 -39 29 
100 -28 118 72 101 

-106 -13 118 -68 65 
101 35 36 34 -5 
-47 -42 51 -8 9 
16 -29 -62 117 91 
94 106 -24 -70 -51 

-65 -92 -42 115 -100 
50 -104 70 81 41 
103 -104 16 -41 71 
-91 -41 -27 30 8 
78 -1 28 -122 118 

21 62 99 -76 -70 
53 119 14 27 -101 
79 29 107 -33 95 
-34 -54 -70 92 -6 
103 105 125 -48 -20 

47 110 13 -72 54 
88 -4 -109 23 -28 
97 43 -100 -77 -122 
25 -85 -97 66 95 
51 -50 -80 -14 -118 

10 33 125 -116 -88 
-36 -73 -12 119 45 
122 64 -39 82 121 
-82 14 -75 -24 -30 
13 36 -90 -21 24 

50 -70 -103 -81 -54 
15 -5 -22 -126 103 
-127 -34 -89 -81 88 
69 96 14 15 -107 
-6 -80 43 -112 -55 


48 -52 5 -9 -45 
79 49 75 -80 124 
-96 -81 101 113 119 
76 -100 41 -31 -15 
91 16 -9 11 40 

-106 74 -112 -119 20 
3 -8 -101 55 2 
6 -29 -81 -76 108 
106 102 97 -39 29 
100 -28 118 72 101 

-106 -13 118 -68 65 
101 35 36 34 -5 
-47 -42 51 -8 9 
16 -29 -62 117 91 
94 106 -24 -70 -51 

-65 -92 -42 115 -100 
50 -104 70 81 41 
103 -104 16 -41 71 
-91 -41 -27 30 8 
78 -1 28 -122 118 

21 62 99 -76 -70 
53 119 14 27 -101 
79 29 107 -33 95 
-34 -54 -70 92 -6 
103 105 125 -48 -20 

47 110 13 -72 54 
88 -4 -109 23 -28 
97 43 -100 -77 -122 
25 -85 -97 66 95 
51 -50 -80 -14 -118 

10 33 125 -116 -88 
-36 -73 -12 119 45 
122 64 -39 82 121 
-82 14 -75 -24 -30 
13 36 -90 -21 24 

50 -70 -103 -81 -54 
15 -5 -22 -126 103 
-127 -34 -89 -81 88 
69 96 14 15 -107 
-6 -80 43 -112 -55 



48 -52 5 -9 -45 
79 49 75 -80 124 
-96 -81 101 113 119 
76 -100 41 -31 -15 
91 16 -9 11 40 

-106 74 -112 -119 20 
3 -8 -101 55 2 
6 -29 -81 -76 108 
106 102 97 -39 29 
100 -28 118 72 101 

-106 -13 118 -68 65 
101 35 36 34 -5 
-47 -42 51 -8 9 
16 -29 -62 117 91 
94 106 -24 -70 -51 

-65 -92 -42 115 -100 
50 -104 70 81 41 
103 -104 16 -41 71 
-91 -41 -27 30 8 
78 -1 28 -122 118 

21 62 99 -76 -70 
53 119 14 27 -101 
79 29 107 -33 95 
-34 -54 -70 92 -6 
103 105 125 -48 -20 

47 110 13 -72 54 
88 -4 -109 23 -28 
97 43 -100 -77 -122 
25 -85 -97 66 95 
51 -50 -80 -14 -118 

10 33 125 -116 -88 
-36 -73 -12 119 45 
122 64 -39 82 121 
-82 14 -75 -24 -30 
13 36 -90 -21 24 

50 -70 -103 -81 -54 
15 -5 -22 -126 103 
-127 -34 -89 -81 88 
69 96 14 15 -107 
-6 -80 43 -112 -55 


48 -52 5 -9 -45 
79 49 75 -80 124 
-96 -81 101 113 119 
76 -100 41 -31 -15 
91 16 -9 11 40 

-106 74 -112 -119 20 
3 -8 -101 55 2 
6 -29 -81 -76 108 
106 102 97 -39 29 
100 -28 118 72 101 

-106 -13 118 -68 65 
101 35 36 34 -5 
-47 -42 51 -8 9 
16 -29 -62 117 91 
94 106 -24 -70 -51 

-65 -92 -42 115 -100 
50 -104 70 81 41 
103 -104 16 -41 71 
-91 -41 -27 30 8 
78 -1 28 -122 118 

21 62 99 -76 -70 
53 119 14 27 -101 
79 29 107 -33 95 
-34 -54 -70 92 -6 
103 105 125 -48 -20 

47 110 13 -72 54 
88 -4 -109 23 -28 
97 43 -100 -77 -122 
25 -85 -97 66 95 
51 -50 -80 -14 -118 

10 33 125 -116 -88 
-36 -73 -12 119 45 
122 64 -39 82 121 
-82 14 -75 -24 -30 
13 36 -90 -21 24 

50 -70 -103 -81 -54 
15 -5 -22 -126 103 
-127 -34 -89 -81 88 
69 96 14 15 -107 
-6 -80 43 -112 -55 


48 -52 5 -9 -45 
79 49 75 -80 124 
-96 -81 101 113 119 
76 -100 41 -31 -15 
91 16 -9 11 40 

-106 74 -112 -119 20 
3 -8 -101 55 2 
6 -29 -81 -76 108 
106 102 97 -39 29 
100 -28 118 72 101 

-106 -13 118 -68 65 
101 35 36 34 -5 
-47 -42 51 -8 9 
16 -29 -62 117 91 
94 106 -24 -70 -51 

-65 -92 -42 115 -100 
50 -104 70 81 41 
103 -104 16 -41 71 
-91 -41 -27 30 8 
78 -1 28 -122 118 

21 62 99 -76 -70 
53 119 14 27 -101 
79 29 107 -33 95 
-34 -54 -70 92 -6 
103 105 125 -48 -20 

47 110 13 -72 54 
88 -4 -109 23 -28 
97 43 -100 -77 -122 
25 -85 -97 66 95 
51 -50 -80 -14 -118 

10 33 125 -116 -88 
-36 -73 -12 119 45 
122 64 -39 82 121 
-82 14 -75 -24 -30 
13 36 -90 -21 24 

50 -70 -103 -81 -54 
15 -5 -22 -126 103 
-127 -34 -89 -81 88 
69 96 14 15 -107 
-6 -80 43 -112 -55 


48 -52 5 -9 -45 
79 49 75 -80 124 
-96 -81 101 113 119 
76 -100 41 -31 -15 
91 16 -9 11 40 

-106 74 -112 -119 20 
3 -8 -101 55 2 
6 -29 -81 -76 108 
106 102 97 -39 29 
100 -28 118 72 101 

-106 -13 118 -68 65 
101 35 36 34 -5 
-47 -42 51 -8 9 
16 -29 -62 117 91 
94 106 -24 -70 -51 

-65 -92 -42 115 -100 
50 -104 70 81 41 
103 -104 16 -41 71 
-91 -41 -27 30 8 
78 -1 28 -122 118 

21 62 99 -76 -70 
53 119 14 27 -101 
79 29 107 -33 95 
-34 -54 -70 92 -6 
103 105 125 -48 -20 

47 110 13 -72 54 
88 -4 -109 23 -28 
97 43 -100 -77 -122 
25 -85 -97 66 95 
51 -50 -80 -14 -118 

10 33 125 -116 -88 
-36 -73 -12 119 45 
122 64 -39 82 121 
-82 14 -75 -24 -30 
13 36 -90 -21 24 

50 -70 -103 -81 -54 
15 -5 -22 -126 103 
-127 -34 -89 -81 88 
69 96 14 15 -107 
-6 -80 43 -112 -55 




106 93 -20 61 100 
80 -43 -81 28 79 
19 -25 -18 -51 73 
-127 -33 -49 -92 43 
92 -65 101 -57 98 

61 91 47 123 -33 
55 -30 -65 25 113 
-69 -86 -40 -9 14 
-20 78 -26 94 36 
-128 0 -123 -93 -69 

85 -66 14 -10 -88 
122 65 46 118 84 
-97 -76 -23 -18 88 
-84 -77 -1 -85 61 
-119 94 -57 111 -2 

-76 21 -74 31 -96 
-99 48 -95 4 -61 
-105 28 68 -79 39 
-83 -87 12 6 -32 
115 -3 26 -40 81 

91 -23 -122 -44 -111 
-101 -70 -92 -5 -82 
43 -28 -26 -102 -53 
-67 24 -93 -76 -64 
-74 -114 49 -93 3 

-65 69 80 -122 -96 
26 54 7 -69 6 
-37 -2 -109 3 -16 
-102 101 -90 39 -51 
-104 -91 -30 -11 66 

-127 -5 118 1 27 
27 108 122 -68 -17 
-95 99 -5 46 5 
-9 -97 123 1 83 
81 68 15 127 -69 

-105 -105 -11 -68 60 
-78 17 -50 63 56 
-36 85 44 60 108 
-18 111 14 -59 29 
-52 99 6 -95 102 


106 93 -20 61 100 
80 -43 -81 28 79 
19 -25 -18 -51 73 
-127 -33 -49 -92 43 
92 -65 101 -57 98 

61 91 47 123 -33 
55 -30 -65 25 113 
-69 -86 -40 -9 14 
-20 78 -26 94 36 
-128 0 -123 -93 -69 

85 -66 14 -10 -88 
122 65 46 118 84 
-97 -76 -23 -18 88 
-84 -77 -1 -85 61 
-119 94 -57 111 -2 

-76 21 -74 31 -96 
-99 48 -95 4 -61 
-105 28 68 -79 39 
-83 -87 12 6 -32 
115 -3 26 -40 81 

91 -23 -122 -44 -111 
-101 -70 -92 -5 -82 
43 -28 -26 -102 -53 
-67 24 -93 -76 -64 
-74 -114 49 -93 3 

-65 69 80 -122 -96 
26 54 7 -69 6 
-37 -2 -109 3 -16 
-102 101 -90 39 -51 
-104 -91 -30 -11 66 

-127 -5 118 1 27 
27 108 122 -68 -17 
-95 99 -5 46 5 
-9 -97 123 1 83 
81 68 15 127 -69 

-105 -105 -11 -68 60 
-78 17 -50 63 56 
-36 85 44 60 108 
-18 111 14 -59 29 
-52 99 6 -95 102 


106 93 -20 61 100 
80 -43 -81 28 79 
19 -25 -18 -51 73 
-127 -33 -49 -92 43 
92 -65 101 -57 98 

61 91 47 123 -33 
55 -30 -65 25 113 
-69 -86 -40 -9 14 
-20 78 -26 94 36 
-128 0 -123 -93 -69 

85 -66 14 -10 -88 
122 65 46 118 84 
-97 -76 -23 -18 88 
-84 -77 -1 -85 61 
-119 94 -57 111 -2 

-76 21 -74 31 -96 
-99 48 -95 4 -61 
-105 28 68 -79 39 
-83 -87 12 6 -32 
115 -3 26 -40 81 

91 -23 -122 -44 -111 
-101 -70 -92 -5 -82 
43 -28 -26 -102 -53 
-67 24 -93 -76 -64 
-74 -114 49 -93 3 

-65 69 80 -122 -96 
26 54 7 -69 6 
-37 -2 -109 3 -16 
-102 101 -90 39 -51 
-104 -91 -30 -11 66 

-127 -5 118 1 27 
27 108 122 -68 -17 
-95 99 -5 46 5 
-9 -97 123 1 83 
81 68 15 127 -69 

-105 -105 -11 -68 60 
-78 17 -50 63 56 
-36 85 44 60 108 
-18 111 14 -59 29 
-52 99 6 -95 102 


106 93 -20 61 100 
80 -43 -81 28 79 
19 -25 -18 -51 73 
-127 -33 -49 -92 43 
92 -65 101 -57 98 

61 91 47 123 -33 
55 -30 -65 25 113 
-69 -86 -40 -9 14 
-20 78 -26 94 36 
-128 0 -123 -93 -69 

85 -66 14 -10 -88 
122 65 46 118 84 
-97 -76 -23 -18 88 
-84 -77 -1 -85 61 
-119 94 -57 111 -2 

-76 21 -74 31 -96 
-99 48 -95 4 -61 
-105 28 68 -79 39 
-83 -87 12 6 -32 
115 -3 26 -40 81 

91 -23 -122 -44 -111 
-101 -70 -92 -5 -82 
43 -28 -26 -102 -53 
-67 24 -93 -76 -64 
-74 -114 49 -93 3 

-65 69 80 -122 -96 
26 54 7 -69 6 
-37 -2 -109 3 -16 
-102 101 -90 39 -51 
-104 -91 -30 -11 66 

-127 -5 118 1 27 
27 108 122 -68 -17 
-95 99 -5 46 5 
-9 -97 123 1 83 
81 68 15 127 -69 

-105 -105 -11 -68 60 
-78 17 -50 63 56 
-36 85 44 60 108 
-18 111 14 -59 29 
-52 99 6 -95 102 



106 93 -20 61 100 
80 -43 -81 28 79 
19 -25 -18 -51 73 
-127 -33 -49 -92 43 
92 -65 101 -57 98 

61 91 47 123 -33 
55 -30 -65 25 113 
-69 -86 -40 -9 14 
-20 78 -26 94 36 
-128 0 -123 -93 -69 

85 -66 14 -10 -88 
122 65 46 118 84 
-97 -76 -23 -18 88 
-84 -77 -1 -85 61 
-119 94 -57 111 -2 

-76 21 -74 31 -96 
-99 48 -95 4 -61 
-105 28 68 -79 39 
-83 -87 12 6 -32 
115 -3 26 -40 81 

91 -23 -122 -44 -111 
-101 -70 -92 -5 -82 
43 -28 -26 -102 -53 
-67 24 -93 -76 -64 
-74 -114 49 -93 3 

-65 69 80 -122 -96 
26 54 7 -69 6 
-37 -2 -109 3 -16 
-102 101 -90 39 -51 
-104 -91 -30 -11 66 

-127 -5 118 1 27 
27 108 122 -68 -17 
-95 99 -5 46 5 
-9 -97 123 1 83 
81 68 15 127 -69 

-105 -105 -11 -68 60 
-78 17 -50 63 56 
-36 85 44 60 108 
-18 111 14 -59 29 
-52 99 6 -95 102 


106 93 -20 61 100 
80 -43 -81 28 79 
19 -25 -18 -51 73 
-127 -33 -49 -92 43 
92 -65 101 -57 98 

61 91 47 123 -33 
55 -30 -65 25 113 
-69 -86 -40 -9 14 
-20 78 -26 94 36 
-128 0 -123 -93 -69 

85 -66 14 -10 -88 
122 65 46 118 84 
-97 -76 -23 -18 88 
-84 -77 -1 -85 61 
-119 94 -57 111 -2 

-76 21 -74 31 -96 
-99 48 -95 4 -61 
-105 28 68 -79 39 
-83 -87 12 6 -32 
115 -3 26 -40 81 

91 -23 -122 -44 -111 
-101 -70 -92 -5 -82 
43 -28 -26 -102 -53 
-67 24 -93 -76 -64 
-74 -114 49 -93 3 

-65 69 80 -122 -96 
26 54 7 -69 6 
-37 -2 -109 3 -16 
-102 101 -90 39 -51 
-104 -91 -30 -11 66 

-127 -5 118 1 27 
27 108 122 -68 -17 
-95 99 -5 46 5 
-9 -97 123 1 83 
81 68 15 127 -69 

-105 -105 -11 -68 60 
-78 17 -50 63 56 
-36 85 44 60 108 
-18 111 14 -59 29 
-52 99 6 -95 102 


106 93 -20 61 100 
80 -43 -81 28 79 
19 -25 -18 -51 73 
-127 -33 -49 -92 43 
92 -65 101 -57 98 

61 91 47 123 -33 
55 -30 -65 25 113 
-69 -86 -40 -9 14 
-20 78 -26 94 36 
-128 0 -123 -93 -69 

85 -66 14 -10 -88 
122 65 46 118 84 
-97 -76 -23 -18 88 
-84 -77 -1 -85 61 
-119 94 -57 111 -2 

-76 21 -74 31 -96 
-99 48 -95 4 -61 
-105 28 68 -79 39 
-83 -87 12 6 -32 
115 -3 26 -40 81 

91 -23 -122 -44 -111 
-101 -70 -92 -5 -82 
43 -28 -26 -102 -53 
-67 24 -93 -76 -64 
-74 -114 49 -93 3 

-65 69 80 -122 -96 
26 54 7 -69 6 
-37 -2 -109 3 -16 
-102 101 -90 39 -51 
-104 -91 -30 -11 66 

-127 -5 118 1 27 
27 108 122 -68 -17 
-95 99 -5 46 5 
-9 -97 123 1 83 
81 68 15 127 -69 

-105 -105 -11 -68 60 
-78 17 -50 63 56 
-36 85 44 60 108 
-18 111 14 -59 29 
-52 99 6 -95 102 


106 93 -20 61 100 
80 -43 -81 28 79 
19 -25 -18 -51 73 
-127 -33 -49 -92 43 
92 -65 101 -57 98 

61 91 47 123 -33 
55 -30 -65 25 113 
-69 -86 -40 -9 14 
-20 78 -26 94 36 
-128 0 -123 -93 -69 

85 -66 14 -10 -88 
122 65 46 118 84 
-97 -76 -23 -18 88 
-84 -77 -1 -85 61 
-119 94 -57 111 -2 

-76 21 -74 31 -96 
-99 48 -95 4 -61 
-105 28 68 -79 39 
-83 -87 12 6 -32 
115 -3 26 -40 81 

91 -23 -122 -44 -111 
-101 -70 -92 -5 -82 
43 -28 -26 -102 -53 
-67 24 -93 -76 -64 
-74 -114 49 -93 3 

-65 69 80 -122 -96 
26 54 7 -69 6 
-37 -2 -109 3 -16 
-102 101 -90 39 -51 
-104 -91 -30 -11 66 

-127 -5 118 1 27 
27 108 122 -68 -17 
-95 99 -5 46 5 
-9 -97 123 1 83 
81 68 15 127 -69 

-105 -105 -11 -68 60 
-78 17 -50 63 56 
-36 85 44 60 108 
-18 111 14 -59 29 
-52 99 6 -95 102 



106 93 -20 61 100 
80 -43 -81 28 79 
19 -25 -18 -51 73 
-127 -33 -49 -92 43 
92 -65 101 -57 98 

61 91 47 123 -33 
55 -30 -65 25 113 
-69 -86 -40 -9 14 
-20 78 -26 94 36 
-128 0 -123 -93 -69 

85 -66 14 -10 -88 
122 65 46 118 84 
-97 -76 -23 -18 88 
-84 -77 -1 -85 61 
-119 94 -57 111 -2 

-76 21 -74 31 -96 
-99 48 -95 4 -61 
-105 28 68 -79 39 
-83 -87 12 6 -32 
115 -3 26 -40 81 

91 -23 -122 -44 -111 
-101 -70 -92 -5 -82 
43 -28 -26 -102 -53 
-67 24 -93 -76 -64 
-74 -114 49 -93 3 

-65 69 80 -122 -96 
26 54 7 -69 6 
-37 -2 -109 3 -16 
-102 101 -90 39 -51 
-104 -91 -30 -11 66 

-127 -5 118 1 27 
27 108 122 -68 -17 
-95 99 -5 46 5 
-9 -97 123 1 83 
81 68 15 127 -69 

-105 -105 -11 -68 60 
-78 17 -50 63 56 
-36 85 44 60 108 
-18 111 14 -59 29 
-52 99 6 -95 102 


106 93 -20 61 100 
80 -43 -81 28 79 
19 -25 -18 -51 73 
-127 -33 -49 -92 43 
92 -65 101 -57 98 

61 91 47 123 -33 
55 -30 -65 25 113 
-69 -86 -40 -9 14 
-20 78 -26 94 36 
-128 0 -123 -93 -69 

85 -66 14 -10 -88 
122 65 46 118 84 
-97 -76 -23 -18 88 
-84 -77 -1 -85 61 
-119 94 -57 111 -2 

-76 21 -74 31 -96 
-99 48 -95 4 -61 
-105 28 68 -79 39 
-83 -87 12 6 -32 
115 -3 26 -40 81 

91 -23 -122 -44 -111 
-101 -70 -92 -5 -82 
43 -28 -26 -102 -53 
-67 24 -93 -76 -64 
-74 -114 49 -93 3 

-65 69 80 -122 -96 
26 54 7 -69 6 
-37 -2 -109 3 -16 
-102 101 -90 39 -51 
-104 -91 -30 -11 66 

-127 -5 118 1 27 
27 108 122 -68 -17 
-95 99 -5 46 5 
-9 -97 123 1 83 
81 68 15 127 -69 

-105 -105 -11 -68 60 
-78 17 -50 63 56 
-36 85 44 60 108 
-18 111 14 -59 29 
-52 99 6 -95 102 


106 93 -20 61 100 
80 -43 -81 28 79 
19 -25 -18 -51 73 
-127 -33 -49 -92 43 
92 -65 101 -57 98 

61 91 47 123 -33 
55 -30 -65 25 113 
-69 -86 -40 -9 14 
-20 78 -26 94 36 
-128 0 -123 -93 -69 

85 -66 14 -10 -88 
122 65 46 118 84 
-97 -76 -23 -18 88 
-84 -77 -1 -85 61 
-119 94 -57 111 -2 

-76 21 -74 31 -96 
-99 48 -95 4 -61 
-105 28 68 -79 39 
-83 -87 12 6 -32 
115 -3 26 -40 81 

91 -23 -122 -44 -111 
-101 -70 -92 -5 -82 
43 -28 -26 -102 -53 
-67 24 -93 -76 -64 
-74 -114 49 -93 3 

-65 69 80 -122 -96 
26 54 7 -69 6 
-37 -2 -109 3 -16 
-102 101 -90 39 -51 
-104 -91 -30 -11 66 

-127 -5 118 1 27 
27 108 122 -68 -17 
-95 99 -5 46 5 
-9 -97 123 1 83 
81 68 15 127 -69 

-105 -105 -11 -68 60 
-78 17 -50 63 56 
-36 85 44 60 108 
-18 111 14 -59 29 
-52 99 6 -95 102 


106 93 -20 61 100 
80 -43 -81 28 79 
19 -25 -18 -51 73 
-127 -33 -49 -92 43 
92 -65 101 -57 98 

61 91 47 123 -33 
55 -30 -65 25 113 
-69 -86 -40 -9 14 
-20 78 -26 94 36 
-128 0 -123 -93 -69 

85 -66 14 -10 -88 
122 65 46 118 84 
-97 -76 -23 -18 88 
-84 -77 -1 -85 61 
-119 94 -57 111 -2 

-76 21 -74 31 -96 
-99 48 -95 4 -61 
-105 28 68 -79 39 
-83 -87 12 6 -32 
115 -3 26 -40 81 

91 -23 -122 -44 -111 
-101 -70 -92 -5 -82 
43 -28 -26 -102 -53 
-67 24 -93 -76 -64 
-74 -114 49 -93 3 

-65 69 80 -122 -96 
26 54 7 -69 6 
-37 -2 -109 3 -16 
-102 101 -90 39 -51 
-104 -91 -30 -11 66 

-127 -5 118 1 27 
27 108 122 -68 -17 
-95 99 -5 46 5 
-9 -97 123 1 83 
81 68 15 127 -69 

-105 -105 -11 -68 60 
-78 17 -50 63 56 
-36 85 44 60 108 
-18 111 14 -59 29 
-52 99 6 -95 102 



106 93 -20 61 100 
80 -43 -81 28 79 
19 -25 -18 -51 73 
-127 -33 -49 -92 43 
92 -65 101 -57 98 

61 91 47 123 -33 
55 -30 -65 25 113 
-69 -86 -40 -9 14 
-20 78 -26 94 36 
-128 0 -123 -93 -69 

85 -66 14 -10 -88 
122 65 46 118 84 
-97 -76 -23 -18 88 
-84 -77 -1 -85 61 
-119 94 -57 111 -2 

-76 21 -74 31 -96 
-99 48 -95 4 -61 
-105 28 68 -79 39 
-83 -87 12 6 -32 
115 -3 26 -40 81 

91 -23 -122 -44 -111 
-101 -70 -92 -5 -82 
43 -28 -26 -102 -53 
-67 24 -93 -76 -64 
-74 -114 49 -93 3 

-65 69 80 -122 -96 
26 54 7 -69 6 
-37 -2 -109 3 -16 
-102 101 -90 39 -51 
-104 -91 -30 -11 66 

-127 -5 118 1 27 
27 108 122 -68 -17 
-95 99 -5 46 5 
-9 -97 123 1 83 
81 68 15 127 -69 

-105 -105 -11 -68 60 
-78 17 -50 63 56 
-36 85 44 60 108 
-18 111 14 -59 29 
-52 99 6 -95 102 


106 93 -20 61 100 
80 -43 -81 28 79 
19 -25 -18 -51 73 
-127 -33 -49 -92 43 
92 -65 101 -57 98 

61 91 47 123 -33 
55 -30 -65 25 113 
-69 -86 -40 -9 14 
-20 78 -26 94 36 
-128 0 -123 -93 -69 

85 -66 14 -10 -88 
122 65 46 118 84 
-97 -76 -23 -18 88 
-84 -77 -1 -85 61 
-119 94 -57 111 -2 

-76 21 -74 31 -96 
-99 48 -95 4 -61 
-105 28 68 -79 39 
-83 -87 12 6 -32 
115 -3 26 -40 81 

91 -23 -122 -44 -111 
-101 -70 -92 -5 -82 
43 -28 -26 -102 -53 
-67 24 -93 -76 -64 
-74 -114 49 -93 3 

-65 69 80 -122 -96 
26 54 7 -69 6 
-37 -2 -109 3 -16 
-102 101 -90 39 -51 
-104 -91 -30 -11 66 

-127 -5 118 1 27 
27 108 122 -68 -17 
-95 99 -5 46 5 
-9 -97 123 1 83 
81 68 15 127 -69 

-105 -105 -11 -68 60 
-78 17 -50 63 56 
-36 85 44 60 108 
-18 111 14 -59 29 
-52 99 6 -95 102 


106 93 -20 61 100 
80 -43 -81 28 79 
19 -25 -18 -51 73 
-127 -33 -49 -92 43 
92 -65 101 -57 98 

61 91 47 123 -33 
55 -30 -65 25 113 
-69 -86 -40 -9 14 
-20 78 -26 94 36 
-128 0 -123 -93 -69 

85 -66 14 -10 -88 
122 65 46 118 84 
-97 -76 -23 -18 88 
-84 -77 -1 -85 61 
-119 94 -57 111 -2 

-76 21 -74 31 -96 
-99 48 -95 4 -61 
-105 28 68 -79 39 
-83 -87 12 6 -32 
115 -3 26 -40 81 

91 -23 -122 -44 -111 
-101 -70 -92 -5 -82 
43 -28 -26 -102 -53 
-67 24 -93 -76 -64 
-74 -114 49 -93 3 

-65 69 80 -122 -96 
26 54 7 -69 6 
-37 -2 -109 3 -16 
-102 101 -90 39 -51 
-104 -91 -30 -11 66 

-127 -5 118 1 27 
27 108 122 -68 -17 
-95 99 -5 46 5 
-9 -97 123 1 83 
81 68 15 127 -69 

-105 -105 -11 -68 60 
-78 17 -50 63 56 
-36 85 44 60 108 
-18 111 14 -59 29 
-52 99 6 -95 102 


106 93 -20 61 100 
80 -43 -81 28 79 
19 -25 -18 -51 73 
-127 -33 -49 -92 43 
92 -65 101 -57 98 

61 91 47 123 -33 
55 -30 -65 25 113 
-69 -86 -40 -9 14 
-20 78 -26 94 36 
-128 0 -123 -93 -69 

85 -66 14 -10 -88 
122 65 46 118 84 
-97 -76 -23 -18 88 
-84 -77 -1 -85 61 
-119 94 -57 111 -2 

-76 21 -74 31 -96 
-99 48 -95 4 -61 
-105 28 68 -79 39 
-83 -87 12 6 -32 
115 -3 26 -40 81 

91 -23 -122 -44 -111 
-101 -70 -92 -5 -82 
43 -28 -26 -102 -53 
-67 24 -93 -76 -64 
-74 -114 49 -93 3 

-65 69 80 -122 -96 
26 54 7 -69 6 
-37 -2 -109 3 -16 
-102 101 -90 39 -51 
-104 -91 -30 -11 66 

-127 -5 118 1 27 
27 108 122 -68 -17 
-95 99 -5 46 5 
-9 -97 123 1 83 
81 68 15 127 -69 

-105 -105 -11 -68 60 
-78 17 -50 63 56 
-36 85 44 60 108 
-18 111 14 -59 29 
-52 99 6 -95 102 



106 93 -20 61 100 
80 -43 -81 28 79 
19 -25 -18 -51 73 
-127 -33 -49 -92 43 
92 -65 101 -57 98 

61 91 47 123 -33 
55 -30 -65 25 113 
-69 -86 -40 -9 14 
-20 78 -26 94 36 
-128 0 -123 -93 -69 

85 -66 14 -10 -88 
122 65 46 118 84 
-97 -76 -23 -18 88 
-84 -77 -1 -85 61 
-119 94 -57 111 -2 

-76 21 -74 31 -96 
-99 48 -95 4 -61 
-105 28 68 -79 39 
-83 -87 12 6 -32 
115 -3 26 -40 81 

91 -23 -122 -44 -111 
-101 -70 -92 -5 -82 
43 -28 -26 -102 -53 
-67 24 -93 -76 -64 
-74 -114 49 -93 3 

-65 69 80 -122 -96 
26 54 7 -69 6 
-37 -2 -109 3 -16 
-102 101 -90 39 -51 
-104 -91 -30 -11 66 

-127 -5 118 1 27 
27 108 122 -68 -17 
-95 99 -5 46 5 
-9 -97 123 1 83 
81 68 15 127 -69 

-105 -105 -11 -68 60 
-78 17 -50 63 56 
-36 85 44 60 108 
-18 111 14 -59 29 
-52 99 6 -95 102 


106 93 -20 61 100 
80 -43 -81 28 79 
19 -25 -18 -51 73 
-127 -33 -49 -92 43 
92 -65 101 -57 98 

61 91 47 123 -33 
55 -30 -65 25 113 
-69 -86 -40 -9 14 
-20 78 -26 94 36 
-128 0 -123 -93 -69 

85 -66 14 -10 -88 
122 65 46 118 84 
-97 -76 -23 -18 88 
-84 -77 -1 -85 61 
-119 94 -57 111 -2 

-76 21 -74 31 -96 
-99 48 -95 4 -61 
-105 28 68 -79 39 
-83 -87 12 6 -32 
115 -3 26 -40 81 

91 -23 -122 -44 -111 
-101 -70 -92 -5 -82 
43 -28 -26 -102 -53 
-67 24 -93 -76 -64 
-74 -114 49 -93 3 

-65 69 80 -122 -96 
26 54 7 -69 6 
-37 -2 -109 3 -16 
-102 101 -90 39 -51 
-104 -91 -30 -11 66 

-127 -5 118 1 27 
27 108 122 -68 -17 
-95 99 -5 46 5 
-9 -97 123 1 83 
81 68 15 127 -69 

-105 -105 -11 -68 60 
-78 17 -50 63 56 
-36 85 44 60 108 
-18 111 14 -59 29 
-52 99 6 -95 102 


106 93 -20 61 100 
80 -43 -81 28 79 
19 -25 -18 -51 73 
-127 -33 -49 -92 43 
92 -65 101 -57 98 

61 91 47 123 -33 
55 -30 -65 25 113 
-69 -86 -40 -9 14 
-20 78 -26 94 36 
-128 0 -123 -93 -69 

85 -66 14 -10 -88 
122 65 46 118 84 
-97 -76 -23 -18 88 
-84 -77 -1 -85 61 
-119 94 -57 111 -2 

-76 21 -74 31 -96 
-99 48 -95 4 -61 
-105 28 68 -79 39 
-83 -87 12 6 -32 
115 -3 26 -40 81 

91 -23 -122 -44 -111 
-101 -70 -92 -5 -82 
43 -28 -26 -102 -53 
-67 24 -93 -76 -64 
-74 -114 49 -93 3 

-65 69 80 -122 -96 
26 54 7 -69 6 
-37 -2 -109 3 -16 
-102 101 -90 39 -51 
-104 -91 -30 -11 66 

-127 -5 118 1 27 
27 108 122 -68 -17 
-95 99 -5 46 5 
-9 -97 123 1 83 
81 68 15 127 -69 

-105 -105 -11 -68 60 
-78 17 -50 63 56 
-36 85 44 60 108 
-18 111 14 -59 29 
-52 99 6 -95 102 


106 93 -20 61 100 
80 -43 -81 28 79 
19 -25 -18 -51 73 
-127 -33 -49 -92 43 
92 -65 101 -57 98 

61 91 47 123 -33 
55 -30 -65 25 113 
-69 -86 -40 -9 14 
-20 78 -26 94 36 
-128 0 -123 -93 -69 

85 -66 14 -10 -88 
122 65 46 118 84 
-97 -76 -23 -18 88 
-84 -77 -1 -85 61 
-119 94 -57 111 -2 

-76 21 -74 31 -96 
-99 48 -95 4 -61 
-105 28 68 -79 39 
-83 -87 12 6 -32 
115 -3 26 -40 81 

91 -23 -122 -44 -111 
-101 -70 -92 -5 -82 
43 -28 -26 -102 -53 
-67 24 -93 -76 -64 
-74 -114 49 -93 3 

-65 69 80 -122 -96 
26 54 7 -69 6 
-37 -2 -109 3 -16 
-102 101 -90 39 -51 
-104 -91 -30 -11 66 

-127 -5 118 1 27 
27 108 122 -68 -17 
-95 99 -5 46 5 
-9 -97 123 1 83 
81 68 15 127 -69 

-105 -105 -11 -68 60 
-78 17 -50 63 56 
-36 85 44 60 108 
-18 111 14 -59 29 
-52 99 6 -95 102 



106 93 -20 61 100 
80 -43 -81 28 79 
19 -25 -18 -51 73 
-127 -33 -49 -92 43 
92 -65 101 -57 98 

61 91 47 123 -33 
55 -30 -65 25 113 
-69 -86 -40 -9 14 
-20 78 -26 94 36 
-128 0 -123 -93 -69 

85 -66 14 -10 -88 
122 65 46 118 84 
-97 -76 -23 -18 88 
-84 -77 -1 -85 61 
-119 94 -57 111 -2 

-76 21 -74 31 -96 
-99 48 -95 4 -61 
-105 28 68 -79 39 
-83 -87 12 6 -32 
115 -3 26 -40 81 

91 -23 -122 -44 -111 
-101 -70 -92 -5 -82 
43 -28 -26 -102 -53 
-67 24 -93 -76 -64 
-74 -114 49 -93 3 

-65 69 80 -122 -96 
26 54 7 -69 6 
-37 -2 -109 3 -16 
-102 101 -90 39 -51 
-104 -91 -30 -11 66 

-127 -5 118 1 27 
27 108 122 -68 -17 
-95 99 -5 46 5 
-9 -97 123 1 83 
81 68 15 127 -69 

-105 -105 -11 -68 60 
-78 17 -50 63 56 
-36 85 44 60 108 
-18 111 14 -59 29 
-52 99 6 -95 102 


106 93 -20 61 100 
80 -43 -81 28 79 
19 -25 -18 -51 73 
-127 -33 -49 -92 43 
92 -65 101 -57 98 

61 91 47 123 -33 
55 -30 -65 25 113 
-69 -86 -40 -9 14 
-20 78 -26 94 36 
-128 0 -123 -93 -69 

85 -66 14 -10 -88 
122 65 46 118 84 
-97 -76 -23 -18 88 
-84 -77 -1 -85 61 
-119 94 -57 111 -2 

-76 21 -74 31 -96 
-99 48 -95 4 -61 
-105 28 68 -79 39 
-83 -87 12 6 -32 
115 -3 26 -40 81 

91 -23 -122 -44 -111 
-101 -70 -92 -5 -82 
43 -28 -26 -102 -53 
-67 24 -93 -76 -64 
-74 -114 49 -93 3 

-65 69 80 -122 -96 
26 54 7 -69 6 
-37 -2 -109 3 -16 
-102 101 -90 39 -51 
-104 -91 -30 -11 66 

-127 -5 118 1 27 
27 108 122 -68 -17 
-95 99 -5 46 5 
-9 -97 123 1 83 
81 68 15 127 -69 

-105 -105 -11 -68 60 
-78 17 -50 63 56 
-36 85 44 60 108 
-18 111 14 -59 29 
-52 99 6 -95 102 


106 93 -20 61 100 
80 -43 -81 28 79 
19 -25 -18 -51 73 
-127 -33 -49 -92 43 
92 -65 101 -57 98 

61 91 47 123 -33 
55 -30 -65 25 113 
-69 -86 -40 -9 14 
-20 78 -26 94 36 
-128 0 -123 -93 -69 

85 -66 14 -10 -88 
122 65 46 118 84 
-97 -76 -23 -18 88 
-84 -77 -1 -85 61 
-119 94 -57 111 -2 

-76 21 -74 31 -96 
-99 48 -95 4 -61 
-105 28 68 -79 39 
-83 -87 12 6 -32 
115 -3 26 -40 81 

91 -23 -122 -44 -111 
-101 -70 -92 -5 -82 
43 -28 -26 -102 -53 
-67 24 -93 -76 -64 
-74 -114 49 -93 3 

-65 69 80 -122 -96 
26 54 7 -69 6 
-37 -2 -109 3 -16 
-102 101 -90 39 -51 
-104 -91 -30 -11 66 

-127 -5 118 1 27 
27 108 122 -68 -17 
-95 99 -5 46 5 
-9 -97 123 1 83 
81 68 15 127 -69 

-105 -105 -11 -68 60 
-78 17 -50 63 56 
-36 85 44 60 108 
-18 111 14 -59 29 
-52 99 6 -95 102 


106 93 -20 61 100 
80 -43 -81 28 79 
19 -25 -18 -51 73 
-127 -33 -49 -92 43 
92 -65 101 -57 98 

61 91 47 123 -33 
55 -30 -65 25 113 
-69 -86 -40 -9 14 
-20 78 -26 94 36 
-128 0 -123 -93 -69 

85 -66 14 -10 -88 
122 65 46 118 84 
-97 -76 -23 -18 88 
-84 -77 -1 -85 61 
-119 94 -57 111 -2 

-76 21 -74 31 -96 
-99 48 -95 4 -61 
-105 28 68 -79 39 
-83 -87 12 6 -32 
115 -3 26 -40 81 

91 -23 -122 -44 -111 
-101 -70 -92 -5 -82 
43 -28 -26 -102 -53 
-67 24 -93 -76 -64 
-74 -114 49 -93 3 

-65 69 80 -122 -96 
26 54 7 -69 6 
-37 -2 -109 3 -16 
-102 101 -90 39 -51 
-104 -91 -30 -11 66 

-127 -5 118 1 27 
27 108 122 -68 -17 
-95 99 -5 46 5 
-9 -97 123 1 83 
81 68 15 127 -69 

-105 -105 -11 -68 60 
-78 17 -50 63 56 
-36 85 44 60 108 
-18 111 14 -59 29 
-52 99 6 -95 102 



106 93 -20 61 100 
80 -43 -81 28 79 
19 -25 -18 -51 73 
-127 -33 -49 -92 43 
92 -65 101 -57 98 

61 91 47 123 -33 
55 -30 -65 25 113 
-69 -86 -40 -9 14 
-20 78 -26 94 36 
-128 0 -123 -93 -69 

85 -66 14 -10 -88 
122 65 46 118 84 
-97 -76 -23 -18 88 
-84 -77 -1 -85 61 
-119 94 -57 111 -2 

-76 21 -74 31 -96 
-99 48 -95 4 -61 
-105 28 68 -79 39 
-83 -87 12 6 -32 
115 -3 26 -40 81 

91 -23 -122 -44 -111 
-101 -70 -92 -5 -82 
43 -28 -26 -102 -53 
-67 24 -93 -76 -64 
-74 -114 49 -93 3 

-65 69 80 -122 -96 
26 54 7 -69 6 
-37 -2 -109 3 -16 
-102 101 -90 39 -51 
-104 -91 -30 -11 66 

-127 -5 118 1 27 
27 108 122 -68 -17 
-95 99 -5 46 5 
-9 -97 123 1 83 
81 68 15 127 -69 

-105 -105 -11 -68 60 
-78 17 -50 63 56 
-36 85 44 60 108 
-18 111 14 -59 29 
-52 99 6 -95 102 


106 93 -20 61 100 
80 -43 -81 28 79 
19 -25 -18 -51 73 
-127 -33 -49 -92 43 
92 -65 101 -57 98 

61 91 47 123 -33 
55 -30 -65 25 113 
-69 -86 -40 -9 14 
-20 78 -26 94 36 
-128 0 -123 -93 -69 

85 -66 14 -10 -88 
122 65 46 118 84 
-97 -76 -23 -18 88 
-84 -77 -1 -85 61 
-119 94 -57 111 -2 

-76 21 -74 31 -96 
-99 48 -95 4 -61 
-105 28 68 -79 39 
-83 -87 12 6 -32 
115 -3 26 -40 81 

91 -23 -122 -44 -111 
-101 -70 -92 -5 -82 
43 -28 -26 -102 -53 
-67 24 -93 -76 -64 
-74 -114 49 -93 3 

-65 69 80 -122 -96 
26 54 7 -69 6 
-37 -2 -109 3 -16 
-102 101 -90 39 -51 
-104 -91 -30 -11 66 

-127 -5 118 1 27 
27 108 122 -68 -17 
-95 99 -5 46 5 
-9 -97 123 1 83 
81 68 15 127 -69 

-105 -105 -11 -68 60 
-78 17 -50 63 56 
-36 85 44 60 108 
-18 111 14 -59 29 
-52 99 6 -95 102 


106 93 -20 61 100 
80 -43 -81 28 79 
19 -25 -18 -51 73 
-127 -33 -49 -92 43 
92 -65 101 -57 98 

61 91 47 123 -33 
55 -30 -65 25 113 
-69 -86 -40 -9 14 
-20 78 -26 94 36 
-128 0 -123 -93 -69 

85 -66 14 -10 -88 
122 65 46 118 84 
-97 -76 -23 -18 88 
-84 -77 -1 -85 61 
-119 94 -57 111 -2 

-76 21 -74 31 -96 
-99 48 -95 4 -61 
-105 28 68 -79 39 
-83 -87 12 6 -32 
115 -3 26 -40 81 

91 -23 -122 -44 -111 
-101 -70 -92 -5 -82 
43 -28 -26 -102 -53 
-67 24 -93 -76 -64 
-74 -114 49 -93 3 

-65 69 80 -122 -96 
26 54 7 -69 6 
-37 -2 -109 3 -16 
-102 101 -90 39 -51 
-104 -91 -30 -11 66 

-127 -5 118 1 27 
27 108 122 -68 -17 
-95 99 -5 46 5 
-9 -97 123 1 83 
81 68 15 127 -69 

-105 -105 -11 -68 60 
-78 17 -50 63 56 
-36 85 44 60 108 
-18 111 14 -59 29 
-52 99 6 -95 102 


106 93 -20 61 100 
80 -43 -81 28 79 
19 -25 -18 -51 73 
-127 -33 -49 -92 43 
92 -65 101 -57 98 

61 91 47 123 -33 
55 -30 -65 25 113 
-69 -86 -40 -9 14 
-20 78 -26 94 36 
-128 0 -123 -93 -69 

85 -66 14 -10 -88 
122 65 46 118 84 
-97 -76 -23 -18 88 
-84 -77 -1 -85 61 
-119 94 -57 111 -2 

-76 21 -74 31 -96 
-99 48 -95 4 -61 
-105 28 68 -79 39 
-83 -87 12 6 -32 
115 -3 26 -40 81 

91 -23 -122 -44 -111 
-101 -70 -92 -5 -82 
43 -28 -26 -102 -53 
-67 24 -93 -76 -64 
-74 -114 49 -93 3 

-65 69 80 -122 -96 
26 54 7 -69 6 
-37 -2 -109 3 -16 
-102 101 -90 39 -51 
-104 -91 -30 -11 66 

-127 -5 118 1 27 
27 108 122 -68 -17 
-95 99 -5 46 5 
-9 -97 123 1 83 
81 68 15 127 -69 

-105 -105 -11 -68 60 
-78 17 -50 63 56 
-36 85 44 60 108 
-18 111 14 -59 29 
-52 99 6 -95 102 



106 93 -20 61 100 
80 -43 -81 28 79 
19 -25 -18 -51 73 
-127 -33 -49 -92 43 
92 -65 101 -57 98 

61 91 47 123 -33 
55 -30 -65 25 113 
-69 -86 -40 -9 14 
-20 78 -26 94 36 
-128 0 -123 -93 -69 

85 -66 14 -10 -88 
122 65 46 118 84 
-97 -76 -23 -18 88 
-84 -77 -1 -85 61 
-119 94 -57 111 -2 

-76 21 -74 31 -96 
-99 48 -95 4 -61 
-105 28 68 -79 39 
-83 -87 12 6 -32 
115 -3 26 -40 81 

91 -23 -122 -44 -111 
-101 -70 -92 -5 -82 
43 -28 -26 -102 -53 
-67 24 -93 -76 -64 
-74 -114 49 -93 3 

-65 69 80 -122 -96 
26 54 7 -69 6 
-37 -2 -109 3 -16 
-102 101 -90 39 -51 
-104 -91 -30 -11 66 

-127 -5 118 1 27 
27 108 122 -68 -17 
-95 99 -5 46 5 
-9 -97 123 1 83 
81 68 15 127 -69 

-105 -105 -11 -68 60 
-78 17 -50 63 56 
-36 85 44 60 108 
-18 111 14 -59 29 
-52 99 6 -95 102 


106 93 -20 61 100 
80 -43 -81 28 79 
19 -25 -18 -51 73 
-127 -33 -49 -92 43 
92 -65 101 -57 98 

61 91 47 123 -33 
55 -30 -65 25 113 
-69 -86 -40 -9 14 
-20 78 -26 94 36 
-128 0 -123 -93 -69 

85 -66 14 -10 -88 
122 65 46 118 84 
-97 -76 -23 -18 88 
-84 -77 -1 -85 61 
-119 94 -57 111 -2 

-76 21 -74 31 -96 
-99 48 -95 4 -61 
-105 28 68 -79 39 
-83 -87 12 6 -32 
115 -3 26 -40 81 

91 -23 -122 -44 -111 
-101 -70 -92 -5 -82 
43 -28 -26 -102 -53 
-67 24 -93 -76 -64 
-74 -114 49 -93 3 

-65 69 80 -122 -96 
26 54 7 -69 6 
-37 -2 -109 3 -16 
-102 101 -90 39 -51 
-104 -91 -30 -11 66 

-127 -5 118 1 27 
27 108 122 -68 -17 
-95 99 -5 46 5 
-9 -97 123 1 83 
81 68 15 127 -69 

-105 -105 -11 -68 60 
-78 17 -50 63 56 
-36 85 44 60 108 
-18 111 14 -59 29 
-52 99 6 -95 102 


106 93 -20 61 100 
80 -43 -81 28 79 
19 -25 -18 -51 73 
-127 -33 -49 -92 43 
92 -65 101 -57 98 

61 91 47 123 -33 
55 -30 -65 25 113 
-69 -86 -40 -9 14 
-20 78 -26 94 36 
-128 0 -123 -93 -69 

85 -66 14 -10 -88 
122 65 46 118 84 
-97 -76 -23 -18 88 
-84 -77 -1 -85 61 
-119 94 -57 111 -2 

-76 21 -74 31 -96 
-99 48 -95 4 -61 
-105 28 68 -79 39 
-83 -87 12 6 -32 
115 -3 26 -40 81 

91 -23 -122 -44 -111 
-101 -70 -92 -5 -82 
43 -28 -26 -102 -53 
-67 24 -93 -76 -64 
-74 -114 49 -93 3 

-65 69 80 -122 -96 
26 54 7 -69 6 
-37 -2 -109 3 -16 
-102 101 -90 39 -51 
-104 -91 -30 -11 66 

-127 -5 118 1 27 
27 108 122 -68 -17 
-95 99 -5 46 5 
-9 -97 123 1 83 
81 68 15 127 -69 

-105 -105 -11 -68 60 
-78 17 -50 63 56 
-36 85 44 60 108 
-18 111 14 -59 29 
-52 99 6 -95 102 


106 93 -20 61 100 
80 -43 -81 28 79 
19 -25 -18 -51 73 
-127 -33 -49 -92 43 
92 -65 101 -57 98 

61 91 47 123 -33 
55 -30 -65 25 113 
-69 -86 -40 -9 14 
-20 78 -26 94 36 
-128 0 -123 -93 -69 

85 -66 14 -10 -88 
122 65 46 118 84 
-97 -76 -23 -18 88 
-84 -77 -1 -85 61 
-119 94 -57 111 -2 

-76 21 -74 31 -96 
-99 48 -95 4 -61 
-105 28 68 -79 39 
-83 -87 12 6 -32 
115 -3 26 -40 81 

91 -23 -122 -44 -111 
-101 -70 -92 -5 -82 
43 -28 -26 -102 -53 
-67 24 -93 -76 -64 
-74 -114 49 -93 3 

-65 69 80 -122 -96 
26 54 7 -69 6 
-37 -2 -109 3 -16 
-102 101 -90 39 -51 
-104 -91 -30 -11 66 

-127 -5 118 1 27 
27 108 122 -68 -17 
-95 99 -5 46 5 
-9 -97 123 1 83 
81 68 15 127 -69 

-105 -105 -11 -68 60 
-78 17 -50 63 56 
-36 85 44 60 108 
-18 111 14 -59 29 
-52 99 6 -95 102 



106 93 -20 61 100 
80 -43 -81 28 79 
19 -25 -18 -51 73 
-127 -33 -49 -92 43 
92 -65 101 -57 98 

61 91 47 123 -33 
55 -30 -65 25 113 
-69 -86 -40 -9 14 
-20 78 -26 94 36 
-128 0 -123 -93 -69 

85 -66 14 -10 -88 
122 65 46 118 84 
-97 -76 -23 -18 88 
-84 -77 -1 -85 61 
-119 94 -57 111 -2 

-76 21 -74 31 -96 
-99 48 -95 4 -61 
-105 28 68 -79 39 
-83 -87 12 6 -32 
115 -3 26 -40 81 

91 -23 -122 -44 -111 
-101 -70 -92 -5 -82 
43 -28 -26 -102 -53 
-67 24 -93 -76 -64 
-74 -114 49 -93 3 

-65 69 80 -122 -96 
26 54 7 -69 6 
-37 -2 -109 3 -16 
-102 101 -90 39 -51 
-104 -91 -30 -11 66 

-127 -5 118 1 27 
27 108 122 -68 -17 
-95 99 -5 46 5 
-9 -97 123 1 83 
81 68 15 127 -69 

-105 -105 -11 -68 60 
-78 17 -50 63 56 
-36 85 44 60 108 
-18 111 14 -59 29 
-52 99 6 -95 102 


106 93 -20 61 100 
80 -43 -81 28 79 
19 -25 -18 -51 73 
-127 -33 -49 -92 43 
92 -65 101 -57 98 

61 91 47 123 -33 
55 -30 -65 25 113 
-69 -86 -40 -9 14 
-20 78 -26 94 36 
-128 0 -123 -93 -69 

85 -66 14 -10 -88 
122 65 46 118 84 
-97 -76 -23 -18 88 
-84 -77 -1 -85 61 
-119 94 -57 111 -2 

-76 21 -74 31 -96 
-99 48 -95 4 -61 
-105 28 68 -79 39 
-83 -87 12 6 -32 
115 -3 26 -40 81 

91 -23 -122 -44 -111 
-101 -70 -92 -5 -82 
43 -28 -26 -102 -53 
-67 24 -93 -76 -64 
-74 -114 49 -93 3 

-65 69 80 -122 -96 
26 54 7 -69 6 
-37 -2 -109 3 -16 
-102 101 -90 39 -51 
-104 -91 -30 -11 66 

-127 -5 118 1 27 
27 108 122 -68 -17 
-95 99 -5 46 5 
-9 -97 123 1 83 
81 68 15 127 -69 

-105 -105 -11 -68 60 
-78 17 -50 63 56 
-36 85 44 60 108 
-18 111 14 -59 29 
-52 99 6 -95 102 


106 93 -20 61 100 
80 -43 -81 28 79 
19 -25 -18 -51 73 
-127 -33 -49 -92 43 
92 -65 101 -57 98 

61 91 47 123 -33 
55 -30 -65 25 113 
-69 -86 -40 -9 14 
-20 78 -26 94 36 
-128 0 -123 -93 -69 

85 -66 14 -10 -88 
122 65 46 118 84 
-97 -76 -23 -18 88 
-84 -77 -1 -85 61 
-119 94 -57 111 -2 

-76 21 -74 31 -96 
-99 48 -95 4 -61 
-105 28 68 -79 39 
-83 -87 12 6 -32 
115 -3 26 -40 81 

91 -23 -122 -44 -111 
-101 -70 -92 -5 -82 
43 -28 -26 -102 -53 
-67 24 -93 -76 -64 
-74 -114 49 -93 3 

-65 69 80 -122 -96 
26 54 7 -69 6 
-37 -2 -109 3 -16 
-102 101 -90 39 -51 
-104 -91 -30 -11 66 

-127 -5 118 1 27 
27 108 122 -68 -17 
-95 99 -5 46 5 
-9 -97 123 1 83 
81 68 15 127 -69 

-105 -105 -11 -68 60 
-78 17 -50 63 56 
-36 85 44 60 108 
-18 111 14 -59 29 
-52 99 6 -95 102 


106 93 -20 61 100 
80 -43 -81 28 79 
19 -25 -18 -51 73 
-127 -33 -49 -92 43 
92 -65 101 -57 98 

61 91 47 123 -33 
55 -30 -65 25 113 
-69 -86 -40 -9 14 
-20 78 -26 94 36 
-128 0 -123 -93 -69 

85 -66 14 -10 -88 
122 65 46 118 84 
-97 -76 -23 -18 88 
-84 -77 -1 -85 61 
-119 94 -57 111 -2 

-76 21 -74 31 -96 
-99 48 -95 4 -61 
-105 28 68 -79 39 
-83 -87 12 6 -32 
115 -3 26 -40 81 

91 -23 -122 -44 -111 
-101 -70 -92 -5 -82 
43 -28 -26 -102 -53 
-67 24 -93 -76 -64 
-74 -114 49 -93 3 

-65 69 80 -122 -96 
26 54 7 -69 6 
-37 -2 -109 3 -16 
-102 101 -90 39 -51 
-104 -91 -30 -11 66 

-127 -5 118 1 27 
27 108 122 -68 -17 
-95 99 -5 46 5 
-9 -97 123 1 83 
81 68 15 127 -69 

-105 -105 -11 -68 60 
-78 17 -50 63 56 
-36 85 44 60 108 
-18 111 14 -59 29 
-52 99 6 -95 102 



106 93 -20 61 100 
80 -43 -81 28 79 
19 -25 -18 -51 73 
-127 -33 -49 -92 43 
92 -65 101 -57 98 

61 91 47 123 -33 
55 -30 -65 25 113 
-69 -86 -40 -9 14 
-20 78 -26 94 36 
-128 0 -123 -93 -69 

85 -66 14 -10 -88 
122 65 46 118 84 
-97 -76 -23 -18 88 
-84 -77 -1 -85 61 
-119 94 -57 111 -2 

-76 21 -74 31 -96 
-99 48 -95 4 -61 
-105 28 68 -79 39 
-83 -87 12 6 -32 
115 -3 26 -40 81 

91 -23 -122 -44 -111 
-101 -70 -92 -5 -82 
43 -28 -26 -102 -53 
-67 24 -93 -76 -64 
-74 -114 49 -93 3 

-65 69 80 -122 -96 
26 54 7 -69 6 
-37 -2 -109 3 -16 
-102 101 -90 39 -51 
-104 -91 -30 -11 66 

-127 -5 118 1 27 
27 108 122 -68 -17 
-95 99 -5 46 5 
-9 -97 123 1 83 
81 68 15 127 -69 

-105 -105 -11 -68 60 
-78 17 -50 63 56 
-36 85 44 60 108 
-18 111 14 -59 29 
-52 99 6 -95 102 


106 93 -20 61 100 
80 -43 -81 28 79 
19 -25 -18 -51 73 
-127 -33 -49 -92 43 
92 -65 101 -57 98 

61 91 47 123 -33 
55 -30 -65 25 113 
-69 -86 -40 -9 14 
-20 78 -26 94 36 
-128 0 -123 -93 -69 

85 -66 14 -10 -88 
122 65 46 118 84 
-97 -76 -23 -18 88 
-84 -77 -1 -85 61 
-119 94 -57 111 -2 

-76 21 -74 31 -96 
-99 48 -95 4 -61 
-105 28 68 -79 39 
-83 -87 12 6 -32 
115 -3 26 -40 81 

91 -23 -122 -44 -111 
-101 -70 -92 -5 -82 
43 -28 -26 -102 -53 
-67 24 -93 -76 -64 
-74 -114 49 -93 3 

-65 69 80 -122 -96 
26 54 7 -69 6 
-37 -2 -109 3 -16 
-102 101 -90 39 -51 
-104 -91 -30 -11 66 

-127 -5 118 1 27 
27 108 122 -68 -17 
-95 99 -5 46 5 
-9 -97 123 1 83 
81 68 15 127 -69 

-105 -105 -11 -68 60 
-78 17 -50 63 56 
-36 85 44 60 108 
-18 111 14 -59 29 
-52 99 6 -95 102 


106 93 -20 61 100 
80 -43 -81 28 79 
19 -25 -18 -51 73 
-127 -33 -49 -92 43 
92 -65 101 -57 98 

61 91 47 123 -33 
55 -30 -65 25 113 
-69 -86 -40 -9 14 
-20 78 -26 94 36 
-128 0 -123 -93 -69 

85 -66 14 -10 -88 
122 65 46 118 84 
-97 -76 -23 -18 88 
-84 -77 -1 -85 61 
-119 94 -57 111 -2 

-76 21 -74 31 -96 
-99 48 -95 4 -61 
-105 28 68 -79 39 
-83 -87 12 6 -32 
115 -3 26 -40 81 

91 -23 -122 -44 -111 
-101 -70 -92 -5 -82 
43 -28 -26 -102 -53 
-67 24 -93 -76 -64 
-74 -114 49 -93 3 

-65 69 80 -122 -96 
26 54 7 -69 6 
-37 -2 -109 3 -16 
-102 101 -90 39 -51 
-104 -91 -30 -11 66 

-127 -5 118 1 27 
27 108 122 -68 -17 
-95 99 -5 46 5 
-9 -97 123 1 83 
81 68 15 127 -69 

-105 -105 -11 -68 60 
-78 17 -50 63 56 
-36 85 44 60 108 
-18 111 14 -59 29 
-52 99 6 -95 102 


106 93 -20 61 100 
80 -43 -81 28 79 
19 -25 -18 -51 73 
-127 -33 -49 -92 43 
92 -65 101 -57 98 

61 91 47 123 -33 
55 -30 -65 25 113 
-69 -86 -40 -9 14 
-20 78 -26 94 36 
-128 0 -123 -93 -69 

85 -66 14 -10 -88 
122 65 46 118 84 
-97 -76 -23 -18 88 
-84 -77 -1 -85 61 
-119 94 -57 111 -2 

-76 21 -74 31 -96 
-99 48 -95 4 -61 
-105 28 68 -79 39 
-83 -87 12 6 -32 
115 -3 26 -40 81 

91 -23 -122 -44 -111 
-101 -70 -92 -5 -82 
43 -28 -26 -102 -53 
-67 24 -93 -76 -64 
-74 -114 49 -93 3 

-65 69 80 -122 -96 
26 54 7 -69 6 
-37 -2 -109 3 -16 
-102 101 -90 39 -51 
-104 -91 -30 -11 66 

-127 -5 118 1 27 
27 108 122 -68 -17 
-95 99 -5 46 5 
-9 -97 123 1 83 
81 68 15 127 -69 

-105 -105 -11 -68 60 
-78 17 -50 63 56 
-36 85 44 60 108 
-18 111 14 -59 29 
-52 99 6 -95 102 



106 93 -20 61 100 
80 -43 -81 28 79 
19 -25 -18 -51 73 
-127 -33 -49 -92 43 
92 -65 101 -57 98 

61 91 47 123 -33 
55 -30 -65 25 113 
-69 -86 -40 -9 14 
-20 78 -26 94 36 
-128 0 -123 -93 -69 

85 -66 14 -10 -88 
122 65 46 118 84 
-97 -76 -23 -18 88 
-84 -77 -1 -85 61 
-119 94 -57 111 -2 

-76 21 -74 31 -96 
-99 48 -95 4 -61 
-105 28 68 -79 39 
-83 -87 12 6 -32 
115 -3 26 -40 81 

91 -23 -122 -44 -111 
-101 -70 -92 -5 -82 
43 -28 -26 -102 -53 
-67 24 -93 -76 -64 
-74 -114 49 -93 3 

-65 69 80 -122 -96 
26 54 7 -69 6 
-37 -2 -109 3 -16 
-102 101 -90 39 -51 
-104 -91 -30 -11 66 

-127 -5 118 1 27 
27 108 122 -68 -17 
-95 99 -5 46 5 
-9 -97 123 1 83 
81 68 15 127 -69 

-105 -105 -11 -68 60 
-78 17 -50 63 56 
-36 85 44 60 108 
-18 111 14 -59 29 
-52 99 6 -95 102 


106 93 -20 61 100 
80 -43 -81 28 79 
19 -25 -18 -51 73 
-127 -33 -49 -92 43 
92 -65 101 -57 98 

61 91 47 123 -33 
55 -30 -65 25 113 
-69 -86 -40 -9 14 
-20 78 -26 94 36 
-128 0 -123 -93 -69 

85 -66 14 -10 -88 
122 65 46 118 84 
-97 -76 -23 -18 88 
-84 -77 -1 -85 61 
-119 94 -57 111 -2 

-76 21 -74 31 -96 
-99 48 -95 4 -61 
-105 28 68 -79 39 
-83 -87 12 6 -32 
115 -3 26 -40 81 

91 -23 -122 -44 -111 
-101 -70 -92 -5 -82 
43 -28 -26 -102 -53 
-67 24 -93 -76 -64 
-74 -114 49 -93 3 

-65 69 80 -122 -96 
26 54 7 -69 6 
-37 -2 -109 3 -16 
-102 101 -90 39 -51 
-104 -91 -30 -11 66 

-127 -5 118 1 27 
27 108 122 -68 -17 
-95 99 -5 46 5 
-9 -97 123 1 83 
81 68 15 127 -69 

-105 -105 -11 -68 60 
-78 17 -50 63 56 
-36 85 44 60 108 
-18 111 14 -59 29 
-52 99 6 -95 102 


106 93 -20 61 100 
80 -43 -81 28 79 
19 -25 -18 -51 73 
-127 -33 -49 -92 43 
92 -65 101 -57 98 

61 91 47 123 -33 
55 -30 -65 25 113 
-69 -86 -40 -9 14 
-20 78 -26 94 36 
-128 0 -123 -93 -69 

85 -66 14 -10 -88 
122 65 46 118 84 
-97 -76 -23 -18 88 
-84 -77 -1 -85 61 
-119 94 -57 111 -2 

-76 21 -74 31 -96 
-99 48 -95 4 -61 
-105 28 68 -79 39 
-83 -87 12 6 -32 
115 -3 26 -40 81 

91 -23 -122 -44 -111 
-101 -70 -92 -5 -82 
43 -28 -26 -102 -53 
-67 24 -93 -76 -64 
-74 -114 49 -93 3 

-65 69 80 -122 -96 
26 54 7 -69 6 
-37 -2 -109 3 -16 
-102 101 -90 39 -51 
-104 -91 -30 -11 66 

-127 -5 118 1 27 
27 108 122 -68 -17 
-95 99 -5 46 5 
-9 -97 123 1 83 
81 68 15 127 -69 

-105 -105 -11 -68 60 
-78 17 -50 63 56 
-36 85 44 60 108 
-18 111 14 -59 29 
-52 99 6 -95 102 


106 93 -20 61 100 
80 -43 -81 28 79 
19 -25 -18 -51 73 
-127 -33 -49 -92 43 
92 -65 101 -57 98 

61 91 47 123 -33 
55 -30 -65 25 113 
-69 -86 -40 -9 14 
-20 78 -26 94 36 
-128 0 -123 -93 -69 

85 -66 14 -10 -88 
122 65 46 118 84 
-97 -76 -23 -18 88 
-84 -77 -1 -85 61 
-119 94 -57 111 -2 

-76 21 -74 31 -96 
-99 48 -95 4 -61 
-105 28 68 -79 39 
-83 -87 12 6 -32 
115 -3 26 -40 81 

91 -23 -122 -44 -111 
-101 -70 -92 -5 -82 
43 -28 -26 -102 -53 
-67 24 -93 -76 -64 
-74 -114 49 -93 3 

-65 69 80 -122 -96 
26 54 7 -69 6 
-37 -2 -109 3 -16 
-102 101 -90 39 -51 
-104 -91 -30 -11 66 

-127 -5 118 1 27 
27 108 122 -68 -17 
-95 99 -5 46 5 
-9 -97 123 1 83 
81 68 15 127 -69 

-105 -105 -11 -68 60 
-78 17 -50 63 56 
-36 85 44 60 108 
-18 111 14 -59 29 
-52 99 6 -95 102 



106 93 -20 61 100 
80 -43 -81 28 79 
19 -25 -18 -51 73 
-127 -33 -49 -92 43 
92 -65 101 -57 98 

61 91 47 123 -33 
55 -30 -65 25 113 
-69 -86 -40 -9 14 
-20 78 -26 94 36 
-128 0 -123 -93 -69 

85 -66 14 -10 -88 
122 65 46 118 84 
-97 -76 -23 -18 88 
-84 -77 -1 -85 61 
-119 94 -57 111 -2 

-76 21 -74 31 -96 
-99 48 -95 4 -61 
-105 28 68 -79 39 
-83 -87 12 6 -32 
115 -3 26 -40 81 

91 -23 -122 -44 -111 
-101 -70 -92 -5 -82 
43 -28 -26 -102 -53 
-67 24 -93 -76 -64 
-74 -114 49 -93 3 

-65 69 80 -122 -96 
26 54 7 -69 6 
-37 -2 -109 3 -16 
-102 101 -90 39 -51 
-104 -91 -30 -11 66 

-127 -5 118 1 27 
27 108 122 -68 -17 
-95 99 -5 46 5 
-9 -97 123 1 83 
81 68 15 127 -69 

-105 -105 -11 -68 60 
-78 17 -50 63 56 
-36 85 44 60 108 
-18 111 14 -59 29 
-52 99 6 -95 102 


106 93 -20 61 100 
80 -43 -81 28 79 
19 -25 -18 -51 73 
-127 -33 -49 -92 43 
92 -65 101 -57 98 

61 91 47 123 -33 
55 -30 -65 25 113 
-69 -86 -40 -9 14 
-20 78 -26 94 36 
-128 0 -123 -93 -69 

85 -66 14 -10 -88 
122 65 46 118 84 
-97 -76 -23 -18 88 
-84 -77 -1 -85 61 
-119 94 -57 111 -2 

-76 21 -74 31 -96 
-99 48 -95 4 -61 
-105 28 68 -79 39 
-83 -87 12 6 -32 
115 -3 26 -40 81 

91 -23 -122 -44 -111 
-101 -70 -92 -5 -82 
43 -28 -26 -102 -53 
-67 24 -93 -76 -64 
-74 -114 49 -93 3 

-65 69 80 -122 -96 
26 54 7 -69 6 
-37 -2 -109 3 -16 
-102 101 -90 39 -51 
-104 -91 -30 -11 66 

-127 -5 118 1 27 
27 108 122 -68 -17 
-95 99 -5 46 5 
-9 -97 123 1 83 
81 68 15 127 -69 

-105 -105 -11 -68 60 
-78 17 -50 63 56 
-36 85 44 60 108 
-18 111 14 -59 29 
-52 99 6 -95 102 


106 93 -20 61 100 
80 -43 -81 28 79 
19 -25 -18 -51 73 
-127 -33 -49 -92 43 
92 -65 101 -57 98 

61 91 47 123 -33 
55 -30 -65 25 113 
-69 -86 -40 -9 14 
-20 78 -26 94 36 
-128 0 -123 -93 -69 

85 -66 14 -10 -88 
122 65 46 118 84 
-97 -76 -23 -18 88 
-84 -77 -1 -85 61 
-119 94 -57 111 -2 

-76 21 -74 31 -96 
-99 48 -95 4 -61 
-105 28 68 -79 39 
-83 -87 12 6 -32 
115 -3 26 -40 81 

91 -23 -122 -44 -111 
-101 -70 -92 -5 -82 
43 -28 -26 -102 -53 
-67 24 -93 -76 -64 
-74 -114 49 -93 3 

-65 69 80 -122 -96 
26 54 7 -69 6 
-37 -2 -109 3 -16 
-102 101 -90 39 -51 
-104 -91 -30 -11 66 

-127 -5 118 1 27 
27 108 122 -68 -17 
-95 99 -5 46 5 
-9 -97 123 1 83 
81 68 15 127 -69 

-105 -105 -11 -68 60 
-78 17 -50 63 56 
-36 85 44 60 108 
-18 111 14 -59 29 
-52 99 6 -95 102 


106 93 -20 61 100 
80 -43 -81 28 79 
19 -25 -18 -51 73 
-127 -33 -49 -92 43 
92 -65 101 -57 98 

61 91 47 123 -33 
55 -30 -65 25 113 
-69 -86 -40 -9 14 
-20 78 -26 94 36 
-128 0 -123 -93 -69 

85 -66 14 -10 -88 
122 65 46 118 84 
-97 -76 -23 -18 88 
-84 -77 -1 -85 61 
-119 94 -57 111 -2 

-76 21 -74 31 -96 
-99 48 -95 4 -61 
-105 28 68 -79 39 
-83 -87 12 6 -32 
115 -3 26 -40 81 

91 -23 -122 -44 -111 
-101 -70 -92 -5 -82 
43 -28 -26 -102 -53 
-67 24 -93 -76 -64 
-74 -114 49 -93 3 

-65 69 80 -122 -96 
26 54 7 -69 6 
-37 -2 -109 3 -16 
-102 101 -90 39 -51 
-104 -91 -30 -11 66 

-127 -5 118 1 27 
27 108 122 -68 -17 
-95 99 -5 46 5 
-9 -97 123 1 83 
81 68 15 127 -69 

-105 -105 -11 -68 60 
-78 17 -50 63 56 
-36 85 44 60 108 
-18 111 14 -59 29 
-52 99 6 -95 102 



106 93 -20 61 100 
80 -43 -81 28 79 
19 -25 -18 -51 73 
-127 -33 -49 -92 43 
92 -65 101 -57 98 

61 91 47 123 -33 
55 -30 -65 25 113 
-69 -86 -40 -9 14 
-20 78 -26 94 36 
-128 0 -123 -93 -69 

85 -66 14 -10 -88 
122 65 46 118 84 
-97 -76 -23 -18 88 
-84 -77 -1 -85 61 
-119 94 -57 111 -2 

-76 21 -74 31 -96 
-99 48 -95 4 -61 
-105 28 68 -79 39 
-83 -87 12 6 -32 
115 -3 26 -40 81 

91 -23 -122 -44 -111 
-101 -70 -92 -5 -82 
43 -28 -26 -102 -53 
-67 24 -93 -76 -64 
-74 -114 49 -93 3 

-65 69 80 -122 -96 
26 54 7 -69 6 
-37 -2 -109 3 -16 
-102 101 -90 39 -51 
-104 -91 -30 -11 66 

-127 -5 118 1 27 
27 108 122 -68 -17 
-95 99 -5 46 5 
-9 -97 123 1 83 
81 68 15 127 -69 

-105 -105 -11 -68 60 
-78 17 -50 63 56 
-36 85 44 60 108 
-18 111 14 -59 29 
-52 99 6 -95 102 


106 93 -20 61 100 
80 -43 -81 28 79 
19 -25 -18 -51 73 
-127 -33 -49 -92 43 
92 -65 101 -57 98 

61 91 47 123 -33 
55 -30 -65 25 113 
-69 -86 -40 -9 14 
-20 78 -26 94 36 
-128 0 -123 -93 -69 

85 -66 14 -10 -88 
122 65 46 118 84 
-97 -76 -23 -18 88 
-84 -77 -1 -85 61 
-119 94 -57 111 -2 

-76 21 -74 31 -96 
-99 48 -95 4 -61 
-105 28 68 -79 39 
-83 -87 12 6 -32 
115 -3 26 -40 81 

91 -23 -122 -44 -111 
-101 -70 -92 -5 -82 
43 -28 -26 -102 -53 
-67 24 -93 -76 -64 
-74 -114 49 -93 3 

-65 69 80 -122 -96 
26 54 7 -69 6 
-37 -2 -109 3 -16 
-102 101 -90 39 -51 
-104 -91 -30 -11 66 

-127 -5 118 1 27 
27 108 122 -68 -17 
-95 99 -5 46 5 
-9 -97 123 1 83 
81 68 15 127 -69 

-105 -105 -11 -68 60 
-78 17 -50 63 56 
-36 85 44 60 108 
-18 111 14 -59 29 
-52 99 6 -95 102 


106 93 -20 61 100 
80 -43 -81 28 79 
19 -25 -18 -51 73 
-127 -33 -49 -92 43 
92 -65 101 -57 98 

61 91 47 123 -33 
55 -30 -65 25 113 
-69 -86 -40 -9 14 
-20 78 -26 94 36 
-128 0 -123 -93 -69 

85 -66 14 -10 -88 
122 65 46 118 84 
-97 -76 -23 -18 88 
-84 -77 -1 -85 61 
-119 94 -57 111 -2 

-76 21 -74 31 -96 
-99 48 -95 4 -61 
-105 28 68 -79 39 
-83 -87 12 6 -32 
115 -3 26 -40 81 

91 -23 -122 -44 -111 
-101 -70 -92 -5 -82 
43 -28 -26 -102 -53 
-67 24 -93 -76 -64 
-74 -114 49 -93 3 

-65 69 80 -122 -96 
26 54 7 -69 6 
-37 -2 -109 3 -16 
-102 101 -90 39 -51 
-104 -91 -30 -11 66 

-127 -5 118 1 27 
27 108 122 -68 -17 
-95 99 -5 46 5 
-9 -97 123 1 83 
81 68 15 127 -69 

-105 -105 -11 -68 60 
-78 17 -50 63 56 
-36 85 44 60 108 
-18 111 14 -59 29 
-52 99 6 -95 102 


106 93 -20 61 100 
80 -43 -81 28 79 
19 -25 -18 -51 73 
-127 -33 -49 -92 43 
92 -65 101 -57 98 

61 91 47 123 -33 
55 -30 -65 25 113 
-69 -86 -40 -9 14 
-20 78 -26 94 36 
-128 0 -123 -93 -69 

85 -66 14 -10 -88 
122 65 46 118 84 
-97 -76 -23 -18 88 
-84 -77 -1 -85 61 
-119 94 -57 111 -2 

-76 21 -74 31 -96 
-99 48 -95 4 -61 
-105 28 68 -79 39 
-83 -87 12 6 -32 
115 -3 26 -40 81 

91 -23 -122 -44 -111 
-101 -70 -92 -5 -82 
43 -28 -26 -102 -53 
-67 24 -93 -76 -64 
-74 -114 49 -93 3 

-65 69 80 -122 -96 
26 54 7 -69 6 
-37 -2 -109 3 -16 
-102 101 -90 39 -51 
-104 -91 -30 -11 66 

-127 -5 118 1 27 
27 108 122 -68 -17 
-95 99 -5 46 5 
-9 -97 123 1 83 
81 68 15 127 -69 

-105 -105 -11 -68 60 
-78 17 -50 63 56 
-36 85 44 60 108 
-18 111 14 -59 29 
-52 99 6 -95 102 




53 -50 50 126 99 
-40 -90 28 45 99 
88 -10 -87 105 29 
-67 17 -24 59 98 
59 -45 -106 83 -29 

-27 -38 -114 -25 -16 
-99 42 -113 27 -115 
43 1 122 90 -4 
26 70 2 32 37 
-107 -89 -75 17 13 

100 -99 62 -78 17 
-37 -74 -34 -126 -7 
78 86 -81 -8 -61 
-27 65 -98 25 30 
23 41 52 -100 43 

-65 111 -110 -113 -97 
86 -31 -77 19 -51 
-31 -30 -48 31 60 
126 -53 78 -88 -123 
-78 27 79 88 -71 

-62 -124 -71 -2 89 
-6 124 14 -115 71 
56 2 7 16 -98 
56 50 18 125 68 
102 -35 111 -127 -72 

-22 -61 75 25 37 
-4 7 -15 -120 -56 
38 -88 -26 -102 -82 
86 89 -72 7 -127 
-37 -29 -102 118 64 

104 -113 121 -2 73 
-69 118 24 -25 -38 
97 -31 94 50 82 
70 -126 -97 76 47 
-43 39 -106 -55 -25 

75 -56 49 -14 -24 
-45 -83 17 -123 -5 
-110 -27 -15 60 44 
-46 -62 41 20 -49 
-10 -33 -52 -31 22 


53 -50 50 126 99 
-40 -90 28 45 99 
88 -10 -87 105 29 
-67 17 -24 59 98 
59 -45 -106 83 -29 

-27 -38 -114 -25 -16 
-99 42 -113 27 -115 
43 1 122 90 -4 
26 70 2 32 37 
-107 -89 -75 17 13 

100 -99 62 -78 17 
-37 -74 -34 -126 -7 
78 86 -81 -8 -61 
-27 65 -98 25 30 
23 41 52 -100 43 

-65 111 -110 -113 -97 
86 -31 -77 19 -51 
-31 -30 -48 31 60 
126 -53 78 -88 -123 
-78 27 79 88 -71 

-62 -124 -71 -2 89 
-6 124 14 -115 71 
56 2 7 16 -98 
56 50 18 125 68 
102 -35 111 -127 -72 

-22 -61 75 25 37 
-4 7 -15 -120 -56 
38 -88 -26 -102 -82 
86 89 -72 7 -127 
-37 -29 -102 118 64 

104 -113 121 -2 73 
-69 118 24 -25 -38 
97 -31 94 50 82 
70 -126 -97 76 47 
-43 39 -106 -55 -25 

75 -56 49 -14 -24 
-45 -83 17 -123 -5 
-110 -27 -15 60 44 
-46 -62 41 20 -49 
-10 -33 -52 -31 22 


53 -50 50 126 99 
-40 -90 28 45 99 
88 -10 -87 105 29 
-67 17 -24 59 98 
59 -45 -106 83 -29 

-27 -38 -114 -25 -16 
-99 42 -113 27 -115 
43 1 122 90 -4 
26 70 2 32 37 
-107 -89 -75 17 13 

100 -99 62 -78 17 
-37 -74 -34 -126 -7 
78 86 -81 -8 -61 
-27 65 -98 25 30 
23 41 52 -100 43 

-65 111 -110 -113 -97 
86 -31 -77 19 -51 
-31 -30 -48 31 60 
126 -53 78 -88 -123 
-78 27 79 88 -71 

-62 -124 -71 -2 89 
-6 124 14 -115 71 
56 2 7 16 -98 
56 50 18 125 68 
102 -35 111 -127 -72 

-22 -61 75 25 37 
-4 7 -15 -120 -56 
38 -88 -26 -102 -82 
86 89 -72 7 -127 
-37 -29 -102 118 64 

104 -113 121 -2 73 
-69 118 24 -25 -38 
97 -31 94 50 82 
70 -126 -97 76 47 
-43 39 -106 -55 -25 

75 -56 49 -14 -24 
-45 -83 17 -123 -5 
-110 -27 -15 60 44 
-46 -62 41 20 -49 
-10 -33 -52 -31 22 


53 -50 50 126 99 
-40 -90 28 45 99 
88 -10 -87 105 29 
-67 17 -24 59 98 
59 -45 -106 83 -29 

-27 -38 -114 -25 -16 
-99 42 -113 27 -115 
43 1 122 90 -4 
26 70 2 32 37 
-107 -89 -75 17 13 

100 -99 62 -78 17 
-37 -74 -34 -126 -7 
78 86 -81 -8 -61 
-27 65 -98 25 30 
23 41 52 -100 43 

-65 111 -110 -113 -97 
86 -31 -77 19 -51 
-31 -30 -48 31 60 
126 -53 78 -88 -123 
-78 27 79 88 -71 

-62 -124 -71 -2 89 
-6 124 14 -115 71 
56 2 7 16 -98 
56 50 18 125 68 
102 -35 111 -127 -72 

-22 -61 75 25 37 
-4 7 -15 -120 -56 
38 -88 -26 -102 -82 
86 89 -72 7 -127 
-37 -29 -102 118 64 

104 -113 121 -2 73 
-69 118 24 -25 -38 
97 -31 94 50 82 
70 -126 -97 76 47 
-43 39 -106 -55 -25 

75 -56 49 -14 -24 
-45 -83 17 -123 -5 
-110 -27 -15 60 44 
-46 -62 41 20 -49 
-10 -33 -52 -31 22 



53 -50 50 126 99 
-40 -90 28 45 99 
88 -10 -87 105 29 
-67 17 -24 59 98 
59 -45 -106 83 -29 

-27 -38 -114 -25 -16 
-99 42 -113 27 -115 
43 1 122 90 -4 
26 70 2 32 37 
-107 -89 -75 17 13 

100 -99 62 -78 17 
-37 -74 -34 -126 -7 
78 86 -81 -8 -61 
-27 65 -98 25 30 
23 41 52 -100 43 

-65 111 -110 -113 -97 
86 -31 -77 19 -51 
-31 -30 -48 31 60 
126 -53 78 -88 -123 
-78 27 79 88 -71 

-62 -124 -71 -2 89 
-6 124 14 -115 71 
56 2 7 16 -98 
56 50 18 125 68 
102 -35 111 -127 -72 

-22 -61 75 25 37 
-4 7 -15 -120 -56 
38 -88 -26 -102 -82 
86 89 -72 7 -127 
-37 -29 -102 118 64 

104 -113 121 -2 73 
-69 118 24 -25 -38 
97 -31 94 50 82 
70 -126 -97 76 47 
-43 39 -106 -55 -25 

75 -56 49 -14 -24 
-45 -83 17 -123 -5 
-110 -27 -15 60 44 
-46 -62 41 20 -49 
-10 -33 -52 -31 22 


53 -50 50 126 99 
-40 -90 28 45 99 
88 -10 -87 105 29 
-67 17 -24 59 98 
59 -45 -106 83 -29 

-27 -38 -114 -25 -16 
-99 42 -113 27 -115 
43 1 122 90 -4 
26 70 2 32 37 
-107 -89 -75 17 13 

100 -99 62 -78 17 
-37 -74 -34 -126 -7 
78 86 -81 -8 -61 
-27 65 -98 25 30 
23 41 52 -100 43 

-65 111 -110 -113 -97 
86 -31 -77 19 -51 
-31 -30 -48 31 60 
126 -53 78 -88 -123 
-78 27 79 88 -71 

-62 -124 -71 -2 89 
-6 124 14 -115 71 
56 2 7 16 -98 
56 50 18 125 68 
102 -35 111 -127 -72 

-22 -61 75 25 37 
-4 7 -15 -120 -56 
38 -88 -26 -102 -82 
86 89 -72 7 -127 
-37 -29 -102 118 64 

104 -113 121 -2 73 
-69 118 24 -25 -38 
97 -31 94 50 82 
70 -126 -97 76 47 
-43 39 -106 -55 -25 

75 -56 49 -14 -24 
-45 -83 17 -123 -5 
-110 -27 -15 60 44 
-46 -62 41 20 -49 
-10 -33 -52 -31 22 


53 -50 50 126 99 
-40 -90 28 45 99 
88 -10 -87 105 29 
-67 17 -24 59 98 
59 -45 -106 83 -29 

-27 -38 -114 -25 -16 
-99 42 -113 27 -115 
43 1 122 90 -4 
26 70 2 32 37 
-107 -89 -75 17 13 

100 -99 62 -78 17 
-37 -74 -34 -126 -7 
78 86 -81 -8 -61 
-27 65 -98 25 30 
23 41 52 -100 43 

-65 111 -110 -113 -97 
86 -31 -77 19 -51 
-31 -30 -48 31 60 
126 -53 78 -88 -123 
-78 27 79 88 -71 

-62 -124 -71 -2 89 
-6 124 14 -115 71 
56 2 7 16 -98 
56 50 18 125 68 
102 -35 111 -127 -72 

-22 -61 75 25 37 
-4 7 -15 -120 -56 
38 -88 -26 -102 -82 
86 89 -72 7 -127 
-37 -29 -102 118 64 

104 -113 121 -2 73 
-69 118 24 -25 -38 
97 -31 94 50 82 
70 -126 -97 76 47 
-43 39 -106 -55 -25 

75 -56 49 -14 -24 
-45 -83 17 -123 -5 
-110 -27 -15 60 44 
-46 -62 41 20 -49 
-10 -33 -52 -31 22 


53 -50 50 126 99 
-40 -90 28 45 99 
88 -10 -87 105 29 
-67 17 -24 59 98 
59 -45 -106 83 -29 

-27 -38 -114 -25 -16 
-99 42 -113 27 -115 
43 1 122 90 -4 
26 70 2 32 37 
-107 -89 -75 17 13 

100 -99 62 -78 17 
-37 -74 -34 -126 -7 
78 86 -81 -8 -61 
-27 65 -98 25 30 
23 41 52 -100 43 

-65 111 -110 -113 -97 
86 -31 -77 19 -51 
-31 -30 -48 31 60 
126 -53 78 -88 -123 
-78 27 79 88 -71 

-62 -124 -71 -2 89 
-6 124 14 -115 71 
56 2 7 16 -98 
56 50 18 125 68 
102 -35 111 -127 -72 

-22 -61 75 25 37 
-4 7 -15 -120 -56 
38 -88 -26 -102 -82 
86 89 -72 7 -127 
-37 -29 -102 118 64 

104 -113 121 -2 73 
-69 118 24 -25 -38 
97 -31 94 50 82 
70 -126 -97 76 47 
-43 39 -106 -55 -25 

75 -56 49 -14 -24 
-45 -83 17 -123 -5 
-110 -27 -15 60 44 
-46 -62 41 20 -49 
-10 -33 -52 -31 22 



53 -50 50 126 99 
-40 -90 28 45 99 
88 -10 -87 105 29 
-67 17 -24 59 98 
59 -45 -106 83 -29 

-27 -38 -114 -25 -16 
-99 42 -113 27 -115 
43 1 122 90 -4 
26 70 2 32 37 
-107 -89 -75 17 13 

100 -99 62 -78 17 
-37 -74 -34 -126 -7 
78 86 -81 -8 -61 
-27 65 -98 25 30 
23 41 52 -100 43 

-65 111 -110 -113 -97 
86 -31 -77 19 -51 
-31 -30 -48 31 60 
126 -53 78 -88 -123 
-78 27 79 88 -71 

-62 -124 -71 -2 89 
-6 124 14 -115 71 
56 2 7 16 -98 
56 50 18 125 68 
102 -35 111 -127 -72 

-22 -61 75 25 37 
-4 7 -15 -120 -56 
38 -88 -26 -102 -82 
86 89 -72 7 -127 
-37 -29 -102 118 64 

104 -113 121 -2 73 
-69 118 24 -25 -38 
97 -31 94 50 82 
70 -126 -97 76 47 
-43 39 -106 -55 -25 

75 -56 49 -14 -24 
-45 -83 17 -123 -5 
-110 -27 -15 60 44 
-46 -62 41 20 -49 
-10 -33 -52 -31 22 


53 -50 50 126 99 
-40 -90 28 45 99 
88 -10 -87 105 29 
-67 17 -24 59 98 
59 -45 -106 83 -29 

-27 -38 -114 -25 -16 
-99 42 -113 27 -115 
43 1 122 90 -4 
26 70 2 32 37 
-107 -89 -75 17 13 

100 -99 62 -78 17 
-37 -74 -34 -126 -7 
78 86 -81 -8 -61 
-27 65 -98 25 30 
23 41 52 -100 43 

-65 111 -110 -113 -97 
86 -31 -77 19 -51 
-31 -30 -48 31 60 
126 -53 78 -88 -123 
-78 27 79 88 -71 

-62 -124 -71 -2 89 
-6 124 14 -115 71 
56 2 7 16 -98 
56 50 18 125 68 
102 -35 111 -127 -72 

-22 -61 75 25 37 
-4 7 -15 -120 -56 
38 -88 -26 -102 -82 
86 89 -72 7 -127 
-37 -29 -102 118 64 

104 -113 121 -2 73 
-69 118 24 -25 -38 
97 -31 94 50 82 
70 -126 -97 76 47 
-43 39 -106 -55 -25 

75 -56 49 -14 -24 
-45 -83 17 -123 -5 
-110 -27 -15 60 44 
-46 -62 41 20 -49 
-10 -33 -52 -31 22 


53 -50 50 126 99 
-40 -90 28 45 99 
88 -10 -87 105 29 
-67 17 -24 59 98 
59 -45 -106 83 -29 

-27 -38 -114 -25 -16 
-99 42 -113 27 -115 
43 1 122 90 -4 
26 70 2 32 37 
-107 -89 -75 17 13 

100 -99 62 -78 17 
-37 -74 -34 -126 -7 
78 86 -81 -8 -61 
-27 65 -98 25 30 
23 41 52 -100 43 

-65 111 -110 -113 -97 
86 -31 -77 19 -51 
-31 -30 -48 31 60 
126 -53 78 -88 -123 
-78 27 79 88 -71 

-62 -124 -71 -2 89 
-6 124 14 -115 71 
56 2 7 16 -98 
56 50 18 125 68 
102 -35 111 -127 -72 

-22 -61 75 25 37 
-4 7 -15 -120 -56 
38 -88 -26 -102 -82 
86 89 -72 7 -127 
-37 -29 -102 118 64 

104 -113 121 -2 73 
-69 118 24 -25 -38 
97 -31 94 50 82 
70 -126 -97 76 47 
-43 39 -106 -55 -25 

75 -56 49 -14 -24 
-45 -83 17 -123 -5 
-110 -27 -15 60 44 
-46 -62 41 20 -49 
-10 -33 -52 -31 22 


53 -50 50 126 99 
-40 -90 28 45 99 
88 -10 -87 105 29 
-67 17 -24 59 98 
59 -45 -106 83 -29 

-27 -38 -114 -25 -16 
-99 42 -113 27 -115 
43 1 122 90 -4 
26 70 2 32 37 
-107 -89 -75 17 13 

100 -99 62 -78 17 
-37 -74 -34 -126 -7 
78 86 -81 -8 -61 
-27 65 -98 25 30 
23 41 52 -100 43 

-65 111 -110 -113 -97 
86 -31 -77 19 -51 
-31 -30 -48 31 60 
126 -53 78 -88 -123 
-78 27 79 88 -71 

-62 -124 -71 -2 89 
-6 124 14 -115 71 
56 2 7 16 -98 
56 50 18 125 68 
102 -35 111 -127 -72 

-22 -61 75 25 37 
-4 7 -15 -120 -56 
38 -88 -26 -102 -82 
86 89 -72 7 -127 
-37 -29 -102 118 64 

104 -113 121 -2 73 
-69 118 24 -25 -38 
97 -31 94 50 82 
70 -126 -97 76 47 
-43 39 -106 -55 -25 

75 -56 49 -14 -24 
-45 -83 17 -123 -5 
-110 -27 -15 60 44 
-46 -62 41 20 -49 
-10 -33 -52 -31 22 



53 -50 50 126 99 
-40 -90 28 45 99 
88 -10 -87 105 29 
-67 17 -24 59 98 
59 -45 -106 83 -29 

-27 -38 -114 -25 -16 
-99 42 -113 27 -115 
43 1 122 90 -4 
26 70 2 32 37 
-107 -89 -75 17 13 

100 -99 62 -78 17 
-37 -74 -34 -126 -7 
78 86 -81 -8 -61 
-27 65 -98 25 30 
23 41 52 -100 43 

-65 111 -110 -113 -97 
86 -31 -77 19 -51 
-31 -30 -48 31 60 
126 -53 78 -88 -123 
-78 27 79 88 -71 

-62 -124 -71 -2 89 
-6 124 14 -115 71 
56 2 7 16 -98 
56 50 18 125 68 
102 -35 111 -127 -72 

-22 -61 75 25 37 
-4 7 -15 -120 -56 
38 -88 -26 -102 -82 
86 89 -72 7 -127 
-37 -29 -102 118 64 

104 -113 121 -2 73 
-69 118 24 -25 -38 
97 -31 94 50 82 
70 -126 -97 76 47 
-43 39 -106 -55 -25 

75 -56 49 -14 -24 
-45 -83 17 -123 -5 
-110 -27 -15 60 44 
-46 -62 41 20 -49 
-10 -33 -52 -31 22 


53 -50 50 126 99 
-40 -90 28 45 99 
88 -10 -87 105 29 
-67 17 -24 59 98 
59 -45 -106 83 -29 

-27 -38 -114 -25 -16 
-99 42 -113 27 -115 
43 1 122 90 -4 
26 70 2 32 37 
-107 -89 -75 17 13 

100 -99 62 -78 17 
-37 -74 -34 -126 -7 
78 86 -81 -8 -61 
-27 65 -98 25 30 
23 41 52 -100 43 

-65 111 -110 -113 -97 
86 -31 -77 19 -51 
-31 -30 -48 31 60 
126 -53 78 -88 -123 
-78 27 79 88 -71 

-62 -124 -71 -2 89 
-6 124 14 -115 71 
56 2 7 16 -98 
56 50 18 125 68 
102 -35 111 -127 -72 

-22 -61 75 25 37 
-4 7 -15 -120 -56 
38 -88 -26 -102 -82 
86 89 -72 7 -127 
-37 -29 -102 118 64 

104 -113 121 -2 73 
-69 118 24 -25 -38 
97 -31 94 50 82 
70 -126 -97 76 47 
-43 39 -106 -55 -25 

75 -56 49 -14 -24 
-45 -83 17 -123 -5 
-110 -27 -15 60 44 
-46 -62 41 20 -49 
-10 -33 -52 -31 22 


53 -50 50 126 99 
-40 -90 28 45 99 
88 -10 -87 105 29 
-67 17 -24 59 98 
59 -45 -106 83 -29 

-27 -38 -114 -25 -16 
-99 42 -113 27 -115 
43 1 122 90 -4 
26 70 2 32 37 
-107 -89 -75 17 13 

100 -99 62 -78 17 
-37 -74 -34 -126 -7 
78 86 -81 -8 -61 
-27 65 -98 25 30 
23 41 52 -100 43 

-65 111 -110 -113 -97 
86 -31 -77 19 -51 
-31 -30 -48 31 60 
126 -53 78 -88 -123 
-78 27 79 88 -71 

-62 -124 -71 -2 89 
-6 124 14 -115 71 
56 2 7 16 -98 
56 50 18 125 68 
102 -35 111 -127 -72 

-22 -61 75 25 37 
-4 7 -15 -120 -56 
38 -88 -26 -102 -82 
86 89 -72 7 -127 
-37 -29 -102 118 64 

104 -113 121 -2 73 
-69 118 24 -25 -38 
97 -31 94 50 82 
70 -126 -97 76 47 
-43 39 -106 -55 -25 

75 -56 49 -14 -24 
-45 -83 17 -123 -5 
-110 -27 -15 60 44 
-46 -62 41 20 -49 
-10 -33 -52 -31 22 


53 -50 50 126 99 
-40 -90 28 45 99 
88 -10 -87 105 29 
-67 17 -24 59 98 
59 -45 -106 83 -29 

-27 -38 -114 -25 -16 
-99 42 -113 27 -115 
43 1 122 90 -4 
26 70 2 32 37 
-107 -89 -75 17 13 

100 -99 62 -78 17 
-37 -74 -34 -126 -7 
78 86 -81 -8 -61 
-27 65 -98 25 30 
23 41 52 -100 43 

-65 111 -110 -113 -97 
86 -31 -77 19 -51 
-31 -30 -48 31 60 
126 -53 78 -88 -123 
-78 27 79 88 -71 

-62 -124 -71 -2 89 
-6 124 14 -115 71 
56 2 7 16 -98 
56 50 18 125 68 
102 -35 111 -127 -72 

-22 -61 75 25 37 
-4 7 -15 -120 -56 
38 -88 -26 -102 -82 
86 89 -72 7 -127 
-37 -29 -102 118 64 

104 -113 121 -2 73 
-69 118 24 -25 -38 
97 -31 94 50 82 
70 -126 -97 76 47 
-43 39 -106 -55 -25 

75 -56 49 -14 -24 
-45 -83 17 -123 -5 
-110 -27 -15 60 44 
-46 -62 41 20 -49 
-10 -33 -52 -31 22 



53 -50 50 126 99 
-40 -90 28 45 99 
88 -10 -87 105 29 
-67 17 -24 59 98 
59 -45 -106 83 -29 

-27 -38 -114 -25 -16 
-99 42 -113 27 -115 
43 1 122 90 -4 
26 70 2 32 37 
-107 -89 -75 17 13 

100 -99 62 -78 17 
-37 -74 -34 -126 -7 
78 86 -81 -8 -61 
-27 65 -98 25 30 
23 41 52 -100 43 

-65 111 -110 -113 -97 
86 -31 -77 19 -51 
-31 -30 -48 31 60 
126 -53 78 -88 -123 
-78 27 79 88 -71 

-62 -124 -71 -2 89 
-6 124 14 -115 71 
56 2 7 16 -98 
56 50 18 125 68 
102 -35 111 -127 -72 

-22 -61 75 25 37 
-4 7 -15 -120 -56 
38 -88 -26 -102 -82 
86 89 -72 7 -127 
-37 -29 -102 118 64 

104 -113 121 -2 73 
-69 118 24 -25 -38 
97 -31 94 50 82 
70 -126 -97 76 47 
-43 39 -106 -55 -25 

75 -56 49 -14 -24 
-45 -83 17 -123 -5 
-110 -27 -15 60 44 
-46 -62 41 20 -49 
-10 -33 -52 -31 22 


53 -50 50 126 99 
-40 -90 28 45 99 
88 -10 -87 105 29 
-67 17 -24 59 98 
59 -45 -106 83 -29 

-27 -38 -114 -25 -16 
-99 42 -113 27 -115 
43 1 122 90 -4 
26 70 2 32 37 
-107 -89 -75 17 13 

100 -99 62 -78 17 
-37 -74 -34 -126 -7 
78 86 -81 -8 -61 
-27 65 -98 25 30 
23 41 52 -100 43 

-65 111 -110 -113 -97 
86 -31 -77 19 -51 
-31 -30 -48 31 60 
126 -53 78 -88 -123 
-78 27 79 88 -71 

-62 -124 -71 -2 89 
-6 124 14 -115 71 
56 2 7 16 -98 
56 50 18 125 68 
102 -35 111 -127 -72 

-22 -61 75 25 37 
-4 7 -15 -120 -56 
38 -88 -26 -102 -82 
86 89 -72 7 -127 
-37 -29 -102 118 64 

104 -113 121 -2 73 
-69 118 24 -25 -38 
97 -31 94 50 82 
70 -126 -97 76 47 
-43 39 -106 -55 -25 

75 -56 49 -14 -24 
-45 -83 17 -123 -5 
-110 -27 -15 60 44 
-46 -62 41 20 -49 
-10 -33 -52 -31 22 


53 -50 50 126 99 
-40 -90 28 45 99 
88 -10 -87 105 29 
-67 17 -24 59 98 
59 -45 -106 83 -29 

-27 -38 -114 -25 -16 
-99 42 -113 27 -115 
43 1 122 90 -4 
26 70 2 32 37 
-107 -89 -75 17 13 

100 -99 62 -78 17 
-37 -74 -34 -126 -7 
78 86 -81 -8 -61 
-27 65 -98 25 30 
23 41 52 -100 43 

-65 111 -110 -113 -97 
86 -31 -77 19 -51 
-31 -30 -48 31 60 
126 -53 78 -88 -123 
-78 27 79 88 -71 

-62 -124 -71 -2 89 
-6 124 14 -115 71 
56 2 7 16 -98 
56 50 18 125 68 
102 -35 111 -127 -72 

-22 -61 75 25 37 
-4 7 -15 -120 -56 
38 -88 -26 -102 -82 
86 89 -72 7 -127 
-37 -29 -102 118 64 

104 -113 121 -2 73 
-69 118 24 -25 -38 
97 -31 94 50 82 
70 -126 -97 76 47 
-43 39 -106 -55 -25 

75 -56 49 -14 -24 
-45 -83 17 -123 -5 
-110 -27 -15 60 44 
-46 -62 41 20 -49 
-10 -33 -52 -31 22 


53 -50 50 126 99 
-40 -90 28 45 99 
88 -10 -87 105 29 
-67 17 -24 59 98 
59 -45 -106 83 -29 

-27 -38 -114 -25 -16 
-99 42 -113 27 -115 
43 1 122 90 -4 
26 70 2 32 37 
-107 -89 -75 17 13 

100 -99 62 -78 17 
-37 -74 -34 -126 -7 
78 86 -81 -8 -61 
-27 65 -98 25 30 
23 41 52 -100 43 

-65 111 -110 -113 -97 
86 -31 -77 19 -51 
-31 -30 -48 31 60 
126 -53 78 -88 -123 
-78 27 79 88 -71 

-62 -124 -71 -2 89 
-6 124 14 -115 71 
56 2 7 16 -98 
56 50 18 125 68 
102 -35 111 -127 -72 

-22 -61 75 25 37 
-4 7 -15 -120 -56 
38 -88 -26 -102 -82 
86 89 -72 7 -127 
-37 -29 -102 118 64 

104 -113 121 -2 73 
-69 118 24 -25 -38 
97 -31 94 50 82 
70 -126 -97 76 47 
-43 39 -106 -55 -25 

75 -56 49 -14 -24 
-45 -83 17 -123 -5 
-110 -27 -15 60 44 
-46 -62 41 20 -49 
-10 -33 -52 -31 22 



53 -50 50 126 99 
-40 -90 28 45 99 
88 -10 -87 105 29 
-67 17 -24 59 98 
59 -45 -106 83 -29 

-27 -38 -114 -25 -16 
-99 42 -113 27 -115 
43 1 122 90 -4 
26 70 2 32 37 
-107 -89 -75 17 13 

100 -99 62 -78 17 
-37 -74 -34 -126 -7 
78 86 -81 -8 -61 
-27 65 -98 25 30 
23 41 52 -100 43 

-65 111 -110 -113 -97 
86 -31 -77 19 -51 
-31 -30 -48 31 60 
126 -53 78 -88 -123 
-78 27 79 88 -71 

-62 -124 -71 -2 89 
-6 124 14 -115 71 
56 2 7 16 -98 
56 50 18 125 68 
102 -35 111 -127 -72 

-22 -61 75 25 37 
-4 7 -15 -120 -56 
38 -88 -26 -102 -82 
86 89 -72 7 -127 
-37 -29 -102 118 64 

104 -113 121 -2 73 
-69 118 24 -25 -38 
97 -31 94 50 82 
70 -126 -97 76 47 
-43 39 -106 -55 -25 

75 -56 49 -14 -24 
-45 -83 17 -123 -5 
-110 -27 -15 60 44 
-46 -62 41 20 -49 
-10 -33 -52 -31 22 


53 -50 50 126 99 
-40 -90 28 45 99 
88 -10 -87 105 29 
-67 17 -24 59 98 
59 -45 -106 83 -29 

-27 -38 -114 -25 -16 
-99 42 -113 27 -115 
43 1 122 90 -4 
26 70 2 32 37 
-107 -89 -75 17 13 

100 -99 62 -78 17 
-37 -74 -34 -126 -7 
78 86 -81 -8 -61 
-27 65 -98 25 30 
23 41 52 -100 43 

-65 111 -110 -113 -97 
86 -31 -77 19 -51 
-31 -30 -48 31 60 
126 -53 78 -88 -123 
-78 27 79 88 -71 

-62 -124 -71 -2 89 
-6 124 14 -115 71 
56 2 7 16 -98 
56 50 18 125 68 
102 -35 111 -127 -72 

-22 -61 75 25 37 
-4 7 -15 -120 -56 
38 -88 -26 -102 -82 
86 89 -72 7 -127 
-37 -29 -102 118 64 

104 -113 121 -2 73 
-69 118 24 -25 -38 
97 -31 94 50 82 
70 -126 -97 76 47 
-43 39 -106 -55 -25 

75 -56 49 -14 -24 
-45 -83 17 -123 -5 
-110 -27 -15 60 44 
-46 -62 41 20 -49 
-10 -33 -52 -31 22 


53 -50 50 126 99 
-40 -90 28 45 99 
88 -10 -87 105 29 
-67 17 -24 59 98 
59 -45 -106 83 -29 

-27 -38 -114 -25 -16 
-99 42 -113 27 -115 
43 1 122 90 -4 
26 70 2 32 37 
-107 -89 -75 17 13 

100 -99 62 -78 17 
-37 -74 -34 -126 -7 
78 86 -81 -8 -61 
-27 65 -98 25 30 
23 41 52 -100 43 

-65 111 -110 -113 -97 
86 -31 -77 19 -51 
-31 -30 -48 31 60 
126 -53 78 -88 -123 
-78 27 79 88 -71 

-62 -124 -71 -2 89 
-6 124 14 -115 71 
56 2 7 16 -98 
56 50 18 125 68 
102 -35 111 -127 -72 

-22 -61 75 25 37 
-4 7 -15 -120 -56 
38 -88 -26 -102 -82 
86 89 -72 7 -127 
-37 -29 -102 118 64 

104 -113 121 -2 73 
-69 118 24 -25 -38 
97 -31 94 50 82 
70 -126 -97 76 47 
-43 39 -106 -55 -25 

75 -56 49 -14 -24 
-45 -83 17 -123 -5 
-110 -27 -15 60 44 
-46 -62 41 20 -49 
-10 -33 -52 -31 22 


53 -50 50 126 99 
-40 -90 28 45 99 
88 -10 -87 105 29 
-67 17 -24 59 98 
59 -45 -106 83 -29 

-27 -38 -114 -25 -16 
-99 42 -113 27 -115 
43 1 122 90 -4 
26 70 2 32 37 
-107 -89 -75 17 13 

100 -99 62 -78 17 
-37 -74 -34 -126 -7 
78 86 -81 -8 -61 
-27 65 -98 25 30 
23 41 52 -100 43 

-65 111 -110 -113 -97 
86 -31 -77 19 -51 
-31 -30 -48 31 60 
126 -53 78 -88 -123 
-78 27 79 88 -71 

-62 -124 -71 -2 89 
-6 124 14 -115 71 
56 2 7 16 -98 
56 50 18 125 68 
102 -35 111 -127 -72 

-22 -61 75 25 37 
-4 7 -15 -120 -56 
38 -88 -26 -102 -82 
86 89 -72 7 -127 
-37 -29 -102 118 64 

104 -113 121 -2 73 
-69 118 24 -25 -38 
97 -31 94 50 82 
70 -126 -97 76 47 
-43 39 -106 -55 -25 

75 -56 49 -14 -24 
-45 -83 17 -123 -5 
-110 -27 -15 60 44 
-46 -62 41 20 -49 
-10 -33 -52 -31 22 



53 -50 50 126 99 
-40 -90 28 45 99 
88 -10 -87 105 29 
-67 17 -24 59 98 
59 -45 -106 83 -29 

-27 -38 -114 -25 -16 
-99 42 -113 27 -115 
43 1 122 90 -4 
26 70 2 32 37 
-107 -89 -75 17 13 

100 -99 62 -78 17 
-37 -74 -34 -126 -7 
78 86 -81 -8 -61 
-27 65 -98 25 30 
23 41 52 -100 43 

-65 111 -110 -113 -97 
86 -31 -77 19 -51 
-31 -30 -48 31 60 
126 -53 78 -88 -123 
-78 27 79 88 -71 

-62 -124 -71 -2 89 
-6 124 14 -115 71 
56 2 7 16 -98 
56 50 18 125 68 
102 -35 111 -127 -72 

-22 -61 75 25 37 
-4 7 -15 -120 -56 
38 -88 -26 -102 -82 
86 89 -72 7 -127 
-37 -29 -102 118 64 

104 -113 121 -2 73 
-69 118 24 -25 -38 
97 -31 94 50 82 
70 -126 -97 76 47 
-43 39 -106 -55 -25 

75 -56 49 -14 -24 
-45 -83 17 -123 -5 
-110 -27 -15 60 44 
-46 -62 41 20 -49 
-10 -33 -52 -31 22 


53 -50 50 126 99 
-40 -90 28 45 99 
88 -10 -87 105 29 
-67 17 -24 59 98 
59 -45 -106 83 -29 

