-23 25 -85 -87 
48 -37 32 -25 
-18 -57 81 -103 
113 -118 73 -126 

-22 27 -72 56 
-23 -61 70 125 
-14 -70 14 -102 
120 69 64 30 

-115 -117 19 63 
-37 37 28 104 
96 -109 -92 -51 
103 115 -108 6 

-111 56 -93 28 
88 110 -113 -71 
15 -18 90 -32 
-104 4 38 -98 

-26 32 -55 122 
105 -126 16 -94 
118 16 18 116 
123 46 -63 87 

-95 115 35 -125 
-76 -26 77 -76 
55 -104 -64 -123 
108 -15 -98 -8 

65 6 -3 -6 
-110 22 -95 -37 
-109 119 55 -111 
-60 46 -61 26 

106 -98 -50 -3 
-36 24 71 -39 
80 -23 106 64 
-26 29 -30 94 


68 22 118 -72 
-95 -8 50 39 
-7 110 96 -114 
-76 -11 -24 84 

-91 -6 -55 101 
-96 -111 -118 45 
-13 20 -6 4 
63 -7 -26 -10 

-88 -29 -64 -56 
-20 -103 45 -93 
-87 -92 -116 -72 
-38 -44 -31 -11 

-21 8 116 64 
-95 39 -101 -10 
111 -107 -50 118 
39 0 47 -78 

120 105 27 74 
66 -127 -42 106 
7 36 -9 -6 
-82 87 -103 -104 

35 84 76 -28 
-50 49 -83 -37 
51 4 -35 22 
91 9 -44 48 

-114 28 -7 -8 
-104 -66 -39 -88 
-12 -22 -77 10 
-43 -100 -69 28 

35 -113 -71 -18 
-114 57 77 70 
87 107 114 61 
-13 -69 -73 -106 


-14 41 -65 13 
-53 -32 -6 12 
67 -41 -100 -104 
105 -6 -50 0 

-10 117 -45 -71 
64 95 -99 7 
-98 9 126 -44 
-81 -93 7 74 

-84 -109 37 -26 
126 32 63 48 
-65 -76 -107 26 
1 -68 -42 -6 

82 84 -35 63 
119 59 -109 102 
55 -40 82 -102 
102 -24 6 66 

-53 -20 38 -64 
68 -57 -97 49 
-55 -24 -52 -78 
-84 103 -1 -58 

-45 -96 79 -32 
58 48 79 22 
-84 -103 105 20 
58 -73 3 -124 

-125 -21 -49 7 
120 90 -58 -6 
39 -1 26 109 
-128 53 9 -105 

2 99 64 -106 
-101 25 63 -35 
-121 88 105 21 
-57 80 -92 -109 


-59 90 112 47 
70 -37 -88 82 
25 114 83 26 
33 -28 -101 -120 

51 28 30 -121 
54 -13 28 3 
6 -16 118 -52 
-74 -9 49 92 

-53 74 -7 -115 
-29 88 108 81 
86 65 69 106 
1 -122 64 -36 

61 70 -69 53 
-3 -60 85 -31 
113 -10 14 -15 
108 -112 -124 -13 

69 -116 26 -119 
-27 116 45 -33 
-98 -97 -73 102 
64 -109 50 -93 

4 124 105 103 
39 -58 7 -88 
11 61 35 -37 
-124 82 95 -77 

76 35 -59 91 
88 126 90 -85 
56 -103 -118 119 
31 -86 0 -62 

-125 -48 84 0 
-91 81 65 58 
59 14 48 -49 
97 119 -81 12 


87 15 -36 47 
118 -85 123 -62 
-98 2 65 91 
-110 -49 34 -109 

-9 -15 108 26 
-118 -99 -108 -64 
-110 -82 -13 -77 
-94 28 116 -67 

-55 122 -55 -126 
-96 -65 32 90 
-9 103 33 123 
-58 116 11 64 

-118 58 17 39 
-50 -35 -82 47 
83 -24 -15 118 
93 83 -111 -12 

17 -34 26 -90 
-21 82 -65 101 
115 -60 99 51 
-50 -67 76 -69 

88 87 -107 -7 
-39 -62 110 -56 
97 75 106 123 
93 126 -61 -115 

76 123 -111 -111 
-9 4 109 73 
119 -118 -91 1 
72 29 -41 -29 

-99 84 39 -126 
-114 41 90 -35 
-117 19 -89 112 
97 19 -120 -35 


-109 124 -29 -46 
-23 -64 89 44 
95 84 53 -73 
-69 120 33 109 

-58 97 -114 45 
3 -76 7 54 
-103 -57 -121 -63 
110 77 -51 -114 

-27 -14 83 -3 
-24 58 -5 70 
-125 -51 76 61 
-8 -3 29 5 

117 102 -54 20 
-30 -72 -78 -6 
51 -84 25 87 
55 72 51 -27 

67 25 36 124 
-105 -33 -3 109 
24 -80 58 -111 
-109 119 -112 90 

84 82 -56 -106 
-38 -9 65 -1 
95 -48 -31 79 
49 71 -52 58 

86 95 -86 -78 
23 68 2 86 
-23 -59 116 119 
-122 20 115 58 

-37 57 39 65 
-46 -60 -61 0 
104 13 -119 68 
60 52 -61 -23 


74 -15 -38 26 
-19 -48 83 -41 
115 -42 98 96 
18 -105 -1 -79 

-91 -118 -61 58 
-7 -80 80 23 
43 -14 95 -124 
32 42 57 77 

-77 42 -92 66 
-69 -118 44 -51 
-22 -72 -108 59 
-4 -34 -83 94 

15 39 -121 117 
111 119 55 -57 
122 1 -22 38 
-82 -49 69 -18 

-124 124 50 50 
5 -90 115 110 
72 13 -60 64 
-75 -105 -1 -42 

-105 60 -75 -29 
-120 65 23 21 
-118 -16 -72 -4 
-54 32 -93 -84 

118 117 -48 -120 
-112 117 -61 -104 
1 62 -102 -80 
-120 -60 92 -94 

114 -89 75 -29 
30 -44 81 78 
-22 104 -51 36 
126 91 71 -16 


56 -73 -3 -5 
63 76 -79 -90 
89 -88 21 -22 
-52 -39 -100 -41 

-91 24 -54 -104 
109 109 -65 -96 
94 -71 -2 -56 
-51 87 -75 -123 

-1 99 125 9 
123 -76 -71 -52 
79 -55 -113 -104 
10 64 88 -112 

-5 -19 57 -37 
-89 -40 39 125 
60 -27 121 2 
79 117 45 -59 

119 104 -27 -40 
53 -51 29 35 
-121 -112 -30 109 
-29 -126 79 43 

-104 -3 102 -59 
-86 -12 79 -118 
19 95 -83 7 
-74 63 57 69 

16 -69 -99 42 
62 -104 8 -110 
-39 100 -95 -36 
124 4 -83 -31 

102 -99 -81 7 
23 53 101 -66 
-91 -74 -100 -41 
63 52 -69 6 


