26 -57 81 
-5 -91 110 
-126 11 73 

-100 105 -93 
34 -111 -77 
-24 13 44 

120 -63 18 
54 -80 123 
89 -46 7 

-104 116 24 
-56 -26 74 
-117 15 1 

9 -72 -109 
-102 -88 -3 
50 51 -75 

-83 -125 -118 
-102 22 59 
-52 -50 -10 

88 89 -19 
114 -78 73 
125 127 -44 

64 6 106 
-12 28 100 
-72 -33 -54 


26 -57 81 
-5 -91 110 
-126 11 73 

-100 105 -93 
34 -111 -77 
-24 13 44 

120 -63 18 
54 -80 123 
89 -46 7 

-104 116 24 
-56 -26 74 
-117 15 1 

9 -72 -109 
-102 -88 -3 
50 51 -75 

-83 -125 -118 
-102 22 59 
-52 -50 -10 

88 89 -19 
114 -78 73 
125 127 -44 

64 6 106 
-12 28 100 
-72 -33 -54 


26 -57 81 
-5 -91 110 
-126 11 73 

-100 105 -93 
34 -111 -77 
-24 13 44 

120 -63 18 
54 -80 123 
89 -46 7 

-104 116 24 
-56 -26 74 
-117 15 1 

9 -72 -109 
-102 -88 -3 
50 51 -75 

-83 -125 -118 
-102 22 59 
-52 -50 -10 

88 89 -19 
114 -78 73 
125 127 -44 

64 6 106 
-12 28 100 
-72 -33 -54 


26 -57 81 
-5 -91 110 
-126 11 73 

-100 105 -93 
34 -111 -77 
-24 13 44 

120 -63 18 
54 -80 123 
89 -46 7 

-104 116 24 
-56 -26 74 
-117 15 1 

9 -72 -109 
-102 -88 -3 
50 51 -75 

-83 -125 -118 
-102 22 59 
-52 -50 -10 

88 89 -19 
114 -78 73 
125 127 -44 

64 6 106 
-12 28 100 
-72 -33 -54 



26 -57 81 
-5 -91 110 
-126 11 73 

-100 105 -93 
34 -111 -77 
-24 13 44 

120 -63 18 
54 -80 123 
89 -46 7 

-104 116 24 
-56 -26 74 
-117 15 1 

9 -72 -109 
-102 -88 -3 
50 51 -75 

-83 -125 -118 
-102 22 59 
-52 -50 -10 

88 89 -19 
114 -78 73 
125 127 -44 

64 6 106 
-12 28 100 
-72 -33 -54 


26 -57 81 
-5 -91 110 
-126 11 73 

-100 105 -93 
34 -111 -77 
-24 13 44 

120 -63 18 
54 -80 123 
89 -46 7 

-104 116 24 
-56 -26 74 
-117 15 1 

9 -72 -109 
-102 -88 -3 
50 51 -75 

-83 -125 -118 
-102 22 59 
-52 -50 -10 

88 89 -19 
114 -78 73 
125 127 -44 

64 6 106 
-12 28 100 
-72 -33 -54 


26 -57 81 
-5 -91 110 
-126 11 73 

-100 105 -93 
34 -111 -77 
-24 13 44 

120 -63 18 
54 -80 123 
89 -46 7 

-104 116 24 
-56 -26 74 
-117 15 1 

9 -72 -109 
-102 -88 -3 
50 51 -75 

-83 -125 -118 
-102 22 59 
-52 -50 -10 

88 89 -19 
114 -78 73 
125 127 -44 

64 6 106 
-12 28 100 
-72 -33 -54 


26 -57 81 
-5 -91 110 
-126 11 73 

-100 105 -93 
34 -111 -77 
-24 13 44 

120 -63 18 
54 -80 123 
89 -46 7 

-104 116 24 
-56 -26 74 
-117 15 1 

9 -72 -109 
-102 -88 -3 
50 51 -75 

-83 -125 -118 
-102 22 59 
-52 -50 -10 

88 89 -19 
114 -78 73 
125 127 -44 

64 6 106 
-12 28 100 
-72 -33 -54 



26 -57 81 
-5 -91 110 
-126 11 73 

-100 105 -93 
34 -111 -77 
-24 13 44 

120 -63 18 
54 -80 123 
89 -46 7 

-104 116 24 
-56 -26 74 
-117 15 1 

9 -72 -109 
-102 -88 -3 
50 51 -75 

-83 -125 -118 
-102 22 59 
-52 -50 -10 

88 89 -19 
114 -78 73 
125 127 -44 

64 6 106 
-12 28 100 
-72 -33 -54 


26 -57 81 
-5 -91 110 
-126 11 73 

-100 105 -93 
34 -111 -77 
-24 13 44 

120 -63 18 
54 -80 123 
89 -46 7 

-104 116 24 
-56 -26 74 
-117 15 1 

9 -72 -109 
-102 -88 -3 
50 51 -75 

-83 -125 -118 
-102 22 59 
-52 -50 -10 

88 89 -19 
114 -78 73 
125 127 -44 

64 6 106 
-12 28 100 
-72 -33 -54 


26 -57 81 
-5 -91 110 
-126 11 73 

-100 105 -93 
34 -111 -77 
-24 13 44 

120 -63 18 
54 -80 123 
89 -46 7 

-104 116 24 
-56 -26 74 
-117 15 1 

9 -72 -109 
-102 -88 -3 
50 51 -75 

-83 -125 -118 
-102 22 59 
-52 -50 -10 

88 89 -19 
114 -78 73 
125 127 -44 

64 6 106 
-12 28 100 
-72 -33 -54 


26 -57 81 
-5 -91 110 
-126 11 73 

-100 105 -93 
34 -111 -77 
-24 13 44 

120 -63 18 
54 -80 123 
89 -46 7 

-104 116 24 
-56 -26 74 
-117 15 1 

9 -72 -109 
-102 -88 -3 
50 51 -75 

-83 -125 -118 
-102 22 59 
-52 -50 -10 

88 89 -19 
114 -78 73 
125 127 -44 

64 6 106 
-12 28 100 
-72 -33 -54 



26 -57 81 
-5 -91 110 
-126 11 73 

-100 105 -93 
34 -111 -77 
-24 13 44 

120 -63 18 
54 -80 123 
89 -46 7 

-104 116 24 
-56 -26 74 
-117 15 1 

9 -72 -109 
-102 -88 -3 
50 51 -75 

-83 -125 -118 
-102 22 59 
-52 -50 -10 

88 89 -19 
114 -78 73 
125 127 -44 

64 6 106 
-12 28 100 
-72 -33 -54 


26 -57 81 
-5 -91 110 
-126 11 73 

-100 105 -93 
34 -111 -77 
-24 13 44 

120 -63 18 
54 -80 123 
89 -46 7 

-104 116 24 
-56 -26 74 
-117 15 1 

9 -72 -109 
-102 -88 -3 
50 51 -75 

-83 -125 -118 
-102 22 59 
-52 -50 -10 

88 89 -19 
114 -78 73 
125 127 -44 

64 6 106 
-12 28 100 
-72 -33 -54 


26 -57 81 
-5 -91 110 
-126 11 73 

-100 105 -93 
34 -111 -77 
-24 13 44 

120 -63 18 
54 -80 123 
89 -46 7 

-104 116 24 
-56 -26 74 
-117 15 1 

9 -72 -109 
-102 -88 -3 
50 51 -75 

-83 -125 -118 
-102 22 59 
-52 -50 -10 

88 89 -19 
114 -78 73 
125 127 -44 

64 6 106 
-12 28 100 
-72 -33 -54 


26 -57 81 
-5 -91 110 
-126 11 73 

-100 105 -93 
34 -111 -77 
-24 13 44 

120 -63 18 
54 -80 123 
89 -46 7 

-104 116 24 
-56 -26 74 
-117 15 1 

9 -72 -109 
-102 -88 -3 
50 51 -75 

-83 -125 -118 
-102 22 59 
-52 -50 -10 

88 89 -19 
114 -78 73 
125 127 -44 

64 6 106 
-12 28 100 
-72 -33 -54 



26 -57 81 
-5 -91 110 
-126 11 73 

-100 105 -93 
34 -111 -77 
-24 13 44 

120 -63 18 
54 -80 123 
89 -46 7 

-104 116 24 
-56 -26 74 
-117 15 1 

9 -72 -109 
-102 -88 -3 
50 51 -75 

-83 -125 -118 
-102 22 59 
-52 -50 -10 

88 89 -19 
114 -78 73 
125 127 -44 

64 6 106 
-12 28 100 
-72 -33 -54 


26 -57 81 
-5 -91 110 
-126 11 73 

-100 105 -93 
34 -111 -77 
-24 13 44 

120 -63 18 
54 -80 123 
89 -46 7 

-104 116 24 
-56 -26 74 
-117 15 1 

9 -72 -109 
-102 -88 -3 
50 51 -75 

-83 -125 -118 
-102 22 59 
-52 -50 -10 

88 89 -19 
114 -78 73 
125 127 -44 

64 6 106 
-12 28 100 
-72 -33 -54 


26 -57 81 
-5 -91 110 
-126 11 73 

-100 105 -93 
34 -111 -77 
-24 13 44 

120 -63 18 
54 -80 123 
89 -46 7 

-104 116 24 
-56 -26 74 
-117 15 1 

9 -72 -109 
-102 -88 -3 
50 51 -75 

-83 -125 -118 
-102 22 59 
-52 -50 -10 

88 89 -19 
114 -78 73 
125 127 -44 

64 6 106 
-12 28 100 
-72 -33 -54 


26 -57 81 
-5 -91 110 
-126 11 73 

-100 105 -93 
34 -111 -77 
-24 13 44 

120 -63 18 
54 -80 123 
89 -46 7 

-104 116 24 
-56 -26 74 
-117 15 1 

9 -72 -109 
-102 -88 -3 
50 51 -75 

-83 -125 -118 
-102 22 59 
-52 -50 -10 

88 89 -19 
114 -78 73 
125 127 -44 

64 6 106 
-12 28 100 
-72 -33 -54 



26 -57 81 
-5 -91 110 
-126 11 73 

-100 105 -93 
34 -111 -77 
-24 13 44 

120 -63 18 
54 -80 123 
89 -46 7 

-104 116 24 
-56 -26 74 
-117 15 1 

9 -72 -109 
-102 -88 -3 
50 51 -75 

-83 -125 -118 
-102 22 59 
-52 -50 -10 

88 89 -19 
114 -78 73 
125 127 -44 

64 6 106 
-12 28 100 
-72 -33 -54 


26 -57 81 
-5 -91 110 
-126 11 73 

-100 105 -93 
34 -111 -77 
-24 13 44 

120 -63 18 
54 -80 123 
89 -46 7 

-104 116 24 
-56 -26 74 
-117 15 1 

9 -72 -109 
-102 -88 -3 
50 51 -75 

-83 -125 -118 
-102 22 59 
-52 -50 -10 

88 89 -19 
114 -78 73 
125 127 -44 

64 6 106 
-12 28 100 
-72 -33 -54 


26 -57 81 
-5 -91 110 
-126 11 73 

-100 105 -93 
34 -111 -77 
-24 13 44 

120 -63 18 
54 -80 123 
89 -46 7 

-104 116 24 
-56 -26 74 
-117 15 1 

9 -72 -109 
-102 -88 -3 
50 51 -75 

-83 -125 -118 
-102 22 59 
-52 -50 -10 

88 89 -19 
114 -78 73 
125 127 -44 

64 6 106 
-12 28 100 
-72 -33 -54 


26 -57 81 
-5 -91 110 
-126 11 73 

-100 105 -93 
34 -111 -77 
-24 13 44 

120 -63 18 
54 -80 123 
89 -46 7 

-104 116 24 
-56 -26 74 
-117 15 1 

9 -72 -109 
-102 -88 -3 
50 51 -75 

-83 -125 -118 
-102 22 59 
-52 -50 -10 

88 89 -19 
114 -78 73 
125 127 -44 

64 6 106 
-12 28 100 
-72 -33 -54 



26 -57 81 
-5 -91 110 
-126 11 73 

-100 105 -93 
34 -111 -77 
-24 13 44 

120 -63 18 
54 -80 123 
89 -46 7 

-104 116 24 
-56 -26 74 
-117 15 1 

9 -72 -109 
-102 -88 -3 
50 51 -75 

-83 -125 -118 
-102 22 59 
-52 -50 -10 

88 89 -19 
114 -78 73 
125 127 -44 

64 6 106 
-12 28 100 
-72 -33 -54 


26 -57 81 
-5 -91 110 
-126 11 73 

-100 105 -93 
34 -111 -77 
-24 13 44 

120 -63 18 
54 -80 123 
89 -46 7 

-104 116 24 
-56 -26 74 
-117 15 1 

9 -72 -109 
-102 -88 -3 
50 51 -75 

-83 -125 -118 
-102 22 59 
-52 -50 -10 

88 89 -19 
114 -78 73 
125 127 -44 

64 6 106 
-12 28 100 
-72 -33 -54 


26 -57 81 
-5 -91 110 
-126 11 73 

-100 105 -93 
34 -111 -77 
-24 13 44 

120 -63 18 
54 -80 123 
89 -46 7 

-104 116 24 
-56 -26 74 
-117 15 1 

9 -72 -109 
-102 -88 -3 
50 51 -75 

-83 -125 -118 
-102 22 59 
-52 -50 -10 

88 89 -19 
114 -78 73 
125 127 -44 

64 6 106 
-12 28 100 
-72 -33 -54 


26 -57 81 
-5 -91 110 
-126 11 73 

-100 105 -93 
34 -111 -77 
-24 13 44 

120 -63 18 
54 -80 123 
89 -46 7 

-104 116 24 
-56 -26 74 
-117 15 1 

9 -72 -109 
-102 -88 -3 
50 51 -75 

-83 -125 -118 
-102 22 59 
-52 -50 -10 

88 89 -19 
114 -78 73 
125 127 -44 

64 6 106 
-12 28 100 
-72 -33 -54 



26 -57 81 
-5 -91 110 
-126 11 73 

-100 105 -93 
34 -111 -77 
-24 13 44 

120 -63 18 
54 -80 123 
89 -46 7 

-104 116 24 
-56 -26 74 
-117 15 1 

9 -72 -109 
-102 -88 -3 
50 51 -75 

-83 -125 -118 
-102 22 59 
-52 -50 -10 

88 89 -19 
114 -78 73 
125 127 -44 

64 6 106 
-12 28 100 
-72 -33 -54 


26 -57 81 
-5 -91 110 
-126 11 73 

-100 105 -93 
34 -111 -77 
-24 13 44 

120 -63 18 
54 -80 123 
89 -46 7 

-104 116 24 
-56 -26 74 
-117 15 1 

9 -72 -109 
-102 -88 -3 
50 51 -75 

-83 -125 -118 
-102 22 59 
-52 -50 -10 

88 89 -19 
114 -78 73 
125 127 -44 

64 6 106 
-12 28 100 
-72 -33 -54 


26 -57 81 
-5 -91 110 
-126 11 73 

-100 105 -93 
34 -111 -77 
-24 13 44 

120 -63 18 
54 -80 123 
89 -46 7 

-104 116 24 
-56 -26 74 
-117 15 1 

9 -72 -109 
-102 -88 -3 
50 51 -75 

-83 -125 -118 
-102 22 59 
-52 -50 -10 

88 89 -19 
114 -78 73 
125 127 -44 

64 6 106 
-12 28 100 
-72 -33 -54 


26 -57 81 
-5 -91 110 
-126 11 73 

-100 105 -93 
34 -111 -77 
-24 13 44 

120 -63 18 
54 -80 123 
89 -46 7 

-104 116 24 
-56 -26 74 
-117 15 1 

9 -72 -109 
-102 -88 -3 
50 51 -75 

-83 -125 -118 
-102 22 59 
-52 -50 -10 

88 89 -19 
114 -78 73 
125 127 -44 

64 6 106 
-12 28 100 
-72 -33 -54 



26 -57 81 
-5 -91 110 
-126 11 73 

-100 105 -93 
34 -111 -77 
-24 13 44 

120 -63 18 
54 -80 123 
89 -46 7 

-104 116 24 
-56 -26 74 
-117 15 1 

9 -72 -109 
-102 -88 -3 
50 51 -75 

-83 -125 -118 
-102 22 59 
-52 -50 -10 

88 89 -19 
114 -78 73 
125 127 -44 

64 6 106 
-12 28 100 
-72 -33 -54 


26 -57 81 
-5 -91 110 
-126 11 73 

-100 105 -93 
34 -111 -77 
-24 13 44 

120 -63 18 
54 -80 123 
89 -46 7 

-104 116 24 
-56 -26 74 
-117 15 1 

9 -72 -109 
-102 -88 -3 
50 51 -75 

-83 -125 -118 
-102 22 59 
-52 -50 -10 

88 89 -19 
114 -78 73 
125 127 -44 

64 6 106 
-12 28 100 
-72 -33 -54 


26 -57 81 
-5 -91 110 
-126 11 73 

-100 105 -93 
34 -111 -77 
-24 13 44 

120 -63 18 
54 -80 123 
89 -46 7 

-104 116 24 
-56 -26 74 
-117 15 1 

9 -72 -109 
-102 -88 -3 
50 51 -75 

-83 -125 -118 
-102 22 59 
-52 -50 -10 

88 89 -19 
114 -78 73 
125 127 -44 

64 6 106 
-12 28 100 
-72 -33 -54 


26 -57 81 
-5 -91 110 
-126 11 73 

-100 105 -93 
34 -111 -77 
-24 13 44 

120 -63 18 
54 -80 123 
89 -46 7 

-104 116 24 
-56 -26 74 
-117 15 1 

9 -72 -109 
-102 -88 -3 
50 51 -75 

-83 -125 -118 
-102 22 59 
-52 -50 -10 

88 89 -19 
114 -78 73 
125 127 -44 

64 6 106 
-12 28 100 
-72 -33 -54 



26 -57 81 
-5 -91 110 
-126 11 73 

-100 105 -93 
34 -111 -77 
-24 13 44 

120 -63 18 
54 -80 123 
89 -46 7 

-104 116 24 
-56 -26 74 
-117 15 1 

9 -72 -109 
-102 -88 -3 
50 51 -75 

-83 -125 -118 
-102 22 59 
-52 -50 -10 

88 89 -19 
114 -78 73 
125 127 -44 

64 6 106 
-12 28 100 
-72 -33 -54 


26 -57 81 
-5 -91 110 
-126 11 73 

-100 105 -93 
34 -111 -77 
-24 13 44 

120 -63 18 
54 -80 123 
89 -46 7 

-104 116 24 
-56 -26 74 
-117 15 1 

9 -72 -109 
-102 -88 -3 
50 51 -75 

-83 -125 -118 
-102 22 59 
-52 -50 -10 

88 89 -19 
114 -78 73 
125 127 -44 

64 6 106 
-12 28 100 
-72 -33 -54 


26 -57 81 
-5 -91 110 
-126 11 73 

-100 105 -93 
34 -111 -77 
-24 13 44 

120 -63 18 
54 -80 123 
89 -46 7 

-104 116 24 
-56 -26 74 
-117 15 1 

9 -72 -109 
-102 -88 -3 
50 51 -75 

-83 -125 -118 
-102 22 59 
-52 -50 -10 

88 89 -19 
114 -78 73 
125 127 -44 

64 6 106 
-12 28 100 
-72 -33 -54 


26 -57 81 
-5 -91 110 
-126 11 73 

-100 105 -93 
34 -111 -77 
-24 13 44 

120 -63 18 
54 -80 123 
89 -46 7 

-104 116 24 
-56 -26 74 
-117 15 1 

9 -72 -109 
-102 -88 -3 
50 51 -75 

-83 -125 -118 
-102 22 59 
-52 -50 -10 

88 89 -19 
114 -78 73 
125 127 -44 

64 6 106 
-12 28 100 
-72 -33 -54 



26 -57 81 
-5 -91 110 
-126 11 73 

-100 105 -93 
34 -111 -77 
-24 13 44 

120 -63 18 
54 -80 123 
89 -46 7 

-104 116 24 
-56 -26 74 
-117 15 1 

9 -72 -109 
-102 -88 -3 
50 51 -75 

-83 -125 -118 
-102 22 59 
-52 -50 -10 

88 89 -19 
114 -78 73 
125 127 -44 

64 6 106 
-12 28 100 
-72 -33 -54 


26 -57 81 
-5 -91 110 
-126 11 73 

-100 105 -93 
34 -111 -77 
-24 13 44 

120 -63 18 
54 -80 123 
89 -46 7 

-104 116 24 
-56 -26 74 
-117 15 1 

9 -72 -109 
-102 -88 -3 
50 51 -75 

-83 -125 -118 
-102 22 59 
-52 -50 -10 

88 89 -19 
114 -78 73 
125 127 -44 

64 6 106 
-12 28 100 
-72 -33 -54 


26 -57 81 
-5 -91 110 
-126 11 73 

-100 105 -93 
34 -111 -77 
-24 13 44 

120 -63 18 
54 -80 123 
89 -46 7 

-104 116 24 
-56 -26 74 
-117 15 1 

9 -72 -109 
-102 -88 -3 
50 51 -75 

-83 -125 -118 
-102 22 59 
-52 -50 -10 

88 89 -19 
114 -78 73 
125 127 -44 

64 6 106 
-12 28 100 
-72 -33 -54 


26 -57 81 
-5 -91 110 
-126 11 73 

-100 105 -93 
34 -111 -77 
-24 13 44 

120 -63 18 
54 -80 123 
89 -46 7 

-104 116 24 
-56 -26 74 
-117 15 1 

9 -72 -109 
-102 -88 -3 
50 51 -75 

-83 -125 -118 
-102 22 59 
-52 -50 -10 

88 89 -19 
114 -78 73 
125 127 -44 

64 6 106 
-12 28 100 
-72 -33 -54 



26 -57 81 
-5 -91 110 
-126 11 73 

-100 105 -93 
34 -111 -77 
-24 13 44 

120 -63 18 
54 -80 123 
89 -46 7 

-104 116 24 
-56 -26 74 
-117 15 1 

9 -72 -109 
-102 -88 -3 
50 51 -75 

-83 -125 -118 
-102 22 59 
-52 -50 -10 

88 89 -19 
114 -78 73 
125 127 -44 

64 6 106 
-12 28 100 
-72 -33 -54 


26 -57 81 
-5 -91 110 
-126 11 73 

-100 105 -93 
34 -111 -77 
-24 13 44 

120 -63 18 
54 -80 123 
89 -46 7 

-104 116 24 
-56 -26 74 
-117 15 1 

9 -72 -109 
-102 -88 -3 
50 51 -75 

-83 -125 -118 
-102 22 59 
-52 -50 -10 

88 89 -19 
114 -78 73 
125 127 -44 

64 6 106 
-12 28 100 
-72 -33 -54 


26 -57 81 
-5 -91 110 
-126 11 73 

-100 105 -93 
34 -111 -77 
-24 13 44 

120 -63 18 
54 -80 123 
89 -46 7 

-104 116 24 
-56 -26 74 
-117 15 1 

9 -72 -109 
-102 -88 -3 
50 51 -75 

-83 -125 -118 
-102 22 59 
-52 -50 -10 

88 89 -19 
114 -78 73 
125 127 -44 

64 6 106 
-12 28 100 
-72 -33 -54 


26 -57 81 
-5 -91 110 
-126 11 73 

-100 105 -93 
34 -111 -77 
-24 13 44 

120 -63 18 
54 -80 123 
89 -46 7 

-104 116 24 
-56 -26 74 
-117 15 1 

9 -72 -109 
-102 -88 -3 
50 51 -75 

-83 -125 -118 
-102 22 59 
-52 -50 -10 

88 89 -19 
114 -78 73 
125 127 -44 

64 6 106 
-12 28 100 
-72 -33 -54 



26 -57 81 
-5 -91 110 
-126 11 73 

-100 105 -93 
34 -111 -77 
-24 13 44 

120 -63 18 
54 -80 123 
89 -46 7 

-104 116 24 
-56 -26 74 
-117 15 1 

9 -72 -109 
-102 -88 -3 
50 51 -75 

-83 -125 -118 
-102 22 59 
-52 -50 -10 

88 89 -19 
114 -78 73 
125 127 -44 

64 6 106 
-12 28 100 
-72 -33 -54 


26 -57 81 
-5 -91 110 
-126 11 73 

-100 105 -93 
34 -111 -77 
-24 13 44 

120 -63 18 
54 -80 123 
89 -46 7 

-104 116 24 
-56 -26 74 
-117 15 1 

9 -72 -109 
-102 -88 -3 
50 51 -75 

-83 -125 -118 
-102 22 59 
-52 -50 -10 

88 89 -19 
114 -78 73 
125 127 -44 

64 6 106 
-12 28 100 
-72 -33 -54 


26 -57 81 
-5 -91 110 
-126 11 73 

-100 105 -93 
34 -111 -77 
-24 13 44 

120 -63 18 
54 -80 123 
89 -46 7 

-104 116 24 
-56 -26 74 
-117 15 1 

9 -72 -109 
-102 -88 -3 
50 51 -75 

-83 -125 -118 
-102 22 59 
-52 -50 -10 

88 89 -19 
114 -78 73 
125 127 -44 

64 6 106 
-12 28 100 
-72 -33 -54 


26 -57 81 
-5 -91 110 
-126 11 73 

-100 105 -93 
34 -111 -77 
-24 13 44 

120 -63 18 
54 -80 123 
89 -46 7 

-104 116 24 
-56 -26 74 
-117 15 1 

9 -72 -109 
-102 -88 -3 
50 51 -75 

-83 -125 -118 
-102 22 59 
-52 -50 -10 

88 89 -19 
114 -78 73 
125 127 -44 

64 6 106 
-12 28 100 
-72 -33 -54 




-10 33 -30 
-52 89 47 
-79 -81 94 

-101 -39 -42 
8 -125 18 
92 -91 64 

-9 -90 -120 
93 66 34 
91 84 17 

-26 97 92 
-107 -75 -81 
-70 104 -6 

-11 40 -28 
-29 112 61 
-107 -90 116 

-41 -89 40 
-88 28 -107 
76 74 -31 

93 -68 25 
-64 -60 50 
88 -98 -9 

15 28 4 
-35 -87 -11 
123 -8 108 


-10 33 -30 
-52 89 47 
-79 -81 94 

-101 -39 -42 
8 -125 18 
92 -91 64 

-9 -90 -120 
93 66 34 
91 84 17 

-26 97 92 
-107 -75 -81 
-70 104 -6 

-11 40 -28 
-29 112 61 
-107 -90 116 

-41 -89 40 
-88 28 -107 
76 74 -31 

93 -68 25 
-64 -60 50 
88 -98 -9 

15 28 4 
-35 -87 -11 
123 -8 108 


-10 33 -30 
-52 89 47 
-79 -81 94 

-101 -39 -42 
8 -125 18 
92 -91 64 

-9 -90 -120 
93 66 34 
91 84 17 

-26 97 92 
-107 -75 -81 
-70 104 -6 

-11 40 -28 
-29 112 61 
-107 -90 116 

-41 -89 40 
-88 28 -107 
76 74 -31 

93 -68 25 
-64 -60 50 
88 -98 -9 

15 28 4 
-35 -87 -11 
123 -8 108 


-10 33 -30 
-52 89 47 
-79 -81 94 

-101 -39 -42 
8 -125 18 
92 -91 64 

-9 -90 -120 
93 66 34 
91 84 17 

-26 97 92 
-107 -75 -81 
-70 104 -6 

-11 40 -28 
-29 112 61 
-107 -90 116 

-41 -89 40 
-88 28 -107 
76 74 -31 

93 -68 25 
-64 -60 50 
88 -98 -9 

15 28 4 
-35 -87 -11 
123 -8 108 



-10 33 -30 
-52 89 47 
-79 -81 94 

-101 -39 -42 
8 -125 18 
92 -91 64 

-9 -90 -120 
93 66 34 
91 84 17 

-26 97 92 
-107 -75 -81 
-70 104 -6 

-11 40 -28 
-29 112 61 
-107 -90 116 

-41 -89 40 
-88 28 -107 
76 74 -31 

93 -68 25 
-64 -60 50 
88 -98 -9 

15 28 4 
-35 -87 -11 
123 -8 108 


-10 33 -30 
-52 89 47 
-79 -81 94 

-101 -39 -42 
8 -125 18 
92 -91 64 

-9 -90 -120 
93 66 34 
91 84 17 

-26 97 92 
-107 -75 -81 
-70 104 -6 

-11 40 -28 
-29 112 61 
-107 -90 116 

-41 -89 40 
-88 28 -107 
76 74 -31 

93 -68 25 
-64 -60 50 
88 -98 -9 

15 28 4 
-35 -87 -11 
123 -8 108 


-10 33 -30 
-52 89 47 
-79 -81 94 

-101 -39 -42 
8 -125 18 
92 -91 64 

-9 -90 -120 
93 66 34 
91 84 17 

-26 97 92 
-107 -75 -81 
-70 104 -6 

-11 40 -28 
-29 112 61 
-107 -90 116 

-41 -89 40 
-88 28 -107 
76 74 -31 

93 -68 25 
-64 -60 50 
88 -98 -9 

15 28 4 
-35 -87 -11 
123 -8 108 


-10 33 -30 
-52 89 47 
-79 -81 94 

-101 -39 -42 
8 -125 18 
92 -91 64 

-9 -90 -120 
93 66 34 
91 84 17 

-26 97 92 
-107 -75 -81 
-70 104 -6 

-11 40 -28 
-29 112 61 
-107 -90 116 

-41 -89 40 
-88 28 -107 
76 74 -31 

93 -68 25 
-64 -60 50 
88 -98 -9 

15 28 4 
-35 -87 -11 
123 -8 108 



-10 33 -30 
-52 89 47 
-79 -81 94 

-101 -39 -42 
8 -125 18 
92 -91 64 

-9 -90 -120 
93 66 34 
91 84 17 

-26 97 92 
-107 -75 -81 
-70 104 -6 

-11 40 -28 
-29 112 61 
-107 -90 116 

-41 -89 40 
-88 28 -107 
76 74 -31 

93 -68 25 
-64 -60 50 
88 -98 -9 

15 28 4 
-35 -87 -11 
123 -8 108 


-10 33 -30 
-52 89 47 
-79 -81 94 

-101 -39 -42 
8 -125 18 
92 -91 64 

-9 -90 -120 
93 66 34 
91 84 17 

-26 97 92 
-107 -75 -81 
-70 104 -6 

-11 40 -28 
-29 112 61 
-107 -90 116 

-41 -89 40 
-88 28 -107 
76 74 -31 

93 -68 25 
-64 -60 50 
88 -98 -9 

15 28 4 
-35 -87 -11 
123 -8 108 


-10 33 -30 
-52 89 47 
-79 -81 94 

-101 -39 -42 
8 -125 18 
92 -91 64 

-9 -90 -120 
93 66 34 
91 84 17 

-26 97 92 
-107 -75 -81 
-70 104 -6 

-11 40 -28 
-29 112 61 
-107 -90 116 

-41 -89 40 
-88 28 -107 
76 74 -31 

93 -68 25 
-64 -60 50 
88 -98 -9 

15 28 4 
-35 -87 -11 
123 -8 108 


-10 33 -30 
-52 89 47 
-79 -81 94 

-101 -39 -42 
8 -125 18 
92 -91 64 

-9 -90 -120 
93 66 34 
91 84 17 

-26 97 92 
-107 -75 -81 
-70 104 -6 

-11 40 -28 
-29 112 61 
-107 -90 116 

-41 -89 40 
-88 28 -107 
76 74 -31 

93 -68 25 
-64 -60 50 
88 -98 -9 

15 28 4 
-35 -87 -11 
123 -8 108 



-10 33 -30 
-52 89 47 
-79 -81 94 

-101 -39 -42 
8 -125 18 
92 -91 64 

-9 -90 -120 
93 66 34 
91 84 17 

-26 97 92 
-107 -75 -81 
-70 104 -6 

-11 40 -28 
-29 112 61 
-107 -90 116 

-41 -89 40 
-88 28 -107 
76 74 -31 

93 -68 25 
-64 -60 50 
88 -98 -9 

15 28 4 
-35 -87 -11 
123 -8 108 


-10 33 -30 
-52 89 47 
-79 -81 94 

-101 -39 -42 
8 -125 18 
92 -91 64 

-9 -90 -120 
93 66 34 
91 84 17 

-26 97 92 
-107 -75 -81 
-70 104 -6 

-11 40 -28 
-29 112 61 
-107 -90 116 

-41 -89 40 
-88 28 -107 
76 74 -31 

93 -68 25 
-64 -60 50 
88 -98 -9 

15 28 4 
-35 -87 -11 
123 -8 108 


-10 33 -30 
-52 89 47 
-79 -81 94 

-101 -39 -42 
8 -125 18 
92 -91 64 

-9 -90 -120 
93 66 34 
91 84 17 

-26 97 92 
-107 -75 -81 
-70 104 -6 

-11 40 -28 
-29 112 61 
-107 -90 116 

-41 -89 40 
-88 28 -107 
76 74 -31 

93 -68 25 
-64 -60 50 
88 -98 -9 

15 28 4 
-35 -87 -11 
123 -8 108 


-10 33 -30 
-52 89 47 
-79 -81 94 

-101 -39 -42 
8 -125 18 
92 -91 64 

-9 -90 -120 
93 66 34 
91 84 17 

-26 97 92 
-107 -75 -81 
-70 104 -6 

-11 40 -28 
-29 112 61 
-107 -90 116 

-41 -89 40 
-88 28 -107 
76 74 -31 

93 -68 25 
-64 -60 50 
88 -98 -9 

15 28 4 
-35 -87 -11 
123 -8 108 



-10 33 -30 
-52 89 47 
-79 -81 94 

-101 -39 -42 
8 -125 18 
92 -91 64 

-9 -90 -120 
93 66 34 
91 84 17 

-26 97 92 
-107 -75 -81 
-70 104 -6 

-11 40 -28 
-29 112 61 
-107 -90 116 

-41 -89 40 
-88 28 -107 
76 74 -31 

93 -68 25 
-64 -60 50 
88 -98 -9 

15 28 4 
-35 -87 -11 
123 -8 108 


-10 33 -30 
-52 89 47 
-79 -81 94 

-101 -39 -42 
8 -125 18 
92 -91 64 

-9 -90 -120 
93 66 34 
91 84 17 

-26 97 92 
-107 -75 -81 
-70 104 -6 

-11 40 -28 
-29 112 61 
-107 -90 116 

-41 -89 40 
-88 28 -107 
76 74 -31 

93 -68 25 
-64 -60 50 
88 -98 -9 

15 28 4 
-35 -87 -11 
123 -8 108 


-10 33 -30 
-52 89 47 
-79 -81 94 

-101 -39 -42 
8 -125 18 
92 -91 64 

-9 -90 -120 
93 66 34 
91 84 17 

-26 97 92 
-107 -75 -81 
-70 104 -6 

-11 40 -28 
-29 112 61 
-107 -90 116 

-41 -89 40 
-88 28 -107 
76 74 -31 

93 -68 25 
-64 -60 50 
88 -98 -9 

15 28 4 
-35 -87 -11 
123 -8 108 


-10 33 -30 
-52 89 47 
-79 -81 94 

-101 -39 -42 
8 -125 18 
92 -91 64 

-9 -90 -120 
93 66 34 
91 84 17 

-26 97 92 
-107 -75 -81 
-70 104 -6 

-11 40 -28 
-29 112 61 
-107 -90 116 

-41 -89 40 
-88 28 -107 
76 74 -31 

93 -68 25 
-64 -60 50 
88 -98 -9 

15 28 4 
-35 -87 -11 
123 -8 108 



-10 33 -30 
-52 89 47 
-79 -81 94 

-101 -39 -42 
8 -125 18 
92 -91 64 

-9 -90 -120 
93 66 34 
91 84 17 

-26 97 92 
-107 -75 -81 
-70 104 -6 

-11 40 -28 
-29 112 61 
-107 -90 116 

-41 -89 40 
-88 28 -107 
76 74 -31 

93 -68 25 
-64 -60 50 
88 -98 -9 

15 28 4 
-35 -87 -11 
123 -8 108 


-10 33 -30 
-52 89 47 
-79 -81 94 

-101 -39 -42 
8 -125 18 
92 -91 64 

-9 -90 -120 
93 66 34 
91 84 17 

-26 97 92 
-107 -75 -81 
-70 104 -6 

-11 40 -28 
-29 112 61 
-107 -90 116 

-41 -89 40 
-88 28 -107 
76 74 -31 

93 -68 25 
-64 -60 50 
88 -98 -9 

15 28 4 
-35 -87 -11 
123 -8 108 


-10 33 -30 
-52 89 47 
-79 -81 94 

-101 -39 -42 
8 -125 18 
92 -91 64 

-9 -90 -120 
93 66 34 
91 84 17 

-26 97 92 
-107 -75 -81 
-70 104 -6 

-11 40 -28 
-29 112 61 
-107 -90 116 

-41 -89 40 
-88 28 -107 
76 74 -31 

93 -68 25 
-64 -60 50 
88 -98 -9 

15 28 4 
-35 -87 -11 
123 -8 108 


-10 33 -30 
-52 89 47 
-79 -81 94 

-101 -39 -42 
8 -125 18 
92 -91 64 

-9 -90 -120 
93 66 34 
91 84 17 

-26 97 92 
-107 -75 -81 
-70 104 -6 

-11 40 -28 
-29 112 61 
-107 -90 116 

-41 -89 40 
-88 28 -107 
76 74 -31 

93 -68 25 
-64 -60 50 
88 -98 -9 

15 28 4 
-35 -87 -11 
123 -8 108 



-10 33 -30 
-52 89 47 
-79 -81 94 

-101 -39 -42 
8 -125 18 
92 -91 64 

-9 -90 -120 
93 66 34 
91 84 17 

-26 97 92 
-107 -75 -81 
-70 104 -6 

-11 40 -28 
-29 112 61 
-107 -90 116 

-41 -89 40 
-88 28 -107 
76 74 -31 

93 -68 25 
-64 -60 50 
88 -98 -9 

15 28 4 
-35 -87 -11 
123 -8 108 


-10 33 -30 
-52 89 47 
-79 -81 94 

-101 -39 -42 
8 -125 18 
92 -91 64 

-9 -90 -120 
93 66 34 
91 84 17 

-26 97 92 
-107 -75 -81 
-70 104 -6 

-11 40 -28 
-29 112 61 
-107 -90 116 

-41 -89 40 
-88 28 -107 
76 74 -31 

93 -68 25 
-64 -60 50 
88 -98 -9 

15 28 4 
-35 -87 -11 
123 -8 108 


-10 33 -30 
-52 89 47 
-79 -81 94 

-101 -39 -42 
8 -125 18 
92 -91 64 

-9 -90 -120 
93 66 34 
91 84 17 

-26 97 92 
-107 -75 -81 
-70 104 -6 

-11 40 -28 
-29 112 61 
-107 -90 116 

-41 -89 40 
-88 28 -107 
76 74 -31 

93 -68 25 
-64 -60 50 
88 -98 -9 

15 28 4 
-35 -87 -11 
123 -8 108 


-10 33 -30 
-52 89 47 
-79 -81 94 

-101 -39 -42 
8 -125 18 
92 -91 64 

-9 -90 -120 
93 66 34 
91 84 17 

-26 97 92 
-107 -75 -81 
-70 104 -6 

-11 40 -28 
-29 112 61 
-107 -90 116 

-41 -89 40 
-88 28 -107 
76 74 -31 

93 -68 25 
-64 -60 50 
88 -98 -9 

15 28 4 
-35 -87 -11 
123 -8 108 



-10 33 -30 
-52 89 47 
-79 -81 94 

-101 -39 -42 
8 -125 18 
92 -91 64 

-9 -90 -120 
93 66 34 
91 84 17 

-26 97 92 
-107 -75 -81 
-70 104 -6 

-11 40 -28 
-29 112 61 
-107 -90 116 

-41 -89 40 
-88 28 -107 
76 74 -31 

93 -68 25 
-64 -60 50 
88 -98 -9 

15 28 4 
-35 -87 -11 
123 -8 108 


-10 33 -30 
-52 89 47 
-79 -81 94 

-101 -39 -42 
8 -125 18 
92 -91 64 

-9 -90 -120 
93 66 34 
91 84 17 

-26 97 92 
-107 -75 -81 
-70 104 -6 

-11 40 -28 
-29 112 61 
-107 -90 116 

-41 -89 40 
-88 28 -107 
76 74 -31 

93 -68 25 
-64 -60 50 
88 -98 -9 

15 28 4 
-35 -87 -11 
123 -8 108 


-10 33 -30 
-52 89 47 
-79 -81 94 

-101 -39 -42 
8 -125 18 
92 -91 64 

-9 -90 -120 
93 66 34 
91 84 17 

-26 97 92 
-107 -75 -81 
-70 104 -6 

-11 40 -28 
-29 112 61 
-107 -90 116 

-41 -89 40 
-88 28 -107 
76 74 -31 

93 -68 25 
-64 -60 50 
88 -98 -9 

15 28 4 
-35 -87 -11 
123 -8 108 


-10 33 -30 
-52 89 47 
-79 -81 94 

-101 -39 -42 
8 -125 18 
92 -91 64 

-9 -90 -120 
93 66 34 
91 84 17 

-26 97 92 
-107 -75 -81 
-70 104 -6 

-11 40 -28 
-29 112 61 
-107 -90 116 

-41 -89 40 
-88 28 -107 
76 74 -31 

93 -68 25 
-64 -60 50 
88 -98 -9 

15 28 4 
-35 -87 -11 
123 -8 108 



-10 33 -30 
-52 89 47 
-79 -81 94 

-101 -39 -42 
8 -125 18 
92 -91 64 

-9 -90 -120 
93 66 34 
91 84 17 

-26 97 92 
-107 -75 -81 
-70 104 -6 

-11 40 -28 
-29 112 61 
-107 -90 116 

-41 -89 40 
-88 28 -107 
76 74 -31 

93 -68 25 
-64 -60 50 
88 -98 -9 

15 28 4 
-35 -87 -11 
123 -8 108 


-10 33 -30 
-52 89 47 
-79 -81 94 

-101 -39 -42 
8 -125 18 
92 -91 64 

-9 -90 -120 
93 66 34 
91 84 17 

-26 97 92 
-107 -75 -81 
-70 104 -6 

-11 40 -28 
-29 112 61 
-107 -90 116 

-41 -89 40 
-88 28 -107 
76 74 -31 

93 -68 25 
-64 -60 50 
88 -98 -9 

15 28 4 
-35 -87 -11 
123 -8 108 


-10 33 -30 
-52 89 47 
-79 -81 94 

-101 -39 -42 
8 -125 18 
92 -91 64 

-9 -90 -120 
93 66 34 
91 84 17 

-26 97 92 
-107 -75 -81 
-70 104 -6 

-11 40 -28 
-29 112 61 
-107 -90 116 

-41 -89 40 
-88 28 -107 
76 74 -31 

93 -68 25 
-64 -60 50 
88 -98 -9 

15 28 4 
-35 -87 -11 
123 -8 108 


-10 33 -30 
-52 89 47 
-79 -81 94 

-101 -39 -42 
8 -125 18 
92 -91 64 

-9 -90 -120 
93 66 34 
91 84 17 

-26 97 92 
-107 -75 -81 
-70 104 -6 

-11 40 -28 
-29 112 61 
-107 -90 116 

-41 -89 40 
-88 28 -107 
76 74 -31 

93 -68 25 
-64 -60 50 
88 -98 -9 

15 28 4 
-35 -87 -11 
123 -8 108 



-10 33 -30 
-52 89 47 
-79 -81 94 

-101 -39 -42 
8 -125 18 
92 -91 64 

-9 -90 -120 
93 66 34 
91 84 17 

-26 97 92 
-107 -75 -81 
-70 104 -6 

-11 40 -28 
-29 112 61 
-107 -90 116 

-41 -89 40 
-88 28 -107 
76 74 -31 

93 -68 25 
-64 -60 50 
88 -98 -9 

15 28 4 
-35 -87 -11 
123 -8 108 


-10 33 -30 
-52 89 47 
-79 -81 94 

-101 -39 -42 
8 -125 18 
92 -91 64 

-9 -90 -120 
93 66 34 
91 84 17 

-26 97 92 
-107 -75 -81 
-70 104 -6 

-11 40 -28 
-29 112 61 
-107 -90 116 

-41 -89 40 
-88 28 -107 
76 74 -31 

93 -68 25 
-64 -60 50 
88 -98 -9 

15 28 4 
-35 -87 -11 
123 -8 108 


-10 33 -30 
-52 89 47 
-79 -81 94 

-101 -39 -42 
8 -125 18 
92 -91 64 

-9 -90 -120 
93 66 34 
91 84 17 

-26 97 92 
-107 -75 -81 
-70 104 -6 

-11 40 -28 
-29 112 61 
-107 -90 116 

-41 -89 40 
-88 28 -107 
76 74 -31 

93 -68 25 
-64 -60 50 
88 -98 -9 

15 28 4 
-35 -87 -11 
123 -8 108 


-10 33 -30 
-52 89 47 
-79 -81 94 

-101 -39 -42 
8 -125 18 
92 -91 64 

-9 -90 -120 
93 66 34 
91 84 17 

-26 97 92 
-107 -75 -81 
-70 104 -6 

-11 40 -28 
-29 112 61 
-107 -90 116 

-41 -89 40 
-88 28 -107 
76 74 -31 

93 -68 25 
-64 -60 50 
88 -98 -9 

15 28 4 
-35 -87 -11 
123 -8 108 



-10 33 -30 
-52 89 47 
-79 -81 94 

-101 -39 -42 
8 -125 18 
92 -91 64 

-9 -90 -120 
93 66 34 
91 84 17 

-26 97 92 
-107 -75 -81 
-70 104 -6 

-11 40 -28 
-29 112 61 
-107 -90 116 

-41 -89 40 
-88 28 -107 
76 74 -31 

93 -68 25 
-64 -60 50 
88 -98 -9 

15 28 4 
-35 -87 -11 
123 -8 108 


-10 33 -30 
-52 89 47 
-79 -81 94 

-101 -39 -42 
8 -125 18 
92 -91 64 

-9 -90 -120 
93 66 34 
91 84 17 

-26 97 92 
-107 -75 -81 
-70 104 -6 

-11 40 -28 
-29 112 61 
-107 -90 116 

-41 -89 40 
-88 28 -107 
76 74 -31 

93 -68 25 
-64 -60 50 
88 -98 -9 

15 28 4 
-35 -87 -11 
123 -8 108 


-10 33 -30 
-52 89 47 
-79 -81 94 

-101 -39 -42 
8 -125 18 
92 -91 64 

-9 -90 -120 
93 66 34 
91 84 17 

-26 97 92 
-107 -75 -81 
-70 104 -6 

-11 40 -28 
-29 112 61 
-107 -90 116 

-41 -89 40 
-88 28 -107 
76 74 -31 

93 -68 25 
-64 -60 50 
88 -98 -9 

15 28 4 
-35 -87 -11 
123 -8 108 


-10 33 -30 
-52 89 47 
-79 -81 94 

-101 -39 -42 
8 -125 18 
92 -91 64 

-9 -90 -120 
93 66 34 
91 84 17 

-26 97 92 
-107 -75 -81 
-70 104 -6 

-11 40 -28 
-29 112 61 
-107 -90 116 

-41 -89 40 
-88 28 -107 
76 74 -31 

93 -68 25 
-64 -60 50 
88 -98 -9 

15 28 4 
-35 -87 -11 
123 -8 108 



-10 33 -30 
-52 89 47 
-79 -81 94 

-101 -39 -42 
8 -125 18 
92 -91 64 

-9 -90 -120 
93 66 34 
91 84 17 

-26 97 92 
-107 -75 -81 
-70 104 -6 

-11 40 -28 
-29 112 61 
-107 -90 116 

-41 -89 40 
-88 28 -107 
76 74 -31 

93 -68 25 
-64 -60 50 
88 -98 -9 

15 28 4 
-35 -87 -11 
123 -8 108 


-10 33 -30 
-52 89 47 
-79 -81 94 

-101 -39 -42 
8 -125 18 
92 -91 64 

-9 -90 -120 
93 66 34 
91 84 17 

-26 97 92 
-107 -75 -81 
-70 104 -6 

-11 40 -28 
-29 112 61 
-107 -90 116 

-41 -89 40 
-88 28 -107 
76 74 -31 

93 -68 25 
-64 -60 50 
88 -98 -9 

15 28 4 
-35 -87 -11 
123 -8 108 


-10 33 -30 
-52 89 47 
-79 -81 94 

-101 -39 -42 
8 -125 18 
92 -91 64 

-9 -90 -120 
93 66 34 
91 84 17 

-26 97 92 
-107 -75 -81 
-70 104 -6 

-11 40 -28 
-29 112 61 
-107 -90 116 

-41 -89 40 
-88 28 -107 
76 74 -31 

93 -68 25 
-64 -60 50 
88 -98 -9 

15 28 4 
-35 -87 -11 
123 -8 108 


-10 33 -30 
-52 89 47 
-79 -81 94 

-101 -39 -42 
8 -125 18 
92 -91 64 

-9 -90 -120 
93 66 34 
91 84 17 

-26 97 92 
-107 -75 -81 
-70 104 -6 

-11 40 -28 
-29 112 61 
-107 -90 116 

-41 -89 40 
-88 28 -107 
76 74 -31 

93 -68 25 
-64 -60 50 
88 -98 -9 

15 28 4 
-35 -87 -11 
123 -8 108 



-10 33 -30 
-52 89 47 
-79 -81 94 

-101 -39 -42 
8 -125 18 
92 -91 64 

-9 -90 -120 
93 66 34 
91 84 17 

-26 97 92 
-107 -75 -81 
-70 104 -6 

-11 40 -28 
-29 112 61 
-107 -90 116 

-41 -89 40 
-88 28 -107 
76 74 -31 

93 -68 25 
-64 -60 50 
88 -98 -9 

15 28 4 
-35 -87 -11 
123 -8 108 


-10 33 -30 
-52 89 47 
-79 -81 94 

-101 -39 -42 
8 -125 18 
92 -91 64 

-9 -90 -120 
93 66 34 
91 84 17 

-26 97 92 
-107 -75 -81 
-70 104 -6 

-11 40 -28 
-29 112 61 
-107 -90 116 

-41 -89 40 
-88 28 -107 
76 74 -31 

93 -68 25 
-64 -60 50 
88 -98 -9 

15 28 4 
-35 -87 -11 
123 -8 108 


-10 33 -30 
-52 89 47 
-79 -81 94 

-101 -39 -42 
8 -125 18 
92 -91 64 

-9 -90 -120 
93 66 34 
91 84 17 

-26 97 92 
-107 -75 -81 
-70 104 -6 

-11 40 -28 
-29 112 61 
-107 -90 116 

-41 -89 40 
-88 28 -107 
76 74 -31 

93 -68 25 
-64 -60 50 
88 -98 -9 

15 28 4 
-35 -87 -11 
123 -8 108 


-10 33 -30 
-52 89 47 
-79 -81 94 

-101 -39 -42 
8 -125 18 
92 -91 64 

-9 -90 -120 
93 66 34 
91 84 17 

-26 97 92 
-107 -75 -81 
-70 104 -6 

-11 40 -28 
-29 112 61 
-107 -90 116 

-41 -89 40 
-88 28 -107 
76 74 -31 

93 -68 25 
-64 -60 50 
88 -98 -9 

15 28 4 
-35 -87 -11 
123 -8 108 




30 -56 0 
79 -58 -110 
-47 -49 -57 

-59 -48 -125 
110 14 -96 
-95 -108 -45 

-44 100 45 
16 32 68 
35 98 4 

124 -112 -67 
-107 88 -20 
45 112 37 

93 -101 28 
-83 44 -23 
32 -80 51 

53 115 106 
115 -30 -50 
-33 -70 -93 

-76 -77 -4 
126 68 -39 
101 -123 99 

-94 120 4 
103 -110 5 
-102 86 -9 


30 -56 0 
79 -58 -110 
-47 -49 -57 

-59 -48 -125 
110 14 -96 
-95 -108 -45 

-44 100 45 
16 32 68 
35 98 4 

124 -112 -67 
-107 88 -20 
45 112 37 

93 -101 28 
-83 44 -23 
32 -80 51 

53 115 106 
115 -30 -50 
-33 -70 -93 

-76 -77 -4 
126 68 -39 
101 -123 99 

-94 120 4 
103 -110 5 
-102 86 -9 


30 -56 0 
79 -58 -110 
-47 -49 -57 

-59 -48 -125 
110 14 -96 
-95 -108 -45 

-44 100 45 
16 32 68 
35 98 4 

124 -112 -67 
-107 88 -20 
45 112 37 

93 -101 28 
-83 44 -23 
32 -80 51 

53 115 106 
115 -30 -50 
-33 -70 -93 

-76 -77 -4 
126 68 -39 
101 -123 99 

-94 120 4 
103 -110 5 
-102 86 -9 


30 -56 0 
79 -58 -110 
-47 -49 -57 

-59 -48 -125 
110 14 -96 
-95 -108 -45 

-44 100 45 
16 32 68 
35 98 4 

124 -112 -67 
-107 88 -20 
45 112 37 

93 -101 28 
-83 44 -23 
32 -80 51 

53 115 106 
115 -30 -50 
-33 -70 -93 

-76 -77 -4 
126 68 -39 
101 -123 99 

-94 120 4 
103 -110 5 
-102 86 -9 



30 -56 0 
79 -58 -110 
-47 -49 -57 

-59 -48 -125 
110 14 -96 
-95 -108 -45 

-44 100 45 
16 32 68 
35 98 4 

124 -112 -67 
-107 88 -20 
45 112 37 

93 -101 28 
-83 44 -23 
32 -80 51 

53 115 106 
115 -30 -50 
-33 -70 -93 

-76 -77 -4 
126 68 -39 
101 -123 99 

-94 120 4 
103 -110 5 
-102 86 -9 


30 -56 0 
79 -58 -110 
-47 -49 -57 

-59 -48 -125 
110 14 -96 
-95 -108 -45 

-44 100 45 
16 32 68 
35 98 4 

124 -112 -67 
-107 88 -20 
45 112 37 

93 -101 28 
-83 44 -23 
32 -80 51 

53 115 106 
115 -30 -50 
-33 -70 -93 

-76 -77 -4 
126 68 -39 
101 -123 99 

-94 120 4 
103 -110 5 
-102 86 -9 


30 -56 0 
79 -58 -110 
-47 -49 -57 

-59 -48 -125 
110 14 -96 
-95 -108 -45 

-44 100 45 
16 32 68 
35 98 4 

124 -112 -67 
-107 88 -20 
45 112 37 

93 -101 28 
-83 44 -23 
32 -80 51 

53 115 106 
115 -30 -50 
-33 -70 -93 

-76 -77 -4 
126 68 -39 
101 -123 99 

-94 120 4 
103 -110 5 
-102 86 -9 


30 -56 0 
79 -58 -110 
-47 -49 -57 

-59 -48 -125 
110 14 -96 
-95 -108 -45 

-44 100 45 
16 32 68 
35 98 4 

124 -112 -67 
-107 88 -20 
45 112 37 

93 -101 28 
-83 44 -23 
32 -80 51 

53 115 106 
115 -30 -50 
-33 -70 -93 

-76 -77 -4 
126 68 -39 
101 -123 99 

-94 120 4 
103 -110 5 
-102 86 -9 



30 -56 0 
79 -58 -110 
-47 -49 -57 

-59 -48 -125 
110 14 -96 
-95 -108 -45 

-44 100 45 
16 32 68 
35 98 4 

124 -112 -67 
-107 88 -20 
45 112 37 

93 -101 28 
-83 44 -23 
32 -80 51 

53 115 106 
115 -30 -50 
-33 -70 -93 

-76 -77 -4 
126 68 -39 
101 -123 99 

-94 120 4 
103 -110 5 
-102 86 -9 


30 -56 0 
79 -58 -110 
-47 -49 -57 

-59 -48 -125 
110 14 -96 
-95 -108 -45 

-44 100 45 
16 32 68 
35 98 4 

124 -112 -67 
-107 88 -20 
45 112 37 

93 -101 28 
-83 44 -23 
32 -80 51 

53 115 106 
115 -30 -50 
-33 -70 -93 

-76 -77 -4 
126 68 -39 
101 -123 99 

-94 120 4 
103 -110 5 
-102 86 -9 


30 -56 0 
79 -58 -110 
-47 -49 -57 

-59 -48 -125 
110 14 -96 
-95 -108 -45 

-44 100 45 
16 32 68 
35 98 4 

124 -112 -67 
-107 88 -20 
45 112 37 

93 -101 28 
-83 44 -23 
32 -80 51 

53 115 106 
115 -30 -50 
-33 -70 -93 

-76 -77 -4 
126 68 -39 
101 -123 99 

-94 120 4 
103 -110 5 
-102 86 -9 


30 -56 0 
79 -58 -110 
-47 -49 -57 

-59 -48 -125 
110 14 -96 
-95 -108 -45 

-44 100 45 
16 32 68 
35 98 4 

124 -112 -67 
-107 88 -20 
45 112 37 

93 -101 28 
-83 44 -23 
32 -80 51 

53 115 106 
115 -30 -50 
-33 -70 -93 

-76 -77 -4 
126 68 -39 
101 -123 99 

-94 120 4 
103 -110 5 
-102 86 -9 



30 -56 0 
79 -58 -110 
-47 -49 -57 

-59 -48 -125 
110 14 -96 
-95 -108 -45 

-44 100 45 
16 32 68 
35 98 4 

124 -112 -67 
-107 88 -20 
45 112 37 

93 -101 28 
-83 44 -23 
32 -80 51 

53 115 106 
115 -30 -50 
-33 -70 -93 

-76 -77 -4 
126 68 -39 
101 -123 99 

-94 120 4 
103 -110 5 
-102 86 -9 


30 -56 0 
79 -58 -110 
-47 -49 -57 

-59 -48 -125 
110 14 -96 
-95 -108 -45 

-44 100 45 
16 32 68 
35 98 4 

124 -112 -67 
-107 88 -20 
45 112 37 

93 -101 28 
-83 44 -23 
32 -80 51 

53 115 106 
115 -30 -50 
-33 -70 -93 

-76 -77 -4 
126 68 -39 
101 -123 99 

-94 120 4 
103 -110 5 
-102 86 -9 


30 -56 0 
79 -58 -110 
-47 -49 -57 

-59 -48 -125 
110 14 -96 
-95 -108 -45 

-44 100 45 
16 32 68 
35 98 4 

124 -112 -67 
-107 88 -20 
45 112 37 

93 -101 28 
-83 44 -23 
32 -80 51 

53 115 106 
115 -30 -50 
-33 -70 -93 

-76 -77 -4 
126 68 -39 
101 -123 99 

-94 120 4 
103 -110 5 
-102 86 -9 


30 -56 0 
79 -58 -110 
-47 -49 -57 

-59 -48 -125 
110 14 -96 
-95 -108 -45 

-44 100 45 
16 32 68 
35 98 4 

124 -112 -67 
-107 88 -20 
45 112 37 

93 -101 28 
-83 44 -23 
32 -80 51 

53 115 106 
115 -30 -50 
-33 -70 -93 

-76 -77 -4 
126 68 -39 
101 -123 99 

-94 120 4 
103 -110 5 
-102 86 -9 



30 -56 0 
79 -58 -110 
-47 -49 -57 

-59 -48 -125 
110 14 -96 
-95 -108 -45 

-44 100 45 
16 32 68 
35 98 4 

124 -112 -67 
-107 88 -20 
45 112 37 

93 -101 28 
-83 44 -23 
32 -80 51 

53 115 106 
115 -30 -50 
-33 -70 -93 

-76 -77 -4 
126 68 -39 
101 -123 99 

-94 120 4 
103 -110 5 
-102 86 -9 


30 -56 0 
79 -58 -110 
-47 -49 -57 

-59 -48 -125 
110 14 -96 
-95 -108 -45 

-44 100 45 
16 32 68 
35 98 4 

124 -112 -67 
-107 88 -20 
45 112 37 

93 -101 28 
-83 44 -23 
32 -80 51 

53 115 106 
115 -30 -50 
-33 -70 -93 

-76 -77 -4 
126 68 -39 
101 -123 99 

-94 120 4 
103 -110 5 
-102 86 -9 


30 -56 0 
79 -58 -110 
-47 -49 -57 

-59 -48 -125 
110 14 -96 
-95 -108 -45 

-44 100 45 
16 32 68 
35 98 4 

124 -112 -67 
-107 88 -20 
45 112 37 

93 -101 28 
-83 44 -23 
32 -80 51 

53 115 106 
115 -30 -50 
-33 -70 -93 

-76 -77 -4 
126 68 -39 
101 -123 99 

-94 120 4 
103 -110 5 
-102 86 -9 


30 -56 0 
79 -58 -110 
-47 -49 -57 

-59 -48 -125 
110 14 -96 
-95 -108 -45 

-44 100 45 
16 32 68 
35 98 4 

124 -112 -67 
-107 88 -20 
45 112 37 

93 -101 28 
-83 44 -23 
32 -80 51 

53 115 106 
115 -30 -50 
-33 -70 -93 

-76 -77 -4 
126 68 -39 
101 -123 99 

-94 120 4 
103 -110 5 
-102 86 -9 



30 -56 0 
79 -58 -110 
-47 -49 -57 

-59 -48 -125 
110 14 -96 
-95 -108 -45 

-44 100 45 
16 32 68 
35 98 4 

124 -112 -67 
-107 88 -20 
45 112 37 

93 -101 28 
-83 44 -23 
32 -80 51 

53 115 106 
115 -30 -50 
-33 -70 -93 

-76 -77 -4 
126 68 -39 
101 -123 99 

-94 120 4 
103 -110 5 
-102 86 -9 


30 -56 0 
79 -58 -110 
-47 -49 -57 

-59 -48 -125 
110 14 -96 
-95 -108 -45 

-44 100 45 
16 32 68 
35 98 4 

124 -112 -67 
-107 88 -20 
45 112 37 

93 -101 28 
-83 44 -23 
32 -80 51 

53 115 106 
115 -30 -50 
-33 -70 -93 

-76 -77 -4 
126 68 -39 
101 -123 99 

-94 120 4 
103 -110 5 
-102 86 -9 


30 -56 0 
79 -58 -110 
-47 -49 -57 

-59 -48 -125 
110 14 -96 
-95 -108 -45 

-44 100 45 
16 32 68 
35 98 4 

124 -112 -67 
-107 88 -20 
45 112 37 

93 -101 28 
-83 44 -23 
32 -80 51 

53 115 106 
115 -30 -50 
-33 -70 -93 

-76 -77 -4 
126 68 -39 
101 -123 99 

-94 120 4 
103 -110 5 
-102 86 -9 


30 -56 0 
79 -58 -110 
-47 -49 -57 

-59 -48 -125 
110 14 -96 
-95 -108 -45 

-44 100 45 
16 32 68 
35 98 4 

124 -112 -67 
-107 88 -20 
45 112 37 

93 -101 28 
-83 44 -23 
32 -80 51 

53 115 106 
115 -30 -50 
-33 -70 -93 

-76 -77 -4 
126 68 -39 
101 -123 99 

-94 120 4 
103 -110 5 
-102 86 -9 



30 -56 0 
79 -58 -110 
-47 -49 -57 

-59 -48 -125 
110 14 -96 
-95 -108 -45 

-44 100 45 
16 32 68 
35 98 4 

124 -112 -67 
-107 88 -20 
45 112 37 

93 -101 28 
-83 44 -23 
32 -80 51 

53 115 106 
115 -30 -50 
-33 -70 -93 

-76 -77 -4 
126 68 -39 
101 -123 99 

-94 120 4 
103 -110 5 
-102 86 -9 


30 -56 0 
79 -58 -110 
-47 -49 -57 

-59 -48 -125 
110 14 -96 
-95 -108 -45 

-44 100 45 
16 32 68 
35 98 4 

124 -112 -67 
-107 88 -20 
45 112 37 

93 -101 28 
-83 44 -23 
32 -80 51 

53 115 106 
115 -30 -50 
-33 -70 -93 

-76 -77 -4 
126 68 -39 
101 -123 99 

-94 120 4 
103 -110 5 
-102 86 -9 


30 -56 0 
79 -58 -110 
-47 -49 -57 

-59 -48 -125 
110 14 -96 
-95 -108 -45 

-44 100 45 
16 32 68 
35 98 4 

124 -112 -67 
-107 88 -20 
45 112 37 

93 -101 28 
-83 44 -23 
32 -80 51 

53 115 106 
115 -30 -50 
-33 -70 -93 

-76 -77 -4 
126 68 -39 
101 -123 99 

-94 120 4 
103 -110 5 
-102 86 -9 


30 -56 0 
79 -58 -110 
-47 -49 -57 

-59 -48 -125 
110 14 -96 
-95 -108 -45 

-44 100 45 
16 32 68 
35 98 4 

124 -112 -67 
-107 88 -20 
45 112 37 

93 -101 28 
-83 44 -23 
32 -80 51 

53 115 106 
115 -30 -50 
-33 -70 -93 

-76 -77 -4 
126 68 -39 
101 -123 99 

-94 120 4 
103 -110 5 
-102 86 -9 



30 -56 0 
79 -58 -110 
-47 -49 -57 

-59 -48 -125 
110 14 -96 
-95 -108 -45 

-44 100 45 
16 32 68 
35 98 4 

124 -112 -67 
-107 88 -20 
45 112 37 

93 -101 28 
-83 44 -23 
32 -80 51 

53 115 106 
115 -30 -50 
-33 -70 -93 

-76 -77 -4 
126 68 -39 
101 -123 99 

-94 120 4 
103 -110 5 
-102 86 -9 


30 -56 0 
79 -58 -110 
-47 -49 -57 

-59 -48 -125 
110 14 -96 
-95 -108 -45 

-44 100 45 
16 32 68 
35 98 4 

124 -112 -67 
-107 88 -20 
45 112 37 

93 -101 28 
-83 44 -23 
32 -80 51 

53 115 106 
115 -30 -50 
-33 -70 -93 

-76 -77 -4 
126 68 -39 
101 -123 99 

-94 120 4 
103 -110 5 
-102 86 -9 


30 -56 0 
79 -58 -110 
-47 -49 -57 

-59 -48 -125 
110 14 -96 
-95 -108 -45 

-44 100 45 
16 32 68 
35 98 4 

124 -112 -67 
-107 88 -20 
45 112 37 

93 -101 28 
-83 44 -23 
32 -80 51 

53 115 106 
115 -30 -50 
-33 -70 -93 

-76 -77 -4 
126 68 -39 
101 -123 99 

-94 120 4 
103 -110 5 
-102 86 -9 


30 -56 0 
79 -58 -110 
-47 -49 -57 

-59 -48 -125 
110 14 -96 
-95 -108 -45 

-44 100 45 
16 32 68 
35 98 4 

124 -112 -67 
-107 88 -20 
45 112 37 

93 -101 28 
-83 44 -23 
32 -80 51 

53 115 106 
115 -30 -50 
-33 -70 -93 

-76 -77 -4 
126 68 -39 
101 -123 99 

-94 120 4 
103 -110 5 
-102 86 -9 



30 -56 0 
79 -58 -110 
-47 -49 -57 

-59 -48 -125 
110 14 -96 
-95 -108 -45 

-44 100 45 
16 32 68 
35 98 4 

124 -112 -67 
-107 88 -20 
45 112 37 

93 -101 28 
-83 44 -23 
32 -80 51 

53 115 106 
115 -30 -50 
-33 -70 -93 

-76 -77 -4 
126 68 -39 
101 -123 99 

-94 120 4 
103 -110 5 
-102 86 -9 


30 -56 0 
79 -58 -110 
-47 -49 -57 

-59 -48 -125 
110 14 -96 
-95 -108 -45 

-44 100 45 
16 32 68 
35 98 4 

124 -112 -67 
-107 88 -20 
45 112 37 

93 -101 28 
-83 44 -23 
32 -80 51 

53 115 106 
115 -30 -50 
-33 -70 -93 

-76 -77 -4 
126 68 -39 
101 -123 99 

-94 120 4 
103 -110 5 
-102 86 -9 


30 -56 0 
79 -58 -110 
-47 -49 -57 

-59 -48 -125 
110 14 -96 
-95 -108 -45 

-44 100 45 
16 32 68 
35 98 4 

124 -112 -67 
-107 88 -20 
45 112 37 

93 -101 28 
-83 44 -23 
32 -80 51 

53 115 106 
115 -30 -50 
-33 -70 -93 

-76 -77 -4 
126 68 -39 
101 -123 99 

-94 120 4 
103 -110 5 
-102 86 -9 


30 -56 0 
79 -58 -110 
-47 -49 -57 

-59 -48 -125 
110 14 -96 
-95 -108 -45 

-44 100 45 
16 32 68 
35 98 4 

124 -112 -67 
-107 88 -20 
45 112 37 

93 -101 28 
-83 44 -23 
32 -80 51 

53 115 106 
115 -30 -50 
-33 -70 -93 

-76 -77 -4 
126 68 -39 
101 -123 99 

-94 120 4 
103 -110 5 
-102 86 -9 



30 -56 0 
79 -58 -110 
-47 -49 -57 

-59 -48 -125 
110 14 -96 
-95 -108 -45 

-44 100 45 
16 32 68 
35 98 4 

124 -112 -67 
-107 88 -20 
45 112 37 

93 -101 28 
-83 44 -23 
32 -80 51 

53 115 106 
115 -30 -50 
-33 -70 -93 

-76 -77 -4 
126 68 -39 
101 -123 99 

-94 120 4 
103 -110 5 
-102 86 -9 


30 -56 0 
79 -58 -110 
-47 -49 -57 

-59 -48 -125 
110 14 -96 
-95 -108 -45 

-44 100 45 
16 32 68 
35 98 4 

124 -112 -67 
-107 88 -20 
45 112 37 

93 -101 28 
-83 44 -23 
32 -80 51 

53 115 106 
115 -30 -50 
-33 -70 -93 

-76 -77 -4 
126 68 -39 
101 -123 99 

-94 120 4 
103 -110 5 
-102 86 -9 


30 -56 0 
79 -58 -110 
-47 -49 -57 

-59 -48 -125 
110 14 -96 
-95 -108 -45 

-44 100 45 
16 32 68 
35 98 4 

124 -112 -67 
-107 88 -20 
45 112 37 

93 -101 28 
-83 44 -23 
32 -80 51 

53 115 106 
115 -30 -50 
-33 -70 -93 

-76 -77 -4 
126 68 -39 
101 -123 99 

-94 120 4 
103 -110 5 
-102 86 -9 


30 -56 0 
79 -58 -110 
-47 -49 -57 

-59 -48 -125 
110 14 -96 
-95 -108 -45 

-44 100 45 
16 32 68 
35 98 4 

124 -112 -67 
-107 88 -20 
45 112 37 

93 -101 28 
-83 44 -23 
32 -80 51 

53 115 106 
115 -30 -50 
-33 -70 -93 

-76 -77 -4 
126 68 -39 
101 -123 99 

-94 120 4 
103 -110 5 
-102 86 -9 



30 -56 0 
79 -58 -110 
-47 -49 -57 

-59 -48 -125 
110 14 -96 
-95 -108 -45 

-44 100 45 
16 32 68 
35 98 4 

124 -112 -67 
-107 88 -20 
45 112 37 

93 -101 28 
-83 44 -23 
32 -80 51 

53 115 106 
115 -30 -50 
-33 -70 -93 

-76 -77 -4 
126 68 -39 
101 -123 99 

-94 120 4 
103 -110 5 
-102 86 -9 


30 -56 0 
79 -58 -110 
-47 -49 -57 

-59 -48 -125 
110 14 -96 
-95 -108 -45 

-44 100 45 
16 32 68 
35 98 4 

124 -112 -67 
-107 88 -20 
45 112 37 

93 -101 28 
-83 44 -23 
32 -80 51 

53 115 106 
115 -30 -50 
-33 -70 -93 

-76 -77 -4 
126 68 -39 
101 -123 99 

-94 120 4 
103 -110 5 
-102 86 -9 


30 -56 0 
79 -58 -110 
-47 -49 -57 

-59 -48 -125 
110 14 -96 
-95 -108 -45 

-44 100 45 
16 32 68 
35 98 4 

124 -112 -67 
-107 88 -20 
45 112 37 

93 -101 28 
-83 44 -23 
32 -80 51 

53 115 106 
115 -30 -50 
-33 -70 -93 

-76 -77 -4 
126 68 -39 
101 -123 99 

-94 120 4 
103 -110 5 
-102 86 -9 


30 -56 0 
79 -58 -110 
-47 -49 -57 

-59 -48 -125 
110 14 -96 
-95 -108 -45 

-44 100 45 
16 32 68 
35 98 4 

124 -112 -67 
-107 88 -20 
45 112 37 

93 -101 28 
-83 44 -23 
32 -80 51 

53 115 106 
115 -30 -50 
-33 -70 -93 

-76 -77 -4 
126 68 -39 
101 -123 99 

-94 120 4 
103 -110 5 
-102 86 -9 



30 -56 0 
79 -58 -110 
-47 -49 -57 

-59 -48 -125 
110 14 -96 
-95 -108 -45 

-44 100 45 
16 32 68 
35 98 4 

124 -112 -67 
-107 88 -20 
45 112 37 

93 -101 28 
-83 44 -23 
32 -80 51 

53 115 106 
115 -30 -50 
-33 -70 -93 

-76 -77 -4 
126 68 -39 
101 -123 99 

-94 120 4 
103 -110 5 
-102 86 -9 


30 -56 0 
79 -58 -110 
-47 -49 -57 

-59 -48 -125 
110 14 -96 
-95 -108 -45 

-44 100 45 
16 32 68 
35 98 4 

124 -112 -67 
-107 88 -20 
45 112 37 

93 -101 28 
-83 44 -23 
32 -80 51 

53 115 106 
115 -30 -50 
-33 -70 -93 

-76 -77 -4 
126 68 -39 
101 -123 99 

-94 120 4 
103 -110 5 
-102 86 -9 


30 -56 0 
79 -58 -110 
-47 -49 -57 

-59 -48 -125 
110 14 -96 
-95 -108 -45 

-44 100 45 
16 32 68 
35 98 4 

124 -112 -67 
-107 88 -20 
45 112 37 

93 -101 28 
-83 44 -23 
32 -80 51 

53 115 106 
115 -30 -50 
-33 -70 -93 

-76 -77 -4 
126 68 -39 
101 -123 99 

-94 120 4 
103 -110 5 
-102 86 -9 


30 -56 0 
79 -58 -110 
-47 -49 -57 

-59 -48 -125 
110 14 -96 
-95 -108 -45 

-44 100 45 
16 32 68 
35 98 4 

124 -112 -67 
-107 88 -20 
45 112 37 

93 -101 28 
-83 44 -23 
32 -80 51 

53 115 106 
115 -30 -50 
-33 -70 -93 

-76 -77 -4 
126 68 -39 
101 -123 99 

-94 120 4 
103 -110 5 
-102 86 -9 



30 -56 0 
79 -58 -110 
-47 -49 -57 

-59 -48 -125 
110 14 -96 
-95 -108 -45 

-44 100 45 
16 32 68 
35 98 4 

124 -112 -67 
-107 88 -20 
45 112 37 

93 -101 28 
-83 44 -23 
32 -80 51 

53 115 106 
115 -30 -50 
-33 -70 -93 

-76 -77 -4 
126 68 -39 
101 -123 99 

-94 120 4 
103 -110 5 
-102 86 -9 


30 -56 0 
79 -58 -110 
-47 -49 -57 

-59 -48 -125 
110 14 -96 
-95 -108 -45 

-44 100 45 
16 32 68 
35 98 4 

124 -112 -67 
-107 88 -20 
45 112 37 

93 -101 28 
-83 44 -23 
32 -80 51 

53 115 106 
115 -30 -50 
-33 -70 -93 

-76 -77 -4 
126 68 -39 
101 -123 99 

-94 120 4 
103 -110 5 
-102 86 -9 


30 -56 0 
79 -58 -110 
-47 -49 -57 

-59 -48 -125 
110 14 -96 
-95 -108 -45 

-44 100 45 
16 32 68 
35 98 4 

124 -112 -67 
-107 88 -20 
45 112 37 

93 -101 28 
-83 44 -23 
32 -80 51 

53 115 106 
115 -30 -50 
-33 -70 -93 

-76 -77 -4 
126 68 -39 
101 -123 99 

-94 120 4 
103 -110 5 
-102 86 -9 


30 -56 0 
79 -58 -110 
-47 -49 -57 

-59 -48 -125 
110 14 -96 
-95 -108 -45 

-44 100 45 
16 32 68 
35 98 4 

124 -112 -67 
-107 88 -20 
45 112 37 

93 -101 28 
-83 44 -23 
32 -80 51 

53 115 106 
115 -30 -50 
-33 -70 -93 

-76 -77 -4 
126 68 -39 
101 -123 99 

-94 120 4 
103 -110 5 
-102 86 -9 




6 3 -78 
6 -9 -16 
10 -85 -10 

124 -96 114 
-98 16 -79 
60 53 92 

-51 121 17 
-34 117 -121 
110 -42 -90 

-43 47 88 
87 95 56 
-126 118 53 

-28 -118 -73 
-85 -23 12 
-16 -41 12 

60 -18 -14 
126 -68 -48 
95 -74 56 

92 75 -110 
25 -60 -62 
-83 -59 -39 

-41 110 50 
-126 33 99 
72 -4 117 


6 3 -78 
6 -9 -16 
10 -85 -10 

124 -96 114 
-98 16 -79 
60 53 92 

-51 121 17 
-34 117 -121 
110 -42 -90 

-43 47 88 
87 95 56 
-126 118 53 

-28 -118 -73 
-85 -23 12 
-16 -41 12 

60 -18 -14 
126 -68 -48 
95 -74 56 

92 75 -110 
25 -60 -62 
-83 -59 -39 

-41 110 50 
-126 33 99 
72 -4 117 


6 3 -78 
6 -9 -16 
10 -85 -10 

124 -96 114 
-98 16 -79 
60 53 92 

-51 121 17 
-34 117 -121 
110 -42 -90 

-43 47 88 
87 95 56 
-126 118 53 

-28 -118 -73 
-85 -23 12 
-16 -41 12 

60 -18 -14 
126 -68 -48 
95 -74 56 

92 75 -110 
25 -60 -62 
-83 -59 -39 

-41 110 50 
-126 33 99 
72 -4 117 


6 3 -78 
6 -9 -16 
10 -85 -10 

124 -96 114 
-98 16 -79 
60 53 92 

-51 121 17 
-34 117 -121 
110 -42 -90 

-43 47 88 
87 95 56 
-126 118 53 

-28 -118 -73 
-85 -23 12 
-16 -41 12 

60 -18 -14 
126 -68 -48 
95 -74 56 

92 75 -110 
25 -60 -62 
-83 -59 -39 

-41 110 50 
-126 33 99 
72 -4 117 



6 3 -78 
6 -9 -16 
10 -85 -10 

124 -96 114 
-98 16 -79 
60 53 92 

-51 121 17 
-34 117 -121 
110 -42 -90 

-43 47 88 
87 95 56 
-126 118 53 

-28 -118 -73 
-85 -23 12 
-16 -41 12 

60 -18 -14 
126 -68 -48 
95 -74 56 

92 75 -110 
25 -60 -62 
-83 -59 -39 

-41 110 50 
-126 33 99 
72 -4 117 


6 3 -78 
6 -9 -16 
10 -85 -10 

124 -96 114 
-98 16 -79 
60 53 92 

-51 121 17 
-34 117 -121 
110 -42 -90 

-43 47 88 
87 95 56 
-126 118 53 

-28 -118 -73 
-85 -23 12 
-16 -41 12 

60 -18 -14 
126 -68 -48 
95 -74 56 

92 75 -110 
25 -60 -62 
-83 -59 -39 

-41 110 50 
-126 33 99 
72 -4 117 


6 3 -78 
6 -9 -16 
10 -85 -10 

124 -96 114 
-98 16 -79 
60 53 92 

-51 121 17 
-34 117 -121 
110 -42 -90 

-43 47 88 
87 95 56 
-126 118 53 

-28 -118 -73 
-85 -23 12 
-16 -41 12 

60 -18 -14 
126 -68 -48 
95 -74 56 

92 75 -110 
25 -60 -62 
-83 -59 -39 

-41 110 50 
-126 33 99 
72 -4 117 


6 3 -78 
6 -9 -16 
10 -85 -10 

124 -96 114 
-98 16 -79 
60 53 92 

-51 121 17 
-34 117 -121 
110 -42 -90 

-43 47 88 
87 95 56 
-126 118 53 

-28 -118 -73 
-85 -23 12 
-16 -41 12 

60 -18 -14 
126 -68 -48 
95 -74 56 

92 75 -110 
25 -60 -62 
-83 -59 -39 

-41 110 50 
-126 33 99 
72 -4 117 



6 3 -78 
6 -9 -16 
10 -85 -10 

124 -96 114 
-98 16 -79 
60 53 92 

-51 121 17 
-34 117 -121 
110 -42 -90 

-43 47 88 
87 95 56 
-126 118 53 

-28 -118 -73 
-85 -23 12 
-16 -41 12 

60 -18 -14 
126 -68 -48 
95 -74 56 

92 75 -110 
25 -60 -62 
-83 -59 -39 

-41 110 50 
-126 33 99 
72 -4 117 


6 3 -78 
6 -9 -16 
10 -85 -10 

124 -96 114 
-98 16 -79 
60 53 92 

-51 121 17 
-34 117 -121 
110 -42 -90 

-43 47 88 
87 95 56 
-126 118 53 

-28 -118 -73 
-85 -23 12 
-16 -41 12 

60 -18 -14 
126 -68 -48 
95 -74 56 

92 75 -110 
25 -60 -62 
-83 -59 -39 

-41 110 50 
-126 33 99 
72 -4 117 


6 3 -78 
6 -9 -16 
10 -85 -10 

124 -96 114 
-98 16 -79 
60 53 92 

-51 121 17 
-34 117 -121 
110 -42 -90 

-43 47 88 
87 95 56 
-126 118 53 

-28 -118 -73 
-85 -23 12 
-16 -41 12 

60 -18 -14 
126 -68 -48 
95 -74 56 

92 75 -110 
25 -60 -62 
-83 -59 -39 

-41 110 50 
-126 33 99 
72 -4 117 


6 3 -78 
6 -9 -16 
10 -85 -10 

124 -96 114 
-98 16 -79 
60 53 92 

-51 121 17 
-34 117 -121 
110 -42 -90 

-43 47 88 
87 95 56 
-126 118 53 

-28 -118 -73 
-85 -23 12 
-16 -41 12 

60 -18 -14 
126 -68 -48 
95 -74 56 

92 75 -110 
25 -60 -62 
-83 -59 -39 

-41 110 50 
-126 33 99 
72 -4 117 



6 3 -78 
6 -9 -16 
10 -85 -10 

124 -96 114 
-98 16 -79 
60 53 92 

-51 121 17 
-34 117 -121 
110 -42 -90 

-43 47 88 
87 95 56 
-126 118 53 

-28 -118 -73 
-85 -23 12 
-16 -41 12 

60 -18 -14 
126 -68 -48 
95 -74 56 

92 75 -110 
25 -60 -62 
-83 -59 -39 

-41 110 50 
-126 33 99 
72 -4 117 


6 3 -78 
6 -9 -16 
10 -85 -10 

124 -96 114 
-98 16 -79 
60 53 92 

-51 121 17 
-34 117 -121 
110 -42 -90 

-43 47 88 
87 95 56 
-126 118 53 

-28 -118 -73 
-85 -23 12 
-16 -41 12 

60 -18 -14 
126 -68 -48 
95 -74 56 

92 75 -110 
25 -60 -62 
-83 -59 -39 

-41 110 50 
-126 33 99 
72 -4 117 


6 3 -78 
6 -9 -16 
10 -85 -10 

124 -96 114 
-98 16 -79 
60 53 92 

-51 121 17 
-34 117 -121 
110 -42 -90 

-43 47 88 
87 95 56 
-126 118 53 

-28 -118 -73 
-85 -23 12 
-16 -41 12 

60 -18 -14 
126 -68 -48 
95 -74 56 

92 75 -110 
25 -60 -62 
-83 -59 -39 

-41 110 50 
-126 33 99 
72 -4 117 


6 3 -78 
6 -9 -16 
10 -85 -10 

124 -96 114 
-98 16 -79 
60 53 92 

-51 121 17 
-34 117 -121 
110 -42 -90 

-43 47 88 
87 95 56 
-126 118 53 

-28 -118 -73 
-85 -23 12 
-16 -41 12 

60 -18 -14 
126 -68 -48 
95 -74 56 

92 75 -110 
25 -60 -62 
-83 -59 -39 

-41 110 50 
-126 33 99 
72 -4 117 



6 3 -78 
6 -9 -16 
10 -85 -10 

124 -96 114 
-98 16 -79 
60 53 92 

-51 121 17 
-34 117 -121 
110 -42 -90 

-43 47 88 
87 95 56 
-126 118 53 

-28 -118 -73 
-85 -23 12 
-16 -41 12 

60 -18 -14 
126 -68 -48 
95 -74 56 

92 75 -110 
25 -60 -62 
-83 -59 -39 

-41 110 50 
-126 33 99 
72 -4 117 


6 3 -78 
6 -9 -16 
10 -85 -10 

124 -96 114 
-98 16 -79 
60 53 92 

-51 121 17 
-34 117 -121 
110 -42 -90 

-43 47 88 
87 95 56 
-126 118 53 

-28 -118 -73 
-85 -23 12 
-16 -41 12 

60 -18 -14 
126 -68 -48 
95 -74 56 

92 75 -110 
25 -60 -62 
-83 -59 -39 

-41 110 50 
-126 33 99 
72 -4 117 


6 3 -78 
6 -9 -16 
10 -85 -10 

124 -96 114 
-98 16 -79 
60 53 92 

-51 121 17 
-34 117 -121 
110 -42 -90 

-43 47 88 
87 95 56 
-126 118 53 

-28 -118 -73 
-85 -23 12 
-16 -41 12 

60 -18 -14 
126 -68 -48 
95 -74 56 

92 75 -110 
25 -60 -62 
-83 -59 -39 

-41 110 50 
-126 33 99 
72 -4 117 


6 3 -78 
6 -9 -16 
10 -85 -10 

124 -96 114 
-98 16 -79 
60 53 92 

-51 121 17 
-34 117 -121 
110 -42 -90 

-43 47 88 
87 95 56 
-126 118 53 

-28 -118 -73 
-85 -23 12 
-16 -41 12 

60 -18 -14 
126 -68 -48 
95 -74 56 

92 75 -110 
25 -60 -62 
-83 -59 -39 

-41 110 50 
-126 33 99 
72 -4 117 



6 3 -78 
6 -9 -16 
10 -85 -10 

124 -96 114 
-98 16 -79 
60 53 92 

-51 121 17 
-34 117 -121 
110 -42 -90 

-43 47 88 
87 95 56 
-126 118 53 

-28 -118 -73 
-85 -23 12 
-16 -41 12 

60 -18 -14 
126 -68 -48 
95 -74 56 

92 75 -110 
25 -60 -62 
-83 -59 -39 

-41 110 50 
-126 33 99 
72 -4 117 


6 3 -78 
6 -9 -16 
10 -85 -10 

124 -96 114 
-98 16 -79 
60 53 92 

-51 121 17 
-34 117 -121 
110 -42 -90 

-43 47 88 
87 95 56 
-126 118 53 

-28 -118 -73 
-85 -23 12 
-16 -41 12 

60 -18 -14 
126 -68 -48 
95 -74 56 

92 75 -110 
25 -60 -62 
-83 -59 -39 

-41 110 50 
-126 33 99 
72 -4 117 


6 3 -78 
6 -9 -16 
10 -85 -10 

124 -96 114 
-98 16 -79 
60 53 92 

-51 121 17 
-34 117 -121 
110 -42 -90 

-43 47 88 
87 95 56 
-126 118 53 

-28 -118 -73 
-85 -23 12 
-16 -41 12 

60 -18 -14 
126 -68 -48 
95 -74 56 

92 75 -110 
25 -60 -62 
-83 -59 -39 

-41 110 50 
-126 33 99 
72 -4 117 


6 3 -78 
6 -9 -16 
10 -85 -10 

124 -96 114 
-98 16 -79 
60 53 92 

-51 121 17 
-34 117 -121 
110 -42 -90 

-43 47 88 
87 95 56 
-126 118 53 

-28 -118 -73 
-85 -23 12 
-16 -41 12 

60 -18 -14 
126 -68 -48 
95 -74 56 

92 75 -110 
25 -60 -62 
-83 -59 -39 

-41 110 50 
-126 33 99 
72 -4 117 



6 3 -78 
6 -9 -16 
10 -85 -10 

124 -96 114 
-98 16 -79 
60 53 92 

-51 121 17 
-34 117 -121 
110 -42 -90 

-43 47 88 
87 95 56 
-126 118 53 

-28 -118 -73 
-85 -23 12 
-16 -41 12 

60 -18 -14 
126 -68 -48 
95 -74 56 

92 75 -110 
25 -60 -62 
-83 -59 -39 

-41 110 50 
-126 33 99 
72 -4 117 


6 3 -78 
6 -9 -16 
10 -85 -10 

124 -96 114 
-98 16 -79 
60 53 92 

-51 121 17 
-34 117 -121 
110 -42 -90 

-43 47 88 
87 95 56 
-126 118 53 

-28 -118 -73 
-85 -23 12 
-16 -41 12 

60 -18 -14 
126 -68 -48 
95 -74 56 

92 75 -110 
25 -60 -62 
-83 -59 -39 

-41 110 50 
-126 33 99 
72 -4 117 


6 3 -78 
6 -9 -16 
10 -85 -10 

124 -96 114 
-98 16 -79 
60 53 92 

-51 121 17 
-34 117 -121 
110 -42 -90 

-43 47 88 
87 95 56 
-126 118 53 

-28 -118 -73 
-85 -23 12 
-16 -41 12 

60 -18 -14 
126 -68 -48 
95 -74 56 

92 75 -110 
25 -60 -62 
-83 -59 -39 

-41 110 50 
-126 33 99 
72 -4 117 


6 3 -78 
6 -9 -16 
10 -85 -10 

124 -96 114 
-98 16 -79 
60 53 92 

-51 121 17 
-34 117 -121 
110 -42 -90 

-43 47 88 
87 95 56 
-126 118 53 

-28 -118 -73 
-85 -23 12 
-16 -41 12 

60 -18 -14 
126 -68 -48 
95 -74 56 

92 75 -110 
25 -60 -62 
-83 -59 -39 

-41 110 50 
-126 33 99 
72 -4 117 



6 3 -78 
6 -9 -16 
10 -85 -10 

124 -96 114 
-98 16 -79 
60 53 92 

-51 121 17 
-34 117 -121 
110 -42 -90 

-43 47 88 
87 95 56 
-126 118 53 

-28 -118 -73 
-85 -23 12 
-16 -41 12 

60 -18 -14 
126 -68 -48 
95 -74 56 

92 75 -110 
25 -60 -62 
-83 -59 -39 

-41 110 50 
-126 33 99 
72 -4 117 


6 3 -78 
6 -9 -16 
10 -85 -10 

124 -96 114 
-98 16 -79 
60 53 92 

-51 121 17 
-34 117 -121 
110 -42 -90 

-43 47 88 
87 95 56 
-126 118 53 

-28 -118 -73 
-85 -23 12 
-16 -41 12 

60 -18 -14 
126 -68 -48 
95 -74 56 

92 75 -110 
25 -60 -62 
-83 -59 -39 

-41 110 50 
-126 33 99 
72 -4 117 


6 3 -78 
6 -9 -16 
10 -85 -10 

124 -96 114 
-98 16 -79 
60 53 92 

-51 121 17 
-34 117 -121 
110 -42 -90 

-43 47 88 
87 95 56 
-126 118 53 

-28 -118 -73 
-85 -23 12 
-16 -41 12 

60 -18 -14 
126 -68 -48 
95 -74 56 

92 75 -110 
25 -60 -62 
-83 -59 -39 

-41 110 50 
-126 33 99 
72 -4 117 


6 3 -78 
6 -9 -16 
10 -85 -10 

124 -96 114 
-98 16 -79 
60 53 92 

-51 121 17 
-34 117 -121 
110 -42 -90 

-43 47 88 
87 95 56 
-126 118 53 

-28 -118 -73 
-85 -23 12 
-16 -41 12 

60 -18 -14 
126 -68 -48 
95 -74 56 

92 75 -110 
25 -60 -62 
-83 -59 -39 

-41 110 50 
-126 33 99 
72 -4 117 



6 3 -78 
6 -9 -16 
10 -85 -10 

124 -96 114 
-98 16 -79 
60 53 92 

-51 121 17 
-34 117 -121 
110 -42 -90 

-43 47 88 
87 95 56 
-126 118 53 

-28 -118 -73 
-85 -23 12 
-16 -41 12 

60 -18 -14 
126 -68 -48 
95 -74 56 

92 75 -110 
25 -60 -62 
-83 -59 -39 

-41 110 50 
-126 33 99 
72 -4 117 


6 3 -78 
6 -9 -16 
10 -85 -10 

124 -96 114 
-98 16 -79 
60 53 92 

-51 121 17 
-34 117 -121 
110 -42 -90 

-43 47 88 
87 95 56 
-126 118 53 

-28 -118 -73 
-85 -23 12 
-16 -41 12 

60 -18 -14 
126 -68 -48 
95 -74 56 

92 75 -110 
25 -60 -62 
-83 -59 -39 

-41 110 50 
-126 33 99 
72 -4 117 


6 3 -78 
6 -9 -16 
10 -85 -10 

124 -96 114 
-98 16 -79 
60 53 92 

-51 121 17 
-34 117 -121 
110 -42 -90 

-43 47 88 
87 95 56 
-126 118 53 

-28 -118 -73 
-85 -23 12 
-16 -41 12 

60 -18 -14 
126 -68 -48 
95 -74 56 

92 75 -110 
25 -60 -62 
-83 -59 -39 

-41 110 50 
-126 33 99 
72 -4 117 


6 3 -78 
6 -9 -16 
10 -85 -10 

124 -96 114 
-98 16 -79 
60 53 92 

-51 121 17 
-34 117 -121 
110 -42 -90 

-43 47 88 
87 95 56 
-126 118 53 

-28 -118 -73 
-85 -23 12 
-16 -41 12 

60 -18 -14 
126 -68 -48 
95 -74 56 

92 75 -110 
25 -60 -62 
-83 -59 -39 

-41 110 50 
-126 33 99 
72 -4 117 



6 3 -78 
6 -9 -16 
10 -85 -10 

124 -96 114 
-98 16 -79 
60 53 92 

-51 121 17 
-34 117 -121 
110 -42 -90 

-43 47 88 
87 95 56 
-126 118 53 

-28 -118 -73 
-85 -23 12 
-16 -41 12 

60 -18 -14 
126 -68 -48 
95 -74 56 

92 75 -110 
25 -60 -62 
-83 -59 -39 

-41 110 50 
-126 33 99 
72 -4 117 


6 3 -78 
6 -9 -16 
10 -85 -10 

124 -96 114 
-98 16 -79 
60 53 92 

-51 121 17 
-34 117 -121 
110 -42 -90 

-43 47 88 
87 95 56 
-126 118 53 

-28 -118 -73 
-85 -23 12 
-16 -41 12 

60 -18 -14 
126 -68 -48 
95 -74 56 

92 75 -110 
25 -60 -62 
-83 -59 -39 

-41 110 50 
-126 33 99 
72 -4 117 


6 3 -78 
6 -9 -16 
10 -85 -10 

124 -96 114 
-98 16 -79 
60 53 92 

-51 121 17 
-34 117 -121 
110 -42 -90 

-43 47 88 
87 95 56 
-126 118 53 

-28 -118 -73 
-85 -23 12 
-16 -41 12 

60 -18 -14 
126 -68 -48 
95 -74 56 

92 75 -110 
25 -60 -62 
-83 -59 -39 

-41 110 50 
-126 33 99 
72 -4 117 


6 3 -78 
6 -9 -16 
10 -85 -10 

124 -96 114 
-98 16 -79 
60 53 92 

-51 121 17 
-34 117 -121 
110 -42 -90 

-43 47 88 
87 95 56 
-126 118 53 

-28 -118 -73 
-85 -23 12 
-16 -41 12 

60 -18 -14 
126 -68 -48 
95 -74 56 

92 75 -110 
25 -60 -62 
-83 -59 -39 

-41 110 50 
-126 33 99 
72 -4 117 



6 3 -78 
6 -9 -16 
10 -85 -10 

124 -96 114 
-98 16 -79 
60 53 92 

-51 121 17 
-34 117 -121 
110 -42 -90 

-43 47 88 
87 95 56 
-126 118 53 

-28 -118 -73 
-85 -23 12 
-16 -41 12 

60 -18 -14 
126 -68 -48 
95 -74 56 

92 75 -110 
25 -60 -62 
-83 -59 -39 

-41 110 50 
-126 33 99 
72 -4 117 


6 3 -78 
6 -9 -16 
10 -85 -10 

124 -96 114 
-98 16 -79 
60 53 92 

-51 121 17 
-34 117 -121 
110 -42 -90 

-43 47 88 
87 95 56 
-126 118 53 

-28 -118 -73 
-85 -23 12 
-16 -41 12 

60 -18 -14 
126 -68 -48 
95 -74 56 

92 75 -110 
25 -60 -62 
-83 -59 -39 

-41 110 50 
-126 33 99 
72 -4 117 


6 3 -78 
6 -9 -16 
10 -85 -10 

124 -96 114 
-98 16 -79 
60 53 92 

-51 121 17 
-34 117 -121 
110 -42 -90 

-43 47 88 
87 95 56 
-126 118 53 

-28 -118 -73 
-85 -23 12 
-16 -41 12 

60 -18 -14 
126 -68 -48 
95 -74 56 

92 75 -110 
25 -60 -62 
-83 -59 -39 

-41 110 50 
-126 33 99 
72 -4 117 


6 3 -78 
6 -9 -16 
10 -85 -10 

124 -96 114 
-98 16 -79 
60 53 92 

-51 121 17 
-34 117 -121 
110 -42 -90 

-43 47 88 
87 95 56 
-126 118 53 

-28 -118 -73 
-85 -23 12 
-16 -41 12 

60 -18 -14 
126 -68 -48 
95 -74 56 

92 75 -110 
25 -60 -62 
-83 -59 -39 

-41 110 50 
-126 33 99 
72 -4 117 



6 3 -78 
6 -9 -16 
10 -85 -10 

124 -96 114 
-98 16 -79 
60 53 92 

-51 121 17 
-34 117 -121 
110 -42 -90 

-43 47 88 
87 95 56 
-126 118 53 

-28 -118 -73 
-85 -23 12 
-16 -41 12 

60 -18 -14 
126 -68 -48 
95 -74 56 

92 75 -110 
25 -60 -62 
-83 -59 -39 

-41 110 50 
-126 33 99 
72 -4 117 


6 3 -78 
6 -9 -16 
10 -85 -10 

124 -96 114 
-98 16 -79 
60 53 92 

-51 121 17 
-34 117 -121 
110 -42 -90 

-43 47 88 
87 95 56 
-126 118 53 

-28 -118 -73 
-85 -23 12 
-16 -41 12 

60 -18 -14 
126 -68 -48 
95 -74 56 

92 75 -110 
25 -60 -62 
-83 -59 -39 

-41 110 50 
-126 33 99 
72 -4 117 


6 3 -78 
6 -9 -16 
10 -85 -10 

124 -96 114 
-98 16 -79 
60 53 92 

-51 121 17 
-34 117 -121 
110 -42 -90 

-43 47 88 
87 95 56 
-126 118 53 

-28 -118 -73 
-85 -23 12 
-16 -41 12 

60 -18 -14 
126 -68 -48 
95 -74 56 

92 75 -110 
25 -60 -62 
-83 -59 -39 

-41 110 50 
-126 33 99 
72 -4 117 


6 3 -78 
6 -9 -16 
10 -85 -10 

124 -96 114 
-98 16 -79 
60 53 92 

-51 121 17 
-34 117 -121 
110 -42 -90 

-43 47 88 
87 95 56 
-126 118 53 

-28 -118 -73 
-85 -23 12 
-16 -41 12 

60 -18 -14 
126 -68 -48 
95 -74 56 

92 75 -110 
25 -60 -62 
-83 -59 -39 

-41 110 50 
-126 33 99 
72 -4 117 



6 3 -78 
6 -9 -16 
10 -85 -10 

124 -96 114 
-98 16 -79 
60 53 92 

-51 121 17 
-34 117 -121 
110 -42 -90 

-43 47 88 
87 95 56 
-126 118 53 

-28 -118 -73 
-85 -23 12 
-16 -41 12 

60 -18 -14 
126 -68 -48 
95 -74 56 

92 75 -110 
25 -60 -62 
-83 -59 -39 

-41 110 50 
-126 33 99 
72 -4 117 


6 3 -78 
6 -9 -16 
10 -85 -10 

124 -96 114 
-98 16 -79 
60 53 92 

-51 121 17 
-34 117 -121 
110 -42 -90 

-43 47 88 
87 95 56 
-126 118 53 

-28 -118 -73 
-85 -23 12 
-16 -41 12 

60 -18 -14 
126 -68 -48 
95 -74 56 

92 75 -110 
25 -60 -62 
-83 -59 -39 

-41 110 50 
-126 33 99 
72 -4 117 


6 3 -78 
6 -9 -16 
10 -85 -10 

124 -96 114 
-98 16 -79 
60 53 92 

-51 121 17 
-34 117 -121 
110 -42 -90 

-43 47 88 
87 95 56 
-126 118 53 

-28 -118 -73 
-85 -23 12 
-16 -41 12 

60 -18 -14 
126 -68 -48 
95 -74 56 

92 75 -110 
25 -60 -62 
-83 -59 -39 

-41 110 50 
-126 33 99 
72 -4 117 


6 3 -78 
6 -9 -16 
10 -85 -10 

124 -96 114 
-98 16 -79 
60 53 92 

-51 121 17 
-34 117 -121 
110 -42 -90 

-43 47 88 
87 95 56 
-126 118 53 

-28 -118 -73 
-85 -23 12 
-16 -41 12 

60 -18 -14 
126 -68 -48 
95 -74 56 

92 75 -110 
25 -60 -62 
-83 -59 -39 

-41 110 50 
-126 33 99 
72 -4 117 




81 -62 45 
114 58 32 
-24 21 61 

94 69 -118 
-62 -97 118 
-115 48 81 

-84 -88 8 
51 71 -11 
99 102 -11 

-35 35 84 
36 38 112 
-56 -62 -43 

-113 -35 92 
45 23 25 
6 -18 0 

0 -76 -8 
-25 53 25 
-73 95 -49 

-106 -53 111 
95 58 15 
-120 25 -128 

-57 -9 -28 
-115 20 102 
95 26 -121 


81 -62 45 
114 58 32 
-24 21 61 

94 69 -118 
-62 -97 118 
-115 48 81 

-84 -88 8 
51 71 -11 
99 102 -11 

-35 35 84 
36 38 112 
-56 -62 -43 

-113 -35 92 
45 23 25 
6 -18 0 

0 -76 -8 
-25 53 25 
-73 95 -49 

-106 -53 111 
95 58 15 
-120 25 -128 

-57 -9 -28 
-115 20 102 
95 26 -121 


81 -62 45 
114 58 32 
-24 21 61 

94 69 -118 
-62 -97 118 
-115 48 81 

-84 -88 8 
51 71 -11 
99 102 -11 

-35 35 84 
36 38 112 
-56 -62 -43 

-113 -35 92 
45 23 25 
6 -18 0 

0 -76 -8 
-25 53 25 
-73 95 -49 

-106 -53 111 
95 58 15 
-120 25 -128 

-57 -9 -28 
-115 20 102 
95 26 -121 


81 -62 45 
114 58 32 
-24 21 61 

94 69 -118 
-62 -97 118 
-115 48 81 

-84 -88 8 
51 71 -11 
99 102 -11 

-35 35 84 
36 38 112 
-56 -62 -43 

-113 -35 92 
45 23 25 
6 -18 0 

0 -76 -8 
-25 53 25 
-73 95 -49 

-106 -53 111 
95 58 15 
-120 25 -128 

-57 -9 -28 
-115 20 102 
95 26 -121 



81 -62 45 
114 58 32 
-24 21 61 

94 69 -118 
-62 -97 118 
-115 48 81 

-84 -88 8 
51 71 -11 
99 102 -11 

-35 35 84 
36 38 112 
-56 -62 -43 

-113 -35 92 
45 23 25 
6 -18 0 

0 -76 -8 
-25 53 25 
-73 95 -49 

-106 -53 111 
95 58 15 
-120 25 -128 

-57 -9 -28 
-115 20 102 
95 26 -121 


81 -62 45 
114 58 32 
-24 21 61 

94 69 -118 
-62 -97 118 
-115 48 81 

-84 -88 8 
51 71 -11 
99 102 -11 

-35 35 84 
36 38 112 
-56 -62 -43 

-113 -35 92 
45 23 25 
6 -18 0 

0 -76 -8 
-25 53 25 
-73 95 -49 

-106 -53 111 
95 58 15 
-120 25 -128 

-57 -9 -28 
-115 20 102 
95 26 -121 


81 -62 45 
114 58 32 
-24 21 61 

94 69 -118 
-62 -97 118 
-115 48 81 

-84 -88 8 
51 71 -11 
99 102 -11 

-35 35 84 
36 38 112 
-56 -62 -43 

-113 -35 92 
45 23 25 
6 -18 0 

0 -76 -8 
-25 53 25 
-73 95 -49 

-106 -53 111 
95 58 15 
-120 25 -128 

-57 -9 -28 
-115 20 102 
95 26 -121 


81 -62 45 
114 58 32 
-24 21 61 

94 69 -118 
-62 -97 118 
-115 48 81 

-84 -88 8 
51 71 -11 
99 102 -11 

-35 35 84 
36 38 112 
-56 -62 -43 

-113 -35 92 
45 23 25 
6 -18 0 

0 -76 -8 
-25 53 25 
-73 95 -49 

-106 -53 111 
95 58 15 
-120 25 -128 

-57 -9 -28 
-115 20 102 
95 26 -121 



81 -62 45 
114 58 32 
-24 21 61 

94 69 -118 
-62 -97 118 
-115 48 81 

-84 -88 8 
51 71 -11 
99 102 -11 

-35 35 84 
36 38 112 
-56 -62 -43 

-113 -35 92 
45 23 25 
6 -18 0 

0 -76 -8 
-25 53 25 
-73 95 -49 

-106 -53 111 
95 58 15 
-120 25 -128 

-57 -9 -28 
-115 20 102 
95 26 -121 


81 -62 45 
114 58 32 
-24 21 61 

94 69 -118 
-62 -97 118 
-115 48 81 

-84 -88 8 
51 71 -11 
99 102 -11 

-35 35 84 
36 38 112 
-56 -62 -43 

-113 -35 92 
45 23 25 
6 -18 0 

0 -76 -8 
-25 53 25 
-73 95 -49 

-106 -53 111 
95 58 15 
-120 25 -128 

-57 -9 -28 
-115 20 102 
95 26 -121 


81 -62 45 
114 58 32 
-24 21 61 

94 69 -118 
-62 -97 118 
-115 48 81 

-84 -88 8 
51 71 -11 
99 102 -11 

-35 35 84 
36 38 112 
-56 -62 -43 

-113 -35 92 
45 23 25 
6 -18 0 

0 -76 -8 
-25 53 25 
-73 95 -49 

-106 -53 111 
95 58 15 
-120 25 -128 

-57 -9 -28 
-115 20 102 
95 26 -121 


81 -62 45 
114 58 32 
-24 21 61 

94 69 -118 
-62 -97 118 
-115 48 81 

-84 -88 8 
51 71 -11 
99 102 -11 

-35 35 84 
36 38 112 
-56 -62 -43 

-113 -35 92 
45 23 25 
6 -18 0 

0 -76 -8 
-25 53 25 
-73 95 -49 

-106 -53 111 
95 58 15 
-120 25 -128 

-57 -9 -28 
-115 20 102 
95 26 -121 



81 -62 45 
114 58 32 
-24 21 61 

94 69 -118 
-62 -97 118 
-115 48 81 

-84 -88 8 
51 71 -11 
99 102 -11 

-35 35 84 
36 38 112 
-56 -62 -43 

-113 -35 92 
45 23 25 
6 -18 0 

0 -76 -8 
-25 53 25 
-73 95 -49 

-106 -53 111 
95 58 15 
-120 25 -128 

-57 -9 -28 
-115 20 102 
95 26 -121 


81 -62 45 
114 58 32 
-24 21 61 

94 69 -118 
-62 -97 118 
-115 48 81 

-84 -88 8 
51 71 -11 
99 102 -11 

-35 35 84 
36 38 112 
-56 -62 -43 

-113 -35 92 
45 23 25 
6 -18 0 

0 -76 -8 
-25 53 25 
-73 95 -49 

-106 -53 111 
95 58 15 
-120 25 -128 

-57 -9 -28 
-115 20 102 
95 26 -121 


81 -62 45 
114 58 32 
-24 21 61 

94 69 -118 
-62 -97 118 
-115 48 81 

-84 -88 8 
51 71 -11 
99 102 -11 

-35 35 84 
36 38 112 
-56 -62 -43 

-113 -35 92 
45 23 25 
6 -18 0 

0 -76 -8 
-25 53 25 
-73 95 -49 

-106 -53 111 
95 58 15 
-120 25 -128 

-57 -9 -28 
-115 20 102 
95 26 -121 


81 -62 45 
114 58 32 
-24 21 61 

94 69 -118 
-62 -97 118 
-115 48 81 

-84 -88 8 
51 71 -11 
99 102 -11 

-35 35 84 
36 38 112 
-56 -62 -43 

-113 -35 92 
45 23 25 
6 -18 0 

0 -76 -8 
-25 53 25 
-73 95 -49 

-106 -53 111 
95 58 15 
-120 25 -128 

-57 -9 -28 
-115 20 102 
95 26 -121 



81 -62 45 
114 58 32 
-24 21 61 

94 69 -118 
-62 -97 118 
-115 48 81 

-84 -88 8 
51 71 -11 
99 102 -11 

-35 35 84 
36 38 112 
-56 -62 -43 

-113 -35 92 
45 23 25 
6 -18 0 

0 -76 -8 
-25 53 25 
-73 95 -49 

-106 -53 111 
95 58 15 
-120 25 -128 

-57 -9 -28 
-115 20 102 
95 26 -121 


81 -62 45 
114 58 32 
-24 21 61 

94 69 -118 
-62 -97 118 
-115 48 81 

-84 -88 8 
51 71 -11 
99 102 -11 

-35 35 84 
36 38 112 
-56 -62 -43 

-113 -35 92 
45 23 25 
6 -18 0 

0 -76 -8 
-25 53 25 
-73 95 -49 

-106 -53 111 
95 58 15 
-120 25 -128 

-57 -9 -28 
-115 20 102 
95 26 -121 


81 -62 45 
114 58 32 
-24 21 61 

94 69 -118 
-62 -97 118 
-115 48 81 

-84 -88 8 
51 71 -11 
99 102 -11 

-35 35 84 
36 38 112 
-56 -62 -43 

-113 -35 92 
45 23 25 
6 -18 0 

0 -76 -8 
-25 53 25 
-73 95 -49 

-106 -53 111 
95 58 15 
-120 25 -128 

-57 -9 -28 
-115 20 102 
95 26 -121 


81 -62 45 
114 58 32 
-24 21 61 

94 69 -118 
-62 -97 118 
-115 48 81 

-84 -88 8 
51 71 -11 
99 102 -11 

-35 35 84 
36 38 112 
-56 -62 -43 

-113 -35 92 
45 23 25 
6 -18 0 

0 -76 -8 
-25 53 25 
-73 95 -49 

-106 -53 111 
95 58 15 
-120 25 -128 

-57 -9 -28 
-115 20 102 
95 26 -121 



81 -62 45 
114 58 32 
-24 21 61 

94 69 -118 
-62 -97 118 
-115 48 81 

-84 -88 8 
51 71 -11 
99 102 -11 

-35 35 84 
36 38 112 
-56 -62 -43 

-113 -35 92 
45 23 25 
6 -18 0 

0 -76 -8 
-25 53 25 
-73 95 -49 

-106 -53 111 
95 58 15 
-120 25 -128 

-57 -9 -28 
-115 20 102 
95 26 -121 


81 -62 45 
114 58 32 
-24 21 61 

94 69 -118 
-62 -97 118 
-115 48 81 

-84 -88 8 
51 71 -11 
99 102 -11 

-35 35 84 
36 38 112 
-56 -62 -43 

-113 -35 92 
45 23 25 
6 -18 0 

0 -76 -8 
-25 53 25 
-73 95 -49 

-106 -53 111 
95 58 15 
-120 25 -128 

-57 -9 -28 
-115 20 102 
95 26 -121 


81 -62 45 
114 58 32 
-24 21 61 

94 69 -118 
-62 -97 118 
-115 48 81 

-84 -88 8 
51 71 -11 
99 102 -11 

-35 35 84 
36 38 112 
-56 -62 -43 

-113 -35 92 
45 23 25 
6 -18 0 

0 -76 -8 
-25 53 25 
-73 95 -49 

-106 -53 111 
95 58 15 
-120 25 -128 

-57 -9 -28 
-115 20 102 
95 26 -121 


81 -62 45 
114 58 32 
-24 21 61 

94 69 -118 
-62 -97 118 
-115 48 81 

-84 -88 8 
51 71 -11 
99 102 -11 

-35 35 84 
36 38 112 
-56 -62 -43 

-113 -35 92 
45 23 25 
6 -18 0 

0 -76 -8 
-25 53 25 
-73 95 -49 

-106 -53 111 
95 58 15 
-120 25 -128 

-57 -9 -28 
-115 20 102 
95 26 -121 



81 -62 45 
114 58 32 
-24 21 61 

94 69 -118 
-62 -97 118 
-115 48 81 

-84 -88 8 
51 71 -11 
99 102 -11 

-35 35 84 
36 38 112 
-56 -62 -43 

-113 -35 92 
45 23 25 
6 -18 0 

0 -76 -8 
-25 53 25 
-73 95 -49 

-106 -53 111 
95 58 15 
-120 25 -128 

-57 -9 -28 
-115 20 102 
95 26 -121 


81 -62 45 
114 58 32 
-24 21 61 

94 69 -118 
-62 -97 118 
-115 48 81 

-84 -88 8 
51 71 -11 
99 102 -11 

-35 35 84 
36 38 112 
-56 -62 -43 

-113 -35 92 
45 23 25 
6 -18 0 

0 -76 -8 
-25 53 25 
-73 95 -49 

-106 -53 111 
95 58 15 
-120 25 -128 

-57 -9 -28 
-115 20 102 
95 26 -121 


81 -62 45 
114 58 32 
-24 21 61 

94 69 -118 
-62 -97 118 
-115 48 81 

-84 -88 8 
51 71 -11 
99 102 -11 

-35 35 84 
36 38 112 
-56 -62 -43 

-113 -35 92 
45 23 25 
6 -18 0 

0 -76 -8 
-25 53 25 
-73 95 -49 

-106 -53 111 
95 58 15 
-120 25 -128 

-57 -9 -28 
-115 20 102 
95 26 -121 


81 -62 45 
114 58 32 
-24 21 61 

94 69 -118 
-62 -97 118 
-115 48 81 

-84 -88 8 
51 71 -11 
99 102 -11 

-35 35 84 
36 38 112 
-56 -62 -43 

-113 -35 92 
45 23 25 
6 -18 0 

0 -76 -8 
-25 53 25 
-73 95 -49 

-106 -53 111 
95 58 15 
-120 25 -128 

-57 -9 -28 
-115 20 102 
95 26 -121 



81 -62 45 
114 58 32 
-24 21 61 

94 69 -118 
-62 -97 118 
-115 48 81 

-84 -88 8 
51 71 -11 
99 102 -11 

-35 35 84 
36 38 112 
-56 -62 -43 

-113 -35 92 
45 23 25 
6 -18 0 

0 -76 -8 
-25 53 25 
-73 95 -49 

-106 -53 111 
95 58 15 
-120 25 -128 

-57 -9 -28 
-115 20 102 
95 26 -121 


81 -62 45 
114 58 32 
-24 21 61 

94 69 -118 
-62 -97 118 
-115 48 81 

-84 -88 8 
51 71 -11 
99 102 -11 

-35 35 84 
36 38 112 
-56 -62 -43 

-113 -35 92 
45 23 25 
6 -18 0 

0 -76 -8 
-25 53 25 
-73 95 -49 

-106 -53 111 
95 58 15 
-120 25 -128 

-57 -9 -28 
-115 20 102 
95 26 -121 


81 -62 45 
114 58 32 
-24 21 61 

94 69 -118 
-62 -97 118 
-115 48 81 

-84 -88 8 
51 71 -11 
99 102 -11 

-35 35 84 
36 38 112 
-56 -62 -43 

-113 -35 92 
45 23 25 
6 -18 0 

0 -76 -8 
-25 53 25 
-73 95 -49 

-106 -53 111 
95 58 15 
-120 25 -128 

-57 -9 -28 
-115 20 102 
95 26 -121 


81 -62 45 
114 58 32 
-24 21 61 

94 69 -118 
-62 -97 118 
-115 48 81 

-84 -88 8 
51 71 -11 
99 102 -11 

-35 35 84 
36 38 112 
-56 -62 -43 

-113 -35 92 
45 23 25 
6 -18 0 

0 -76 -8 
-25 53 25 
-73 95 -49 

-106 -53 111 
95 58 15 
-120 25 -128 

-57 -9 -28 
-115 20 102 
95 26 -121 



81 -62 45 
114 58 32 
-24 21 61 

94 69 -118 
-62 -97 118 
-115 48 81 

-84 -88 8 
51 71 -11 
99 102 -11 

-35 35 84 
36 38 112 
-56 -62 -43 

-113 -35 92 
45 23 25 
6 -18 0 

0 -76 -8 
-25 53 25 
-73 95 -49 

-106 -53 111 
95 58 15 
-120 25 -128 

-57 -9 -28 
-115 20 102 
95 26 -121 


81 -62 45 
114 58 32 
-24 21 61 

94 69 -118 
-62 -97 118 
-115 48 81 

-84 -88 8 
51 71 -11 
99 102 -11 

-35 35 84 
36 38 112 
-56 -62 -43 

-113 -35 92 
45 23 25 
6 -18 0 

0 -76 -8 
-25 53 25 
-73 95 -49 

-106 -53 111 
95 58 15 
-120 25 -128 

-57 -9 -28 
-115 20 102 
95 26 -121 


81 -62 45 
114 58 32 
-24 21 61 

94 69 -118 
-62 -97 118 
-115 48 81 

-84 -88 8 
51 71 -11 
99 102 -11 

-35 35 84 
36 38 112 
-56 -62 -43 

-113 -35 92 
45 23 25 
6 -18 0 

0 -76 -8 
-25 53 25 
-73 95 -49 

-106 -53 111 
95 58 15 
-120 25 -128 

-57 -9 -28 
-115 20 102 
95 26 -121 


81 -62 45 
114 58 32 
-24 21 61 

94 69 -118 
-62 -97 118 
-115 48 81 

-84 -88 8 
51 71 -11 
99 102 -11 

-35 35 84 
36 38 112 
-56 -62 -43 

-113 -35 92 
45 23 25 
6 -18 0 

0 -76 -8 
-25 53 25 
-73 95 -49 

-106 -53 111 
95 58 15 
-120 25 -128 

-57 -9 -28 
-115 20 102 
95 26 -121 



81 -62 45 
114 58 32 
-24 21 61 

94 69 -118 
-62 -97 118 
-115 48 81 

-84 -88 8 
51 71 -11 
99 102 -11 

-35 35 84 
36 38 112 
-56 -62 -43 

-113 -35 92 
45 23 25 
6 -18 0 

0 -76 -8 
-25 53 25 
-73 95 -49 

-106 -53 111 
95 58 15 
-120 25 -128 

-57 -9 -28 
-115 20 102 
95 26 -121 


81 -62 45 
114 58 32 
-24 21 61 

94 69 -118 
-62 -97 118 
-115 48 81 

-84 -88 8 
51 71 -11 
99 102 -11 

-35 35 84 
36 38 112 
-56 -62 -43 

-113 -35 92 
45 23 25 
6 -18 0 

0 -76 -8 
-25 53 25 
-73 95 -49 

-106 -53 111 
95 58 15 
-120 25 -128 

-57 -9 -28 
-115 20 102 
95 26 -121 


81 -62 45 
114 58 32 
-24 21 61 

94 69 -118 
-62 -97 118 
-115 48 81 

-84 -88 8 
51 71 -11 
99 102 -11 

-35 35 84 
36 38 112 
-56 -62 -43 

-113 -35 92 
45 23 25 
6 -18 0 

0 -76 -8 
-25 53 25 
-73 95 -49 

-106 -53 111 
95 58 15 
-120 25 -128 

-57 -9 -28 
-115 20 102 
95 26 -121 


81 -62 45 
114 58 32 
-24 21 61 

94 69 -118 
-62 -97 118 
-115 48 81 

-84 -88 8 
51 71 -11 
99 102 -11 

-35 35 84 
36 38 112 
-56 -62 -43 

-113 -35 92 
45 23 25 
6 -18 0 

0 -76 -8 
-25 53 25 
-73 95 -49 

-106 -53 111 
95 58 15 
-120 25 -128 

-57 -9 -28 
-115 20 102 
95 26 -121 



81 -62 45 
114 58 32 
-24 21 61 

94 69 -118 
-62 -97 118 
-115 48 81 

-84 -88 8 
51 71 -11 
99 102 -11 

-35 35 84 
36 38 112 
-56 -62 -43 

-113 -35 92 
45 23 25 
6 -18 0 

0 -76 -8 
-25 53 25 
-73 95 -49 

-106 -53 111 
95 58 15 
-120 25 -128 

-57 -9 -28 
-115 20 102 
95 26 -121 


81 -62 45 
114 58 32 
-24 21 61 

94 69 -118 
-62 -97 118 
-115 48 81 

-84 -88 8 
51 71 -11 
99 102 -11 

-35 35 84 
36 38 112 
-56 -62 -43 

-113 -35 92 
45 23 25 
6 -18 0 

0 -76 -8 
-25 53 25 
-73 95 -49 

-106 -53 111 
95 58 15 
-120 25 -128 

-57 -9 -28 
-115 20 102 
95 26 -121 


81 -62 45 
114 58 32 
-24 21 61 

94 69 -118 
-62 -97 118 
-115 48 81 

-84 -88 8 
51 71 -11 
99 102 -11 

-35 35 84 
36 38 112 
-56 -62 -43 

-113 -35 92 
45 23 25 
6 -18 0 

0 -76 -8 
-25 53 25 
-73 95 -49 

-106 -53 111 
95 58 15 
-120 25 -128 

-57 -9 -28 
-115 20 102 
95 26 -121 


81 -62 45 
114 58 32 
-24 21 61 

94 69 -118 
-62 -97 118 
-115 48 81 

-84 -88 8 
51 71 -11 
99 102 -11 

-35 35 84 
36 38 112 
-56 -62 -43 

-113 -35 92 
45 23 25 
6 -18 0 

0 -76 -8 
-25 53 25 
-73 95 -49 

-106 -53 111 
95 58 15 
-120 25 -128 

-57 -9 -28 
-115 20 102 
95 26 -121 



81 -62 45 
114 58 32 
-24 21 61 

94 69 -118 
-62 -97 118 
-115 48 81 

-84 -88 8 
51 71 -11 
99 102 -11 

-35 35 84 
36 38 112 
-56 -62 -43 

-113 -35 92 
45 23 25 
6 -18 0 

0 -76 -8 
-25 53 25 
-73 95 -49 

-106 -53 111 
95 58 15 
-120 25 -128 

-57 -9 -28 
-115 20 102 
95 26 -121 


81 -62 45 
114 58 32 
-24 21 61 

94 69 -118 
-62 -97 118 
-115 48 81 

-84 -88 8 
51 71 -11 
99 102 -11 

-35 35 84 
36 38 112 
-56 -62 -43 

-113 -35 92 
45 23 25 
6 -18 0 

0 -76 -8 
-25 53 25 
-73 95 -49 

-106 -53 111 
95 58 15 
-120 25 -128 

-57 -9 -28 
-115 20 102 
95 26 -121 


81 -62 45 
114 58 32 
-24 21 61 

94 69 -118 
-62 -97 118 
-115 48 81 

-84 -88 8 
51 71 -11 
99 102 -11 

-35 35 84 
36 38 112 
-56 -62 -43 

-113 -35 92 
45 23 25 
6 -18 0 

0 -76 -8 
-25 53 25 
-73 95 -49 

-106 -53 111 
95 58 15 
-120 25 -128 

-57 -9 -28 
-115 20 102 
95 26 -121 


81 -62 45 
114 58 32 
-24 21 61 

94 69 -118 
-62 -97 118 
-115 48 81 

-84 -88 8 
51 71 -11 
99 102 -11 

-35 35 84 
36 38 112 
-56 -62 -43 

-113 -35 92 
45 23 25 
6 -18 0 

0 -76 -8 
-25 53 25 
-73 95 -49 

-106 -53 111 
95 58 15 
-120 25 -128 

-57 -9 -28 
-115 20 102 
95 26 -121 



81 -62 45 
114 58 32 
-24 21 61 

94 69 -118 
-62 -97 118 
-115 48 81 

-84 -88 8 
51 71 -11 
99 102 -11 

-35 35 84 
36 38 112 
-56 -62 -43 

-113 -35 92 
45 23 25 
6 -18 0 

0 -76 -8 
-25 53 25 
-73 95 -49 

-106 -53 111 
95 58 15 
-120 25 -128 

-57 -9 -28 
-115 20 102 
95 26 -121 


81 -62 45 
114 58 32 
-24 21 61 

94 69 -118 
-62 -97 118 
-115 48 81 

-84 -88 8 
51 71 -11 
99 102 -11 

-35 35 84 
36 38 112 
-56 -62 -43 

-113 -35 92 
45 23 25 
6 -18 0 

0 -76 -8 
-25 53 25 
-73 95 -49 

-106 -53 111 
95 58 15 
-120 25 -128 

-57 -9 -28 
-115 20 102 
95 26 -121 


81 -62 45 
114 58 32 
-24 21 61 

94 69 -118 
-62 -97 118 
-115 48 81 

-84 -88 8 
51 71 -11 
99 102 -11 

-35 35 84 
36 38 112 
-56 -62 -43 

-113 -35 92 
45 23 25 
6 -18 0 

0 -76 -8 
-25 53 25 
-73 95 -49 

-106 -53 111 
95 58 15 
-120 25 -128 

-57 -9 -28 
-115 20 102 
95 26 -121 


81 -62 45 
114 58 32 
-24 21 61 

94 69 -118 
-62 -97 118 
-115 48 81 

-84 -88 8 
51 71 -11 
99 102 -11 

-35 35 84 
36 38 112 
-56 -62 -43 

-113 -35 92 
45 23 25 
6 -18 0 

0 -76 -8 
-25 53 25 
-73 95 -49 

-106 -53 111 
95 58 15 
-120 25 -128 

-57 -9 -28 
-115 20 102 
95 26 -121 




-16 -11 -56 
-54 -105 -7 
124 31 8 

-35 51 102 
50 97 -11 
-60 -11 94 

117 47 94 
-56 65 71 
54 -60 -13 

-116 -75 61 
-91 -38 -39 
-23 -8 -8 

-96 86 -42 
43 -96 -35 
115 13 -40 

-56 -30 -115 
-128 31 36 
92 99 -15 

34 -39 -19 
104 -96 79 
23 -97 -3 

-55 -126 23 
-116 -110 85 
9 76 -89 


-16 -11 -56 
-54 -105 -7 
124 31 8 

-35 51 102 
50 97 -11 
-60 -11 94 

117 47 94 
-56 65 71 
54 -60 -13 

-116 -75 61 
-91 -38 -39 
-23 -8 -8 

-96 86 -42 
43 -96 -35 
115 13 -40 

-56 -30 -115 
-128 31 36 
92 99 -15 

34 -39 -19 
104 -96 79 
23 -97 -3 

-55 -126 23 
-116 -110 85 
9 76 -89 


-16 -11 -56 
-54 -105 -7 
124 31 8 

-35 51 102 
50 97 -11 
-60 -11 94 

117 47 94 
-56 65 71 
54 -60 -13 

-116 -75 61 
-91 -38 -39 
-23 -8 -8 

-96 86 -42 
43 -96 -35 
115 13 -40 

-56 -30 -115 
-128 31 36 
92 99 -15 

34 -39 -19 
104 -96 79 
23 -97 -3 

-55 -126 23 
-116 -110 85 
9 76 -89 


-16 -11 -56 
-54 -105 -7 
124 31 8 

-35 51 102 
50 97 -11 
-60 -11 94 

117 47 94 
-56 65 71 
54 -60 -13 

-116 -75 61 
-91 -38 -39 
-23 -8 -8 

-96 86 -42 
43 -96 -35 
115 13 -40 

-56 -30 -115 
-128 31 36 
92 99 -15 

34 -39 -19 
104 -96 79 
23 -97 -3 

-55 -126 23 
-116 -110 85 
9 76 -89 



-16 -11 -56 
-54 -105 -7 
124 31 8 

-35 51 102 
50 97 -11 
-60 -11 94 

117 47 94 
-56 65 71 
54 -60 -13 

-116 -75 61 
-91 -38 -39 
-23 -8 -8 

-96 86 -42 
43 -96 -35 
115 13 -40 

-56 -30 -115 
-128 31 36 
92 99 -15 

34 -39 -19 
104 -96 79 
23 -97 -3 

-55 -126 23 
-116 -110 85 
9 76 -89 


-16 -11 -56 
-54 -105 -7 
124 31 8 

-35 51 102 
50 97 -11 
-60 -11 94 

117 47 94 
-56 65 71 
54 -60 -13 

-116 -75 61 
-91 -38 -39 
-23 -8 -8 

-96 86 -42 
43 -96 -35 
115 13 -40 

-56 -30 -115 
-128 31 36 
92 99 -15 

34 -39 -19 
104 -96 79 
23 -97 -3 

-55 -126 23 
-116 -110 85 
9 76 -89 


-16 -11 -56 
-54 -105 -7 
124 31 8 

-35 51 102 
50 97 -11 
-60 -11 94 

117 47 94 
-56 65 71 
54 -60 -13 

-116 -75 61 
-91 -38 -39 
-23 -8 -8 

-96 86 -42 
43 -96 -35 
115 13 -40 

-56 -30 -115 
-128 31 36 
92 99 -15 

34 -39 -19 
104 -96 79 
23 -97 -3 

-55 -126 23 
-116 -110 85 
9 76 -89 


-16 -11 -56 
-54 -105 -7 
124 31 8 

-35 51 102 
50 97 -11 
-60 -11 94 

117 47 94 
-56 65 71 
54 -60 -13 

-116 -75 61 
-91 -38 -39 
-23 -8 -8 

-96 86 -42 
43 -96 -35 
115 13 -40 

-56 -30 -115 
-128 31 36 
92 99 -15 

34 -39 -19 
104 -96 79 
23 -97 -3 

-55 -126 23 
-116 -110 85 
9 76 -89 



-16 -11 -56 
-54 -105 -7 
124 31 8 

-35 51 102 
50 97 -11 
-60 -11 94 

117 47 94 
-56 65 71 
54 -60 -13 

-116 -75 61 
-91 -38 -39 
-23 -8 -8 

-96 86 -42 
43 -96 -35 
115 13 -40 

-56 -30 -115 
-128 31 36 
92 99 -15 

34 -39 -19 
104 -96 79 
23 -97 -3 

-55 -126 23 
-116 -110 85 
9 76 -89 


-16 -11 -56 
-54 -105 -7 
124 31 8 

-35 51 102 
50 97 -11 
-60 -11 94 

117 47 94 
-56 65 71 
54 -60 -13 

-116 -75 61 
-91 -38 -39 
-23 -8 -8 

-96 86 -42 
43 -96 -35 
115 13 -40 

-56 -30 -115 
-128 31 36 
92 99 -15 

34 -39 -19 
104 -96 79 
23 -97 -3 

-55 -126 23 
-116 -110 85 
9 76 -89 


-16 -11 -56 
-54 -105 -7 
124 31 8 

-35 51 102 
50 97 -11 
-60 -11 94 

117 47 94 
-56 65 71 
54 -60 -13 

-116 -75 61 
-91 -38 -39 
-23 -8 -8 

-96 86 -42 
43 -96 -35 
115 13 -40 

-56 -30 -115 
-128 31 36 
92 99 -15 

34 -39 -19 
104 -96 79 
23 -97 -3 

-55 -126 23 
-116 -110 85 
9 76 -89 


-16 -11 -56 
-54 -105 -7 
124 31 8 

-35 51 102 
50 97 -11 
-60 -11 94 

117 47 94 
-56 65 71 
54 -60 -13 

-116 -75 61 
-91 -38 -39 
-23 -8 -8 

-96 86 -42 
43 -96 -35 
115 13 -40 

-56 -30 -115 
-128 31 36 
92 99 -15 

34 -39 -19 
104 -96 79 
23 -97 -3 

-55 -126 23 
-116 -110 85 
9 76 -89 



-16 -11 -56 
-54 -105 -7 
124 31 8 

-35 51 102 
50 97 -11 
-60 -11 94 

117 47 94 
-56 65 71 
54 -60 -13 

-116 -75 61 
-91 -38 -39 
-23 -8 -8 

-96 86 -42 
43 -96 -35 
115 13 -40 

-56 -30 -115 
-128 31 36 
92 99 -15 

34 -39 -19 
104 -96 79 
23 -97 -3 

-55 -126 23 
-116 -110 85 
9 76 -89 


-16 -11 -56 
-54 -105 -7 
124 31 8 

-35 51 102 
50 97 -11 
-60 -11 94 

117 47 94 
-56 65 71 
54 -60 -13 

-116 -75 61 
-91 -38 -39 
-23 -8 -8 

-96 86 -42 
43 -96 -35 
115 13 -40 

-56 -30 -115 
-128 31 36 
92 99 -15 

34 -39 -19 
104 -96 79 
23 -97 -3 

-55 -126 23 
-116 -110 85 
9 76 -89 


-16 -11 -56 
-54 -105 -7 
124 31 8 

-35 51 102 
50 97 -11 
-60 -11 94 

117 47 94 
-56 65 71 
54 -60 -13 

-116 -75 61 
-91 -38 -39 
-23 -8 -8 

-96 86 -42 
43 -96 -35 
115 13 -40 

-56 -30 -115 
-128 31 36 
92 99 -15 

34 -39 -19 
104 -96 79 
23 -97 -3 

-55 -126 23 
-116 -110 85 
9 76 -89 


-16 -11 -56 
-54 -105 -7 
124 31 8 

-35 51 102 
50 97 -11 
-60 -11 94 

117 47 94 
-56 65 71 
54 -60 -13 

-116 -75 61 
-91 -38 -39 
-23 -8 -8 

-96 86 -42 
43 -96 -35 
115 13 -40 

-56 -30 -115 
-128 31 36 
92 99 -15 

34 -39 -19 
104 -96 79 
23 -97 -3 

-55 -126 23 
-116 -110 85 
9 76 -89 



-16 -11 -56 
-54 -105 -7 
124 31 8 

-35 51 102 
50 97 -11 
-60 -11 94 

117 47 94 
-56 65 71 
54 -60 -13 

-116 -75 61 
-91 -38 -39 
-23 -8 -8 

-96 86 -42 
43 -96 -35 
115 13 -40 

-56 -30 -115 
-128 31 36 
92 99 -15 

34 -39 -19 
104 -96 79 
23 -97 -3 

-55 -126 23 
-116 -110 85 
9 76 -89 


-16 -11 -56 
-54 -105 -7 
124 31 8 

-35 51 102 
50 97 -11 
-60 -11 94 

117 47 94 
-56 65 71 
54 -60 -13 

-116 -75 61 
-91 -38 -39 
-23 -8 -8 

-96 86 -42 
43 -96 -35 
115 13 -40 

-56 -30 -115 
-128 31 36 
92 99 -15 

34 -39 -19 
104 -96 79 
23 -97 -3 

-55 -126 23 
-116 -110 85 
9 76 -89 


-16 -11 -56 
-54 -105 -7 
124 31 8 

-35 51 102 
50 97 -11 
-60 -11 94 

117 47 94 
-56 65 71 
54 -60 -13 

-116 -75 61 
-91 -38 -39 
-23 -8 -8 

-96 86 -42 
43 -96 -35 
115 13 -40 

-56 -30 -115 
-128 31 36 
92 99 -15 

34 -39 -19 
104 -96 79 
23 -97 -3 

-55 -126 23 
-116 -110 85 
9 76 -89 


-16 -11 -56 
-54 -105 -7 
124 31 8 

-35 51 102 
50 97 -11 
-60 -11 94 

117 47 94 
-56 65 71 
54 -60 -13 

-116 -75 61 
-91 -38 -39 
-23 -8 -8 

-96 86 -42 
43 -96 -35 
115 13 -40 

-56 -30 -115 
-128 31 36 
92 99 -15 

34 -39 -19 
104 -96 79 
23 -97 -3 

-55 -126 23 
-116 -110 85 
9 76 -89 



-16 -11 -56 
-54 -105 -7 
124 31 8 

-35 51 102 
50 97 -11 
-60 -11 94 

117 47 94 
-56 65 71 
54 -60 -13 

-116 -75 61 
-91 -38 -39 
-23 -8 -8 

-96 86 -42 
43 -96 -35 
115 13 -40 

-56 -30 -115 
-128 31 36 
92 99 -15 

34 -39 -19 
104 -96 79 
23 -97 -3 

-55 -126 23 
-116 -110 85 
9 76 -89 


-16 -11 -56 
-54 -105 -7 
124 31 8 

-35 51 102 
50 97 -11 
-60 -11 94 

117 47 94 
-56 65 71 
54 -60 -13 

-116 -75 61 
-91 -38 -39 
-23 -8 -8 

-96 86 -42 
43 -96 -35 
115 13 -40 

-56 -30 -115 
-128 31 36 
92 99 -15 

34 -39 -19 
104 -96 79 
23 -97 -3 

-55 -126 23 
-116 -110 85 
9 76 -89 


-16 -11 -56 
-54 -105 -7 
124 31 8 

-35 51 102 
50 97 -11 
-60 -11 94 

117 47 94 
-56 65 71 
54 -60 -13 

-116 -75 61 
-91 -38 -39 
-23 -8 -8 

-96 86 -42 
43 -96 -35 
115 13 -40 

-56 -30 -115 
-128 31 36 
92 99 -15 

34 -39 -19 
104 -96 79 
23 -97 -3 

-55 -126 23 
-116 -110 85 
9 76 -89 


-16 -11 -56 
-54 -105 -7 
124 31 8 

-35 51 102 
50 97 -11 
-60 -11 94 

117 47 94 
-56 65 71 
54 -60 -13 

-116 -75 61 
-91 -38 -39 
-23 -8 -8 

-96 86 -42 
43 -96 -35 
115 13 -40 

-56 -30 -115 
-128 31 36 
92 99 -15 

34 -39 -19 
104 -96 79 
23 -97 -3 

-55 -126 23 
-116 -110 85 
9 76 -89 



-16 -11 -56 
-54 -105 -7 
124 31 8 

-35 51 102 
50 97 -11 
-60 -11 94 

117 47 94 
-56 65 71 
54 -60 -13 

-116 -75 61 
-91 -38 -39 
-23 -8 -8 

-96 86 -42 
43 -96 -35 
115 13 -40 

-56 -30 -115 
-128 31 36 
92 99 -15 

34 -39 -19 
104 -96 79 
23 -97 -3 

-55 -126 23 
-116 -110 85 
9 76 -89 


-16 -11 -56 
-54 -105 -7 
124 31 8 

-35 51 102 
50 97 -11 
-60 -11 94 

117 47 94 
-56 65 71 
54 -60 -13 

-116 -75 61 
-91 -38 -39 
-23 -8 -8 

-96 86 -42 
43 -96 -35 
115 13 -40 

-56 -30 -115 
-128 31 36 
92 99 -15 

34 -39 -19 
104 -96 79 
23 -97 -3 

-55 -126 23 
-116 -110 85 
9 76 -89 


-16 -11 -56 
-54 -105 -7 
124 31 8 

-35 51 102 
50 97 -11 
-60 -11 94 

117 47 94 
-56 65 71 
54 -60 -13 

-116 -75 61 
-91 -38 -39 
-23 -8 -8 

-96 86 -42 
43 -96 -35 
115 13 -40 

-56 -30 -115 
-128 31 36 
92 99 -15 

34 -39 -19 
104 -96 79 
23 -97 -3 

-55 -126 23 
-116 -110 85 
9 76 -89 


-16 -11 -56 
-54 -105 -7 
124 31 8 

-35 51 102 
50 97 -11 
-60 -11 94 

117 47 94 
-56 65 71 
54 -60 -13 

-116 -75 61 
-91 -38 -39 
-23 -8 -8 

-96 86 -42 
43 -96 -35 
115 13 -40 

-56 -30 -115 
-128 31 36 
92 99 -15 

34 -39 -19 
104 -96 79 
23 -97 -3 

-55 -126 23 
-116 -110 85 
9 76 -89 



-16 -11 -56 
-54 -105 -7 
124 31 8 

-35 51 102 
50 97 -11 
-60 -11 94 

117 47 94 
-56 65 71 
54 -60 -13 

-116 -75 61 
-91 -38 -39 
-23 -8 -8 

-96 86 -42 
43 -96 -35 
115 13 -40 

-56 -30 -115 
-128 31 36 
92 99 -15 

34 -39 -19 
104 -96 79 
23 -97 -3 

-55 -126 23 
-116 -110 85 
9 76 -89 


-16 -11 -56 
-54 -105 -7 
124 31 8 

-35 51 102 
50 97 -11 
-60 -11 94 

117 47 94 
-56 65 71 
54 -60 -13 

-116 -75 61 
-91 -38 -39 
-23 -8 -8 

-96 86 -42 
43 -96 -35 
115 13 -40 

-56 -30 -115 
-128 31 36 
92 99 -15 

34 -39 -19 
104 -96 79 
23 -97 -3 

-55 -126 23 
-116 -110 85 
9 76 -89 


-16 -11 -56 
-54 -105 -7 
124 31 8 

-35 51 102 
50 97 -11 
-60 -11 94 

117 47 94 
-56 65 71 
54 -60 -13 

-116 -75 61 
-91 -38 -39 
-23 -8 -8 

-96 86 -42 
43 -96 -35 
115 13 -40 

-56 -30 -115 
-128 31 36 
92 99 -15 

34 -39 -19 
104 -96 79 
23 -97 -3 

-55 -126 23 
-116 -110 85 
9 76 -89 


-16 -11 -56 
-54 -105 -7 
124 31 8 

-35 51 102 
50 97 -11 
-60 -11 94 

117 47 94 
-56 65 71 
54 -60 -13 

-116 -75 61 
-91 -38 -39 
-23 -8 -8 

-96 86 -42 
43 -96 -35 
115 13 -40 

-56 -30 -115 
-128 31 36 
92 99 -15 

34 -39 -19 
104 -96 79 
23 -97 -3 

-55 -126 23 
-116 -110 85 
9 76 -89 



-16 -11 -56 
-54 -105 -7 
124 31 8 

-35 51 102 
50 97 -11 
-60 -11 94 

117 47 94 
-56 65 71 
54 -60 -13 

-116 -75 61 
-91 -38 -39 
-23 -8 -8 

-96 86 -42 
43 -96 -35 
115 13 -40 

-56 -30 -115 
-128 31 36 
92 99 -15 

34 -39 -19 
104 -96 79 
23 -97 -3 

-55 -126 23 
-116 -110 85 
9 76 -89 


-16 -11 -56 
-54 -105 -7 
124 31 8 

-35 51 102 
50 97 -11 
-60 -11 94 

117 47 94 
-56 65 71 
54 -60 -13 

-116 -75 61 
-91 -38 -39 
-23 -8 -8 

-96 86 -42 
43 -96 -35 
115 13 -40 

-56 -30 -115 
-128 31 36 
92 99 -15 

34 -39 -19 
104 -96 79 
23 -97 -3 

-55 -126 23 
-116 -110 85 
9 76 -89 


-16 -11 -56 
-54 -105 -7 
124 31 8 

-35 51 102 
50 97 -11 
-60 -11 94 

117 47 94 
-56 65 71 
54 -60 -13 

-116 -75 61 
-91 -38 -39 
-23 -8 -8 

-96 86 -42 
43 -96 -35 
115 13 -40 

-56 -30 -115 
-128 31 36 
92 99 -15 

34 -39 -19 
104 -96 79 
23 -97 -3 

-55 -126 23 
-116 -110 85 
9 76 -89 


-16 -11 -56 
-54 -105 -7 
124 31 8 

-35 51 102 
50 97 -11 
-60 -11 94 

117 47 94 
-56 65 71 
54 -60 -13 

-116 -75 61 
-91 -38 -39 
-23 -8 -8 

-96 86 -42 
43 -96 -35 
115 13 -40 

-56 -30 -115 
-128 31 36 
92 99 -15 

34 -39 -19 
104 -96 79 
23 -97 -3 

-55 -126 23 
-116 -110 85 
9 76 -89 



-16 -11 -56 
-54 -105 -7 
124 31 8 

-35 51 102 
50 97 -11 
-60 -11 94 

117 47 94 
-56 65 71 
54 -60 -13 

-116 -75 61 
-91 -38 -39 
-23 -8 -8 

-96 86 -42 
43 -96 -35 
115 13 -40 

-56 -30 -115 
-128 31 36 
92 99 -15 

34 -39 -19 
104 -96 79 
23 -97 -3 

-55 -126 23 
-116 -110 85 
9 76 -89 


-16 -11 -56 
-54 -105 -7 
124 31 8 

-35 51 102 
50 97 -11 
-60 -11 94 

117 47 94 
-56 65 71 
54 -60 -13 

-116 -75 61 
-91 -38 -39 
-23 -8 -8 

-96 86 -42 
43 -96 -35 
115 13 -40 

-56 -30 -115 
-128 31 36 
92 99 -15 

34 -39 -19 
104 -96 79 
23 -97 -3 

-55 -126 23 
-116 -110 85 
9 76 -89 


-16 -11 -56 
-54 -105 -7 
124 31 8 

-35 51 102 
50 97 -11 
-60 -11 94 

117 47 94 
-56 65 71 
54 -60 -13 

-116 -75 61 
-91 -38 -39 
-23 -8 -8 

-96 86 -42 
43 -96 -35 
115 13 -40 

-56 -30 -115 
-128 31 36 
92 99 -15 

34 -39 -19 
104 -96 79 
23 -97 -3 

-55 -126 23 
-116 -110 85 
9 76 -89 


-16 -11 -56 
-54 -105 -7 
124 31 8 

-35 51 102 
50 97 -11 
-60 -11 94 

117 47 94 
-56 65 71 
54 -60 -13 

-116 -75 61 
-91 -38 -39 
-23 -8 -8 

-96 86 -42 
43 -96 -35 
115 13 -40 

-56 -30 -115 
-128 31 36 
92 99 -15 

34 -39 -19 
104 -96 79 
23 -97 -3 

-55 -126 23 
-116 -110 85 
9 76 -89 



-16 -11 -56 
-54 -105 -7 
124 31 8 

-35 51 102 
50 97 -11 
-60 -11 94 

117 47 94 
-56 65 71 
54 -60 -13 

-116 -75 61 
-91 -38 -39 
-23 -8 -8 

-96 86 -42 
43 -96 -35 
115 13 -40 

-56 -30 -115 
-128 31 36 
92 99 -15 

34 -39 -19 
104 -96 79 
23 -97 -3 

-55 -126 23 
-116 -110 85 
9 76 -89 


-16 -11 -56 
-54 -105 -7 
124 31 8 

-35 51 102 
50 97 -11 
-60 -11 94 

117 47 94 
-56 65 71 
54 -60 -13 

-116 -75 61 
-91 -38 -39 
-23 -8 -8 

-96 86 -42 
43 -96 -35 
115 13 -40 

-56 -30 -115 
-128 31 36 
92 99 -15 

34 -39 -19 
104 -96 79 
23 -97 -3 

-55 -126 23 
-116 -110 85 
9 76 -89 


-16 -11 -56 
-54 -105 -7 
124 31 8 

-35 51 102 
50 97 -11 
-60 -11 94 

117 47 94 
-56 65 71 
54 -60 -13 

-116 -75 61 
-91 -38 -39 
-23 -8 -8 

-96 86 -42 
43 -96 -35 
115 13 -40 

-56 -30 -115 
-128 31 36 
92 99 -15 

34 -39 -19 
104 -96 79 
23 -97 -3 

-55 -126 23 
-116 -110 85 
9 76 -89 


-16 -11 -56 
-54 -105 -7 
124 31 8 

-35 51 102 
50 97 -11 
-60 -11 94 

117 47 94 
-56 65 71 
54 -60 -13 

-116 -75 61 
-91 -38 -39 
-23 -8 -8 

-96 86 -42 
43 -96 -35 
115 13 -40 

-56 -30 -115 
-128 31 36 
92 99 -15 

34 -39 -19 
104 -96 79 
23 -97 -3 

-55 -126 23 
-116 -110 85 
9 76 -89 



-16 -11 -56 
-54 -105 -7 
124 31 8 

-35 51 102 
50 97 -11 
-60 -11 94 

117 47 94 
-56 65 71 
54 -60 -13 

-116 -75 61 
-91 -38 -39 
-23 -8 -8 

-96 86 -42 
43 -96 -35 
115 13 -40 

-56 -30 -115 
-128 31 36 
92 99 -15 

34 -39 -19 
104 -96 79 
23 -97 -3 

-55 -126 23 
-116 -110 85 
9 76 -89 


-16 -11 -56 
-54 -105 -7 
124 31 8 

-35 51 102 
50 97 -11 
-60 -11 94 

117 47 94 
-56 65 71 
54 -60 -13 

-116 -75 61 
-91 -38 -39 
-23 -8 -8 

-96 86 -42 
43 -96 -35 
115 13 -40 

-56 -30 -115 
-128 31 36 
92 99 -15 

34 -39 -19 
104 -96 79 
23 -97 -3 

-55 -126 23 
-116 -110 85 
9 76 -89 


-16 -11 -56 
-54 -105 -7 
124 31 8 

-35 51 102 
50 97 -11 
-60 -11 94 

117 47 94 
-56 65 71 
54 -60 -13 

-116 -75 61 
-91 -38 -39 
-23 -8 -8 

-96 86 -42 
43 -96 -35 
115 13 -40 

-56 -30 -115 
-128 31 36 
92 99 -15 

34 -39 -19 
104 -96 79 
23 -97 -3 

-55 -126 23 
-116 -110 85 
9 76 -89 


-16 -11 -56 
-54 -105 -7 
124 31 8 

-35 51 102 
50 97 -11 
-60 -11 94 

117 47 94 
-56 65 71 
54 -60 -13 

-116 -75 61 
-91 -38 -39 
-23 -8 -8 

-96 86 -42 
43 -96 -35 
115 13 -40 

-56 -30 -115 
-128 31 36 
92 99 -15 

34 -39 -19 
104 -96 79 
23 -97 -3 

-55 -126 23 
-116 -110 85 
9 76 -89 



-16 -11 -56 
-54 -105 -7 
124 31 8 

-35 51 102 
50 97 -11 
-60 -11 94 

117 47 94 
-56 65 71 
54 -60 -13 

-116 -75 61 
-91 -38 -39 
-23 -8 -8 

-96 86 -42 
43 -96 -35 
115 13 -40 

-56 -30 -115 
-128 31 36 
92 99 -15 

34 -39 -19 
104 -96 79 
23 -97 -3 

-55 -126 23 
-116 -110 85 
9 76 -89 


-16 -11 -56 
-54 -105 -7 
124 31 8 

-35 51 102 
50 97 -11 
-60 -11 94 

117 47 94 
-56 65 71 
54 -60 -13 

-116 -75 61 
-91 -38 -39 
-23 -8 -8 

-96 86 -42 
43 -96 -35 
115 13 -40 

-56 -30 -115 
-128 31 36 
92 99 -15 

34 -39 -19 
104 -96 79 
23 -97 -3 

-55 -126 23 
-116 -110 85 
9 76 -89 


-16 -11 -56 
-54 -105 -7 
124 31 8 

-35 51 102 
50 97 -11 
-60 -11 94 

117 47 94 
-56 65 71 
54 -60 -13 

-116 -75 61 
-91 -38 -39 
-23 -8 -8 

-96 86 -42 
43 -96 -35 
115 13 -40 

-56 -30 -115 
-128 31 36 
92 99 -15 

34 -39 -19 
104 -96 79 
23 -97 -3 

-55 -126 23 
-116 -110 85 
9 76 -89 


-16 -11 -56 
-54 -105 -7 
124 31 8 

-35 51 102 
50 97 -11 
-60 -11 94 

117 47 94 
-56 65 71 
54 -60 -13 

-116 -75 61 
-91 -38 -39 
-23 -8 -8 

-96 86 -42 
43 -96 -35 
115 13 -40 

-56 -30 -115 
-128 31 36 
92 99 -15 

34 -39 -19 
104 -96 79 
23 -97 -3 

-55 -126 23 
-116 -110 85 
9 76 -89 




36 68 95 
-95 -116 109 
-9 -48 -54 

-89 -27 -102 
-96 99 91 
-128 -68 -24 

-124 114 100 
-15 -69 -26 
-49 36 -127 

31 86 62 
-20 43 -29 
-11 44 98 

67 59 40 
-63 -44 125 
-61 -18 -33 

-45 -49 -18 
-57 -1 22 
-18 -97 3 

-50 84 -64 
-103 -70 30 
62 40 -25 

41 -59 -66 
123 -78 -17 
74 -11 25 


36 68 95 
-95 -116 109 
-9 -48 -54 

-89 -27 -102 
-96 99 91 
-128 -68 -24 

-124 114 100 
-15 -69 -26 
-49 36 -127 

31 86 62 
-20 43 -29 
-11 44 98 

67 59 40 
-63 -44 125 
-61 -18 -33 

-45 -49 -18 
-57 -1 22 
-18 -97 3 

-50 84 -64 
-103 -70 30 
62 40 -25 

41 -59 -66 
123 -78 -17 
74 -11 25 


36 68 95 
-95 -116 109 
-9 -48 -54 

-89 -27 -102 
-96 99 91 
-128 -68 -24 

-124 114 100 
-15 -69 -26 
-49 36 -127 

31 86 62 
-20 43 -29 
-11 44 98 

67 59 40 
-63 -44 125 
-61 -18 -33 

-45 -49 -18 
-57 -1 22 
-18 -97 3 

-50 84 -64 
-103 -70 30 
62 40 -25 

41 -59 -66 
123 -78 -17 
74 -11 25 


36 68 95 
-95 -116 109 
-9 -48 -54 

-89 -27 -102 
-96 99 91 
-128 -68 -24 

-124 114 100 
-15 -69 -26 
-49 36 -127 

31 86 62 
-20 43 -29 
-11 44 98 

67 59 40 
-63 -44 125 
-61 -18 -33 

-45 -49 -18 
-57 -1 22 
-18 -97 3 

-50 84 -64 
-103 -70 30 
62 40 -25 

41 -59 -66 
123 -78 -17 
74 -11 25 



36 68 95 
-95 -116 109 
-9 -48 -54 

-89 -27 -102 
-96 99 91 
-128 -68 -24 

-124 114 100 
-15 -69 -26 
-49 36 -127 

31 86 62 
-20 43 -29 
-11 44 98 

67 59 40 
-63 -44 125 
-61 -18 -33 

-45 -49 -18 
-57 -1 22 
-18 -97 3 

-50 84 -64 
-103 -70 30 
62 40 -25 

41 -59 -66 
123 -78 -17 
74 -11 25 


36 68 95 
-95 -116 109 
-9 -48 -54 

-89 -27 -102 
-96 99 91 
-128 -68 -24 

-124 114 100 
-15 -69 -26 
-49 36 -127 

31 86 62 
-20 43 -29 
-11 44 98 

67 59 40 
-63 -44 125 
-61 -18 -33 

-45 -49 -18 
-57 -1 22 
-18 -97 3 

-50 84 -64 
-103 -70 30 
62 40 -25 

41 -59 -66 
123 -78 -17 
74 -11 25 


36 68 95 
-95 -116 109 
-9 -48 -54 

-89 -27 -102 
-96 99 91 
-128 -68 -24 

-124 114 100 
-15 -69 -26 
-49 36 -127 

31 86 62 
-20 43 -29 
-11 44 98 

67 59 40 
-63 -44 125 
-61 -18 -33 

-45 -49 -18 
-57 -1 22 
-18 -97 3 

-50 84 -64 
-103 -70 30 
62 40 -25 

41 -59 -66 
123 -78 -17 
74 -11 25 


36 68 95 
-95 -116 109 
-9 -48 -54 

-89 -27 -102 
-96 99 91 
-128 -68 -24 

-124 114 100 
-15 -69 -26 
-49 36 -127 

31 86 62 
-20 43 -29 
-11 44 98 

67 59 40 
-63 -44 125 
-61 -18 -33 

-45 -49 -18 
-57 -1 22 
-18 -97 3 

-50 84 -64 
-103 -70 30 
62 40 -25 

41 -59 -66 
123 -78 -17 
74 -11 25 



36 68 95 
-95 -116 109 
-9 -48 -54 

-89 -27 -102 
-96 99 91 
-128 -68 -24 

-124 114 100 
-15 -69 -26 
-49 36 -127 

31 86 62 
-20 43 -29 
-11 44 98 

67 59 40 
-63 -44 125 
-61 -18 -33 

-45 -49 -18 
-57 -1 22 
-18 -97 3 

-50 84 -64 
-103 -70 30 
62 40 -25 

41 -59 -66 
123 -78 -17 
74 -11 25 


36 68 95 
-95 -116 109 
-9 -48 -54 

-89 -27 -102 
-96 99 91 
-128 -68 -24 

-124 114 100 
-15 -69 -26 
-49 36 -127 

31 86 62 
-20 43 -29 
-11 44 98 

67 59 40 
-63 -44 125 
-61 -18 -33 

-45 -49 -18 
-57 -1 22 
-18 -97 3 

-50 84 -64 
-103 -70 30 
62 40 -25 

41 -59 -66 
123 -78 -17 
74 -11 25 


36 68 95 
-95 -116 109 
-9 -48 -54 

-89 -27 -102 
-96 99 91 
-128 -68 -24 

-124 114 100 
-15 -69 -26 
-49 36 -127 

31 86 62 
-20 43 -29 
-11 44 98 

67 59 40 
-63 -44 125 
-61 -18 -33 

-45 -49 -18 
-57 -1 22 
-18 -97 3 

-50 84 -64 
-103 -70 30 
62 40 -25 

41 -59 -66 
123 -78 -17 
74 -11 25 


36 68 95 
-95 -116 109 
-9 -48 -54 

-89 -27 -102 
-96 99 91 
-128 -68 -24 

-124 114 100 
-15 -69 -26 
-49 36 -127 

31 86 62 
-20 43 -29 
-11 44 98 

67 59 40 
-63 -44 125 
-61 -18 -33 

-45 -49 -18 
-57 -1 22 
-18 -97 3 

-50 84 -64 
-103 -70 30 
62 40 -25 

41 -59 -66 
123 -78 -17 
74 -11 25 



36 68 95 
-95 -116 109 
-9 -48 -54 

-89 -27 -102 
-96 99 91 
-128 -68 -24 

-124 114 100 
-15 -69 -26 
-49 36 -127 

31 86 62 
-20 43 -29 
-11 44 98 

67 59 40 
-63 -44 125 
-61 -18 -33 

-45 -49 -18 
-57 -1 22 
-18 -97 3 

-50 84 -64 
-103 -70 30 
62 40 -25 

41 -59 -66 
123 -78 -17 
74 -11 25 


36 68 95 
-95 -116 109 
-9 -48 -54 

-89 -27 -102 
-96 99 91 
-128 -68 -24 

-124 114 100 
-15 -69 -26 
-49 36 -127 

31 86 62 
-20 43 -29 
-11 44 98 

67 59 40 
-63 -44 125 
-61 -18 -33 

-45 -49 -18 
-57 -1 22 
-18 -97 3 

-50 84 -64 
-103 -70 30 
62 40 -25 

41 -59 -66 
123 -78 -17 
74 -11 25 


36 68 95 
-95 -116 109 
-9 -48 -54 

-89 -27 -102 
-96 99 91 
-128 -68 -24 

-124 114 100 
-15 -69 -26 
-49 36 -127 

31 86 62 
-20 43 -29 
-11 44 98 

67 59 40 
-63 -44 125 
-61 -18 -33 

-45 -49 -18 
-57 -1 22 
-18 -97 3 

-50 84 -64 
-103 -70 30 
62 40 -25 

41 -59 -66 
123 -78 -17 
74 -11 25 


36 68 95 
-95 -116 109 
-9 -48 -54 

-89 -27 -102 
-96 99 91 
-128 -68 -24 

-124 114 100 
-15 -69 -26 
-49 36 -127 

31 86 62 
-20 43 -29 
-11 44 98 

67 59 40 
-63 -44 125 
-61 -18 -33 

-45 -49 -18 
-57 -1 22 
-18 -97 3 

-50 84 -64 
-103 -70 30 
62 40 -25 

41 -59 -66 
123 -78 -17 
74 -11 25 



36 68 95 
-95 -116 109 
-9 -48 -54 

-89 -27 -102 
-96 99 91 
-128 -68 -24 

-124 114 100 
-15 -69 -26 
-49 36 -127 

31 86 62 
-20 43 -29 
-11 44 98 

67 59 40 
-63 -44 125 
-61 -18 -33 

-45 -49 -18 
-57 -1 22 
-18 -97 3 

-50 84 -64 
-103 -70 30 
62 40 -25 

41 -59 -66 
123 -78 -17 
74 -11 25 


36 68 95 
-95 -116 109 
-9 -48 -54 

-89 -27 -102 
-96 99 91 
-128 -68 -24 

-124 114 100 
-15 -69 -26 
-49 36 -127 

31 86 62 
-20 43 -29 
-11 44 98 

67 59 40 
-63 -44 125 
-61 -18 -33 

-45 -49 -18 
-57 -1 22 
-18 -97 3 

-50 84 -64 
-103 -70 30 
62 40 -25 

41 -59 -66 
123 -78 -17 
74 -11 25 


36 68 95 
-95 -116 109 
-9 -48 -54 

-89 -27 -102 
-96 99 91 
-128 -68 -24 

-124 114 100 
-15 -69 -26 
-49 36 -127 

31 86 62 
-20 43 -29 
-11 44 98 

67 59 40 
-63 -44 125 
-61 -18 -33 

-45 -49 -18 
-57 -1 22 
-18 -97 3 

-50 84 -64 
-103 -70 30 
62 40 -25 

41 -59 -66 
123 -78 -17 
74 -11 25 


36 68 95 
-95 -116 109 
-9 -48 -54 

-89 -27 -102 
-96 99 91 
-128 -68 -24 

-124 114 100 
-15 -69 -26 
-49 36 -127 

31 86 62 
-20 43 -29 
-11 44 98 

67 59 40 
-63 -44 125 
-61 -18 -33 

-45 -49 -18 
-57 -1 22 
-18 -97 3 

-50 84 -64 
-103 -70 30 
62 40 -25 

41 -59 -66 
123 -78 -17 
74 -11 25 



36 68 95 
-95 -116 109 
-9 -48 -54 

-89 -27 -102 
-96 99 91 
-128 -68 -24 

-124 114 100 
-15 -69 -26 
-49 36 -127 

31 86 62 
-20 43 -29 
-11 44 98 

67 59 40 
-63 -44 125 
-61 -18 -33 

-45 -49 -18 
-57 -1 22 
-18 -97 3 

-50 84 -64 
-103 -70 30 
62 40 -25 

41 -59 -66 
123 -78 -17 
74 -11 25 


36 68 95 
-95 -116 109 
-9 -48 -54 

-89 -27 -102 
-96 99 91 
-128 -68 -24 

-124 114 100 
-15 -69 -26 
-49 36 -127 

31 86 62 
-20 43 -29 
-11 44 98 

67 59 40 
-63 -44 125 
-61 -18 -33 

-45 -49 -18 
-57 -1 22 
-18 -97 3 

-50 84 -64 
-103 -70 30 
62 40 -25 

41 -59 -66 
123 -78 -17 
74 -11 25 


36 68 95 
-95 -116 109 
-9 -48 -54 

-89 -27 -102 
-96 99 91 
-128 -68 -24 

-124 114 100 
-15 -69 -26 
-49 36 -127 

31 86 62 
-20 43 -29 
-11 44 98 

67 59 40 
-63 -44 125 
-61 -18 -33 

-45 -49 -18 
-57 -1 22 
-18 -97 3 

-50 84 -64 
-103 -70 30 
62 40 -25 

41 -59 -66 
123 -78 -17 
74 -11 25 


36 68 95 
-95 -116 109 
-9 -48 -54 

-89 -27 -102 
-96 99 91 
-128 -68 -24 

-124 114 100 
-15 -69 -26 
-49 36 -127 

31 86 62 
-20 43 -29 
-11 44 98 

67 59 40 
-63 -44 125 
-61 -18 -33 

-45 -49 -18 
-57 -1 22 
-18 -97 3 

-50 84 -64 
-103 -70 30 
62 40 -25 

41 -59 -66 
123 -78 -17 
74 -11 25 



36 68 95 
-95 -116 109 
-9 -48 -54 

-89 -27 -102 
-96 99 91 
-128 -68 -24 

-124 114 100 
-15 -69 -26 
-49 36 -127 

31 86 62 
-20 43 -29 
-11 44 98 

67 59 40 
-63 -44 125 
-61 -18 -33 

-45 -49 -18 
-57 -1 22 
-18 -97 3 

-50 84 -64 
-103 -70 30 
62 40 -25 

41 -59 -66 
123 -78 -17 
74 -11 25 


36 68 95 
-95 -116 109 
-9 -48 -54 

-89 -27 -102 
-96 99 91 
-128 -68 -24 

-124 114 100 
-15 -69 -26 
-49 36 -127 

31 86 62 
-20 43 -29 
-11 44 98 

67 59 40 
-63 -44 125 
-61 -18 -33 

-45 -49 -18 
-57 -1 22 
-18 -97 3 

-50 84 -64 
-103 -70 30 
62 40 -25 

41 -59 -66 
123 -78 -17 
74 -11 25 


36 68 95 
-95 -116 109 
-9 -48 -54 

-89 -27 -102 
-96 99 91 
-128 -68 -24 

-124 114 100 
-15 -69 -26 
-49 36 -127 

31 86 62 
-20 43 -29 
-11 44 98 

67 59 40 
