26 -5 -126 
-57 -91 11 
81 110 73 

-100 34 -24 
105 -111 13 
-93 -77 44 

120 54 89 
-63 -80 -46 
18 123 7 

-104 -56 -117 
116 -26 15 
24 74 1 

9 -102 50 
-72 -88 51 
-109 -3 -75 

-83 -102 -52 
-125 22 -50 
-118 59 -10 

88 114 125 
89 -78 127 
-19 73 -44 

64 -12 -72 
6 28 -33 
106 100 -54 


-10 -52 -79 
33 89 -81 
-30 47 94 

-101 8 92 
-39 -125 -91 
-42 18 64 

-9 93 91 
-90 66 84 
-120 34 17 

-26 -107 -70 
97 -75 104 
92 -81 -6 

-11 -29 -107 
40 112 -90 
-28 61 116 

-41 -88 76 
-89 28 74 
40 -107 -31 

93 -64 88 
-68 -60 -98 
25 50 -9 

15 -35 123 
28 -87 -8 
4 -11 108 


30 79 -47 
-56 -58 -49 
0 -110 -57 

-59 110 -95 
-48 14 -108 
-125 -96 -45 

-44 16 35 
100 32 98 
45 68 4 

124 -107 45 
-112 88 112 
-67 -20 37 

93 -83 32 
-101 44 -80 
28 -23 51 

53 115 -33 
115 -30 -70 
106 -50 -93 

-76 126 101 
-77 68 -123 
-4 -39 99 

-94 103 -102 
120 -110 86 
4 5 -9 


6 6 10 
3 -9 -85 
-78 -16 -10 

124 -98 60 
-96 16 53 
114 -79 92 

-51 -34 110 
121 117 -42 
17 -121 -90 

-43 87 -126 
47 95 118 
88 56 53 

-28 -85 -16 
-118 -23 -41 
-73 12 12 

60 126 95 
-18 -68 -74 
-14 -48 56 

92 25 -83 
75 -60 -59 
-110 -62 -39 

-41 -126 72 
110 33 -4 
50 99 117 


81 114 -24 
-62 58 21 
45 32 61 

94 -62 -115 
69 -97 48 
-118 118 81 

-84 51 99 
-88 71 102 
8 -11 -11 

-35 36 -56 
35 38 -62 
84 112 -43 

-113 45 6 
-35 23 -18 
92 25 0 

0 -25 -73 
-76 53 95 
-8 25 -49 

-106 95 -120 
-53 58 25 
111 15 -128 

-57 -115 95 
-9 20 26 
-28 102 -121 


-16 -54 124 
-11 -105 31 
-56 -7 8 

-35 50 -60 
51 97 -11 
102 -11 94 

117 -56 54 
47 65 -60 
94 71 -13 

-116 -91 -23 
-75 -38 -8 
61 -39 -8 

-96 43 115 
86 -96 13 
-42 -35 -40 

-56 -128 92 
-30 31 99 
-115 36 -15 

34 104 23 
-39 -96 -97 
-19 79 -3 

-55 -116 9 
-126 -110 76 
23 85 -89 


36 -95 -9 
68 -116 -48 
95 109 -54 

-89 -96 -128 
-27 99 -68 
-102 91 -24 

-124 -15 -49 
114 -69 36 
100 -26 -127 

31 -20 -11 
86 43 44 
62 -29 98 

67 -63 -61 
59 -44 -18 
40 125 -33 

-45 -57 -18 
-49 -1 -97 
-18 22 3 

-50 -103 62 
84 -70 40 
-64 30 -25 

41 123 74 
-59 -78 -11 
-66 -17 25 


49 -6 -107 
83 82 -66 
39 -92 66 

-85 7 -107 
-39 16 -58 
87 -84 121 

53 -89 33 
-10 -93 -76 
92 6 -76 

-33 116 -102 
-69 80 1 
-108 93 -46 

121 -95 -94 
71 -70 12 
-59 -125 -48 

32 -121 66 
44 89 -45 
89 71 32 

-30 80 -71 
43 -95 88 
57 -52 -91 

-20 -81 -96 
-117 -92 7 
-5 53 56 


