-23 48 -18 113 
25 -37 -57 -118 
-85 32 81 73 
-87 -25 -103 -126 

-22 -23 -14 120 
27 -61 -70 69 
-72 70 14 64 
56 125 -102 30 

-115 -37 96 103 
-117 37 -109 115 
19 28 -92 -108 
63 104 -51 6 

-111 88 15 -104 
56 110 -18 4 
-93 -113 90 38 
28 -71 -32 -98 

-26 105 118 123 
32 -126 16 46 
-55 16 18 -63 
122 -94 116 87 

-95 -76 55 108 
115 -26 -104 -15 
35 77 -64 -98 
-125 -76 -123 -8 

65 -110 -109 -60 
6 22 119 46 
-3 -95 55 -61 
-6 -37 -111 26 

106 -36 80 -26 
-98 24 -23 29 
-50 71 106 -30 
-3 -39 64 94 


-23 48 -18 113 
25 -37 -57 -118 
-85 32 81 73 
-87 -25 -103 -126 

-22 -23 -14 120 
27 -61 -70 69 
-72 70 14 64 
56 125 -102 30 

-115 -37 96 103 
-117 37 -109 115 
19 28 -92 -108 
63 104 -51 6 

-111 88 15 -104 
56 110 -18 4 
-93 -113 90 38 
28 -71 -32 -98 

-26 105 118 123 
32 -126 16 46 
-55 16 18 -63 
122 -94 116 87 

-95 -76 55 108 
115 -26 -104 -15 
35 77 -64 -98 
-125 -76 -123 -8 

65 -110 -109 -60 
6 22 119 46 
-3 -95 55 -61 
-6 -37 -111 26 

106 -36 80 -26 
-98 24 -23 29 
-50 71 106 -30 
-3 -39 64 94 


-23 48 -18 113 
25 -37 -57 -118 
-85 32 81 73 
-87 -25 -103 -126 

-22 -23 -14 120 
27 -61 -70 69 
-72 70 14 64 
56 125 -102 30 

-115 -37 96 103 
-117 37 -109 115 
19 28 -92 -108 
63 104 -51 6 

-111 88 15 -104 
56 110 -18 4 
-93 -113 90 38 
28 -71 -32 -98 

-26 105 118 123 
32 -126 16 46 
-55 16 18 -63 
122 -94 116 87 

-95 -76 55 108 
115 -26 -104 -15 
35 77 -64 -98 
-125 -76 -123 -8 

65 -110 -109 -60 
6 22 119 46 
-3 -95 55 -61 
-6 -37 -111 26 

106 -36 80 -26 
-98 24 -23 29 
-50 71 106 -30 
-3 -39 64 94 


-23 48 -18 113 
25 -37 -57 -118 
-85 32 81 73 
-87 -25 -103 -126 

-22 -23 -14 120 
27 -61 -70 69 
-72 70 14 64 
56 125 -102 30 

-115 -37 96 103 
-117 37 -109 115 
19 28 -92 -108 
63 104 -51 6 

-111 88 15 -104 
56 110 -18 4 
-93 -113 90 38 
28 -71 -32 -98 

-26 105 118 123 
32 -126 16 46 
-55 16 18 -63 
122 -94 116 87 

-95 -76 55 108 
115 -26 -104 -15 
35 77 -64 -98 
-125 -76 -123 -8 

65 -110 -109 -60 
6 22 119 46 
-3 -95 55 -61 
-6 -37 -111 26 

106 -36 80 -26 
-98 24 -23 29 
-50 71 106 -30 
-3 -39 64 94 



-23 48 -18 113 
25 -37 -57 -118 
-85 32 81 73 
-87 -25 -103 -126 

-22 -23 -14 120 
27 -61 -70 69 
-72 70 14 64 
56 125 -102 30 

-115 -37 96 103 
-117 37 -109 115 
19 28 -92 -108 
63 104 -51 6 

-111 88 15 -104 
56 110 -18 4 
-93 -113 90 38 
28 -71 -32 -98 

-26 105 118 123 
32 -126 16 46 
-55 16 18 -63 
122 -94 116 87 

-95 -76 55 108 
115 -26 -104 -15 
35 77 -64 -98 
-125 -76 -123 -8 

65 -110 -109 -60 
6 22 119 46 
-3 -95 55 -61 
-6 -37 -111 26 

106 -36 80 -26 
-98 24 -23 29 
-50 71 106 -30 
-3 -39 64 94 


-23 48 -18 113 
25 -37 -57 -118 
-85 32 81 73 
-87 -25 -103 -126 

-22 -23 -14 120 
27 -61 -70 69 
-72 70 14 64 
56 125 -102 30 

-115 -37 96 103 
-117 37 -109 115 
19 28 -92 -108 
63 104 -51 6 

-111 88 15 -104 
56 110 -18 4 
-93 -113 90 38 
28 -71 -32 -98 

-26 105 118 123 
32 -126 16 46 
-55 16 18 -63 
122 -94 116 87 

-95 -76 55 108 
115 -26 -104 -15 
35 77 -64 -98 
-125 -76 -123 -8 

65 -110 -109 -60 
6 22 119 46 
-3 -95 55 -61 
-6 -37 -111 26 

106 -36 80 -26 
-98 24 -23 29 
-50 71 106 -30 
-3 -39 64 94 


-23 48 -18 113 
25 -37 -57 -118 
-85 32 81 73 
-87 -25 -103 -126 

-22 -23 -14 120 
27 -61 -70 69 
-72 70 14 64 
56 125 -102 30 

-115 -37 96 103 
-117 37 -109 115 
19 28 -92 -108 
63 104 -51 6 

-111 88 15 -104 
56 110 -18 4 
-93 -113 90 38 
28 -71 -32 -98 

-26 105 118 123 
32 -126 16 46 
-55 16 18 -63 
122 -94 116 87 

-95 -76 55 108 
115 -26 -104 -15 
35 77 -64 -98 
-125 -76 -123 -8 

65 -110 -109 -60 
6 22 119 46 
-3 -95 55 -61 
-6 -37 -111 26 

106 -36 80 -26 
-98 24 -23 29 
-50 71 106 -30 
-3 -39 64 94 


-23 48 -18 113 
25 -37 -57 -118 
-85 32 81 73 
-87 -25 -103 -126 

-22 -23 -14 120 
27 -61 -70 69 
-72 70 14 64 
56 125 -102 30 

-115 -37 96 103 
-117 37 -109 115 
19 28 -92 -108 
63 104 -51 6 

-111 88 15 -104 
56 110 -18 4 
-93 -113 90 38 
28 -71 -32 -98 

-26 105 118 123 
32 -126 16 46 
-55 16 18 -63 
122 -94 116 87 

-95 -76 55 108 
115 -26 -104 -15 
35 77 -64 -98 
-125 -76 -123 -8 

65 -110 -109 -60 
6 22 119 46 
-3 -95 55 -61 
-6 -37 -111 26 

106 -36 80 -26 
-98 24 -23 29 
-50 71 106 -30 
-3 -39 64 94 



-23 48 -18 113 
25 -37 -57 -118 
-85 32 81 73 
-87 -25 -103 -126 

-22 -23 -14 120 
27 -61 -70 69 
-72 70 14 64 
56 125 -102 30 

-115 -37 96 103 
-117 37 -109 115 
19 28 -92 -108 
63 104 -51 6 

-111 88 15 -104 
56 110 -18 4 
-93 -113 90 38 
28 -71 -32 -98 

-26 105 118 123 
32 -126 16 46 
-55 16 18 -63 
122 -94 116 87 

-95 -76 55 108 
115 -26 -104 -15 
35 77 -64 -98 
-125 -76 -123 -8 

65 -110 -109 -60 
6 22 119 46 
-3 -95 55 -61 
-6 -37 -111 26 

106 -36 80 -26 
-98 24 -23 29 
-50 71 106 -30 
-3 -39 64 94 


-23 48 -18 113 
25 -37 -57 -118 
-85 32 81 73 
-87 -25 -103 -126 

-22 -23 -14 120 
27 -61 -70 69 
-72 70 14 64 
56 125 -102 30 

-115 -37 96 103 
-117 37 -109 115 
19 28 -92 -108 
63 104 -51 6 

-111 88 15 -104 
56 110 -18 4 
-93 -113 90 38 
28 -71 -32 -98 

-26 105 118 123 
32 -126 16 46 
-55 16 18 -63 
122 -94 116 87 

-95 -76 55 108 
115 -26 -104 -15 
35 77 -64 -98 
-125 -76 -123 -8 

65 -110 -109 -60 
6 22 119 46 
-3 -95 55 -61 
-6 -37 -111 26 

106 -36 80 -26 
-98 24 -23 29 
-50 71 106 -30 
-3 -39 64 94 


-23 48 -18 113 
25 -37 -57 -118 
-85 32 81 73 
-87 -25 -103 -126 

-22 -23 -14 120 
27 -61 -70 69 
-72 70 14 64 
56 125 -102 30 

-115 -37 96 103 
-117 37 -109 115 
19 28 -92 -108 
63 104 -51 6 

-111 88 15 -104 
56 110 -18 4 
-93 -113 90 38 
28 -71 -32 -98 

-26 105 118 123 
32 -126 16 46 
-55 16 18 -63 
122 -94 116 87 

-95 -76 55 108 
115 -26 -104 -15 
35 77 -64 -98 
-125 -76 -123 -8 

65 -110 -109 -60 
6 22 119 46 
-3 -95 55 -61 
-6 -37 -111 26 

106 -36 80 -26 
-98 24 -23 29 
-50 71 106 -30 
-3 -39 64 94 


-23 48 -18 113 
25 -37 -57 -118 
-85 32 81 73 
-87 -25 -103 -126 

-22 -23 -14 120 
27 -61 -70 69 
-72 70 14 64 
56 125 -102 30 

-115 -37 96 103 
-117 37 -109 115 
19 28 -92 -108 
63 104 -51 6 

-111 88 15 -104 
56 110 -18 4 
-93 -113 90 38 
28 -71 -32 -98 

-26 105 118 123 
32 -126 16 46 
-55 16 18 -63 
122 -94 116 87 

-95 -76 55 108 
115 -26 -104 -15 
35 77 -64 -98 
-125 -76 -123 -8 

65 -110 -109 -60 
6 22 119 46 
-3 -95 55 -61 
-6 -37 -111 26 

106 -36 80 -26 
-98 24 -23 29 
-50 71 106 -30 
-3 -39 64 94 



-23 48 -18 113 
25 -37 -57 -118 
-85 32 81 73 
-87 -25 -103 -126 

-22 -23 -14 120 
27 -61 -70 69 
-72 70 14 64 
56 125 -102 30 

-115 -37 96 103 
-117 37 -109 115 
19 28 -92 -108 
63 104 -51 6 

-111 88 15 -104 
56 110 -18 4 
-93 -113 90 38 
28 -71 -32 -98 

-26 105 118 123 
32 -126 16 46 
-55 16 18 -63 
122 -94 116 87 

-95 -76 55 108 
115 -26 -104 -15 
35 77 -64 -98 
-125 -76 -123 -8 

65 -110 -109 -60 
6 22 119 46 
-3 -95 55 -61 
-6 -37 -111 26 

106 -36 80 -26 
-98 24 -23 29 
-50 71 106 -30 
-3 -39 64 94 


-23 48 -18 113 
25 -37 -57 -118 
-85 32 81 73 
-87 -25 -103 -126 

-22 -23 -14 120 
27 -61 -70 69 
-72 70 14 64 
56 125 -102 30 

-115 -37 96 103 
-117 37 -109 115 
19 28 -92 -108 
63 104 -51 6 

-111 88 15 -104 
56 110 -18 4 
-93 -113 90 38 
28 -71 -32 -98 

-26 105 118 123 
32 -126 16 46 
-55 16 18 -63 
122 -94 116 87 

-95 -76 55 108 
115 -26 -104 -15 
35 77 -64 -98 
-125 -76 -123 -8 

65 -110 -109 -60 
6 22 119 46 
-3 -95 55 -61 
-6 -37 -111 26 

106 -36 80 -26 
-98 24 -23 29 
-50 71 106 -30 
-3 -39 64 94 


-23 48 -18 113 
25 -37 -57 -118 
-85 32 81 73 
-87 -25 -103 -126 

-22 -23 -14 120 
27 -61 -70 69 
-72 70 14 64 
56 125 -102 30 

-115 -37 96 103 
-117 37 -109 115 
19 28 -92 -108 
63 104 -51 6 

-111 88 15 -104 
56 110 -18 4 
-93 -113 90 38 
28 -71 -32 -98 

-26 105 118 123 
32 -126 16 46 
-55 16 18 -63 
122 -94 116 87 

-95 -76 55 108 
115 -26 -104 -15 
35 77 -64 -98 
-125 -76 -123 -8 

65 -110 -109 -60 
6 22 119 46 
-3 -95 55 -61 
-6 -37 -111 26 

106 -36 80 -26 
-98 24 -23 29 
-50 71 106 -30 
-3 -39 64 94 


-23 48 -18 113 
25 -37 -57 -118 
-85 32 81 73 
-87 -25 -103 -126 

-22 -23 -14 120 
27 -61 -70 69 
-72 70 14 64 
56 125 -102 30 

-115 -37 96 103 
-117 37 -109 115 
19 28 -92 -108 
63 104 -51 6 

-111 88 15 -104 
56 110 -18 4 
-93 -113 90 38 
28 -71 -32 -98 

-26 105 118 123 
32 -126 16 46 
-55 16 18 -63 
122 -94 116 87 

-95 -76 55 108 
115 -26 -104 -15 
35 77 -64 -98 
-125 -76 -123 -8 

65 -110 -109 -60 
6 22 119 46 
-3 -95 55 -61 
-6 -37 -111 26 

106 -36 80 -26 
-98 24 -23 29 
-50 71 106 -30 
-3 -39 64 94 



-23 48 -18 113 
25 -37 -57 -118 
-85 32 81 73 
-87 -25 -103 -126 

-22 -23 -14 120 
27 -61 -70 69 
-72 70 14 64 
56 125 -102 30 

-115 -37 96 103 
-117 37 -109 115 
19 28 -92 -108 
63 104 -51 6 

-111 88 15 -104 
56 110 -18 4 
-93 -113 90 38 
28 -71 -32 -98 

-26 105 118 123 
32 -126 16 46 
-55 16 18 -63 
122 -94 116 87 

-95 -76 55 108 
115 -26 -104 -15 
35 77 -64 -98 
-125 -76 -123 -8 

65 -110 -109 -60 
6 22 119 46 
-3 -95 55 -61 
-6 -37 -111 26 

106 -36 80 -26 
-98 24 -23 29 
-50 71 106 -30 
-3 -39 64 94 


-23 48 -18 113 
25 -37 -57 -118 
-85 32 81 73 
-87 -25 -103 -126 

-22 -23 -14 120 
27 -61 -70 69 
-72 70 14 64 
56 125 -102 30 

-115 -37 96 103 
-117 37 -109 115 
19 28 -92 -108 
63 104 -51 6 

-111 88 15 -104 
56 110 -18 4 
-93 -113 90 38 
28 -71 -32 -98 

-26 105 118 123 
32 -126 16 46 
-55 16 18 -63 
122 -94 116 87 

-95 -76 55 108 
115 -26 -104 -15 
35 77 -64 -98 
-125 -76 -123 -8 

65 -110 -109 -60 
6 22 119 46 
-3 -95 55 -61 
-6 -37 -111 26 

106 -36 80 -26 
-98 24 -23 29 
-50 71 106 -30 
-3 -39 64 94 


-23 48 -18 113 
25 -37 -57 -118 
-85 32 81 73 
-87 -25 -103 -126 

-22 -23 -14 120 
27 -61 -70 69 
-72 70 14 64 
56 125 -102 30 

-115 -37 96 103 
-117 37 -109 115 
19 28 -92 -108 
63 104 -51 6 

-111 88 15 -104 
56 110 -18 4 
-93 -113 90 38 
28 -71 -32 -98 

-26 105 118 123 
32 -126 16 46 
-55 16 18 -63 
122 -94 116 87 

-95 -76 55 108 
115 -26 -104 -15 
35 77 -64 -98 
-125 -76 -123 -8 

65 -110 -109 -60 
6 22 119 46 
-3 -95 55 -61 
-6 -37 -111 26 

106 -36 80 -26 
-98 24 -23 29 
-50 71 106 -30 
-3 -39 64 94 


-23 48 -18 113 
25 -37 -57 -118 
-85 32 81 73 
-87 -25 -103 -126 

-22 -23 -14 120 
27 -61 -70 69 
-72 70 14 64 
56 125 -102 30 

-115 -37 96 103 
-117 37 -109 115 
19 28 -92 -108 
63 104 -51 6 

-111 88 15 -104 
56 110 -18 4 
-93 -113 90 38 
28 -71 -32 -98 

-26 105 118 123 
32 -126 16 46 
-55 16 18 -63 
122 -94 116 87 

-95 -76 55 108 
115 -26 -104 -15 
35 77 -64 -98 
-125 -76 -123 -8 

65 -110 -109 -60 
6 22 119 46 
-3 -95 55 -61 
-6 -37 -111 26 

106 -36 80 -26 
-98 24 -23 29 
-50 71 106 -30 
-3 -39 64 94 



-23 48 -18 113 
25 -37 -57 -118 
-85 32 81 73 
-87 -25 -103 -126 

-22 -23 -14 120 
27 -61 -70 69 
-72 70 14 64 
56 125 -102 30 

-115 -37 96 103 
-117 37 -109 115 
19 28 -92 -108 
63 104 -51 6 

-111 88 15 -104 
56 110 -18 4 
-93 -113 90 38 
28 -71 -32 -98 

-26 105 118 123 
32 -126 16 46 
-55 16 18 -63 
122 -94 116 87 

-95 -76 55 108 
115 -26 -104 -15 
35 77 -64 -98 
-125 -76 -123 -8 

65 -110 -109 -60 
6 22 119 46 
-3 -95 55 -61 
-6 -37 -111 26 

106 -36 80 -26 
-98 24 -23 29 
-50 71 106 -30 
-3 -39 64 94 


-23 48 -18 113 
25 -37 -57 -118 
-85 32 81 73 
-87 -25 -103 -126 

-22 -23 -14 120 
27 -61 -70 69 
-72 70 14 64 
56 125 -102 30 

-115 -37 96 103 
-117 37 -109 115 
19 28 -92 -108 
63 104 -51 6 

-111 88 15 -104 
56 110 -18 4 
-93 -113 90 38 
28 -71 -32 -98 

-26 105 118 123 
32 -126 16 46 
-55 16 18 -63 
122 -94 116 87 

-95 -76 55 108 
115 -26 -104 -15 
35 77 -64 -98 
-125 -76 -123 -8 

65 -110 -109 -60 
6 22 119 46 
-3 -95 55 -61 
-6 -37 -111 26 

106 -36 80 -26 
-98 24 -23 29 
-50 71 106 -30 
-3 -39 64 94 


-23 48 -18 113 
25 -37 -57 -118 
-85 32 81 73 
-87 -25 -103 -126 

-22 -23 -14 120 
27 -61 -70 69 
-72 70 14 64 
56 125 -102 30 

-115 -37 96 103 
-117 37 -109 115 
19 28 -92 -108 
63 104 -51 6 

-111 88 15 -104 
56 110 -18 4 
-93 -113 90 38 
28 -71 -32 -98 

-26 105 118 123 
32 -126 16 46 
-55 16 18 -63 
122 -94 116 87 

-95 -76 55 108 
115 -26 -104 -15 
35 77 -64 -98 
-125 -76 -123 -8 

65 -110 -109 -60 
6 22 119 46 
-3 -95 55 -61 
-6 -37 -111 26 

106 -36 80 -26 
-98 24 -23 29 
-50 71 106 -30 
-3 -39 64 94 


-23 48 -18 113 
25 -37 -57 -118 
-85 32 81 73 
-87 -25 -103 -126 

-22 -23 -14 120 
27 -61 -70 69 
-72 70 14 64 
56 125 -102 30 

-115 -37 96 103 
-117 37 -109 115 
19 28 -92 -108 
63 104 -51 6 

-111 88 15 -104 
56 110 -18 4 
-93 -113 90 38 
28 -71 -32 -98 

-26 105 118 123 
32 -126 16 46 
-55 16 18 -63 
122 -94 116 87 

-95 -76 55 108 
115 -26 -104 -15 
35 77 -64 -98 
-125 -76 -123 -8 

65 -110 -109 -60 
6 22 119 46 
-3 -95 55 -61 
-6 -37 -111 26 

106 -36 80 -26 
-98 24 -23 29 
-50 71 106 -30 
-3 -39 64 94 



-23 48 -18 113 
25 -37 -57 -118 
-85 32 81 73 
-87 -25 -103 -126 

-22 -23 -14 120 
27 -61 -70 69 
-72 70 14 64 
56 125 -102 30 

-115 -37 96 103 
-117 37 -109 115 
19 28 -92 -108 
63 104 -51 6 

-111 88 15 -104 
56 110 -18 4 
-93 -113 90 38 
28 -71 -32 -98 

-26 105 118 123 
32 -126 16 46 
-55 16 18 -63 
122 -94 116 87 

-95 -76 55 108 
115 -26 -104 -15 
35 77 -64 -98 
-125 -76 -123 -8 

65 -110 -109 -60 
6 22 119 46 
-3 -95 55 -61 
-6 -37 -111 26 

106 -36 80 -26 
-98 24 -23 29 
-50 71 106 -30 
-3 -39 64 94 


-23 48 -18 113 
25 -37 -57 -118 
-85 32 81 73 
-87 -25 -103 -126 

-22 -23 -14 120 
27 -61 -70 69 
-72 70 14 64 
56 125 -102 30 

-115 -37 96 103 
-117 37 -109 115 
19 28 -92 -108 
63 104 -51 6 

-111 88 15 -104 
56 110 -18 4 
-93 -113 90 38 
28 -71 -32 -98 

-26 105 118 123 
32 -126 16 46 
-55 16 18 -63 
122 -94 116 87 

-95 -76 55 108 
115 -26 -104 -15 
35 77 -64 -98 
-125 -76 -123 -8 

65 -110 -109 -60 
6 22 119 46 
-3 -95 55 -61 
-6 -37 -111 26 

106 -36 80 -26 
-98 24 -23 29 
-50 71 106 -30 
-3 -39 64 94 


-23 48 -18 113 
25 -37 -57 -118 
-85 32 81 73 
-87 -25 -103 -126 

-22 -23 -14 120 
27 -61 -70 69 
-72 70 14 64 
56 125 -102 30 

-115 -37 96 103 
-117 37 -109 115 
19 28 -92 -108 
63 104 -51 6 

-111 88 15 -104 
56 110 -18 4 
-93 -113 90 38 
28 -71 -32 -98 

-26 105 118 123 
32 -126 16 46 
-55 16 18 -63 
122 -94 116 87 

-95 -76 55 108 
115 -26 -104 -15 
35 77 -64 -98 
-125 -76 -123 -8 

65 -110 -109 -60 
6 22 119 46 
-3 -95 55 -61 
-6 -37 -111 26 

106 -36 80 -26 
-98 24 -23 29 
-50 71 106 -30 
-3 -39 64 94 


-23 48 -18 113 
25 -37 -57 -118 
-85 32 81 73 
-87 -25 -103 -126 

-22 -23 -14 120 
27 -61 -70 69 
-72 70 14 64 
56 125 -102 30 

-115 -37 96 103 
-117 37 -109 115 
19 28 -92 -108 
63 104 -51 6 

-111 88 15 -104 
56 110 -18 4 
-93 -113 90 38 
28 -71 -32 -98 

-26 105 118 123 
32 -126 16 46 
-55 16 18 -63 
122 -94 116 87 

-95 -76 55 108 
115 -26 -104 -15 
35 77 -64 -98 
-125 -76 -123 -8 

65 -110 -109 -60 
6 22 119 46 
-3 -95 55 -61 
-6 -37 -111 26 

106 -36 80 -26 
-98 24 -23 29 
-50 71 106 -30 
-3 -39 64 94 



-23 48 -18 113 
25 -37 -57 -118 
-85 32 81 73 
-87 -25 -103 -126 

-22 -23 -14 120 
27 -61 -70 69 
-72 70 14 64 
56 125 -102 30 

-115 -37 96 103 
-117 37 -109 115 
19 28 -92 -108 
63 104 -51 6 

-111 88 15 -104 
56 110 -18 4 
-93 -113 90 38 
28 -71 -32 -98 

-26 105 118 123 
32 -126 16 46 
-55 16 18 -63 
122 -94 116 87 

-95 -76 55 108 
115 -26 -104 -15 
35 77 -64 -98 
-125 -76 -123 -8 

65 -110 -109 -60 
6 22 119 46 
-3 -95 55 -61 
-6 -37 -111 26 

106 -36 80 -26 
-98 24 -23 29 
-50 71 106 -30 
-3 -39 64 94 


-23 48 -18 113 
25 -37 -57 -118 
-85 32 81 73 
-87 -25 -103 -126 

-22 -23 -14 120 
27 -61 -70 69 
-72 70 14 64 
56 125 -102 30 

-115 -37 96 103 
-117 37 -109 115 
19 28 -92 -108 
63 104 -51 6 

-111 88 15 -104 
56 110 -18 4 
-93 -113 90 38 
28 -71 -32 -98 

-26 105 118 123 
32 -126 16 46 
-55 16 18 -63 
122 -94 116 87 

-95 -76 55 108 
115 -26 -104 -15 
35 77 -64 -98 
-125 -76 -123 -8 

65 -110 -109 -60 
6 22 119 46 
-3 -95 55 -61 
-6 -37 -111 26 

106 -36 80 -26 
-98 24 -23 29 
-50 71 106 -30 
-3 -39 64 94 


-23 48 -18 113 
25 -37 -57 -118 
-85 32 81 73 
-87 -25 -103 -126 

-22 -23 -14 120 
27 -61 -70 69 
-72 70 14 64 
56 125 -102 30 

-115 -37 96 103 
-117 37 -109 115 
19 28 -92 -108 
63 104 -51 6 

-111 88 15 -104 
56 110 -18 4 
-93 -113 90 38 
28 -71 -32 -98 

-26 105 118 123 
32 -126 16 46 
-55 16 18 -63 
122 -94 116 87 

-95 -76 55 108 
115 -26 -104 -15 
35 77 -64 -98 
-125 -76 -123 -8 

65 -110 -109 -60 
6 22 119 46 
-3 -95 55 -61 
-6 -37 -111 26 

106 -36 80 -26 
-98 24 -23 29 
-50 71 106 -30 
-3 -39 64 94 


-23 48 -18 113 
25 -37 -57 -118 
-85 32 81 73 
-87 -25 -103 -126 

-22 -23 -14 120 
27 -61 -70 69 
-72 70 14 64 
56 125 -102 30 

-115 -37 96 103 
-117 37 -109 115 
19 28 -92 -108 
63 104 -51 6 

-111 88 15 -104 
56 110 -18 4 
-93 -113 90 38 
28 -71 -32 -98 

-26 105 118 123 
32 -126 16 46 
-55 16 18 -63 
122 -94 116 87 

-95 -76 55 108 
115 -26 -104 -15 
35 77 -64 -98 
-125 -76 -123 -8 

65 -110 -109 -60 
6 22 119 46 
-3 -95 55 -61 
-6 -37 -111 26 

106 -36 80 -26 
-98 24 -23 29 
-50 71 106 -30 
-3 -39 64 94 



-23 48 -18 113 
25 -37 -57 -118 
-85 32 81 73 
-87 -25 -103 -126 

-22 -23 -14 120 
27 -61 -70 69 
-72 70 14 64 
56 125 -102 30 

-115 -37 96 103 
-117 37 -109 115 
19 28 -92 -108 
63 104 -51 6 

-111 88 15 -104 
56 110 -18 4 
-93 -113 90 38 
28 -71 -32 -98 

-26 105 118 123 
32 -126 16 46 
-55 16 18 -63 
122 -94 116 87 

-95 -76 55 108 
115 -26 -104 -15 
35 77 -64 -98 
-125 -76 -123 -8 

65 -110 -109 -60 
6 22 119 46 
-3 -95 55 -61 
-6 -37 -111 26 

106 -36 80 -26 
-98 24 -23 29 
-50 71 106 -30 
-3 -39 64 94 


-23 48 -18 113 
25 -37 -57 -118 
-85 32 81 73 
-87 -25 -103 -126 

-22 -23 -14 120 
27 -61 -70 69 
-72 70 14 64 
56 125 -102 30 

-115 -37 96 103 
-117 37 -109 115 
19 28 -92 -108 
63 104 -51 6 

-111 88 15 -104 
56 110 -18 4 
-93 -113 90 38 
28 -71 -32 -98 

-26 105 118 123 
32 -126 16 46 
-55 16 18 -63 
122 -94 116 87 

-95 -76 55 108 
115 -26 -104 -15 
35 77 -64 -98 
-125 -76 -123 -8 

65 -110 -109 -60 
6 22 119 46 
-3 -95 55 -61 
-6 -37 -111 26 

106 -36 80 -26 
-98 24 -23 29 
-50 71 106 -30 
-3 -39 64 94 


-23 48 -18 113 
25 -37 -57 -118 
-85 32 81 73 
-87 -25 -103 -126 

-22 -23 -14 120 
27 -61 -70 69 
-72 70 14 64 
56 125 -102 30 

-115 -37 96 103 
-117 37 -109 115 
19 28 -92 -108 
63 104 -51 6 

-111 88 15 -104 
56 110 -18 4 
-93 -113 90 38 
28 -71 -32 -98 

-26 105 118 123 
32 -126 16 46 
-55 16 18 -63 
122 -94 116 87 

-95 -76 55 108 
115 -26 -104 -15 
35 77 -64 -98 
-125 -76 -123 -8 

65 -110 -109 -60 
6 22 119 46 
-3 -95 55 -61 
-6 -37 -111 26 

106 -36 80 -26 
-98 24 -23 29 
-50 71 106 -30 
-3 -39 64 94 


-23 48 -18 113 
25 -37 -57 -118 
-85 32 81 73 
-87 -25 -103 -126 

-22 -23 -14 120 
27 -61 -70 69 
-72 70 14 64 
56 125 -102 30 

-115 -37 96 103 
-117 37 -109 115 
19 28 -92 -108 
63 104 -51 6 

-111 88 15 -104 
56 110 -18 4 
-93 -113 90 38 
28 -71 -32 -98 

-26 105 118 123 
32 -126 16 46 
-55 16 18 -63 
122 -94 116 87 

-95 -76 55 108 
115 -26 -104 -15 
35 77 -64 -98 
-125 -76 -123 -8 

65 -110 -109 -60 
6 22 119 46 
-3 -95 55 -61 
-6 -37 -111 26 

106 -36 80 -26 
-98 24 -23 29 
-50 71 106 -30 
-3 -39 64 94 



-23 48 -18 113 
25 -37 -57 -118 
-85 32 81 73 
-87 -25 -103 -126 

-22 -23 -14 120 
27 -61 -70 69 
-72 70 14 64 
56 125 -102 30 

-115 -37 96 103 
-117 37 -109 115 
19 28 -92 -108 
63 104 -51 6 

-111 88 15 -104 
56 110 -18 4 
-93 -113 90 38 
28 -71 -32 -98 

-26 105 118 123 
32 -126 16 46 
-55 16 18 -63 
122 -94 116 87 

-95 -76 55 108 
115 -26 -104 -15 
35 77 -64 -98 
-125 -76 -123 -8 

65 -110 -109 -60 
6 22 119 46 
-3 -95 55 -61 
-6 -37 -111 26 

106 -36 80 -26 
-98 24 -23 29 
-50 71 106 -30 
-3 -39 64 94 


-23 48 -18 113 
25 -37 -57 -118 
-85 32 81 73 
-87 -25 -103 -126 

-22 -23 -14 120 
27 -61 -70 69 
-72 70 14 64 
56 125 -102 30 

-115 -37 96 103 
-117 37 -109 115 
19 28 -92 -108 
63 104 -51 6 

-111 88 15 -104 
56 110 -18 4 
-93 -113 90 38 
28 -71 -32 -98 

-26 105 118 123 
32 -126 16 46 
-55 16 18 -63 
122 -94 116 87 

-95 -76 55 108 
115 -26 -104 -15 
35 77 -64 -98 
-125 -76 -123 -8 

65 -110 -109 -60 
6 22 119 46 
-3 -95 55 -61 
-6 -37 -111 26 

106 -36 80 -26 
-98 24 -23 29 
-50 71 106 -30 
-3 -39 64 94 


-23 48 -18 113 
25 -37 -57 -118 
-85 32 81 73 
-87 -25 -103 -126 

-22 -23 -14 120 
27 -61 -70 69 
-72 70 14 64 
56 125 -102 30 

-115 -37 96 103 
-117 37 -109 115 
19 28 -92 -108 
63 104 -51 6 

-111 88 15 -104 
56 110 -18 4 
-93 -113 90 38 
28 -71 -32 -98 

-26 105 118 123 
32 -126 16 46 
-55 16 18 -63 
122 -94 116 87 

-95 -76 55 108 
115 -26 -104 -15 
35 77 -64 -98 
-125 -76 -123 -8 

65 -110 -109 -60 
6 22 119 46 
-3 -95 55 -61 
-6 -37 -111 26 

106 -36 80 -26 
-98 24 -23 29 
-50 71 106 -30 
-3 -39 64 94 


-23 48 -18 113 
25 -37 -57 -118 
-85 32 81 73 
-87 -25 -103 -126 

-22 -23 -14 120 
27 -61 -70 69 
-72 70 14 64 
56 125 -102 30 

-115 -37 96 103 
-117 37 -109 115 
19 28 -92 -108 
63 104 -51 6 

-111 88 15 -104 
56 110 -18 4 
-93 -113 90 38 
28 -71 -32 -98 

-26 105 118 123 
32 -126 16 46 
-55 16 18 -63 
122 -94 116 87 

-95 -76 55 108 
115 -26 -104 -15 
35 77 -64 -98 
-125 -76 -123 -8 

65 -110 -109 -60 
6 22 119 46 
-3 -95 55 -61 
-6 -37 -111 26 

106 -36 80 -26 
-98 24 -23 29 
-50 71 106 -30 
-3 -39 64 94 



-23 48 -18 113 
25 -37 -57 -118 
-85 32 81 73 
-87 -25 -103 -126 

-22 -23 -14 120 
27 -61 -70 69 
-72 70 14 64 
56 125 -102 30 

-115 -37 96 103 
-117 37 -109 115 
19 28 -92 -108 
63 104 -51 6 

-111 88 15 -104 
56 110 -18 4 
-93 -113 90 38 
28 -71 -32 -98 

-26 105 118 123 
32 -126 16 46 
-55 16 18 -63 
122 -94 116 87 

-95 -76 55 108 
115 -26 -104 -15 
35 77 -64 -98 
-125 -76 -123 -8 

65 -110 -109 -60 
6 22 119 46 
-3 -95 55 -61 
-6 -37 -111 26 

106 -36 80 -26 
-98 24 -23 29 
-50 71 106 -30 
-3 -39 64 94 


-23 48 -18 113 
25 -37 -57 -118 
-85 32 81 73 
-87 -25 -103 -126 

-22 -23 -14 120 
27 -61 -70 69 
-72 70 14 64 
56 125 -102 30 

-115 -37 96 103 
-117 37 -109 115 
19 28 -92 -108 
63 104 -51 6 

-111 88 15 -104 
56 110 -18 4 
-93 -113 90 38 
28 -71 -32 -98 

-26 105 118 123 
32 -126 16 46 
-55 16 18 -63 
122 -94 116 87 

-95 -76 55 108 
115 -26 -104 -15 
35 77 -64 -98 
-125 -76 -123 -8 

65 -110 -109 -60 
6 22 119 46 
-3 -95 55 -61 
-6 -37 -111 26 

106 -36 80 -26 
-98 24 -23 29 
-50 71 106 -30 
-3 -39 64 94 


-23 48 -18 113 
25 -37 -57 -118 
-85 32 81 73 
-87 -25 -103 -126 

-22 -23 -14 120 
27 -61 -70 69 
-72 70 14 64 
56 125 -102 30 

-115 -37 96 103 
-117 37 -109 115 
19 28 -92 -108 
63 104 -51 6 

-111 88 15 -104 
56 110 -18 4 
-93 -113 90 38 
28 -71 -32 -98 

-26 105 118 123 
32 -126 16 46 
-55 16 18 -63 
122 -94 116 87 

-95 -76 55 108 
115 -26 -104 -15 
35 77 -64 -98 
-125 -76 -123 -8 

65 -110 -109 -60 
6 22 119 46 
-3 -95 55 -61 
-6 -37 -111 26 

106 -36 80 -26 
-98 24 -23 29 
-50 71 106 -30 
-3 -39 64 94 


-23 48 -18 113 
25 -37 -57 -118 
-85 32 81 73 
-87 -25 -103 -126 

-22 -23 -14 120 
27 -61 -70 69 
-72 70 14 64 
56 125 -102 30 

-115 -37 96 103 
-117 37 -109 115 
19 28 -92 -108 
63 104 -51 6 

-111 88 15 -104 
56 110 -18 4 
-93 -113 90 38 
28 -71 -32 -98 

-26 105 118 123 
32 -126 16 46 
-55 16 18 -63 
122 -94 116 87 

-95 -76 55 108 
115 -26 -104 -15 
35 77 -64 -98 
-125 -76 -123 -8 

65 -110 -109 -60 
6 22 119 46 
-3 -95 55 -61 
-6 -37 -111 26 

106 -36 80 -26 
-98 24 -23 29 
-50 71 106 -30 
-3 -39 64 94 



-23 48 -18 113 
25 -37 -57 -118 
-85 32 81 73 
-87 -25 -103 -126 

-22 -23 -14 120 
27 -61 -70 69 
-72 70 14 64 
56 125 -102 30 

-115 -37 96 103 
-117 37 -109 115 
19 28 -92 -108 
63 104 -51 6 

-111 88 15 -104 
56 110 -18 4 
-93 -113 90 38 
28 -71 -32 -98 

-26 105 118 123 
32 -126 16 46 
-55 16 18 -63 
122 -94 116 87 

-95 -76 55 108 
115 -26 -104 -15 
35 77 -64 -98 
-125 -76 -123 -8 

65 -110 -109 -60 
6 22 119 46 
-3 -95 55 -61 
-6 -37 -111 26 

106 -36 80 -26 
-98 24 -23 29 
-50 71 106 -30 
-3 -39 64 94 


-23 48 -18 113 
25 -37 -57 -118 
-85 32 81 73 
-87 -25 -103 -126 

-22 -23 -14 120 
27 -61 -70 69 
-72 70 14 64 
56 125 -102 30 

-115 -37 96 103 
-117 37 -109 115 
19 28 -92 -108 
63 104 -51 6 

-111 88 15 -104 
56 110 -18 4 
-93 -113 90 38 
28 -71 -32 -98 

-26 105 118 123 
32 -126 16 46 
-55 16 18 -63 
122 -94 116 87 

-95 -76 55 108 
115 -26 -104 -15 
35 77 -64 -98 
-125 -76 -123 -8 

65 -110 -109 -60 
6 22 119 46 
-3 -95 55 -61 
-6 -37 -111 26 

106 -36 80 -26 
-98 24 -23 29 
-50 71 106 -30 
-3 -39 64 94 


-23 48 -18 113 
25 -37 -57 -118 
-85 32 81 73 
-87 -25 -103 -126 

-22 -23 -14 120 
27 -61 -70 69 
-72 70 14 64 
56 125 -102 30 

-115 -37 96 103 
-117 37 -109 115 
19 28 -92 -108 
63 104 -51 6 

-111 88 15 -104 
56 110 -18 4 
-93 -113 90 38 
28 -71 -32 -98 

-26 105 118 123 
32 -126 16 46 
-55 16 18 -63 
122 -94 116 87 

-95 -76 55 108 
115 -26 -104 -15 
35 77 -64 -98 
-125 -76 -123 -8 

65 -110 -109 -60 
6 22 119 46 
-3 -95 55 -61 
-6 -37 -111 26 

106 -36 80 -26 
-98 24 -23 29 
-50 71 106 -30 
-3 -39 64 94 


-23 48 -18 113 
25 -37 -57 -118 
-85 32 81 73 
-87 -25 -103 -126 

-22 -23 -14 120 
27 -61 -70 69 
-72 70 14 64 
56 125 -102 30 

-115 -37 96 103 
-117 37 -109 115 
19 28 -92 -108 
63 104 -51 6 

-111 88 15 -104 
56 110 -18 4 
-93 -113 90 38 
28 -71 -32 -98 

-26 105 118 123 
32 -126 16 46 
-55 16 18 -63 
122 -94 116 87 

-95 -76 55 108 
115 -26 -104 -15 
35 77 -64 -98 
-125 -76 -123 -8 

65 -110 -109 -60 
6 22 119 46 
-3 -95 55 -61 
-6 -37 -111 26 

106 -36 80 -26 
-98 24 -23 29 
-50 71 106 -30 
-3 -39 64 94 



-23 48 -18 113 
25 -37 -57 -118 
-85 32 81 73 
-87 -25 -103 -126 

-22 -23 -14 120 
27 -61 -70 69 
-72 70 14 64 
56 125 -102 30 

-115 -37 96 103 
-117 37 -109 115 
19 28 -92 -108 
63 104 -51 6 

-111 88 15 -104 
56 110 -18 4 
-93 -113 90 38 
28 -71 -32 -98 

-26 105 118 123 
32 -126 16 46 
-55 16 18 -63 
122 -94 116 87 

-95 -76 55 108 
115 -26 -104 -15 
35 77 -64 -98 
-125 -76 -123 -8 

65 -110 -109 -60 
6 22 119 46 
-3 -95 55 -61 
-6 -37 -111 26 

106 -36 80 -26 
-98 24 -23 29 
-50 71 106 -30 
-3 -39 64 94 


-23 48 -18 113 
25 -37 -57 -118 
-85 32 81 73 
-87 -25 -103 -126 

-22 -23 -14 120 
27 -61 -70 69 
-72 70 14 64 
56 125 -102 30 

-115 -37 96 103 
-117 37 -109 115 
19 28 -92 -108 
63 104 -51 6 

-111 88 15 -104 
56 110 -18 4 
-93 -113 90 38 
28 -71 -32 -98 

-26 105 118 123 
32 -126 16 46 
-55 16 18 -63 
122 -94 116 87 

-95 -76 55 108 
115 -26 -104 -15 
35 77 -64 -98 
-125 -76 -123 -8 

65 -110 -109 -60 
6 22 119 46 
-3 -95 55 -61 
-6 -37 -111 26 

106 -36 80 -26 
-98 24 -23 29 
-50 71 106 -30 
-3 -39 64 94 


-23 48 -18 113 
25 -37 -57 -118 
-85 32 81 73 
-87 -25 -103 -126 

-22 -23 -14 120 
27 -61 -70 69 
-72 70 14 64 
56 125 -102 30 

-115 -37 96 103 
-117 37 -109 115 
19 28 -92 -108 
63 104 -51 6 

-111 88 15 -104 
56 110 -18 4 
-93 -113 90 38 
28 -71 -32 -98 

-26 105 118 123 
32 -126 16 46 
-55 16 18 -63 
122 -94 116 87 

-95 -76 55 108 
115 -26 -104 -15 
35 77 -64 -98 
-125 -76 -123 -8 

65 -110 -109 -60 
6 22 119 46 
-3 -95 55 -61 
-6 -37 -111 26 

106 -36 80 -26 
-98 24 -23 29 
-50 71 106 -30 
-3 -39 64 94 


-23 48 -18 113 
25 -37 -57 -118 
-85 32 81 73 
-87 -25 -103 -126 

-22 -23 -14 120 
27 -61 -70 69 
-72 70 14 64 
56 125 -102 30 

-115 -37 96 103 
-117 37 -109 115 
19 28 -92 -108 
63 104 -51 6 

-111 88 15 -104 
56 110 -18 4 
-93 -113 90 38 
28 -71 -32 -98 

-26 105 118 123 
32 -126 16 46 
-55 16 18 -63 
122 -94 116 87 

-95 -76 55 108 
115 -26 -104 -15 
35 77 -64 -98 
-125 -76 -123 -8 

65 -110 -109 -60 
6 22 119 46 
-3 -95 55 -61 
-6 -37 -111 26 

106 -36 80 -26 
-98 24 -23 29 
-50 71 106 -30 
-3 -39 64 94 




68 -95 -7 -76 
22 -8 110 -11 
118 50 96 -24 
-72 39 -114 84 

-91 -96 -13 63 
-6 -111 20 -7 
-55 -118 -6 -26 
101 45 4 -10 

-88 -20 -87 -38 
-29 -103 -92 -44 
-64 45 -116 -31 
-56 -93 -72 -11 

-21 -95 111 39 
8 39 -107 0 
116 -101 -50 47 
64 -10 118 -78 

120 66 7 -82 
105 -127 36 87 
27 -42 -9 -103 
74 106 -6 -104 

35 -50 51 91 
84 49 4 9 
76 -83 -35 -44 
-28 -37 22 48 

-114 -104 -12 -43 
28 -66 -22 -100 
-7 -39 -77 -69 
-8 -88 10 28 

35 -114 87 -13 
-113 57 107 -69 
-71 77 114 -73 
-18 70 61 -106 


68 -95 -7 -76 
22 -8 110 -11 
118 50 96 -24 
-72 39 -114 84 

-91 -96 -13 63 
-6 -111 20 -7 
-55 -118 -6 -26 
101 45 4 -10 

-88 -20 -87 -38 
-29 -103 -92 -44 
-64 45 -116 -31 
-56 -93 -72 -11 

-21 -95 111 39 
8 39 -107 0 
116 -101 -50 47 
64 -10 118 -78 

120 66 7 -82 
105 -127 36 87 
27 -42 -9 -103 
74 106 -6 -104 

35 -50 51 91 
84 49 4 9 
76 -83 -35 -44 
-28 -37 22 48 

-114 -104 -12 -43 
28 -66 -22 -100 
-7 -39 -77 -69 
-8 -88 10 28 

35 -114 87 -13 
-113 57 107 -69 
-71 77 114 -73 
-18 70 61 -106 


68 -95 -7 -76 
22 -8 110 -11 
118 50 96 -24 
-72 39 -114 84 

-91 -96 -13 63 
-6 -111 20 -7 
-55 -118 -6 -26 
101 45 4 -10 

-88 -20 -87 -38 
-29 -103 -92 -44 
-64 45 -116 -31 
-56 -93 -72 -11 

-21 -95 111 39 
8 39 -107 0 
116 -101 -50 47 
64 -10 118 -78 

120 66 7 -82 
105 -127 36 87 
27 -42 -9 -103 
74 106 -6 -104 

35 -50 51 91 
84 49 4 9 
76 -83 -35 -44 
-28 -37 22 48 

-114 -104 -12 -43 
28 -66 -22 -100 
-7 -39 -77 -69 
-8 -88 10 28 

35 -114 87 -13 
-113 57 107 -69 
-71 77 114 -73 
-18 70 61 -106 


68 -95 -7 -76 
22 -8 110 -11 
118 50 96 -24 
-72 39 -114 84 

-91 -96 -13 63 
-6 -111 20 -7 
-55 -118 -6 -26 
101 45 4 -10 

-88 -20 -87 -38 
-29 -103 -92 -44 
-64 45 -116 -31 
-56 -93 -72 -11 

-21 -95 111 39 
8 39 -107 0 
116 -101 -50 47 
64 -10 118 -78 

120 66 7 -82 
105 -127 36 87 
27 -42 -9 -103 
74 106 -6 -104 

35 -50 51 91 
84 49 4 9 
76 -83 -35 -44 
-28 -37 22 48 

-114 -104 -12 -43 
28 -66 -22 -100 
-7 -39 -77 -69 
-8 -88 10 28 

35 -114 87 -13 
-113 57 107 -69 
-71 77 114 -73 
-18 70 61 -106 



68 -95 -7 -76 
22 -8 110 -11 
118 50 96 -24 
-72 39 -114 84 

-91 -96 -13 63 
-6 -111 20 -7 
-55 -118 -6 -26 
101 45 4 -10 

-88 -20 -87 -38 
-29 -103 -92 -44 
-64 45 -116 -31 
-56 -93 -72 -11 

-21 -95 111 39 
8 39 -107 0 
116 -101 -50 47 
64 -10 118 -78 

120 66 7 -82 
105 -127 36 87 
27 -42 -9 -103 
74 106 -6 -104 

35 -50 51 91 
84 49 4 9 
76 -83 -35 -44 
-28 -37 22 48 

-114 -104 -12 -43 
28 -66 -22 -100 
-7 -39 -77 -69 
-8 -88 10 28 

35 -114 87 -13 
-113 57 107 -69 
-71 77 114 -73 
-18 70 61 -106 


68 -95 -7 -76 
22 -8 110 -11 
118 50 96 -24 
-72 39 -114 84 

-91 -96 -13 63 
-6 -111 20 -7 
-55 -118 -6 -26 
101 45 4 -10 

-88 -20 -87 -38 
-29 -103 -92 -44 
-64 45 -116 -31 
-56 -93 -72 -11 

-21 -95 111 39 
8 39 -107 0 
116 -101 -50 47 
64 -10 118 -78 

120 66 7 -82 
105 -127 36 87 
27 -42 -9 -103 
74 106 -6 -104 

35 -50 51 91 
84 49 4 9 
76 -83 -35 -44 
-28 -37 22 48 

-114 -104 -12 -43 
28 -66 -22 -100 
-7 -39 -77 -69 
-8 -88 10 28 

35 -114 87 -13 
-113 57 107 -69 
-71 77 114 -73 
-18 70 61 -106 


68 -95 -7 -76 
22 -8 110 -11 
118 50 96 -24 
-72 39 -114 84 

-91 -96 -13 63 
-6 -111 20 -7 
-55 -118 -6 -26 
101 45 4 -10 

-88 -20 -87 -38 
-29 -103 -92 -44 
-64 45 -116 -31 
-56 -93 -72 -11 

-21 -95 111 39 
8 39 -107 0 
116 -101 -50 47 
64 -10 118 -78 

120 66 7 -82 
105 -127 36 87 
27 -42 -9 -103 
74 106 -6 -104 

35 -50 51 91 
84 49 4 9 
76 -83 -35 -44 
-28 -37 22 48 

-114 -104 -12 -43 
28 -66 -22 -100 
-7 -39 -77 -69 
-8 -88 10 28 

35 -114 87 -13 
-113 57 107 -69 
-71 77 114 -73 
-18 70 61 -106 


68 -95 -7 -76 
22 -8 110 -11 
118 50 96 -24 
-72 39 -114 84 

-91 -96 -13 63 
-6 -111 20 -7 
-55 -118 -6 -26 
101 45 4 -10 

-88 -20 -87 -38 
-29 -103 -92 -44 
-64 45 -116 -31 
-56 -93 -72 -11 

-21 -95 111 39 
8 39 -107 0 
116 -101 -50 47 
64 -10 118 -78 

120 66 7 -82 
105 -127 36 87 
27 -42 -9 -103 
74 106 -6 -104 

35 -50 51 91 
84 49 4 9 
76 -83 -35 -44 
-28 -37 22 48 

-114 -104 -12 -43 
28 -66 -22 -100 
-7 -39 -77 -69 
-8 -88 10 28 

35 -114 87 -13 
-113 57 107 -69 
-71 77 114 -73 
-18 70 61 -106 



68 -95 -7 -76 
22 -8 110 -11 
118 50 96 -24 
-72 39 -114 84 

-91 -96 -13 63 
-6 -111 20 -7 
-55 -118 -6 -26 
101 45 4 -10 

-88 -20 -87 -38 
-29 -103 -92 -44 
-64 45 -116 -31 
-56 -93 -72 -11 

-21 -95 111 39 
8 39 -107 0 
116 -101 -50 47 
64 -10 118 -78 

120 66 7 -82 
105 -127 36 87 
27 -42 -9 -103 
74 106 -6 -104 

35 -50 51 91 
84 49 4 9 
76 -83 -35 -44 
-28 -37 22 48 

-114 -104 -12 -43 
28 -66 -22 -100 
-7 -39 -77 -69 
-8 -88 10 28 

35 -114 87 -13 
-113 57 107 -69 
-71 77 114 -73 
-18 70 61 -106 


68 -95 -7 -76 
22 -8 110 -11 
118 50 96 -24 
-72 39 -114 84 

-91 -96 -13 63 
-6 -111 20 -7 
-55 -118 -6 -26 
101 45 4 -10 

-88 -20 -87 -38 
-29 -103 -92 -44 
-64 45 -116 -31 
-56 -93 -72 -11 

-21 -95 111 39 
8 39 -107 0 
116 -101 -50 47 
64 -10 118 -78 

120 66 7 -82 
105 -127 36 87 
27 -42 -9 -103 
74 106 -6 -104 

35 -50 51 91 
84 49 4 9 
76 -83 -35 -44 
-28 -37 22 48 

-114 -104 -12 -43 
28 -66 -22 -100 
-7 -39 -77 -69 
-8 -88 10 28 

35 -114 87 -13 
-113 57 107 -69 
-71 77 114 -73 
-18 70 61 -106 


68 -95 -7 -76 
22 -8 110 -11 
118 50 96 -24 
-72 39 -114 84 

-91 -96 -13 63 
-6 -111 20 -7 
-55 -118 -6 -26 
101 45 4 -10 

-88 -20 -87 -38 
-29 -103 -92 -44 
-64 45 -116 -31 
-56 -93 -72 -11 

-21 -95 111 39 
8 39 -107 0 
116 -101 -50 47 
64 -10 118 -78 

120 66 7 -82 
105 -127 36 87 
27 -42 -9 -103 
74 106 -6 -104 

35 -50 51 91 
84 49 4 9 
76 -83 -35 -44 
-28 -37 22 48 

-114 -104 -12 -43 
28 -66 -22 -100 
-7 -39 -77 -69 
-8 -88 10 28 

35 -114 87 -13 
-113 57 107 -69 
-71 77 114 -73 
-18 70 61 -106 


68 -95 -7 -76 
22 -8 110 -11 
118 50 96 -24 
-72 39 -114 84 

-91 -96 -13 63 
-6 -111 20 -7 
-55 -118 -6 -26 
101 45 4 -10 

-88 -20 -87 -38 
-29 -103 -92 -44 
-64 45 -116 -31 
-56 -93 -72 -11 

-21 -95 111 39 
8 39 -107 0 
116 -101 -50 47 
64 -10 118 -78 

120 66 7 -82 
105 -127 36 87 
27 -42 -9 -103 
74 106 -6 -104 

35 -50 51 91 
84 49 4 9 
76 -83 -35 -44 
-28 -37 22 48 

-114 -104 -12 -43 
28 -66 -22 -100 
-7 -39 -77 -69 
-8 -88 10 28 

35 -114 87 -13 
-113 57 107 -69 
-71 77 114 -73 
-18 70 61 -106 



68 -95 -7 -76 
22 -8 110 -11 
118 50 96 -24 
-72 39 -114 84 

-91 -96 -13 63 
-6 -111 20 -7 
-55 -118 -6 -26 
101 45 4 -10 

-88 -20 -87 -38 
-29 -103 -92 -44 
-64 45 -116 -31 
-56 -93 -72 -11 

-21 -95 111 39 
8 39 -107 0 
116 -101 -50 47 
64 -10 118 -78 

120 66 7 -82 
105 -127 36 87 
27 -42 -9 -103 
74 106 -6 -104 

35 -50 51 91 
84 49 4 9 
76 -83 -35 -44 
-28 -37 22 48 

-114 -104 -12 -43 
28 -66 -22 -100 
-7 -39 -77 -69 
-8 -88 10 28 

35 -114 87 -13 
-113 57 107 -69 
-71 77 114 -73 
-18 70 61 -106 


68 -95 -7 -76 
22 -8 110 -11 
118 50 96 -24 
-72 39 -114 84 

-91 -96 -13 63 
-6 -111 20 -7 
-55 -118 -6 -26 
101 45 4 -10 

-88 -20 -87 -38 
-29 -103 -92 -44 
-64 45 -116 -31 
-56 -93 -72 -11 

-21 -95 111 39 
8 39 -107 0 
116 -101 -50 47 
64 -10 118 -78 

120 66 7 -82 
105 -127 36 87 
27 -42 -9 -103 
74 106 -6 -104 

35 -50 51 91 
84 49 4 9 
76 -83 -35 -44 
-28 -37 22 48 

-114 -104 -12 -43 
28 -66 -22 -100 
-7 -39 -77 -69 
-8 -88 10 28 

35 -114 87 -13 
-113 57 107 -69 
-71 77 114 -73 
-18 70 61 -106 


68 -95 -7 -76 
22 -8 110 -11 
118 50 96 -24 
-72 39 -114 84 

-91 -96 -13 63 
-6 -111 20 -7 
-55 -118 -6 -26 
101 45 4 -10 

-88 -20 -87 -38 
-29 -103 -92 -44 
-64 45 -116 -31 
-56 -93 -72 -11 

-21 -95 111 39 
8 39 -107 0 
116 -101 -50 47 
64 -10 118 -78 

120 66 7 -82 
105 -127 36 87 
27 -42 -9 -103 
74 106 -6 -104 

35 -50 51 91 
84 49 4 9 
76 -83 -35 -44 
-28 -37 22 48 

-114 -104 -12 -43 
28 -66 -22 -100 
-7 -39 -77 -69 
-8 -88 10 28 

35 -114 87 -13 
-113 57 107 -69 
-71 77 114 -73 
-18 70 61 -106 


68 -95 -7 -76 
22 -8 110 -11 
118 50 96 -24 
-72 39 -114 84 

-91 -96 -13 63 
-6 -111 20 -7 
-55 -118 -6 -26 
101 45 4 -10 

-88 -20 -87 -38 
-29 -103 -92 -44 
-64 45 -116 -31 
-56 -93 -72 -11 

-21 -95 111 39 
8 39 -107 0 
116 -101 -50 47 
64 -10 118 -78 

120 66 7 -82 
105 -127 36 87 
27 -42 -9 -103 
74 106 -6 -104 

35 -50 51 91 
84 49 4 9 
76 -83 -35 -44 
-28 -37 22 48 

-114 -104 -12 -43 
28 -66 -22 -100 
-7 -39 -77 -69 
-8 -88 10 28 

35 -114 87 -13 
-113 57 107 -69 
-71 77 114 -73 
-18 70 61 -106 



68 -95 -7 -76 
22 -8 110 -11 
118 50 96 -24 
-72 39 -114 84 

-91 -96 -13 63 
-6 -111 20 -7 
-55 -118 -6 -26 
101 45 4 -10 

-88 -20 -87 -38 
-29 -103 -92 -44 
-64 45 -116 -31 
-56 -93 -72 -11 

-21 -95 111 39 
8 39 -107 0 
116 -101 -50 47 
64 -10 118 -78 

120 66 7 -82 
105 -127 36 87 
27 -42 -9 -103 
74 106 -6 -104 

35 -50 51 91 
84 49 4 9 
76 -83 -35 -44 
-28 -37 22 48 

-114 -104 -12 -43 
28 -66 -22 -100 
-7 -39 -77 -69 
-8 -88 10 28 

35 -114 87 -13 
-113 57 107 -69 
-71 77 114 -73 
-18 70 61 -106 


68 -95 -7 -76 
22 -8 110 -11 
118 50 96 -24 
-72 39 -114 84 

-91 -96 -13 63 
-6 -111 20 -7 
-55 -118 -6 -26 
101 45 4 -10 

-88 -20 -87 -38 
-29 -103 -92 -44 
-64 45 -116 -31 
-56 -93 -72 -11 

-21 -95 111 39 
8 39 -107 0 
116 -101 -50 47 
64 -10 118 -78 

120 66 7 -82 
105 -127 36 87 
27 -42 -9 -103 
74 106 -6 -104 

35 -50 51 91 
84 49 4 9 
76 -83 -35 -44 
-28 -37 22 48 

-114 -104 -12 -43 
28 -66 -22 -100 
-7 -39 -77 -69 
-8 -88 10 28 

35 -114 87 -13 
-113 57 107 -69 
-71 77 114 -73 
-18 70 61 -106 


68 -95 -7 -76 
22 -8 110 -11 
118 50 96 -24 
-72 39 -114 84 

-91 -96 -13 63 
-6 -111 20 -7 
-55 -118 -6 -26 
101 45 4 -10 

-88 -20 -87 -38 
-29 -103 -92 -44 
-64 45 -116 -31 
-56 -93 -72 -11 

-21 -95 111 39 
8 39 -107 0 
116 -101 -50 47 
64 -10 118 -78 

120 66 7 -82 
105 -127 36 87 
27 -42 -9 -103 
74 106 -6 -104 

35 -50 51 91 
84 49 4 9 
76 -83 -35 -44 
-28 -37 22 48 

-114 -104 -12 -43 
28 -66 -22 -100 
-7 -39 -77 -69 
-8 -88 10 28 

35 -114 87 -13 
-113 57 107 -69 
-71 77 114 -73 
-18 70 61 -106 


68 -95 -7 -76 
22 -8 110 -11 
118 50 96 -24 
-72 39 -114 84 

-91 -96 -13 63 
-6 -111 20 -7 
-55 -118 -6 -26 
101 45 4 -10 

-88 -20 -87 -38 
-29 -103 -92 -44 
-64 45 -116 -31 
-56 -93 -72 -11 

-21 -95 111 39 
8 39 -107 0 
116 -101 -50 47 
64 -10 118 -78 

120 66 7 -82 
105 -127 36 87 
27 -42 -9 -103 
74 106 -6 -104 

35 -50 51 91 
84 49 4 9 
76 -83 -35 -44 
-28 -37 22 48 

-114 -104 -12 -43 
28 -66 -22 -100 
-7 -39 -77 -69 
-8 -88 10 28 

35 -114 87 -13 
-113 57 107 -69 
-71 77 114 -73 
-18 70 61 -106 



68 -95 -7 -76 
22 -8 110 -11 
118 50 96 -24 
-72 39 -114 84 

-91 -96 -13 63 
-6 -111 20 -7 
-55 -118 -6 -26 
101 45 4 -10 

-88 -20 -87 -38 
-29 -103 -92 -44 
-64 45 -116 -31 
-56 -93 -72 -11 

-21 -95 111 39 
8 39 -107 0 
116 -101 -50 47 
64 -10 118 -78 

120 66 7 -82 
105 -127 36 87 
27 -42 -9 -103 
74 106 -6 -104 

35 -50 51 91 
84 49 4 9 
76 -83 -35 -44 
-28 -37 22 48 

-114 -104 -12 -43 
28 -66 -22 -100 
-7 -39 -77 -69 
-8 -88 10 28 

35 -114 87 -13 
-113 57 107 -69 
-71 77 114 -73 
-18 70 61 -106 


68 -95 -7 -76 
22 -8 110 -11 
118 50 96 -24 
-72 39 -114 84 

-91 -96 -13 63 
-6 -111 20 -7 
-55 -118 -6 -26 
101 45 4 -10 

-88 -20 -87 -38 
-29 -103 -92 -44 
-64 45 -116 -31 
-56 -93 -72 -11 

-21 -95 111 39 
8 39 -107 0 
116 -101 -50 47 
64 -10 118 -78 

120 66 7 -82 
105 -127 36 87 
27 -42 -9 -103 
74 106 -6 -104 

35 -50 51 91 
84 49 4 9 
76 -83 -35 -44 
-28 -37 22 48 

-114 -104 -12 -43 
28 -66 -22 -100 
-7 -39 -77 -69 
-8 -88 10 28 

35 -114 87 -13 
-113 57 107 -69 
-71 77 114 -73 
-18 70 61 -106 


68 -95 -7 -76 
22 -8 110 -11 
118 50 96 -24 
-72 39 -114 84 

-91 -96 -13 63 
-6 -111 20 -7 
-55 -118 -6 -26 
101 45 4 -10 

-88 -20 -87 -38 
-29 -103 -92 -44 
-64 45 -116 -31 
-56 -93 -72 -11 

-21 -95 111 39 
8 39 -107 0 
116 -101 -50 47 
64 -10 118 -78 

120 66 7 -82 
105 -127 36 87 
27 -42 -9 -103 
74 106 -6 -104 

35 -50 51 91 
84 49 4 9 
76 -83 -35 -44 
-28 -37 22 48 

-114 -104 -12 -43 
28 -66 -22 -100 
-7 -39 -77 -69 
-8 -88 10 28 

35 -114 87 -13 
-113 57 107 -69 
-71 77 114 -73 
-18 70 61 -106 


68 -95 -7 -76 
22 -8 110 -11 
118 50 96 -24 
-72 39 -114 84 

-91 -96 -13 63 
-6 -111 20 -7 
-55 -118 -6 -26 
101 45 4 -10 

-88 -20 -87 -38 
-29 -103 -92 -44 
-64 45 -116 -31 
-56 -93 -72 -11 

-21 -95 111 39 
8 39 -107 0 
116 -101 -50 47 
64 -10 118 -78 

120 66 7 -82 
105 -127 36 87 
27 -42 -9 -103 
74 106 -6 -104 

35 -50 51 91 
84 49 4 9 
76 -83 -35 -44 
-28 -37 22 48 

-114 -104 -12 -43 
28 -66 -22 -100 
-7 -39 -77 -69 
-8 -88 10 28 

35 -114 87 -13 
-113 57 107 -69 
-71 77 114 -73 
-18 70 61 -106 



68 -95 -7 -76 
22 -8 110 -11 
118 50 96 -24 
-72 39 -114 84 

-91 -96 -13 63 
-6 -111 20 -7 
-55 -118 -6 -26 
101 45 4 -10 

-88 -20 -87 -38 
-29 -103 -92 -44 
-64 45 -116 -31 
-56 -93 -72 -11 

-21 -95 111 39 
8 39 -107 0 
116 -101 -50 47 
64 -10 118 -78 

120 66 7 -82 
105 -127 36 87 
27 -42 -9 -103 
74 106 -6 -104 

35 -50 51 91 
84 49 4 9 
76 -83 -35 -44 
-28 -37 22 48 

-114 -104 -12 -43 
28 -66 -22 -100 
-7 -39 -77 -69 
-8 -88 10 28 

35 -114 87 -13 
-113 57 107 -69 
-71 77 114 -73 
-18 70 61 -106 


68 -95 -7 -76 
22 -8 110 -11 
118 50 96 -24 
-72 39 -114 84 

-91 -96 -13 63 
-6 -111 20 -7 
-55 -118 -6 -26 
101 45 4 -10 

-88 -20 -87 -38 
-29 -103 -92 -44 
-64 45 -116 -31 
-56 -93 -72 -11 

-21 -95 111 39 
8 39 -107 0 
116 -101 -50 47 
64 -10 118 -78 

120 66 7 -82 
105 -127 36 87 
27 -42 -9 -103 
74 106 -6 -104 

35 -50 51 91 
84 49 4 9 
76 -83 -35 -44 
-28 -37 22 48 

-114 -104 -12 -43 
28 -66 -22 -100 
-7 -39 -77 -69 
-8 -88 10 28 

35 -114 87 -13 
-113 57 107 -69 
-71 77 114 -73 
-18 70 61 -106 


68 -95 -7 -76 
22 -8 110 -11 
118 50 96 -24 
-72 39 -114 84 

-91 -96 -13 63 
-6 -111 20 -7 
-55 -118 -6 -26 
101 45 4 -10 

-88 -20 -87 -38 
-29 -103 -92 -44 
-64 45 -116 -31 
-56 -93 -72 -11 

-21 -95 111 39 
8 39 -107 0 
116 -101 -50 47 
64 -10 118 -78 

120 66 7 -82 
105 -127 36 87 
27 -42 -9 -103 
74 106 -6 -104 

35 -50 51 91 
84 49 4 9 
76 -83 -35 -44 
-28 -37 22 48 

-114 -104 -12 -43 
28 -66 -22 -100 
-7 -39 -77 -69 
-8 -88 10 28 

35 -114 87 -13 
-113 57 107 -69 
-71 77 114 -73 
-18 70 61 -106 


68 -95 -7 -76 
22 -8 110 -11 
118 50 96 -24 
-72 39 -114 84 

-91 -96 -13 63 
-6 -111 20 -7 
-55 -118 -6 -26 
101 45 4 -10 

-88 -20 -87 -38 
-29 -103 -92 -44 
-64 45 -116 -31 
-56 -93 -72 -11 

-21 -95 111 39 
8 39 -107 0 
116 -101 -50 47 
64 -10 118 -78 

120 66 7 -82 
105 -127 36 87 
27 -42 -9 -103 
74 106 -6 -104 

35 -50 51 91 
84 49 4 9 
76 -83 -35 -44 
-28 -37 22 48 

-114 -104 -12 -43 
28 -66 -22 -100 
-7 -39 -77 -69 
-8 -88 10 28 

35 -114 87 -13 
-113 57 107 -69 
-71 77 114 -73 
-18 70 61 -106 



68 -95 -7 -76 
22 -8 110 -11 
118 50 96 -24 
-72 39 -114 84 

-91 -96 -13 63 
-6 -111 20 -7 
-55 -118 -6 -26 
101 45 4 -10 

-88 -20 -87 -38 
-29 -103 -92 -44 
-64 45 -116 -31 
-56 -93 -72 -11 

-21 -95 111 39 
8 39 -107 0 
116 -101 -50 47 
64 -10 118 -78 

120 66 7 -82 
105 -127 36 87 
27 -42 -9 -103 
74 106 -6 -104 

35 -50 51 91 
84 49 4 9 
76 -83 -35 -44 
-28 -37 22 48 

-114 -104 -12 -43 
28 -66 -22 -100 
-7 -39 -77 -69 
-8 -88 10 28 

35 -114 87 -13 
-113 57 107 -69 
-71 77 114 -73 
-18 70 61 -106 


68 -95 -7 -76 
22 -8 110 -11 
118 50 96 -24 
-72 39 -114 84 

-91 -96 -13 63 
-6 -111 20 -7 
-55 -118 -6 -26 
101 45 4 -10 

-88 -20 -87 -38 
-29 -103 -92 -44 
-64 45 -116 -31 
-56 -93 -72 -11 

-21 -95 111 39 
8 39 -107 0 
116 -101 -50 47 
64 -10 118 -78 

120 66 7 -82 
105 -127 36 87 
27 -42 -9 -103 
74 106 -6 -104 

35 -50 51 91 
84 49 4 9 
76 -83 -35 -44 
-28 -37 22 48 

-114 -104 -12 -43 
28 -66 -22 -100 
-7 -39 -77 -69 
-8 -88 10 28 

35 -114 87 -13 
-113 57 107 -69 
-71 77 114 -73 
-18 70 61 -106 


68 -95 -7 -76 
22 -8 110 -11 
118 50 96 -24 
-72 39 -114 84 

-91 -96 -13 63 
-6 -111 20 -7 
-55 -118 -6 -26 
101 45 4 -10 

-88 -20 -87 -38 
-29 -103 -92 -44 
-64 45 -116 -31 
-56 -93 -72 -11 

-21 -95 111 39 
8 39 -107 0 
116 -101 -50 47 
64 -10 118 -78 

120 66 7 -82 
105 -127 36 87 
27 -42 -9 -103 
74 106 -6 -104 

35 -50 51 91 
84 49 4 9 
76 -83 -35 -44 
-28 -37 22 48 

-114 -104 -12 -43 
28 -66 -22 -100 
-7 -39 -77 -69 
-8 -88 10 28 

35 -114 87 -13 
-113 57 107 -69 
-71 77 114 -73 
-18 70 61 -106 


68 -95 -7 -76 
22 -8 110 -11 
118 50 96 -24 
-72 39 -114 84 

-91 -96 -13 63 
-6 -111 20 -7 
-55 -118 -6 -26 
101 45 4 -10 

-88 -20 -87 -38 
-29 -103 -92 -44 
-64 45 -116 -31 
-56 -93 -72 -11 

-21 -95 111 39 
8 39 -107 0 
116 -101 -50 47 
64 -10 118 -78 

120 66 7 -82 
105 -127 36 87 
27 -42 -9 -103 
74 106 -6 -104 

35 -50 51 91 
84 49 4 9 
76 -83 -35 -44 
-28 -37 22 48 

-114 -104 -12 -43 
28 -66 -22 -100 
-7 -39 -77 -69 
-8 -88 10 28 

35 -114 87 -13 
-113 57 107 -69 
-71 77 114 -73 
-18 70 61 -106 



68 -95 -7 -76 
22 -8 110 -11 
118 50 96 -24 
-72 39 -114 84 

-91 -96 -13 63 
-6 -111 20 -7 
-55 -118 -6 -26 
101 45 4 -10 

-88 -20 -87 -38 
-29 -103 -92 -44 
-64 45 -116 -31 
-56 -93 -72 -11 

-21 -95 111 39 
8 39 -107 0 
116 -101 -50 47 
64 -10 118 -78 

120 66 7 -82 
105 -127 36 87 
27 -42 -9 -103 
74 106 -6 -104 

35 -50 51 91 
84 49 4 9 
76 -83 -35 -44 
-28 -37 22 48 

-114 -104 -12 -43 
28 -66 -22 -100 
-7 -39 -77 -69 
-8 -88 10 28 

35 -114 87 -13 
-113 57 107 -69 
-71 77 114 -73 
-18 70 61 -106 


68 -95 -7 -76 
22 -8 110 -11 
118 50 96 -24 
-72 39 -114 84 

-91 -96 -13 63 
-6 -111 20 -7 
-55 -118 -6 -26 
101 45 4 -10 

-88 -20 -87 -38 
-29 -103 -92 -44 
-64 45 -116 -31 
-56 -93 -72 -11 

-21 -95 111 39 
8 39 -107 0 
116 -101 -50 47 
64 -10 118 -78 

120 66 7 -82 
105 -127 36 87 
27 -42 -9 -103 
74 106 -6 -104 

35 -50 51 91 
84 49 4 9 
76 -83 -35 -44 
-28 -37 22 48 

-114 -104 -12 -43 
28 -66 -22 -100 
-7 -39 -77 -69 
-8 -88 10 28 

35 -114 87 -13 
-113 57 107 -69 
-71 77 114 -73 
-18 70 61 -106 


68 -95 -7 -76 
22 -8 110 -11 
118 50 96 -24 
-72 39 -114 84 

-91 -96 -13 63 
-6 -111 20 -7 
-55 -118 -6 -26 
101 45 4 -10 

-88 -20 -87 -38 
-29 -103 -92 -44 
-64 45 -116 -31 
-56 -93 -72 -11 

-21 -95 111 39 
8 39 -107 0 
116 -101 -50 47 
64 -10 118 -78 

120 66 7 -82 
105 -127 36 87 
27 -42 -9 -103 
74 106 -6 -104 

35 -50 51 91 
84 49 4 9 
76 -83 -35 -44 
-28 -37 22 48 

-114 -104 -12 -43 
28 -66 -22 -100 
-7 -39 -77 -69 
-8 -88 10 28 

35 -114 87 -13 
-113 57 107 -69 
-71 77 114 -73 
-18 70 61 -106 


68 -95 -7 -76 
22 -8 110 -11 
118 50 96 -24 
-72 39 -114 84 

-91 -96 -13 63 
-6 -111 20 -7 
-55 -118 -6 -26 
101 45 4 -10 

-88 -20 -87 -38 
-29 -103 -92 -44 
-64 45 -116 -31 
-56 -93 -72 -11 

-21 -95 111 39 
8 39 -107 0 
116 -101 -50 47 
64 -10 118 -78 

120 66 7 -82 
105 -127 36 87 
27 -42 -9 -103 
74 106 -6 -104 

35 -50 51 91 
84 49 4 9 
76 -83 -35 -44 
-28 -37 22 48 

-114 -104 -12 -43 
28 -66 -22 -100 
-7 -39 -77 -69 
-8 -88 10 28 

35 -114 87 -13 
-113 57 107 -69 
-71 77 114 -73 
-18 70 61 -106 



68 -95 -7 -76 
22 -8 110 -11 
118 50 96 -24 
-72 39 -114 84 

-91 -96 -13 63 
-6 -111 20 -7 
-55 -118 -6 -26 
101 45 4 -10 

-88 -20 -87 -38 
-29 -103 -92 -44 
-64 45 -116 -31 
-56 -93 -72 -11 

-21 -95 111 39 
8 39 -107 0 
116 -101 -50 47 
64 -10 118 -78 

120 66 7 -82 
105 -127 36 87 
27 -42 -9 -103 
74 106 -6 -104 

35 -50 51 91 
84 49 4 9 
76 -83 -35 -44 
-28 -37 22 48 

-114 -104 -12 -43 
28 -66 -22 -100 
-7 -39 -77 -69 
-8 -88 10 28 

35 -114 87 -13 
-113 57 107 -69 
-71 77 114 -73 
-18 70 61 -106 


68 -95 -7 -76 
22 -8 110 -11 
118 50 96 -24 
-72 39 -114 84 

-91 -96 -13 63 
-6 -111 20 -7 
-55 -118 -6 -26 
101 45 4 -10 

-88 -20 -87 -38 
-29 -103 -92 -44 
-64 45 -116 -31 
-56 -93 -72 -11 

-21 -95 111 39 
8 39 -107 0 
116 -101 -50 47 
64 -10 118 -78 

120 66 7 -82 
105 -127 36 87 
27 -42 -9 -103 
74 106 -6 -104 

35 -50 51 91 
84 49 4 9 
76 -83 -35 -44 
-28 -37 22 48 

-114 -104 -12 -43 
28 -66 -22 -100 
-7 -39 -77 -69 
-8 -88 10 28 

35 -114 87 -13 
-113 57 107 -69 
-71 77 114 -73 
-18 70 61 -106 


68 -95 -7 -76 
22 -8 110 -11 
118 50 96 -24 
-72 39 -114 84 

-91 -96 -13 63 
-6 -111 20 -7 
-55 -118 -6 -26 
101 45 4 -10 

-88 -20 -87 -38 
-29 -103 -92 -44 
-64 45 -116 -31 
-56 -93 -72 -11 

-21 -95 111 39 
8 39 -107 0 
116 -101 -50 47 
64 -10 118 -78 

120 66 7 -82 
105 -127 36 87 
27 -42 -9 -103 
74 106 -6 -104 

35 -50 51 91 
84 49 4 9 
76 -83 -35 -44 
-28 -37 22 48 

-114 -104 -12 -43 
28 -66 -22 -100 
-7 -39 -77 -69 
-8 -88 10 28 

35 -114 87 -13 
-113 57 107 -69 
-71 77 114 -73 
-18 70 61 -106 


68 -95 -7 -76 
22 -8 110 -11 
118 50 96 -24 
-72 39 -114 84 

-91 -96 -13 63 
-6 -111 20 -7 
-55 -118 -6 -26 
101 45 4 -10 

-88 -20 -87 -38 
-29 -103 -92 -44 
-64 45 -116 -31 
-56 -93 -72 -11 

-21 -95 111 39 
8 39 -107 0 
116 -101 -50 47 
64 -10 118 -78 

120 66 7 -82 
105 -127 36 87 
27 -42 -9 -103 
74 106 -6 -104 

35 -50 51 91 
84 49 4 9 
76 -83 -35 -44 
-28 -37 22 48 

-114 -104 -12 -43 
28 -66 -22 -100 
-7 -39 -77 -69 
-8 -88 10 28 

35 -114 87 -13 
-113 57 107 -69 
-71 77 114 -73 
-18 70 61 -106 



68 -95 -7 -76 
22 -8 110 -11 
118 50 96 -24 
-72 39 -114 84 

-91 -96 -13 63 
-6 -111 20 -7 
-55 -118 -6 -26 
101 45 4 -10 

-88 -20 -87 -38 
-29 -103 -92 -44 
-64 45 -116 -31 
-56 -93 -72 -11 

-21 -95 111 39 
8 39 -107 0 
116 -101 -50 47 
64 -10 118 -78 

120 66 7 -82 
105 -127 36 87 
27 -42 -9 -103 
74 106 -6 -104 

35 -50 51 91 
84 49 4 9 
76 -83 -35 -44 
-28 -37 22 48 

-114 -104 -12 -43 
28 -66 -22 -100 
-7 -39 -77 -69 
-8 -88 10 28 

35 -114 87 -13 
-113 57 107 -69 
-71 77 114 -73 
-18 70 61 -106 


68 -95 -7 -76 
22 -8 110 -11 
118 50 96 -24 
-72 39 -114 84 

-91 -96 -13 63 
-6 -111 20 -7 
-55 -118 -6 -26 
101 45 4 -10 

-88 -20 -87 -38 
-29 -103 -92 -44 
-64 45 -116 -31 
-56 -93 -72 -11 

-21 -95 111 39 
8 39 -107 0 
116 -101 -50 47 
64 -10 118 -78 

120 66 7 -82 
105 -127 36 87 
27 -42 -9 -103 
74 106 -6 -104 

35 -50 51 91 
84 49 4 9 
76 -83 -35 -44 
-28 -37 22 48 

-114 -104 -12 -43 
28 -66 -22 -100 
-7 -39 -77 -69 
-8 -88 10 28 

35 -114 87 -13 
-113 57 107 -69 
-71 77 114 -73 
-18 70 61 -106 


68 -95 -7 -76 
22 -8 110 -11 
118 50 96 -24 
-72 39 -114 84 

-91 -96 -13 63 
-6 -111 20 -7 
-55 -118 -6 -26 
101 45 4 -10 

-88 -20 -87 -38 
-29 -103 -92 -44 
-64 45 -116 -31 
-56 -93 -72 -11 

-21 -95 111 39 
8 39 -107 0 
116 -101 -50 47 
64 -10 118 -78 

120 66 7 -82 
105 -127 36 87 
27 -42 -9 -103 
74 106 -6 -104 

35 -50 51 91 
84 49 4 9 
76 -83 -35 -44 
-28 -37 22 48 

-114 -104 -12 -43 
28 -66 -22 -100 
-7 -39 -77 -69 
-8 -88 10 28 

35 -114 87 -13 
-113 57 107 -69 
-71 77 114 -73 
-18 70 61 -106 


68 -95 -7 -76 
22 -8 110 -11 
118 50 96 -24 
-72 39 -114 84 

-91 -96 -13 63 
-6 -111 20 -7 
-55 -118 -6 -26 
101 45 4 -10 

-88 -20 -87 -38 
-29 -103 -92 -44 
-64 45 -116 -31 
-56 -93 -72 -11 

-21 -95 111 39 
8 39 -107 0 
116 -101 -50 47 
64 -10 118 -78 

120 66 7 -82 
105 -127 36 87 
27 -42 -9 -103 
74 106 -6 -104 

35 -50 51 91 
84 49 4 9 
76 -83 -35 -44 
-28 -37 22 48 

-114 -104 -12 -43 
28 -66 -22 -100 
-7 -39 -77 -69 
-8 -88 10 28 

35 -114 87 -13 
-113 57 107 -69 
-71 77 114 -73 
-18 70 61 -106 



68 -95 -7 -76 
22 -8 110 -11 
118 50 96 -24 
-72 39 -114 84 

-91 -96 -13 63 
-6 -111 20 -7 
-55 -118 -6 -26 
101 45 4 -10 

-88 -20 -87 -38 
-29 -103 -92 -44 
-64 45 -116 -31 
-56 -93 -72 -11 

-21 -95 111 39 
8 39 -107 0 
116 -101 -50 47 
64 -10 118 -78 

120 66 7 -82 
105 -127 36 87 
27 -42 -9 -103 
74 106 -6 -104 

35 -50 51 91 
84 49 4 9 
76 -83 -35 -44 
-28 -37 22 48 

-114 -104 -12 -43 
28 -66 -22 -100 
-7 -39 -77 -69 
-8 -88 10 28 

35 -114 87 -13 
-113 57 107 -69 
-71 77 114 -73 
-18 70 61 -106 


68 -95 -7 -76 
22 -8 110 -11 
118 50 96 -24 
-72 39 -114 84 

-91 -96 -13 63 
-6 -111 20 -7 
-55 -118 -6 -26 
101 45 4 -10 

-88 -20 -87 -38 
-29 -103 -92 -44 
-64 45 -116 -31 
-56 -93 -72 -11 

-21 -95 111 39 
8 39 -107 0 
116 -101 -50 47 
64 -10 118 -78 

120 66 7 -82 
105 -127 36 87 
27 -42 -9 -103 
74 106 -6 -104 

35 -50 51 91 
84 49 4 9 
76 -83 -35 -44 
-28 -37 22 48 

-114 -104 -12 -43 
28 -66 -22 -100 
-7 -39 -77 -69 
-8 -88 10 28 

35 -114 87 -13 
-113 57 107 -69 
-71 77 114 -73 
-18 70 61 -106 


68 -95 -7 -76 
22 -8 110 -11 
118 50 96 -24 
-72 39 -114 84 

-91 -96 -13 63 
-6 -111 20 -7 
-55 -118 -6 -26 
101 45 4 -10 

-88 -20 -87 -38 
-29 -103 -92 -44 
-64 45 -116 -31 
-56 -93 -72 -11 

-21 -95 111 39 
8 39 -107 0 
116 -101 -50 47 
64 -10 118 -78 

120 66 7 -82 
105 -127 36 87 
27 -42 -9 -103 
74 106 -6 -104 

35 -50 51 91 
84 49 4 9 
76 -83 -35 -44 
-28 -37 22 48 

-114 -104 -12 -43 
28 -66 -22 -100 
-7 -39 -77 -69 
-8 -88 10 28 

35 -114 87 -13 
-113 57 107 -69 
-71 77 114 -73 
-18 70 61 -106 


68 -95 -7 -76 
22 -8 110 -11 
118 50 96 -24 
-72 39 -114 84 

-91 -96 -13 63 
-6 -111 20 -7 
-55 -118 -6 -26 
101 45 4 -10 

-88 -20 -87 -38 
-29 -103 -92 -44 
-64 45 -116 -31 
-56 -93 -72 -11 

-21 -95 111 39 
8 39 -107 0 
116 -101 -50 47 
64 -10 118 -78 

120 66 7 -82 
105 -127 36 87 
27 -42 -9 -103 
74 106 -6 -104 

35 -50 51 91 
84 49 4 9 
76 -83 -35 -44 
-28 -37 22 48 

-114 -104 -12 -43 
28 -66 -22 -100 
-7 -39 -77 -69 
-8 -88 10 28 

35 -114 87 -13 
-113 57 107 -69 
-71 77 114 -73 
-18 70 61 -106 



68 -95 -7 -76 
22 -8 110 -11 
118 50 96 -24 
-72 39 -114 84 

-91 -96 -13 63 
-6 -111 20 -7 
-55 -118 -6 -26 
101 45 4 -10 

-88 -20 -87 -38 
-29 -103 -92 -44 
-64 45 -116 -31 
-56 -93 -72 -11 

-21 -95 111 39 
8 39 -107 0 
116 -101 -50 47 
64 -10 118 -78 

120 66 7 -82 
105 -127 36 87 
27 -42 -9 -103 
74 106 -6 -104 

35 -50 51 91 
84 49 4 9 
76 -83 -35 -44 
-28 -37 22 48 

-114 -104 -12 -43 
28 -66 -22 -100 
-7 -39 -77 -69 
-8 -88 10 28 

35 -114 87 -13 
-113 57 107 -69 
-71 77 114 -73 
-18 70 61 -106 


68 -95 -7 -76 
22 -8 110 -11 
118 50 96 -24 
-72 39 -114 84 

-91 -96 -13 63 
-6 -111 20 -7 
-55 -118 -6 -26 
101 45 4 -10 

-88 -20 -87 -38 
-29 -103 -92 -44 
-64 45 -116 -31 
-56 -93 -72 -11 

-21 -95 111 39 
8 39 -107 0 
116 -101 -50 47 
64 -10 118 -78 

120 66 7 -82 
105 -127 36 87 
27 -42 -9 -103 
74 106 -6 -104 

35 -50 51 91 
84 49 4 9 
76 -83 -35 -44 
-28 -37 22 48 

-114 -104 -12 -43 
28 -66 -22 -100 
-7 -39 -77 -69 
-8 -88 10 28 

35 -114 87 -13 
-113 57 107 -69 
-71 77 114 -73 
-18 70 61 -106 


68 -95 -7 -76 
22 -8 110 -11 
118 50 96 -24 
-72 39 -114 84 

-91 -96 -13 63 
-6 -111 20 -7 
-55 -118 -6 -26 
101 45 4 -10 

-88 -20 -87 -38 
-29 -103 -92 -44 
-64 45 -116 -31 
-56 -93 -72 -11 

-21 -95 111 39 
8 39 -107 0 
116 -101 -50 47 
64 -10 118 -78 

120 66 7 -82 
105 -127 36 87 
27 -42 -9 -103 
74 106 -6 -104 

35 -50 51 91 
84 49 4 9 
76 -83 -35 -44 
-28 -37 22 48 

-114 -104 -12 -43 
28 -66 -22 -100 
-7 -39 -77 -69 
-8 -88 10 28 

35 -114 87 -13 
-113 57 107 -69 
-71 77 114 -73 
-18 70 61 -106 


68 -95 -7 -76 
22 -8 110 -11 
118 50 96 -24 
-72 39 -114 84 

-91 -96 -13 63 
-6 -111 20 -7 
-55 -118 -6 -26 
101 45 4 -10 

-88 -20 -87 -38 
-29 -103 -92 -44 
-64 45 -116 -31 
-56 -93 -72 -11 

-21 -95 111 39 
8 39 -107 0 
116 -101 -50 47 
64 -10 118 -78 

120 66 7 -82 
105 -127 36 87 
27 -42 -9 -103 
74 106 -6 -104 

35 -50 51 91 
84 49 4 9 
76 -83 -35 -44 
-28 -37 22 48 

-114 -104 -12 -43 
28 -66 -22 -100 
-7 -39 -77 -69 
-8 -88 10 28 

35 -114 87 -13 
-113 57 107 -69 
-71 77 114 -73 
-18 70 61 -106 




-14 -53 67 105 
41 -32 -41 -6 
-65 -6 -100 -50 
13 12 -104 0 

-10 64 -98 -81 
117 95 9 -93 
-45 -99 126 7 
-71 7 -44 74 

-84 126 -65 1 
-109 32 -76 -68 
37 63 -107 -42 
-26 48 26 -6 

82 119 55 102 
84 59 -40 -24 
-35 -109 82 6 
63 102 -102 66 

-53 68 -55 -84 
-20 -57 -24 103 
38 -97 -52 -1 
-64 49 -78 -58 

-45 58 -84 58 
-96 48 -103 -73 
79 79 105 3 
-32 22 20 -124 

-125 120 39 -128 
-21 90 -1 53 
-49 -58 26 9 
7 -6 109 -105 

2 -101 -121 -57 
99 25 88 80 
64 63 105 -92 
-106 -35 21 -109 


-14 -53 67 105 
41 -32 -41 -6 
-65 -6 -100 -50 
13 12 -104 0 

-10 64 -98 -81 
117 95 9 -93 
-45 -99 126 7 
-71 7 -44 74 

-84 126 -65 1 
-109 32 -76 -68 
37 63 -107 -42 
-26 48 26 -6 

82 119 55 102 
84 59 -40 -24 
-35 -109 82 6 
63 102 -102 66 

-53 68 -55 -84 
-20 -57 -24 103 
38 -97 -52 -1 
-64 49 -78 -58 

-45 58 -84 58 
-96 48 -103 -73 
79 79 105 3 
-32 22 20 -124 

-125 120 39 -128 
-21 90 -1 53 
-49 -58 26 9 
7 -6 109 -105 

2 -101 -121 -57 
99 25 88 80 
64 63 105 -92 
-106 -35 21 -109 


-14 -53 67 105 
41 -32 -41 -6 
-65 -6 -100 -50 
13 12 -104 0 

-10 64 -98 -81 
117 95 9 -93 
-45 -99 126 7 
-71 7 -44 74 

-84 126 -65 1 
-109 32 -76 -68 
37 63 -107 -42 
-26 48 26 -6 

82 119 55 102 
84 59 -40 -24 
-35 -109 82 6 
63 102 -102 66 

-53 68 -55 -84 
-20 -57 -24 103 
38 -97 -52 -1 
-64 49 -78 -58 

-45 58 -84 58 
-96 48 -103 -73 
79 79 105 3 
-32 22 20 -124 

-125 120 39 -128 
-21 90 -1 53 
-49 -58 26 9 
7 -6 109 -105 

2 -101 -121 -57 
99 25 88 80 
64 63 105 -92 
-106 -35 21 -109 


-14 -53 67 105 
41 -32 -41 -6 
-65 -6 -100 -50 
13 12 -104 0 

-10 64 -98 -81 
117 95 9 -93 
-45 -99 126 7 
-71 7 -44 74 

-84 126 -65 1 
-109 32 -76 -68 
37 63 -107 -42 
-26 48 26 -6 

82 119 55 102 
84 59 -40 -24 
-35 -109 82 6 
63 102 -102 66 

-53 68 -55 -84 
-20 -57 -24 103 
38 -97 -52 -1 
-64 49 -78 -58 

-45 58 -84 58 
-96 48 -103 -73 
79 79 105 3 
-32 22 20 -124 

-125 120 39 -128 
-21 90 -1 53 
-49 -58 26 9 
7 -6 109 -105 

2 -101 -121 -57 
99 25 88 80 
64 63 105 -92 
-106 -35 21 -109 



-14 -53 67 105 
41 -32 -41 -6 
-65 -6 -100 -50 
13 12 -104 0 

-10 64 -98 -81 
117 95 9 -93 
-45 -99 126 7 
-71 7 -44 74 

-84 126 -65 1 
-109 32 -76 -68 
37 63 -107 -42 
-26 48 26 -6 

82 119 55 102 
84 59 -40 -24 
-35 -109 82 6 
63 102 -102 66 

-53 68 -55 -84 
-20 -57 -24 103 
38 -97 -52 -1 
-64 49 -78 -58 

-45 58 -84 58 
-96 48 -103 -73 
79 79 105 3 
-32 22 20 -124 

-125 120 39 -128 
-21 90 -1 53 
-49 -58 26 9 
7 -6 109 -105 

2 -101 -121 -57 
99 25 88 80 
64 63 105 -92 
-106 -35 21 -109 


-14 -53 67 105 
41 -32 -41 -6 
-65 -6 -100 -50 
13 12 -104 0 

-10 64 -98 -81 
117 95 9 -93 
-45 -99 126 7 
-71 7 -44 74 

-84 126 -65 1 
-109 32 -76 -68 
37 63 -107 -42 
-26 48 26 -6 

82 119 55 102 
84 59 -40 -24 
-35 -109 82 6 
63 102 -102 66 

-53 68 -55 -84 
-20 -57 -24 103 
38 -97 -52 -1 
-64 49 -78 -58 

-45 58 -84 58 
-96 48 -103 -73 
79 79 105 3 
-32 22 20 -124 

-125 120 39 -128 
-21 90 -1 53 
-49 -58 26 9 
7 -6 109 -105 

2 -101 -121 -57 
99 25 88 80 
64 63 105 -92 
-106 -35 21 -109 


-14 -53 67 105 
41 -32 -41 -6 
-65 -6 -100 -50 
13 12 -104 0 

-10 64 -98 -81 
117 95 9 -93 
-45 -99 126 7 
-71 7 -44 74 

-84 126 -65 1 
-109 32 -76 -68 
37 63 -107 -42 
-26 48 26 -6 

82 119 55 102 
84 59 -40 -24 
-35 -109 82 6 
63 102 -102 66 

-53 68 -55 -84 
-20 -57 -24 103 
38 -97 -52 -1 
-64 49 -78 -58 

-45 58 -84 58 
-96 48 -103 -73 
79 79 105 3 
-32 22 20 -124 

-125 120 39 -128 
-21 90 -1 53 
-49 -58 26 9 
7 -6 109 -105 

2 -101 -121 -57 
99 25 88 80 
64 63 105 -92 
-106 -35 21 -109 


-14 -53 67 105 
41 -32 -41 -6 
-65 -6 -100 -50 
13 12 -104 0 

-10 64 -98 -81 
117 95 9 -93 
-45 -99 126 7 
-71 7 -44 74 

-84 126 -65 1 
-109 32 -76 -68 
37 63 -107 -42 
-26 48 26 -6 

82 119 55 102 
84 59 -40 -24 
-35 -109 82 6 
63 102 -102 66 

-53 68 -55 -84 
-20 -57 -24 103 
38 -97 -52 -1 
-64 49 -78 -58 

-45 58 -84 58 
-96 48 -103 -73 
79 79 105 3 
-32 22 20 -124 

-125 120 39 -128 
-21 90 -1 53 
-49 -58 26 9 
7 -6 109 -105 

2 -101 -121 -57 
99 25 88 80 
64 63 105 -92 
-106 -35 21 -109 



-14 -53 67 105 
41 -32 -41 -6 
-65 -6 -100 -50 
13 12 -104 0 

-10 64 -98 -81 
117 95 9 -93 
-45 -99 126 7 
-71 7 -44 74 

-84 126 -65 1 
-109 32 -76 -68 
37 63 -107 -42 
-26 48 26 -6 

82 119 55 102 
84 59 -40 -24 
-35 -109 82 6 
63 102 -102 66 

-53 68 -55 -84 
-20 -57 -24 103 
38 -97 -52 -1 
-64 49 -78 -58 

-45 58 -84 58 
-96 48 -103 -73 
79 79 105 3 
-32 22 20 -124 

-125 120 39 -128 
-21 90 -1 53 
-49 -58 26 9 
7 -6 109 -105 

2 -101 -121 -57 
99 25 88 80 
64 63 105 -92 
-106 -35 21 -109 


-14 -53 67 105 
41 -32 -41 -6 
-65 -6 -100 -50 
13 12 -104 0 

-10 64 -98 -81 
117 95 9 -93 
-45 -99 126 7 
-71 7 -44 74 

-84 126 -65 1 
-109 32 -76 -68 
37 63 -107 -42 
-26 48 26 -6 

82 119 55 102 
84 59 -40 -24 
-35 -109 82 6 
63 102 -102 66 

-53 68 -55 -84 
-20 -57 -24 103 
38 -97 -52 -1 
-64 49 -78 -58 

-45 58 -84 58 
-96 48 -103 -73 
79 79 105 3 
-32 22 20 -124 

-125 120 39 -128 
-21 90 -1 53 
-49 -58 26 9 
7 -6 109 -105 

2 -101 -121 -57 
99 25 88 80 
64 63 105 -92 
-106 -35 21 -109 


-14 -53 67 105 
41 -32 -41 -6 
-65 -6 -100 -50 
13 12 -104 0 

-10 64 -98 -81 
117 95 9 -93 
-45 -99 126 7 
-71 7 -44 74 

-84 126 -65 1 
-109 32 -76 -68 
37 63 -107 -42 
-26 48 26 -6 

82 119 55 102 
84 59 -40 -24 
-35 -109 82 6 
63 102 -102 66 

-53 68 -55 -84 
-20 -57 -24 103 
38 -97 -52 -1 
-64 49 -78 -58 

-45 58 -84 58 
-96 48 -103 -73 
79 79 105 3 
-32 22 20 -124 

-125 120 39 -128 
-21 90 -1 53 
-49 -58 26 9 
7 -6 109 -105 

2 -101 -121 -57 
99 25 88 80 
64 63 105 -92 
-106 -35 21 -109 


-14 -53 67 105 
41 -32 -41 -6 
-65 -6 -100 -50 
13 12 -104 0 

-10 64 -98 -81 
117 95 9 -93 
-45 -99 126 7 
-71 7 -44 74 

-84 126 -65 1 
-109 32 -76 -68 
37 63 -107 -42 
-26 48 26 -6 

82 119 55 102 
84 59 -40 -24 
-35 -109 82 6 
63 102 -102 66 

-53 68 -55 -84 
-20 -57 -24 103 
38 -97 -52 -1 
-64 49 -78 -58 

-45 58 -84 58 
-96 48 -103 -73 
79 79 105 3 
-32 22 20 -124 

-125 120 39 -128 
-21 90 -1 53 
-49 -58 26 9 
7 -6 109 -105 

2 -101 -121 -57 
99 25 88 80 
64 63 105 -92 
-106 -35 21 -109 



-14 -53 67 105 
41 -32 -41 -6 
-65 -6 -100 -50 
13 12 -104 0 

-10 64 -98 -81 
117 95 9 -93 
-45 -99 126 7 
-71 7 -44 74 

-84 126 -65 1 
-109 32 -76 -68 
37 63 -107 -42 
-26 48 26 -6 

82 119 55 102 
84 59 -40 -24 
-35 -109 82 6 
63 102 -102 66 

-53 68 -55 -84 
-20 -57 -24 103 
38 -97 -52 -1 
-64 49 -78 -58 

-45 58 -84 58 
-96 48 -103 -73 
79 79 105 3 
-32 22 20 -124 

-125 120 39 -128 
-21 90 -1 53 
-49 -58 26 9 
7 -6 109 -105 

2 -101 -121 -57 
99 25 88 80 
64 63 105 -92 
-106 -35 21 -109 


-14 -53 67 105 
41 -32 -41 -6 
-65 -6 -100 -50 
13 12 -104 0 

-10 64 -98 -81 
117 95 9 -93 
-45 -99 126 7 
-71 7 -44 74 

-84 126 -65 1 
-109 32 -76 -68 
37 63 -107 -42 
-26 48 26 -6 

82 119 55 102 
84 59 -40 -24 
-35 -109 82 6 
63 102 -102 66 

-53 68 -55 -84 
-20 -57 -24 103 
38 -97 -52 -1 
-64 49 -78 -58 

-45 58 -84 58 
-96 48 -103 -73 
79 79 105 3 
-32 22 20 -124 

-125 120 39 -128 
-21 90 -1 53 
-49 -58 26 9 
7 -6 109 -105 

2 -101 -121 -57 
99 25 88 80 
64 63 105 -92 
-106 -35 21 -109 


-14 -53 67 105 
41 -32 -41 -6 
-65 -6 -100 -50 
13 12 -104 0 

-10 64 -98 -81 
117 95 9 -93 
-45 -99 126 7 
-71 7 -44 74 

-84 126 -65 1 
-109 32 -76 -68 
37 63 -107 -42 
-26 48 26 -6 

82 119 55 102 
84 59 -40 -24 
-35 -109 82 6 
63 102 -102 66 

-53 68 -55 -84 
-20 -57 -24 103 
38 -97 -52 -1 
-64 49 -78 -58 

-45 58 -84 58 
-96 48 -103 -73 
79 79 105 3 
-32 22 20 -124 

-125 120 39 -128 
-21 90 -1 53 
-49 -58 26 9 
7 -6 109 -105 

2 -101 -121 -57 
99 25 88 80 
64 63 105 -92 
-106 -35 21 -109 


-14 -53 67 105 
41 -32 -41 -6 
-65 -6 -100 -50 
13 12 -104 0 

-10 64 -98 -81 
117 95 9 -93 
-45 -99 126 7 
-71 7 -44 74 

-84 126 -65 1 
-109 32 -76 -68 
37 63 -107 -42 
-26 48 26 -6 

82 119 55 102 
84 59 -40 -24 
-35 -109 82 6 
63 102 -102 66 

-53 68 -55 -84 
-20 -57 -24 103 
38 -97 -52 -1 
-64 49 -78 -58 

-45 58 -84 58 
-96 48 -103 -73 
79 79 105 3 
-32 22 20 -124 

-125 120 39 -128 
-21 90 -1 53 
-49 -58 26 9 
7 -6 109 -105 

2 -101 -121 -57 
99 25 88 80 
64 63 105 -92 
-106 -35 21 -109 



-14 -53 67 105 
41 -32 -41 -6 
-65 -6 -100 -50 
13 12 -104 0 

-10 64 -98 -81 
117 95 9 -93 
-45 -99 126 7 
-71 7 -44 74 

-84 126 -65 1 
-109 32 -76 -68 
37 63 -107 -42 
-26 48 26 -6 

82 119 55 102 
84 59 -40 -24 
-35 -109 82 6 
63 102 -102 66 

-53 68 -55 -84 
-20 -57 -24 103 
38 -97 -52 -1 
-64 49 -78 -58 

-45 58 -84 58 
-96 48 -103 -73 
79 79 105 3 
-32 22 20 -124 

-125 120 39 -128 
-21 90 -1 53 
-49 -58 26 9 
7 -6 109 -105 

2 -101 -121 -57 
99 25 88 80 
64 63 105 -92 
-106 -35 21 -109 


-14 -53 67 105 
41 -32 -41 -6 
-65 -6 -100 -50 
13 12 -104 0 

-10 64 -98 -81 
117 95 9 -93 
-45 -99 126 7 
-71 7 -44 74 

-84 126 -65 1 
-109 32 -76 -68 
37 63 -107 -42 
-26 48 26 -6 

82 119 55 102 
84 59 -40 -24 
-35 -109 82 6 
63 102 -102 66 

-53 68 -55 -84 
-20 -57 -24 103 
38 -97 -52 -1 
-64 49 -78 -58 

-45 58 -84 58 
-96 48 -103 -73 
79 79 105 3 
-32 22 20 -124 

-125 120 39 -128 
-21 90 -1 53 
-49 -58 26 9 
7 -6 109 -105 

2 -101 -121 -57 
99 25 88 80 
64 63 105 -92 
-106 -35 21 -109 


-14 -53 67 105 
41 -32 -41 -6 
-65 -6 -100 -50 
13 12 -104 0 

-10 64 -98 -81 
117 95 9 -93 
-45 -99 126 7 
-71 7 -44 74 

-84 126 -65 1 
-109 32 -76 -68 
37 63 -107 -42 
-26 48 26 -6 

82 119 55 102 
84 59 -40 -24 
-35 -109 82 6 
63 102 -102 66 

-53 68 -55 -84 
-20 -57 -24 103 
38 -97 -52 -1 
-64 49 -78 -58 

-45 58 -84 58 
-96 48 -103 -73 
79 79 105 3 
-32 22 20 -124 

-125 120 39 -128 
-21 90 -1 53 
-49 -58 26 9 
7 -6 109 -105 

2 -101 -121 -57 
99 25 88 80 
64 63 105 -92 
-106 -35 21 -109 


-14 -53 67 105 
41 -32 -41 -6 
-65 -6 -100 -50 
13 12 -104 0 

-10 64 -98 -81 
117 95 9 -93 
-45 -99 126 7 
-71 7 -44 74 

-84 126 -65 1 
-109 32 -76 -68 
37 63 -107 -42 
-26 48 26 -6 

82 119 55 102 
84 59 -40 -24 
-35 -109 82 6 
63 102 -102 66 

-53 68 -55 -84 
-20 -57 -24 103 
38 -97 -52 -1 
-64 49 -78 -58 

-45 58 -84 58 
-96 48 -103 -73 
79 79 105 3 
-32 22 20 -124 

-125 120 39 -128 
-21 90 -1 53 
-49 -58 26 9 
7 -6 109 -105 

2 -101 -121 -57 
99 25 88 80 
64 63 105 -92 
-106 -35 21 -109 



-14 -53 67 105 
41 -32 -41 -6 
-65 -6 -100 -50 
13 12 -104 0 

-10 64 -98 -81 
117 95 9 -93 
-45 -99 126 7 
-71 7 -44 74 

-84 126 -65 1 
-109 32 -76 -68 
37 63 -107 -42 
-26 48 26 -6 

82 119 55 102 
84 59 -40 -24 
-35 -109 82 6 
63 102 -102 66 

-53 68 -55 -84 
-20 -57 -24 103 
38 -97 -52 -1 
-64 49 -78 -58 

-45 58 -84 58 
-96 48 -103 -73 
79 79 105 3 
-32 22 20 -124 

-125 120 39 -128 
-21 90 -1 53 
-49 -58 26 9 
7 -6 109 -105 

2 -101 -121 -57 
99 25 88 80 
64 63 105 -92 
-106 -35 21 -109 


-14 -53 67 105 
41 -32 -41 -6 
-65 -6 -100 -50 
13 12 -104 0 

-10 64 -98 -81 
117 95 9 -93 
-45 -99 126 7 
-71 7 -44 74 

-84 126 -65 1 
-109 32 -76 -68 
37 63 -107 -42 
-26 48 26 -6 

82 119 55 102 
84 59 -40 -24 
-35 -109 82 6 
63 102 -102 66 

-53 68 -55 -84 
-20 -57 -24 103 
38 -97 -52 -1 
-64 49 -78 -58 

-45 58 -84 58 
-96 48 -103 -73 
79 79 105 3 
-32 22 20 -124 

-125 120 39 -128 
-21 90 -1 53 
-49 -58 26 9 
7 -6 109 -105 

2 -101 -121 -57 
99 25 88 80 
64 63 105 -92 
-106 -35 21 -109 


-14 -53 67 105 
41 -32 -41 -6 
-65 -6 -100 -50 
13 12 -104 0 

-10 64 -98 -81 
117 95 9 -93 
-45 -99 126 7 
-71 7 -44 74 

-84 126 -65 1 
-109 32 -76 -68 
37 63 -107 -42 
-26 48 26 -6 

82 119 55 102 
84 59 -40 -24 
-35 -109 82 6 
63 102 -102 66 

-53 68 -55 -84 
-20 -57 -24 103 
38 -97 -52 -1 
-64 49 -78 -58 

-45 58 -84 58 
-96 48 -103 -73 
79 79 105 3 
-32 22 20 -124 

-125 120 39 -128 
-21 90 -1 53 
-49 -58 26 9 
7 -6 109 -105 

2 -101 -121 -57 
99 25 88 80 
64 63 105 -92 
-106 -35 21 -109 


-14 -53 67 105 
41 -32 -41 -6 
-65 -6 -100 -50 
13 12 -104 0 

-10 64 -98 -81 
117 95 9 -93 
-45 -99 126 7 
-71 7 -44 74 

-84 126 -65 1 
-109 32 -76 -68 
37 63 -107 -42 
-26 48 26 -6 

82 119 55 102 
84 59 -40 -24 
-35 -109 82 6 
63 102 -102 66 

-53 68 -55 -84 
-20 -57 -24 103 
38 -97 -52 -1 
-64 49 -78 -58 

-45 58 -84 58 
-96 48 -103 -73 
79 79 105 3 
-32 22 20 -124 

-125 120 39 -128 
-21 90 -1 53 
-49 -58 26 9 
7 -6 109 -105 

2 -101 -121 -57 
99 25 88 80 
64 63 105 -92 
-106 -35 21 -109 



-14 -53 67 105 
41 -32 -41 -6 
-65 -6 -100 -50 
13 12 -104 0 

-10 64 -98 -81 
117 95 9 -93 
-45 -99 126 7 
-71 7 -44 74 

-84 126 -65 1 
-109 32 -76 -68 
37 63 -107 -42 
-26 48 26 -6 

82 119 55 102 
84 59 -40 -24 
-35 -109 82 6 
63 102 -102 66 

-53 68 -55 -84 
-20 -57 -24 103 
38 -97 -52 -1 
-64 49 -78 -58 

-45 58 -84 58 
-96 48 -103 -73 
79 79 105 3 
-32 22 20 -124 

-125 120 39 -128 
-21 90 -1 53 
-49 -58 26 9 
7 -6 109 -105 

2 -101 -121 -57 
99 25 88 80 
64 63 105 -92 
-106 -35 21 -109 


-14 -53 67 105 
41 -32 -41 -6 
-65 -6 -100 -50 
13 12 -104 0 

-10 64 -98 -81 
117 95 9 -93 
-45 -99 126 7 
-71 7 -44 74 

-84 126 -65 1 
-109 32 -76 -68 
37 63 -107 -42 
-26 48 26 -6 

82 119 55 102 
84 59 -40 -24 
-35 -109 82 6 
63 102 -102 66 

-53 68 -55 -84 
-20 -57 -24 103 
38 -97 -52 -1 
-64 49 -78 -58 

-45 58 -84 58 
-96 48 -103 -73 
79 79 105 3 
-32 22 20 -124 

-125 120 39 -128 
-21 90 -1 53 
-49 -58 26 9 
7 -6 109 -105 

2 -101 -121 -57 
99 25 88 80 
64 63 105 -92 
-106 -35 21 -109 


-14 -53 67 105 
41 -32 -41 -6 
-65 -6 -100 -50 
13 12 -104 0 

-10 64 -98 -81 
117 95 9 -93 
-45 -99 126 7 
-71 7 -44 74 

-84 126 -65 1 
-109 32 -76 -68 
37 63 -107 -42 
-26 48 26 -6 

82 119 55 102 
84 59 -40 -24 
-35 -109 82 6 
63 102 -102 66 

-53 68 -55 -84 
-20 -57 -24 103 
38 -97 -52 -1 
-64 49 -78 -58 

-45 58 -84 58 
-96 48 -103 -73 
79 79 105 3 
-32 22 20 -124 

-125 120 39 -128 
-21 90 -1 53 
-49 -58 26 9 
7 -6 109 -105 

2 -101 -121 -57 
99 25 88 80 
64 63 105 -92 
-106 -35 21 -109 


-14 -53 67 105 
41 -32 -41 -6 
-65 -6 -100 -50 
13 12 -104 0 

-10 64 -98 -81 
117 95 9 -93 
-45 -99 126 7 
-71 7 -44 74 

-84 126 -65 1 
-109 32 -76 -68 
37 63 -107 -42 
-26 48 26 -6 

82 119 55 102 
84 59 -40 -24 
-35 -109 82 6 
63 102 -102 66 

-53 68 -55 -84 
-20 -57 -24 103 
38 -97 -52 -1 
-64 49 -78 -58 

-45 58 -84 58 
-96 48 -103 -73 
79 79 105 3 
-32 22 20 -124 

-125 120 39 -128 
-21 90 -1 53 
-49 -58 26 9 
7 -6 109 -105 

2 -101 -121 -57 
99 25 88 80 
64 63 105 -92 
-106 -35 21 -109 



-14 -53 67 105 
41 -32 -41 -6 
-65 -6 -100 -50 
13 12 -104 0 

-10 64 -98 -81 
117 95 9 -93 
-45 -99 126 7 
-71 7 -44 74 

-84 126 -65 1 
-109 32 -76 -68 
37 63 -107 -42 
-26 48 26 -6 

82 119 55 102 
84 59 -40 -24 
-35 -109 82 6 
63 102 -102 66 

-53 68 -55 -84 
-20 -57 -24 103 
38 -97 -52 -1 
-64 49 -78 -58 

-45 58 -84 58 
-96 48 -103 -73 
79 79 105 3 
-32 22 20 -124 

-125 120 39 -128 
-21 90 -1 53 
-49 -58 26 9 
7 -6 109 -105 

2 -101 -121 -57 
99 25 88 80 
64 63 105 -92 
-106 -35 21 -109 


-14 -53 67 105 
41 -32 -41 -6 
-65 -6 -100 -50 
13 12 -104 0 

-10 64 -98 -81 
117 95 9 -93 
-45 -99 126 7 
-71 7 -44 74 

-84 126 -65 1 
-109 32 -76 -68 
37 63 -107 -42 
-26 48 26 -6 

82 119 55 102 
84 59 -40 -24 
-35 -109 82 6 
63 102 -102 66 

-53 68 -55 -84 
-20 -57 -24 103 
38 -97 -52 -1 
-64 49 -78 -58 

-45 58 -84 58 
-96 48 -103 -73 
79 79 105 3 
-32 22 20 -124 

-125 120 39 -128 
-21 90 -1 53 
-49 -58 26 9 
7 -6 109 -105 

2 -101 -121 -57 
99 25 88 80 
64 63 105 -92 
-106 -35 21 -109 


-14 -53 67 105 
41 -32 -41 -6 
-65 -6 -100 -50 
13 12 -104 0 

-10 64 -98 -81 
117 95 9 -93 
-45 -99 126 7 
-71 7 -44 74 

-84 126 -65 1 
-109 32 -76 -68 
37 63 -107 -42 
-26 48 26 -6 

82 119 55 102 
84 59 -40 -24 
-35 -109 82 6 
63 102 -102 66 

-53 68 -55 -84 
-20 -57 -24 103 
38 -97 -52 -1 
-64 49 -78 -58 

-45 58 -84 58 
-96 48 -103 -73 
79 79 105 3 
-32 22 20 -124 

-125 120 39 -128 
-21 90 -1 53 
-49 -58 26 9 
7 -6 109 -105 

2 -101 -121 -57 
99 25 88 80 
64 63 105 -92 
-106 -35 21 -109 


-14 -53 67 105 
41 -32 -41 -6 
-65 -6 -100 -50 
13 12 -104 0 

-10 64 -98 -81 
117 95 9 -93 
-45 -99 126 7 
-71 7 -44 74 

-84 126 -65 1 
-109 32 -76 -68 
37 63 -107 -42 
-26 48 26 -6 

82 119 55 102 
84 59 -40 -24 
-35 -109 82 6 
63 102 -102 66 

-53 68 -55 -84 
-20 -57 -24 103 
38 -97 -52 -1 
-64 49 -78 -58 

-45 58 -84 58 
-96 48 -103 -73 
79 79 105 3 
-32 22 20 -124 

-125 120 39 -128 
-21 90 -1 53 
-49 -58 26 9 
7 -6 109 -105 

2 -101 -121 -57 
99 25 88 80 
64 63 105 -92 
-106 -35 21 -109 



-14 -53 67 105 
41 -32 -41 -6 
-65 -6 -100 -50 
13 12 -104 0 

-10 64 -98 -81 
117 95 9 -93 
-45 -99 126 7 
-71 7 -44 74 

-84 126 -65 1 
-109 32 -76 -68 
37 63 -107 -42 
-26 48 26 -6 

82 119 55 102 
84 59 -40 -24 
-35 -109 82 6 
63 102 -102 66 

-53 68 -55 -84 
-20 -57 -24 103 
38 -97 -52 -1 
-64 49 -78 -58 

-45 58 -84 58 
-96 48 -103 -73 
79 79 105 3 
-32 22 20 -124 

-125 120 39 -128 
-21 90 -1 53 
-49 -58 26 9 
7 -6 109 -105 

2 -101 -121 -57 
99 25 88 80 
64 63 105 -92 
-106 -35 21 -109 


-14 -53 67 105 
41 -32 -41 -6 
-65 -6 -100 -50 
13 12 -104 0 

-10 64 -98 -81 
117 95 9 -93 
-45 -99 126 7 
-71 7 -44 74 

-84 126 -65 1 
-109 32 -76 -68 
37 63 -107 -42 
-26 48 26 -6 

82 119 55 102 
84 59 -40 -24 
-35 -109 82 6 
63 102 -102 66 

-53 68 -55 -84 
-20 -57 -24 103 
38 -97 -52 -1 
-64 49 -78 -58 

-45 58 -84 58 
-96 48 -103 -73 
79 79 105 3 
-32 22 20 -124 

-125 120 39 -128 
-21 90 -1 53 
-49 -58 26 9 
7 -6 109 -105 

2 -101 -121 -57 
99 25 88 80 
64 63 105 -92 
-106 -35 21 -109 


-14 -53 67 105 
41 -32 -41 -6 
-65 -6 -100 -50 
13 12 -104 0 

-10 64 -98 -81 
117 95 9 -93 
-45 -99 126 7 
-71 7 -44 74 

-84 126 -65 1 
-109 32 -76 -68 
37 63 -107 -42 
-26 48 26 -6 

82 119 55 102 
84 59 -40 -24 
-35 -109 82 6 
63 102 -102 66 

-53 68 -55 -84 
-20 -57 -24 103 
38 -97 -52 -1 
-64 49 -78 -58 

-45 58 -84 58 
-96 48 -103 -73 
79 79 105 3 
-32 22 20 -124 

-125 120 39 -128 
-21 90 -1 53 
-49 -58 26 9 
7 -6 109 -105 

2 -101 -121 -57 
99 25 88 80 
64 63 105 -92 
-106 -35 21 -109 


-14 -53 67 105 
41 -32 -41 -6 
-65 -6 -100 -50 
13 12 -104 0 

-10 64 -98 -81 
117 95 9 -93 
-45 -99 126 7 
-71 7 -44 74 

-84 126 -65 1 
-109 32 -76 -68 
37 63 -107 -42 
-26 48 26 -6 

82 119 55 102 
84 59 -40 -24 
-35 -109 82 6 
63 102 -102 66 

-53 68 -55 -84 
-20 -57 -24 103 
38 -97 -52 -1 
-64 49 -78 -58 

-45 58 -84 58 
-96 48 -103 -73 
79 79 105 3 
-32 22 20 -124 

-125 120 39 -128 
-21 90 -1 53 
-49 -58 26 9 
7 -6 109 -105 

2 -101 -121 -57 
99 25 88 80 
64 63 105 -92 
-106 -35 21 -109 



-14 -53 67 105 
41 -32 -41 -6 
-65 -6 -100 -50 
13 12 -104 0 

-10 64 -98 -81 
117 95 9 -93 
-45 -99 126 7 
-71 7 -44 74 

-84 126 -65 1 
-109 32 -76 -68 
37 63 -107 -42 
-26 48 26 -6 

82 119 55 102 
84 59 -40 -24 
-35 -109 82 6 
63 102 -102 66 

-53 68 -55 -84 
-20 -57 -24 103 
38 -97 -52 -1 
-64 49 -78 -58 

-45 58 -84 58 
-96 48 -103 -73 
79 79 105 3 
-32 22 20 -124 

-125 120 39 -128 
-21 90 -1 53 
-49 -58 26 9 
7 -6 109 -105 

2 -101 -121 -57 
99 25 88 80 
64 63 105 -92 
-106 -35 21 -109 


-14 -53 67 105 
41 -32 -41 -6 
-65 -6 -100 -50 
13 12 -104 0 

-10 64 -98 -81 
117 95 9 -93 
-45 -99 126 7 
-71 7 -44 74 

-84 126 -65 1 
-109 32 -76 -68 
37 63 -107 -42 
-26 48 26 -6 

82 119 55 102 
84 59 -40 -24 
-35 -109 82 6 
63 102 -102 66 

-53 68 -55 -84 
-20 -57 -24 103 
38 -97 -52 -1 
-64 49 -78 -58 

-45 58 -84 58 
-96 48 -103 -73 
79 79 105 3 
-32 22 20 -124 

-125 120 39 -128 
-21 90 -1 53 
-49 -58 26 9 
7 -6 109 -105 

2 -101 -121 -57 
99 25 88 80 
64 63 105 -92 
-106 -35 21 -109 


-14 -53 67 105 
41 -32 -41 -6 
-65 -6 -100 -50 
13 12 -104 0 

-10 64 -98 -81 
117 95 9 -93 
-45 -99 126 7 
-71 7 -44 74 

-84 126 -65 1 
-109 32 -76 -68 
37 63 -107 -42 
-26 48 26 -6 

82 119 55 102 
84 59 -40 -24 
-35 -109 82 6 
63 102 -102 66 

-53 68 -55 -84 
-20 -57 -24 103 
38 -97 -52 -1 
-64 49 -78 -58 

-45 58 -84 58 
-96 48 -103 -73 
79 79 105 3 
-32 22 20 -124 

-125 120 39 -128 
-21 90 -1 53 
-49 -58 26 9 
7 -6 109 -105 

2 -101 -121 -57 
99 25 88 80 
64 63 105 -92 
-106 -35 21 -109 


-14 -53 67 105 
41 -32 -41 -6 
-65 -6 -100 -50 
13 12 -104 0 

-10 64 -98 -81 
117 95 9 -93 
-45 -99 126 7 
-71 7 -44 74 

-84 126 -65 1 
-109 32 -76 -68 
37 63 -107 -42 
-26 48 26 -6 

82 119 55 102 
84 59 -40 -24 
-35 -109 82 6 
63 102 -102 66 

-53 68 -55 -84 
-20 -57 -24 103 
38 -97 -52 -1 
-64 49 -78 -58 

-45 58 -84 58 
-96 48 -103 -73 
79 79 105 3 
-32 22 20 -124 

-125 120 39 -128 
-21 90 -1 53 
-49 -58 26 9 
7 -6 109 -105 

2 -101 -121 -57 
99 25 88 80 
64 63 105 -92 
-106 -35 21 -109 



-14 -53 67 105 
41 -32 -41 -6 
-65 -6 -100 -50 
13 12 -104 0 

-10 64 -98 -81 
117 95 9 -93 
-45 -99 126 7 
-71 7 -44 74 

-84 126 -65 1 
-109 32 -76 -68 
37 63 -107 -42 
-26 48 26 -6 

82 119 55 102 
84 59 -40 -24 
-35 -109 82 6 
63 102 -102 66 

-53 68 -55 -84 
-20 -57 -24 103 
38 -97 -52 -1 
-64 49 -78 -58 

-45 58 -84 58 
-96 48 -103 -73 
79 79 105 3 
-32 22 20 -124 

-125 120 39 -128 
-21 90 -1 53 
-49 -58 26 9 
7 -6 109 -105 

2 -101 -121 -57 
99 25 88 80 
64 63 105 -92 
-106 -35 21 -109 


-14 -53 67 105 
41 -32 -41 -6 
-65 -6 -100 -50 
13 12 -104 0 

-10 64 -98 -81 
117 95 9 -93 
-45 -99 126 7 
-71 7 -44 74 

-84 126 -65 1 
-109 32 -76 -68 
37 63 -107 -42 
-26 48 26 -6 

82 119 55 102 
84 59 -40 -24 
-35 -109 82 6 
63 102 -102 66 

-53 68 -55 -84 
-20 -57 -24 103 
38 -97 -52 -1 
-64 49 -78 -58 

-45 58 -84 58 
-96 48 -103 -73 
79 79 105 3 
-32 22 20 -124 

-125 120 39 -128 
-21 90 -1 53 
-49 -58 26 9 
7 -6 109 -105 

2 -101 -121 -57 
99 25 88 80 
64 63 105 -92 
-106 -35 21 -109 


-14 -53 67 105 
41 -32 -41 -6 
-65 -6 -100 -50 
13 12 -104 0 

-10 64 -98 -81 
117 95 9 -93 
-45 -99 126 7 
-71 7 -44 74 

-84 126 -65 1 
-109 32 -76 -68 
37 63 -107 -42 
-26 48 26 -6 

82 119 55 102 
84 59 -40 -24 
-35 -109 82 6 
63 102 -102 66 

-53 68 -55 -84 
-20 -57 -24 103 
38 -97 -52 -1 
-64 49 -78 -58 

-45 58 -84 58 
-96 48 -103 -73 
79 79 105 3 
-32 22 20 -124 

-125 120 39 -128 
-21 90 -1 53 
-49 -58 26 9 
7 -6 109 -105 

2 -101 -121 -57 
99 25 88 80 
64 63 105 -92 
-106 -35 21 -109 


-14 -53 67 105 
41 -32 -41 -6 
-65 -6 -100 -50 
13 12 -104 0 

-10 64 -98 -81 
117 95 9 -93 
-45 -99 126 7 
-71 7 -44 74 

-84 126 -65 1 
-109 32 -76 -68 
37 63 -107 -42 
-26 48 26 -6 

82 119 55 102 
84 59 -40 -24 
-35 -109 82 6 
63 102 -102 66 

-53 68 -55 -84 
-20 -57 -24 103 
38 -97 -52 -1 
-64 49 -78 -58 

-45 58 -84 58 
-96 48 -103 -73 
79 79 105 3 
-32 22 20 -124 

-125 120 39 -128 
-21 90 -1 53 
-49 -58 26 9 
7 -6 109 -105 

2 -101 -121 -57 
99 25 88 80 
64 63 105 -92 
-106 -35 21 -109 



-14 -53 67 105 
41 -32 -41 -6 
-65 -6 -100 -50 
13 12 -104 0 

-10 64 -98 -81 
117 95 9 -93 
-45 -99 126 7 
-71 7 -44 74 

-84 126 -65 1 
-109 32 -76 -68 
37 63 -107 -42 
-26 48 26 -6 

82 119 55 102 
84 59 -40 -24 
-35 -109 82 6 
63 102 -102 66 

-53 68 -55 -84 
-20 -57 -24 103 
38 -97 -52 -1 
-64 49 -78 -58 

-45 58 -84 58 
-96 48 -103 -73 
79 79 105 3 
-32 22 20 -124 

-125 120 39 -128 
-21 90 -1 53 
-49 -58 26 9 
7 -6 109 -105 

2 -101 -121 -57 
99 25 88 80 
64 63 105 -92 
-106 -35 21 -109 


-14 -53 67 105 
41 -32 -41 -6 
-65 -6 -100 -50 
13 12 -104 0 

-10 64 -98 -81 
117 95 9 -93 
-45 -99 126 7 
-71 7 -44 74 

-84 126 -65 1 
-109 32 -76 -68 
37 63 -107 -42 
-26 48 26 -6 

82 119 55 102 
84 59 -40 -24 
-35 -109 82 6 
63 102 -102 66 

-53 68 -55 -84 
-20 -57 -24 103 
38 -97 -52 -1 
-64 49 -78 -58 

-45 58 -84 58 
-96 48 -103 -73 
79 79 105 3 
-32 22 20 -124 

-125 120 39 -128 
-21 90 -1 53 
-49 -58 26 9 
7 -6 109 -105 

2 -101 -121 -57 
99 25 88 80 
64 63 105 -92 
-106 -35 21 -109 


-14 -53 67 105 
41 -32 -41 -6 
-65 -6 -100 -50 
13 12 -104 0 

-10 64 -98 -81 
117 95 9 -93 
-45 -99 126 7 
-71 7 -44 74 

-84 126 -65 1 
-109 32 -76 -68 
37 63 -107 -42 
-26 48 26 -6 

82 119 55 102 
84 59 -40 -24 
-35 -109 82 6 
63 102 -102 66 

-53 68 -55 -84 
-20 -57 -24 103 
38 -97 -52 -1 
-64 49 -78 -58 

-45 58 -84 58 
-96 48 -103 -73 
79 79 105 3 
-32 22 20 -124 

-125 120 39 -128 
-21 90 -1 53 
-49 -58 26 9 
7 -6 109 -105 

2 -101 -121 -57 
99 25 88 80 
64 63 105 -92 
-106 -35 21 -109 


-14 -53 67 105 
41 -32 -41 -6 
-65 -6 -100 -50 
13 12 -104 0 

-10 64 -98 -81 
117 95 9 -93 
-45 -99 126 7 
-71 7 -44 74 

-84 126 -65 1 
-109 32 -76 -68 
37 63 -107 -42 
-26 48 26 -6 

82 119 55 102 
84 59 -40 -24 
-35 -109 82 6 
63 102 -102 66 

-53 68 -55 -84 
-20 -57 -24 103 
38 -97 -52 -1 
-64 49 -78 -58 

-45 58 -84 58 
-96 48 -103 -73 
79 79 105 3 
-32 22 20 -124 

-125 120 39 -128 
-21 90 -1 53 
-49 -58 26 9 
7 -6 109 -105 

2 -101 -121 -57 
99 25 88 80 
64 63 105 -92 
-106 -35 21 -109 



-14 -53 67 105 
41 -32 -41 -6 
-65 -6 -100 -50 
13 12 -104 0 

-10 64 -98 -81 
117 95 9 -93 
-45 -99 126 7 
-71 7 -44 74 

-84 126 -65 1 
-109 32 -76 -68 
37 63 -107 -42 
-26 48 26 -6 

82 119 55 102 
84 59 -40 -24 
-35 -109 82 6 
63 102 -102 66 

-53 68 -55 -84 
-20 -57 -24 103 
38 -97 -52 -1 
-64 49 -78 -58 

-45 58 -84 58 
-96 48 -103 -73 
79 79 105 3 
-32 22 20 -124 

-125 120 39 -128 
-21 90 -1 53 
-49 -58 26 9 
7 -6 109 -105 

2 -101 -121 -57 
99 25 88 80 
64 63 105 -92 
-106 -35 21 -109 


-14 -53 67 105 
41 -32 -41 -6 
-65 -6 -100 -50 
13 12 -104 0 

-10 64 -98 -81 
117 95 9 -93 
-45 -99 126 7 
-71 7 -44 74 

-84 126 -65 1 
-109 32 -76 -68 
37 63 -107 -42 
-26 48 26 -6 

82 119 55 102 
84 59 -40 -24 
-35 -109 82 6 
63 102 -102 66 

-53 68 -55 -84 
-20 -57 -24 103 
38 -97 -52 -1 
-64 49 -78 -58 

-45 58 -84 58 
-96 48 -103 -73 
79 79 105 3 
-32 22 20 -124 

-125 120 39 -128 
-21 90 -1 53 
-49 -58 26 9 
7 -6 109 -105 

2 -101 -121 -57 
99 25 88 80 
64 63 105 -92 
-106 -35 21 -109 


-14 -53 67 105 
41 -32 -41 -6 
-65 -6 -100 -50 
13 12 -104 0 

-10 64 -98 -81 
117 95 9 -93 
-45 -99 126 7 
-71 7 -44 74 

-84 126 -65 1 
-109 32 -76 -68 
37 63 -107 -42 
-26 48 26 -6 

82 119 55 102 
84 59 -40 -24 
-35 -109 82 6 
63 102 -102 66 

-53 68 -55 -84 
-20 -57 -24 103 
38 -97 -52 -1 
-64 49 -78 -58 

-45 58 -84 58 
-96 48 -103 -73 
79 79 105 3 
-32 22 20 -124 

-125 120 39 -128 
-21 90 -1 53 
-49 -58 26 9 
7 -6 109 -105 

2 -101 -121 -57 
99 25 88 80 
64 63 105 -92 
-106 -35 21 -109 


-14 -53 67 105 
41 -32 -41 -6 
-65 -6 -100 -50 
13 12 -104 0 

-10 64 -98 -81 
117 95 9 -93 
-45 -99 126 7 
-71 7 -44 74 

-84 126 -65 1 
-109 32 -76 -68 
37 63 -107 -42 
-26 48 26 -6 

82 119 55 102 
84 59 -40 -24 
-35 -109 82 6 
63 102 -102 66 

-53 68 -55 -84 
-20 -57 -24 103 
38 -97 -52 -1 
-64 49 -78 -58 

-45 58 -84 58 
-96 48 -103 -73 
79 79 105 3 
-32 22 20 -124 

-125 120 39 -128 
-21 90 -1 53 
-49 -58 26 9 
7 -6 109 -105 

2 -101 -121 -57 
99 25 88 80 
64 63 105 -92 
-106 -35 21 -109 




-59 70 25 33 
90 -37 114 -28 
112 -88 83 -101 
47 82 26 -120 

51 54 6 -74 
28 -13 -16 -9 
30 28 118 49 
-121 3 -52 92 

-53 -29 86 1 
74 88 65 -122 
-7 108 69 64 
-115 81 106 -36 

61 -3 113 108 
70 -60 -10 -112 
-69 85 14 -124 
53 -31 -15 -13 

69 -27 -98 64 
-116 116 -97 -109 
26 45 -73 50 
-119 -33 102 -93 

4 39 11 -124 
124 -58 61 82 
105 7 35 95 
103 -88 -37 -77 

76 88 56 31 
35 126 -103 -86 
-59 90 -118 0 
91 -85 119 -62 

-125 -91 59 97 
-48 81 14 119 
84 65 48 -81 
0 58 -49 12 


-59 70 25 33 
90 -37 114 -28 
112 -88 83 -101 
47 82 26 -120 

51 54 6 -74 
28 -13 -16 -9 
30 28 118 49 
-121 3 -52 92 

-53 -29 86 1 
74 88 65 -122 
-7 108 69 64 
-115 81 106 -36 

61 -3 113 108 
70 -60 -10 -112 
-69 85 14 -124 
53 -31 -15 -13 

69 -27 -98 64 
-116 116 -97 -109 
26 45 -73 50 
-119 -33 102 -93 

4 39 11 -124 
124 -58 61 82 
105 7 35 95 
103 -88 -37 -77 

76 88 56 31 
35 126 -103 -86 
-59 90 -118 0 
91 -85 119 -62 

-125 -91 59 97 
-48 81 14 119 
84 65 48 -81 
0 58 -49 12 


-59 70 25 33 
90 -37 114 -28 
112 -88 83 -101 
47 82 26 -120 

51 54 6 -74 
28 -13 -16 -9 
30 28 118 49 
-121 3 -52 92 

-53 -29 86 1 
74 88 65 -122 
-7 108 69 64 
-115 81 106 -36 

61 -3 113 108 
70 -60 -10 -112 
-69 85 14 -124 
53 -31 -15 -13 

69 -27 -98 64 
-116 116 -97 -109 
26 45 -73 50 
-119 -33 102 -93 

4 39 11 -124 
124 -58 61 82 
105 7 35 95 
103 -88 -37 -77 

76 88 56 31 
35 126 -103 -86 
-59 90 -118 0 
91 -85 119 -62 

-125 -91 59 97 
-48 81 14 119 
84 65 48 -81 
0 58 -49 12 


-59 70 25 33 
90 -37 114 -28 
112 -88 83 -101 
47 82 26 -120 

51 54 6 -74 
28 -13 -16 -9 
30 28 118 49 
-121 3 -52 92 

-53 -29 86 1 
74 88 65 -122 
-7 108 69 64 
-115 81 106 -36 

61 -3 113 108 
70 -60 -10 -112 
-69 85 14 -124 
53 -31 -15 -13 

69 -27 -98 64 
-116 116 -97 -109 
26 45 -73 50 
-119 -33 102 -93 

4 39 11 -124 
124 -58 61 82 
105 7 35 95 
103 -88 -37 -77 

76 88 56 31 
35 126 -103 -86 
-59 90 -118 0 
91 -85 119 -62 

-125 -91 59 97 
-48 81 14 119 
84 65 48 -81 
0 58 -49 12 



-59 70 25 33 
90 -37 114 -28 
112 -88 83 -101 
47 82 26 -120 

51 54 6 -74 
28 -13 -16 -9 
30 28 118 49 
-121 3 -52 92 

-53 -29 86 1 
74 88 65 -122 
-7 108 69 64 
-115 81 106 -36 

61 -3 113 108 
70 -60 -10 -112 
-69 85 14 -124 
53 -31 -15 -13 

69 -27 -98 64 
-116 116 -97 -109 
26 45 -73 50 
-119 -33 102 -93 

4 39 11 -124 
124 -58 61 82 
105 7 35 95 
103 -88 -37 -77 

76 88 56 31 
35 126 -103 -86 
-59 90 -118 0 
91 -85 119 -62 

-125 -91 59 97 
-48 81 14 119 
84 65 48 -81 
0 58 -49 12 


-59 70 25 33 
90 -37 114 -28 
112 -88 83 -101 
47 82 26 -120 

51 54 6 -74 
28 -13 -16 -9 
30 28 118 49 
-121 3 -52 92 

-53 -29 86 1 
74 88 65 -122 
-7 108 69 64 
-115 81 106 -36 

61 -3 113 108 
70 -60 -10 -112 
-69 85 14 -124 
53 -31 -15 -13 

69 -27 -98 64 
-116 116 -97 -109 
26 45 -73 50 
-119 -33 102 -93 

4 39 11 -124 
124 -58 61 82 
105 7 35 95 
103 -88 -37 -77 

76 88 56 31 
35 126 -103 -86 
-59 90 -118 0 
91 -85 119 -62 

-125 -91 59 97 
-48 81 14 119 
84 65 48 -81 
0 58 -49 12 


-59 70 25 33 
90 -37 114 -28 
112 -88 83 -101 
47 82 26 -120 

51 54 6 -74 
28 -13 -16 -9 
30 28 118 49 
-121 3 -52 92 

-53 -29 86 1 
74 88 65 -122 
-7 108 69 64 
-115 81 106 -36 

61 -3 113 108 
70 -60 -10 -112 
-69 85 14 -124 
53 -31 -15 -13 

69 -27 -98 64 
-116 116 -97 -109 
26 45 -73 50 
-119 -33 102 -93 

4 39 11 -124 
124 -58 61 82 
105 7 35 95 
103 -88 -37 -77 

76 88 56 31 
35 126 -103 -86 
-59 90 -118 0 
91 -85 119 -62 

-125 -91 59 97 
-48 81 14 119 
84 65 48 -81 
0 58 -49 12 


-59 70 25 33 
90 -37 114 -28 
112 -88 83 -101 
47 82 26 -120 

51 54 6 -74 
28 -13 -16 -9 
30 28 118 49 
-121 3 -52 92 

-53 -29 86 1 
74 88 65 -122 
-7 108 69 64 
-115 81 106 -36 

61 -3 113 108 
70 -60 -10 -112 
-69 85 14 -124 
53 -31 -15 -13 

69 -27 -98 64 
-116 116 -97 -109 
26 45 -73 50 
-119 -33 102 -93 

4 39 11 -124 
124 -58 61 82 
105 7 35 95 
103 -88 -37 -77 

76 88 56 31 
35 126 -103 -86 
-59 90 -118 0 
91 -85 119 -62 

-125 -91 59 97 
-48 81 14 119 
84 65 48 -81 
0 58 -49 12 



-59 70 25 33 
90 -37 114 -28 
112 -88 83 -101 
47 82 26 -120 

51 54 6 -74 
28 -13 -16 -9 
30 28 118 49 
-121 3 -52 92 

-53 -29 86 1 
74 88 65 -122 
-7 108 69 64 
-115 81 106 -36 

61 -3 113 108 
70 -60 -10 -112 
-69 85 14 -124 
53 -31 -15 -13 

69 -27 -98 64 
-116 116 -97 -109 
26 45 -73 50 
-119 -33 102 -93 

4 39 11 -124 
124 -58 61 82 
105 7 35 95 
103 -88 -37 -77 

76 88 56 31 
35 126 -103 -86 
-59 90 -118 0 
91 -85 119 -62 

-125 -91 59 97 
-48 81 14 119 
84 65 48 -81 
0 58 -49 12 


-59 70 25 33 
90 -37 114 -28 
112 -88 83 -101 
47 82 26 -120 

51 54 6 -74 
28 -13 -16 -9 
30 28 118 49 
-121 3 -52 92 

-53 -29 86 1 
74 88 65 -122 
-7 108 69 64 
-115 81 106 -36 

61 -3 113 108 
70 -60 -10 -112 
-69 85 14 -124 
53 -31 -15 -13 

69 -27 -98 64 
-116 116 -97 -109 
26 45 -73 50 
-119 -33 102 -93 

4 39 11 -124 
124 -58 61 82 
105 7 35 95 
103 -88 -37 -77 

76 88 56 31 
35 126 -103 -86 
-59 90 -118 0 
91 -85 119 -62 

-125 -91 59 97 
-48 81 14 119 
84 65 48 -81 
0 58 -49 12 


-59 70 25 33 
90 -37 114 -28 
112 -88 83 -101 
47 82 26 -120 

51 54 6 -74 
28 -13 -16 -9 
30 28 118 49 
-121 3 -52 92 

-53 -29 86 1 
74 88 65 -122 
-7 108 69 64 
-115 81 106 -36 

61 -3 113 108 
70 -60 -10 -112 
-69 85 14 -124 
53 -31 -15 -13 

69 -27 -98 64 
-116 116 -97 -109 
26 45 -73 50 
-119 -33 102 -93 

4 39 11 -124 
124 -58 61 82 
105 7 35 95 
103 -88 -37 -77 

76 88 56 31 
35 126 -103 -86 
-59 90 -118 0 
91 -85 119 -62 

-125 -91 59 97 
-48 81 14 119 
84 65 48 -81 
0 58 -49 12 


-59 70 25 33 
90 -37 114 -28 
112 -88 83 -101 
47 82 26 -120 

51 54 6 -74 
28 -13 -16 -9 
30 28 118 49 
-121 3 -52 92 

-53 -29 86 1 
74 88 65 -122 
-7 108 69 64 
-115 81 106 -36 

61 -3 113 108 
70 -60 -10 -112 
-69 85 14 -124 
53 -31 -15 -13 

69 -27 -98 64 
-116 116 -97 -109 
26 45 -73 50 
-119 -33 102 -93 

4 39 11 -124 
124 -58 61 82 
105 7 35 95 
103 -88 -37 -77 

76 88 56 31 
35 126 -103 -86 
-59 90 -118 0 
91 -85 119 -62 

-125 -91 59 97 
-48 81 14 119 
84 65 48 -81 
0 58 -49 12 



-59 70 25 33 
90 -37 114 -28 
112 -88 83 -101 
47 82 26 -120 

51 54 6 -74 
28 -13 -16 -9 
30 28 118 49 
-121 3 -52 92 

-53 -29 86 1 
74 88 65 -122 
-7 108 69 64 
-115 81 106 -36 

61 -3 113 108 
70 -60 -10 -112 
-69 85 14 -124 
53 -31 -15 -13 

69 -27 -98 64 
-116 116 -97 -109 
26 45 -73 50 
-119 -33 102 -93 

4 39 11 -124 
124 -58 61 82 
105 7 35 95 
103 -88 -37 -77 

76 88 56 31 
35 126 -103 -86 
-59 90 -118 0 
91 -85 119 -62 

-125 -91 59 97 
-48 81 14 119 
84 65 48 -81 
0 58 -49 12 


-59 70 25 33 
90 -37 114 -28 
112 -88 83 -101 
47 82 26 -120 

51 54 6 -74 
28 -13 -16 -9 
30 28 118 49 
-121 3 -52 92 

-53 -29 86 1 
74 88 65 -122 
-7 108 69 64 
-115 81 106 -36 

61 -3 113 108 
70 -60 -10 -112 
-69 85 14 -124 
53 -31 -15 -13 

69 -27 -98 64 
-116 116 -97 -109 
26 45 -73 50 
-119 -33 102 -93 

4 39 11 -124 
124 -58 61 82 
105 7 35 95 
103 -88 -37 -77 

76 88 56 31 
35 126 -103 -86 
-59 90 -118 0 
91 -85 119 -62 

-125 -91 59 97 
-48 81 14 119 
84 65 48 -81 
0 58 -49 12 


-59 70 25 33 
90 -37 114 -28 
112 -88 83 -101 
47 82 26 -120 

51 54 6 -74 
28 -13 -16 -9 
30 28 118 49 
-121 3 -52 92 

-53 -29 86 1 
74 88 65 -122 
-7 108 69 64 
-115 81 106 -36 

61 -3 113 108 
70 -60 -10 -112 
-69 85 14 -124 
53 -31 -15 -13 

69 -27 -98 64 
-116 116 -97 -109 
26 45 -73 50 
-119 -33 102 -93 

4 39 11 -124 
124 -58 61 82 
105 7 35 95 
103 -88 -37 -77 

76 88 56 31 
35 126 -103 -86 
-59 90 -118 0 
91 -85 119 -62 

-125 -91 59 97 
-48 81 14 119 
84 65 48 -81 
0 58 -49 12 


-59 70 25 33 
90 -37 114 -28 
112 -88 83 -101 
47 82 26 -120 

51 54 6 -74 
28 -13 -16 -9 
30 28 118 49 
-121 3 -52 92 

-53 -29 86 1 
74 88 65 -122 
-7 108 69 64 
-115 81 106 -36 

61 -3 113 108 
70 -60 -10 -112 
-69 85 14 -124 
53 -31 -15 -13 

69 -27 -98 64 
-116 116 -97 -109 
26 45 -73 50 
-119 -33 102 -93 

4 39 11 -124 
124 -58 61 82 
105 7 35 95 
103 -88 -37 -77 

76 88 56 31 
35 126 -103 -86 
-59 90 -118 0 
91 -85 119 -62 

-125 -91 59 97 
-48 81 14 119 
84 65 48 -81 
0 58 -49 12 



-59 70 25 33 
90 -37 114 -28 
112 -88 83 -101 
47 82 26 -120 

51 54 6 -74 
28 -13 -16 -9 
30 28 118 49 
-121 3 -52 92 

-53 -29 86 1 
74 88 65 -122 
-7 108 69 64 
-115 81 106 -36 

61 -3 113 108 
70 -60 -10 -112 
-69 85 14 -124 
53 -31 -15 -13 

69 -27 -98 64 
-116 116 -97 -109 
26 45 -73 50 
-119 -33 102 -93 

4 39 11 -124 
124 -58 61 82 
105 7 35 95 
103 -88 -37 -77 

76 88 56 31 
35 126 -103 -86 
-59 90 -118 0 
91 -85 119 -62 

-125 -91 59 97 
-48 81 14 119 
84 65 48 -81 
0 58 -49 12 


-59 70 25 33 
90 -37 114 -28 
112 -88 83 -101 
47 82 26 -120 

51 54 6 -74 
28 -13 -16 -9 
30 28 118 49 
-121 3 -52 92 

-53 -29 86 1 
74 88 65 -122 
-7 108 69 64 
-115 81 106 -36 

61 -3 113 108 
70 -60 -10 -112 
-69 85 14 -124 
53 -31 -15 -13 

69 -27 -98 64 
-116 116 -97 -109 
26 45 -73 50 
-119 -33 102 -93 

4 39 11 -124 
124 -58 61 82 
105 7 35 95 
103 -88 -37 -77 

76 88 56 31 
35 126 -103 -86 
-59 90 -118 0 
91 -85 119 -62 

-125 -91 59 97 
-48 81 14 119 
84 65 48 -81 
0 58 -49 12 


-59 70 25 33 
90 -37 114 -28 
112 -88 83 -101 
47 82 26 -120 

51 54 6 -74 
28 -13 -16 -9 
30 28 118 49 
-121 3 -52 92 

-53 -29 86 1 
74 88 65 -122 
-7 108 69 64 
-115 81 106 -36 

61 -3 113 108 
70 -60 -10 -112 
-69 85 14 -124 
53 -31 -15 -13 

69 -27 -98 64 
-116 116 -97 -109 
26 45 -73 50 
-119 -33 102 -93 

4 39 11 -124 
124 -58 61 82 
105 7 35 95 
103 -88 -37 -77 

76 88 56 31 
35 126 -103 -86 
-59 90 -118 0 
91 -85 119 -62 

-125 -91 59 97 
-48 81 14 119 
84 65 48 -81 
0 58 -49 12 


-59 70 25 33 
90 -37 114 -28 
112 -88 83 -101 
47 82 26 -120 

51 54 6 -74 
28 -13 -16 -9 
30 28 118 49 
-121 3 -52 92 

-53 -29 86 1 
74 88 65 -122 
-7 108 69 64 
-115 81 106 -36 

61 -3 113 108 
70 -60 -10 -112 
-69 85 14 -124 
53 -31 -15 -13 

69 -27 -98 64 
-116 116 -97 -109 
26 45 -73 50 
-119 -33 102 -93 

4 39 11 -124 
124 -58 61 82 
105 7 35 95 
103 -88 -37 -77 

76 88 56 31 
35 126 -103 -86 
-59 90 -118 0 
91 -85 119 -62 

-125 -91 59 97 
-48 81 14 119 
84 65 48 -81 
0 58 -49 12 



-59 70 25 33 
90 -37 114 -28 
112 -88 83 -101 
47 82 26 -120 

51 54 6 -74 
28 -13 -16 -9 
30 28 118 49 
-121 3 -52 92 

-53 -29 86 1 
74 88 65 -122 
-7 108 69 64 
-115 81 106 -36 

61 -3 113 108 
70 -60 -10 -112 
-69 85 14 -124 
53 -31 -15 -13 

69 -27 -98 64 
-116 116 -97 -109 
26 45 -73 50 
-119 -33 102 -93 

4 39 11 -124 
124 -58 61 82 
105 7 35 95 
103 -88 -37 -77 

76 88 56 31 
35 126 -103 -86 
-59 90 -118 0 
91 -85 119 -62 

-125 -91 59 97 
-48 81 14 119 
84 65 48 -81 
0 58 -49 12 


-59 70 25 33 
90 -37 114 -28 
112 -88 83 -101 
47 82 26 -120 

51 54 6 -74 
28 -13 -16 -9 
30 28 118 49 
-121 3 -52 92 

-53 -29 86 1 
74 88 65 -122 
-7 108 69 64 
-115 81 106 -36 

61 -3 113 108 
70 -60 -10 -112 
-69 85 14 -124 
53 -31 -15 -13 

69 -27 -98 64 
-116 116 -97 -109 
26 45 -73 50 
-119 -33 102 -93 

4 39 11 -124 
124 -58 61 82 
105 7 35 95 
103 -88 -37 -77 

76 88 56 31 
35 126 -103 -86 
-59 90 -118 0 
91 -85 119 -62 

-125 -91 59 97 
-48 81 14 119 
84 65 48 -81 
0 58 -49 12 


-59 70 25 33 
90 -37 114 -28 
112 -88 83 -101 
47 82 26 -120 

51 54 6 -74 
28 -13 -16 -9 
30 28 118 49 
-121 3 -52 92 

-53 -29 86 1 
74 88 65 -122 
-7 108 69 64 
-115 81 106 -36 

61 -3 113 108 
70 -60 -10 -112 
-69 85 14 -124 
53 -31 -15 -13 

69 -27 -98 64 
-116 116 -97 -109 
26 45 -73 50 
-119 -33 102 -93 

4 39 11 -124 
124 -58 61 82 
105 7 35 95 
103 -88 -37 -77 

76 88 56 31 
35 126 -103 -86 
-59 90 -118 0 
91 -85 119 -62 

-125 -91 59 97 
-48 81 14 119 
84 65 48 -81 
0 58 -49 12 


-59 70 25 33 
90 -37 114 -28 
112 -88 83 -101 
47 82 26 -120 

51 54 6 -74 
28 -13 -16 -9 
30 28 118 49 
-121 3 -52 92 

-53 -29 86 1 
74 88 65 -122 
-7 108 69 64 
-115 81 106 -36 

61 -3 113 108 
70 -60 -10 -112 
-69 85 14 -124 
53 -31 -15 -13 

69 -27 -98 64 
-116 116 -97 -109 
26 45 -73 50 
-119 -33 102 -93 

4 39 11 -124 
124 -58 61 82 
105 7 35 95 
103 -88 -37 -77 

76 88 56 31 
35 126 -103 -86 
-59 90 -118 0 
91 -85 119 -62 

-125 -91 59 97 
-48 81 14 119 
84 65 48 -81 
0 58 -49 12 



-59 70 25 33 
90 -37 114 -28 
112 -88 83 -101 
47 82 26 -120 

51 54 6 -74 
28 -13 -16 -9 
30 28 118 49 
-121 3 -52 92 

-53 -29 86 1 
74 88 65 -122 
-7 108 69 64 
-115 81 106 -36 

61 -3 113 108 
70 -60 -10 -112 
-69 85 14 -124 
53 -31 -15 -13 

69 -27 -98 64 
-116 116 -97 -109 
26 45 -73 50 
-119 -33 102 -93 

4 39 11 -124 
124 -58 61 82 
105 7 35 95 
103 -88 -37 -77 

76 88 56 31 
35 126 -103 -86 
-59 90 -118 0 
91 -85 119 -62 

-125 -91 59 97 
-48 81 14 119 
84 65 48 -81 
0 58 -49 12 


-59 70 25 33 
90 -37 114 -28 
112 -88 83 -101 
47 82 26 -120 

51 54 6 -74 
28 -13 -16 -9 
30 28 118 49 
-121 3 -52 92 

-53 -29 86 1 
74 88 65 -122 
-7 108 69 64 
-115 81 106 -36 

61 -3 113 108 
70 -60 -10 -112 
-69 85 14 -124 
53 -31 -15 -13 

69 -27 -98 64 
-116 116 -97 -109 
26 45 -73 50 
-119 -33 102 -93 

4 39 11 -124 
124 -58 61 82 
105 7 35 95 
103 -88 -37 -77 

76 88 56 31 
35 126 -103 -86 
-59 90 -118 0 
91 -85 119 -62 

-125 -91 59 97 
-48 81 14 119 
84 65 48 -81 
0 58 -49 12 


-59 70 25 33 
90 -37 114 -28 
112 -88 83 -101 
47 82 26 -120 

51 54 6 -74 
28 -13 -16 -9 
30 28 118 49 
-121 3 -52 92 

-53 -29 86 1 
74 88 65 -122 
-7 108 69 64 
-115 81 106 -36 

61 -3 113 108 
70 -60 -10 -112 
-69 85 14 -124 
53 -31 -15 -13 

69 -27 -98 64 
-116 116 -97 -109 
26 45 -73 50 
-119 -33 102 -93 

4 39 11 -124 
124 -58 61 82 
105 7 35 95 
103 -88 -37 -77 

76 88 56 31 
35 126 -103 -86 
-59 90 -118 0 
91 -85 119 -62 

-125 -91 59 97 
-48 81 14 119 
84 65 48 -81 
0 58 -49 12 


-59 70 25 33 
90 -37 114 -28 
112 -88 83 -101 
47 82 26 -120 

51 54 6 -74 
28 -13 -16 -9 
30 28 118 49 
-121 3 -52 92 

-53 -29 86 1 
74 88 65 -122 
-7 108 69 64 
-115 81 106 -36 

61 -3 113 108 
70 -60 -10 -112 
-69 85 14 -124 
53 -31 -15 -13 

69 -27 -98 64 
-116 116 -97 -109 
26 45 -73 50 
-119 -33 102 -93 

4 39 11 -124 
124 -58 61 82 
105 7 35 95 
103 -88 -37 -77 

76 88 56 31 
35 126 -103 -86 
-59 90 -118 0 
91 -85 119 -62 

-125 -91 59 97 
-48 81 14 119 
84 65 48 -81 
0 58 -49 12 



-59 70 25 33 
90 -37 114 -28 
112 -88 83 -101 
47 82 26 -120 

51 54 6 -74 
28 -13 -16 -9 
30 28 118 49 
-121 3 -52 92 

-53 -29 86 1 
74 88 65 -122 
-7 108 69 64 
-115 81 106 -36 

61 -3 113 108 
70 -60 -10 -112 
-69 85 14 -124 
53 -31 -15 -13 

69 -27 -98 64 
-116 116 -97 -109 
26 45 -73 50 
-119 -33 102 -93 

4 39 11 -124 
124 -58 61 82 
105 7 35 95 
103 -88 -37 -77 

76 88 56 31 
35 126 -103 -86 
-59 90 -118 0 
91 -85 119 -62 

-125 -91 59 97 
-48 81 14 119 
84 65 48 -81 
0 58 -49 12 


-59 70 25 33 
90 -37 114 -28 
112 -88 83 -101 
47 82 26 -120 

51 54 6 -74 
28 -13 -16 -9 
30 28 118 49 
-121 3 -52 92 

-53 -29 86 1 
74 88 65 -122 
-7 108 69 64 
-115 81 106 -36 

61 -3 113 108 
70 -60 -10 -112 
-69 85 14 -124 
53 -31 -15 -13 

69 -27 -98 64 
-116 116 -97 -109 
26 45 -73 50 
-119 -33 102 -93 

4 39 11 -124 
124 -58 61 82 
105 7 35 95 
103 -88 -37 -77 

76 88 56 31 
35 126 -103 -86 
-59 90 -118 0 
91 -85 119 -62 

-125 -91 59 97 
-48 81 14 119 
84 65 48 -81 
0 58 -49 12 


-59 70 25 33 
90 -37 114 -28 
112 -88 83 -101 
47 82 26 -120 

51 54 6 -74 
28 -13 -16 -9 
30 28 118 49 
-121 3 -52 92 

-53 -29 86 1 
74 88 65 -122 
-7 108 69 64 
-115 81 106 -36 

61 -3 113 108 
70 -60 -10 -112 
-69 85 14 -124 
53 -31 -15 -13 

69 -27 -98 64 
-116 116 -97 -109 
26 45 -73 50 
-119 -33 102 -93 

4 39 11 -124 
124 -58 61 82 
105 7 35 95 
103 -88 -37 -77 

76 88 56 31 
35 126 -103 -86 
-59 90 -118 0 
91 -85 119 -62 

-125 -91 59 97 
-48 81 14 119 
84 65 48 -81 
0 58 -49 12 


-59 70 25 33 
90 -37 114 -28 
112 -88 83 -101 
47 82 26 -120 

51 54 6 -74 
28 -13 -16 -9 
30 28 118 49 
-121 3 -52 92 

-53 -29 86 1 
74 88 65 -122 
-7 108 69 64 
-115 81 106 -36 

61 -3 113 108 
70 -60 -10 -112 
-69 85 14 -124 
53 -31 -15 -13 

69 -27 -98 64 
-116 116 -97 -109 
26 45 -73 50 
-119 -33 102 -93 

4 39 11 -124 
124 -58 61 82 
105 7 35 95 
103 -88 -37 -77 

76 88 56 31 
35 126 -103 -86 
-59 90 -118 0 
91 -85 119 -62 

-125 -91 59 97 
-48 81 14 119 
84 65 48 -81 
0 58 -49 12 



-59 70 25 33 
90 -37 114 -28 
112 -88 83 -101 
47 82 26 -120 

51 54 6 -74 
28 -13 -16 -9 
30 28 118 49 
-121 3 -52 92 

-53 -29 86 1 
74 88 65 -122 
-7 108 69 64 
-115 81 106 -36 

61 -3 113 108 
70 -60 -10 -112 
-69 85 14 -124 
53 -31 -15 -13 

69 -27 -98 64 
-116 116 -97 -109 
26 45 -73 50 
-119 -33 102 -93 

4 39 11 -124 
124 -58 61 82 
105 7 35 95 
103 -88 -37 -77 

76 88 56 31 
35 126 -103 -86 
-59 90 -118 0 
91 -85 119 -62 

-125 -91 59 97 
-48 81 14 119 
84 65 48 -81 
0 58 -49 12 


-59 70 25 33 
90 -37 114 -28 
112 -88 83 -101 
47 82 26 -120 

51 54 6 -74 
28 -13 -16 -9 
30 28 118 49 
-121 3 -52 92 

-53 -29 86 1 
74 88 65 -122 
-7 108 69 64 
-115 81 106 -36 

61 -3 113 108 
70 -60 -10 -112 
-69 85 14 -124 
53 -31 -15 -13 

69 -27 -98 64 
-116 116 -97 -109 
26 45 -73 50 
-119 -33 102 -93 

4 39 11 -124 
124 -58 61 82 
105 7 35 95 
103 -88 -37 -77 

76 88 56 31 
35 126 -103 -86 
-59 90 -118 0 
91 -85 119 -62 

-125 -91 59 97 
-48 81 14 119 
84 65 48 -81 
0 58 -49 12 


-59 70 25 33 
90 -37 114 -28 
112 -88 83 -101 
47 82 26 -120 

51 54 6 -74 
28 -13 -16 -9 
30 28 118 49 
-121 3 -52 92 

-53 -29 86 1 
74 88 65 -122 
-7 108 69 64 
-115 81 106 -36 

61 -3 113 108 
70 -60 -10 -112 
-69 85 14 -124 
53 -31 -15 -13 

69 -27 -98 64 
-116 116 -97 -109 
26 45 -73 50 
-119 -33 102 -93 

4 39 11 -124 
124 -58 61 82 
105 7 35 95 
103 -88 -37 -77 

76 88 56 31 
35 126 -103 -86 
-59 90 -118 0 
91 -85 119 -62 

-125 -91 59 97 
-48 81 14 119 
84 65 48 -81 
0 58 -49 12 


-59 70 25 33 
90 -37 114 -28 
112 -88 83 -101 
47 82 26 -120 

51 54 6 -74 
28 -13 -16 -9 
30 28 118 49 
-121 3 -52 92 

-53 -29 86 1 
74 88 65 -122 
-7 108 69 64 
-115 81 106 -36 

61 -3 113 108 
70 -60 -10 -112 
-69 85 14 -124 
53 -31 -15 -13 

69 -27 -98 64 
-116 116 -97 -109 
26 45 -73 50 
-119 -33 102 -93 

4 39 11 -124 
124 -58 61 82 
105 7 35 95 
103 -88 -37 -77 

76 88 56 31 
35 126 -103 -86 
-59 90 -118 0 
91 -85 119 -62 

-125 -91 59 97 
-48 81 14 119 
84 65 48 -81 
0 58 -49 12 



-59 70 25 33 
90 -37 114 -28 
112 -88 83 -101 
47 82 26 -120 

51 54 6 -74 
28 -13 -16 -9 
30 28 118 49 
-121 3 -52 92 

-53 -29 86 1 
74 88 65 -122 
-7 108 69 64 
-115 81 106 -36 

61 -3 113 108 
70 -60 -10 -112 
-69 85 14 -124 
53 -31 -15 -13 

69 -27 -98 64 
-116 116 -97 -109 
26 45 -73 50 
-119 -33 102 -93 

4 39 11 -124 
124 -58 61 82 
105 7 35 95 
103 -88 -37 -77 

76 88 56 31 
35 126 -103 -86 
-59 90 -118 0 
91 -85 119 -62 

-125 -91 59 97 
-48 81 14 119 
84 65 48 -81 
0 58 -49 12 


-59 70 25 33 
90 -37 114 -28 
112 -88 83 -101 
47 82 26 -120 

51 54 6 -74 
28 -13 -16 -9 
30 28 118 49 
-121 3 -52 92 

-53 -29 86 1 
74 88 65 -122 
-7 108 69 64 
-115 81 106 -36 

61 -3 113 108 
70 -60 -10 -112 
-69 85 14 -124 
53 -31 -15 -13 

69 -27 -98 64 
-116 116 -97 -109 
26 45 -73 50 
-119 -33 102 -93 

4 39 11 -124 
124 -58 61 82 
105 7 35 95 
103 -88 -37 -77 

76 88 56 31 
35 126 -103 -86 
-59 90 -118 0 
91 -85 119 -62 

-125 -91 59 97 
-48 81 14 119 
84 65 48 -81 
0 58 -49 12 


-59 70 25 33 
90 -37 114 -28 
112 -88 83 -101 
47 82 26 -120 

51 54 6 -74 
28 -13 -16 -9 
30 28 118 49 
-121 3 -52 92 

-53 -29 86 1 
74 88 65 -122 
-7 108 69 64 
-115 81 106 -36 

61 -3 113 108 
70 -60 -10 -112 
-69 85 14 -124 
53 -31 -15 -13 

69 -27 -98 64 
-116 116 -97 -109 
26 45 -73 50 
-119 -33 102 -93 

4 39 11 -124 
124 -58 61 82 
105 7 35 95 
103 -88 -37 -77 

76 88 56 31 
35 126 -103 -86 
-59 90 -118 0 
91 -85 119 -62 

-125 -91 59 97 
-48 81 14 119 
84 65 48 -81 
0 58 -49 12 


-59 70 25 33 
90 -37 114 -28 
112 -88 83 -101 
47 82 26 -120 

51 54 6 -74 
28 -13 -16 -9 
30 28 118 49 
-121 3 -52 92 

-53 -29 86 1 
74 88 65 -122 
-7 108 69 64 
-115 81 106 -36 

61 -3 113 108 
70 -60 -10 -112 
-69 85 14 -124 
53 -31 -15 -13 

69 -27 -98 64 
-116 116 -97 -109 
26 45 -73 50 
-119 -33 102 -93 

4 39 11 -124 
124 -58 61 82 
105 7 35 95 
103 -88 -37 -77 

76 88 56 31 
35 126 -103 -86 
-59 90 -118 0 
91 -85 119 -62 

-125 -91 59 97 
-48 81 14 119 
84 65 48 -81 
0 58 -49 12 



-59 70 25 33 
90 -37 114 -28 
112 -88 83 -101 
47 82 26 -120 

51 54 6 -74 
28 -13 -16 -9 
30 28 118 49 
-121 3 -52 92 

-53 -29 86 1 
74 88 65 -122 
-7 108 69 64 
-115 81 106 -36 

61 -3 113 108 
70 -60 -10 -112 
-69 85 14 -124 
53 -31 -15 -13 

69 -27 -98 64 
-116 116 -97 -109 
26 45 -73 50 
-119 -33 102 -93 

4 39 11 -124 
124 -58 61 82 
105 7 35 95 
103 -88 -37 -77 

76 88 56 31 
35 126 -103 -86 
-59 90 -118 0 
91 -85 119 -62 

