80 -40 -125 82 
-32 -32 48 -103 
102 -90 -77 32 
-19 125 118 -11 

61 72 34 -101 
-46 -7 117 105 
26 97 -43 -15 
62 117 -57 18 

96 -120 125 70 
1 -39 119 -21 
-126 -40 -97 29 
-25 -81 -95 -94 

-26 -118 -45 119 
-58 87 40 119 
110 94 -110 -38 
-53 91 -92 -113 

107 76 -82 67 
12 112 15 -122 
41 35 -2 -101 
78 -19 41 7 

77 71 -24 34 
-9 16 37 -98 
-127 115 21 -115 
-95 -34 95 -116 

-95 -115 50 -20 
100 107 47 -94 
68 76 -44 -116 
-71 -45 -74 37 

-73 14 -55 -16 
38 -57 91 111 
-76 -105 -29 -14 
123 -41 7 81 


80 -40 -125 82 
-32 -32 48 -103 
102 -90 -77 32 
-19 125 118 -11 

61 72 34 -101 
-46 -7 117 105 
26 97 -43 -15 
62 117 -57 18 

96 -120 125 70 
1 -39 119 -21 
-126 -40 -97 29 
-25 -81 -95 -94 

-26 -118 -45 119 
-58 87 40 119 
110 94 -110 -38 
-53 91 -92 -113 

107 76 -82 67 
12 112 15 -122 
41 35 -2 -101 
78 -19 41 7 

77 71 -24 34 
-9 16 37 -98 
-127 115 21 -115 
-95 -34 95 -116 

-95 -115 50 -20 
100 107 47 -94 
68 76 -44 -116 
-71 -45 -74 37 

-73 14 -55 -16 
38 -57 91 111 
-76 -105 -29 -14 
123 -41 7 81 


80 -40 -125 82 
-32 -32 48 -103 
102 -90 -77 32 
-19 125 118 -11 

61 72 34 -101 
-46 -7 117 105 
26 97 -43 -15 
62 117 -57 18 

96 -120 125 70 
1 -39 119 -21 
-126 -40 -97 29 
-25 -81 -95 -94 

-26 -118 -45 119 
-58 87 40 119 
110 94 -110 -38 
-53 91 -92 -113 

107 76 -82 67 
12 112 15 -122 
41 35 -2 -101 
78 -19 41 7 

77 71 -24 34 
-9 16 37 -98 
-127 115 21 -115 
-95 -34 95 -116 

-95 -115 50 -20 
100 107 47 -94 
68 76 -44 -116 
-71 -45 -74 37 

-73 14 -55 -16 
38 -57 91 111 
-76 -105 -29 -14 
123 -41 7 81 


80 -40 -125 82 
-32 -32 48 -103 
102 -90 -77 32 
-19 125 118 -11 

61 72 34 -101 
-46 -7 117 105 
26 97 -43 -15 
62 117 -57 18 

96 -120 125 70 
1 -39 119 -21 
-126 -40 -97 29 
-25 -81 -95 -94 

-26 -118 -45 119 
-58 87 40 119 
110 94 -110 -38 
-53 91 -92 -113 

107 76 -82 67 
12 112 15 -122 
41 35 -2 -101 
78 -19 41 7 

77 71 -24 34 
-9 16 37 -98 
-127 115 21 -115 
-95 -34 95 -116 

-95 -115 50 -20 
100 107 47 -94 
68 76 -44 -116 
-71 -45 -74 37 

-73 14 -55 -16 
38 -57 91 111 
-76 -105 -29 -14 
123 -41 7 81 



80 -40 -125 82 
-32 -32 48 -103 
102 -90 -77 32 
-19 125 118 -11 

61 72 34 -101 
-46 -7 117 105 
26 97 -43 -15 
62 117 -57 18 

96 -120 125 70 
1 -39 119 -21 
-126 -40 -97 29 
-25 -81 -95 -94 

-26 -118 -45 119 
-58 87 40 119 
110 94 -110 -38 
-53 91 -92 -113 

107 76 -82 67 
12 112 15 -122 
41 35 -2 -101 
78 -19 41 7 

77 71 -24 34 
-9 16 37 -98 
-127 115 21 -115 
-95 -34 95 -116 

-95 -115 50 -20 
100 107 47 -94 
68 76 -44 -116 
-71 -45 -74 37 

-73 14 -55 -16 
38 -57 91 111 
-76 -105 -29 -14 
123 -41 7 81 


80 -40 -125 82 
-32 -32 48 -103 
102 -90 -77 32 
-19 125 118 -11 

61 72 34 -101 
-46 -7 117 105 
26 97 -43 -15 
62 117 -57 18 

96 -120 125 70 
1 -39 119 -21 
-126 -40 -97 29 
-25 -81 -95 -94 

-26 -118 -45 119 
-58 87 40 119 
110 94 -110 -38 
-53 91 -92 -113 

107 76 -82 67 
12 112 15 -122 
41 35 -2 -101 
78 -19 41 7 

77 71 -24 34 
-9 16 37 -98 
-127 115 21 -115 
-95 -34 95 -116 

-95 -115 50 -20 
100 107 47 -94 
68 76 -44 -116 
-71 -45 -74 37 

-73 14 -55 -16 
38 -57 91 111 
-76 -105 -29 -14 
123 -41 7 81 


80 -40 -125 82 
-32 -32 48 -103 
102 -90 -77 32 
-19 125 118 -11 

61 72 34 -101 
-46 -7 117 105 
26 97 -43 -15 
62 117 -57 18 

96 -120 125 70 
1 -39 119 -21 
-126 -40 -97 29 
-25 -81 -95 -94 

-26 -118 -45 119 
-58 87 40 119 
110 94 -110 -38 
-53 91 -92 -113 

107 76 -82 67 
12 112 15 -122 
41 35 -2 -101 
78 -19 41 7 

77 71 -24 34 
-9 16 37 -98 
-127 115 21 -115 
-95 -34 95 -116 

-95 -115 50 -20 
100 107 47 -94 
68 76 -44 -116 
-71 -45 -74 37 

-73 14 -55 -16 
38 -57 91 111 
-76 -105 -29 -14 
123 -41 7 81 


80 -40 -125 82 
-32 -32 48 -103 
102 -90 -77 32 
-19 125 118 -11 

61 72 34 -101 
-46 -7 117 105 
26 97 -43 -15 
62 117 -57 18 

96 -120 125 70 
1 -39 119 -21 
-126 -40 -97 29 
-25 -81 -95 -94 

-26 -118 -45 119 
-58 87 40 119 
110 94 -110 -38 
-53 91 -92 -113 

107 76 -82 67 
12 112 15 -122 
41 35 -2 -101 
78 -19 41 7 

77 71 -24 34 
-9 16 37 -98 
-127 115 21 -115 
-95 -34 95 -116 

-95 -115 50 -20 
100 107 47 -94 
68 76 -44 -116 
-71 -45 -74 37 

-73 14 -55 -16 
38 -57 91 111 
-76 -105 -29 -14 
123 -41 7 81 



80 -40 -125 82 
-32 -32 48 -103 
102 -90 -77 32 
-19 125 118 -11 

61 72 34 -101 
-46 -7 117 105 
26 97 -43 -15 
62 117 -57 18 

96 -120 125 70 
1 -39 119 -21 
-126 -40 -97 29 
-25 -81 -95 -94 

-26 -118 -45 119 
-58 87 40 119 
110 94 -110 -38 
-53 91 -92 -113 

107 76 -82 67 
12 112 15 -122 
41 35 -2 -101 
78 -19 41 7 

77 71 -24 34 
-9 16 37 -98 
-127 115 21 -115 
-95 -34 95 -116 

-95 -115 50 -20 
100 107 47 -94 
68 76 -44 -116 
-71 -45 -74 37 

-73 14 -55 -16 
38 -57 91 111 
-76 -105 -29 -14 
123 -41 7 81 


80 -40 -125 82 
-32 -32 48 -103 
102 -90 -77 32 
-19 125 118 -11 

61 72 34 -101 
-46 -7 117 105 
26 97 -43 -15 
62 117 -57 18 

96 -120 125 70 
1 -39 119 -21 
-126 -40 -97 29 
-25 -81 -95 -94 

-26 -118 -45 119 
-58 87 40 119 
110 94 -110 -38 
-53 91 -92 -113 

107 76 -82 67 
12 112 15 -122 
41 35 -2 -101 
78 -19 41 7 

77 71 -24 34 
-9 16 37 -98 
-127 115 21 -115 
-95 -34 95 -116 

-95 -115 50 -20 
100 107 47 -94 
68 76 -44 -116 
-71 -45 -74 37 

-73 14 -55 -16 
38 -57 91 111 
-76 -105 -29 -14 
123 -41 7 81 


80 -40 -125 82 
-32 -32 48 -103 
102 -90 -77 32 
-19 125 118 -11 

61 72 34 -101 
-46 -7 117 105 
26 97 -43 -15 
62 117 -57 18 

96 -120 125 70 
1 -39 119 -21 
-126 -40 -97 29 
-25 -81 -95 -94 

-26 -118 -45 119 
-58 87 40 119 
110 94 -110 -38 
-53 91 -92 -113 

107 76 -82 67 
12 112 15 -122 
41 35 -2 -101 
78 -19 41 7 

77 71 -24 34 
-9 16 37 -98 
-127 115 21 -115 
-95 -34 95 -116 

-95 -115 50 -20 
100 107 47 -94 
68 76 -44 -116 
-71 -45 -74 37 

-73 14 -55 -16 
38 -57 91 111 
-76 -105 -29 -14 
123 -41 7 81 


80 -40 -125 82 
-32 -32 48 -103 
102 -90 -77 32 
-19 125 118 -11 

61 72 34 -101 
-46 -7 117 105 
26 97 -43 -15 
62 117 -57 18 

96 -120 125 70 
1 -39 119 -21 
-126 -40 -97 29 
-25 -81 -95 -94 

-26 -118 -45 119 
-58 87 40 119 
110 94 -110 -38 
-53 91 -92 -113 

107 76 -82 67 
12 112 15 -122 
41 35 -2 -101 
78 -19 41 7 

77 71 -24 34 
-9 16 37 -98 
-127 115 21 -115 
-95 -34 95 -116 

-95 -115 50 -20 
100 107 47 -94 
68 76 -44 -116 
-71 -45 -74 37 

-73 14 -55 -16 
38 -57 91 111 
-76 -105 -29 -14 
123 -41 7 81 



80 -40 -125 82 
-32 -32 48 -103 
102 -90 -77 32 
-19 125 118 -11 

61 72 34 -101 
-46 -7 117 105 
26 97 -43 -15 
62 117 -57 18 

96 -120 125 70 
1 -39 119 -21 
-126 -40 -97 29 
-25 -81 -95 -94 

-26 -118 -45 119 
-58 87 40 119 
110 94 -110 -38 
-53 91 -92 -113 

107 76 -82 67 
12 112 15 -122 
41 35 -2 -101 
78 -19 41 7 

77 71 -24 34 
-9 16 37 -98 
-127 115 21 -115 
-95 -34 95 -116 

-95 -115 50 -20 
100 107 47 -94 
68 76 -44 -116 
-71 -45 -74 37 

-73 14 -55 -16 
38 -57 91 111 
-76 -105 -29 -14 
123 -41 7 81 


80 -40 -125 82 
-32 -32 48 -103 
102 -90 -77 32 
-19 125 118 -11 

61 72 34 -101 
-46 -7 117 105 
26 97 -43 -15 
62 117 -57 18 

96 -120 125 70 
1 -39 119 -21 
-126 -40 -97 29 
-25 -81 -95 -94 

-26 -118 -45 119 
-58 87 40 119 
110 94 -110 -38 
-53 91 -92 -113 

107 76 -82 67 
12 112 15 -122 
41 35 -2 -101 
78 -19 41 7 

77 71 -24 34 
-9 16 37 -98 
-127 115 21 -115 
-95 -34 95 -116 

-95 -115 50 -20 
100 107 47 -94 
68 76 -44 -116 
-71 -45 -74 37 

-73 14 -55 -16 
38 -57 91 111 
-76 -105 -29 -14 
123 -41 7 81 


80 -40 -125 82 
-32 -32 48 -103 
102 -90 -77 32 
-19 125 118 -11 

61 72 34 -101 
-46 -7 117 105 
26 97 -43 -15 
62 117 -57 18 

96 -120 125 70 
1 -39 119 -21 
-126 -40 -97 29 
-25 -81 -95 -94 

-26 -118 -45 119 
-58 87 40 119 
110 94 -110 -38 
-53 91 -92 -113 

107 76 -82 67 
12 112 15 -122 
41 35 -2 -101 
78 -19 41 7 

77 71 -24 34 
-9 16 37 -98 
-127 115 21 -115 
-95 -34 95 -116 

-95 -115 50 -20 
100 107 47 -94 
68 76 -44 -116 
-71 -45 -74 37 

-73 14 -55 -16 
38 -57 91 111 
-76 -105 -29 -14 
123 -41 7 81 


80 -40 -125 82 
-32 -32 48 -103 
102 -90 -77 32 
-19 125 118 -11 

61 72 34 -101 
-46 -7 117 105 
26 97 -43 -15 
62 117 -57 18 

96 -120 125 70 
1 -39 119 -21 
-126 -40 -97 29 
-25 -81 -95 -94 

-26 -118 -45 119 
-58 87 40 119 
110 94 -110 -38 
-53 91 -92 -113 

107 76 -82 67 
12 112 15 -122 
41 35 -2 -101 
78 -19 41 7 

77 71 -24 34 
-9 16 37 -98 
-127 115 21 -115 
-95 -34 95 -116 

-95 -115 50 -20 
100 107 47 -94 
68 76 -44 -116 
-71 -45 -74 37 

-73 14 -55 -16 
38 -57 91 111 
-76 -105 -29 -14 
123 -41 7 81 



80 -40 -125 82 
-32 -32 48 -103 
102 -90 -77 32 
-19 125 118 -11 

61 72 34 -101 
-46 -7 117 105 
26 97 -43 -15 
62 117 -57 18 

96 -120 125 70 
1 -39 119 -21 
-126 -40 -97 29 
-25 -81 -95 -94 

-26 -118 -45 119 
-58 87 40 119 
110 94 -110 -38 
-53 91 -92 -113 

107 76 -82 67 
12 112 15 -122 
41 35 -2 -101 
78 -19 41 7 

77 71 -24 34 
-9 16 37 -98 
-127 115 21 -115 
-95 -34 95 -116 

-95 -115 50 -20 
100 107 47 -94 
68 76 -44 -116 
-71 -45 -74 37 

-73 14 -55 -16 
38 -57 91 111 
-76 -105 -29 -14 
123 -41 7 81 


80 -40 -125 82 
-32 -32 48 -103 
102 -90 -77 32 
-19 125 118 -11 

61 72 34 -101 
-46 -7 117 105 
26 97 -43 -15 
62 117 -57 18 

96 -120 125 70 
1 -39 119 -21 
-126 -40 -97 29 
-25 -81 -95 -94 

-26 -118 -45 119 
-58 87 40 119 
110 94 -110 -38 
-53 91 -92 -113 

107 76 -82 67 
12 112 15 -122 
41 35 -2 -101 
78 -19 41 7 

77 71 -24 34 
-9 16 37 -98 
-127 115 21 -115 
-95 -34 95 -116 

-95 -115 50 -20 
100 107 47 -94 
68 76 -44 -116 
-71 -45 -74 37 

-73 14 -55 -16 
38 -57 91 111 
-76 -105 -29 -14 
123 -41 7 81 


80 -40 -125 82 
-32 -32 48 -103 
102 -90 -77 32 
-19 125 118 -11 

61 72 34 -101 
-46 -7 117 105 
26 97 -43 -15 
62 117 -57 18 

96 -120 125 70 
1 -39 119 -21 
-126 -40 -97 29 
-25 -81 -95 -94 

-26 -118 -45 119 
-58 87 40 119 
110 94 -110 -38 
-53 91 -92 -113 

107 76 -82 67 
12 112 15 -122 
41 35 -2 -101 
78 -19 41 7 

77 71 -24 34 
-9 16 37 -98 
-127 115 21 -115 
-95 -34 95 -116 

-95 -115 50 -20 
100 107 47 -94 
68 76 -44 -116 
-71 -45 -74 37 

-73 14 -55 -16 
38 -57 91 111 
-76 -105 -29 -14 
123 -41 7 81 


80 -40 -125 82 
-32 -32 48 -103 
102 -90 -77 32 
-19 125 118 -11 

61 72 34 -101 
-46 -7 117 105 
26 97 -43 -15 
62 117 -57 18 

96 -120 125 70 
1 -39 119 -21 
-126 -40 -97 29 
-25 -81 -95 -94 

-26 -118 -45 119 
-58 87 40 119 
110 94 -110 -38 
-53 91 -92 -113 

107 76 -82 67 
12 112 15 -122 
41 35 -2 -101 
78 -19 41 7 

77 71 -24 34 
-9 16 37 -98 
-127 115 21 -115 
-95 -34 95 -116 

-95 -115 50 -20 
100 107 47 -94 
68 76 -44 -116 
-71 -45 -74 37 

-73 14 -55 -16 
38 -57 91 111 
-76 -105 -29 -14 
123 -41 7 81 



80 -40 -125 82 
-32 -32 48 -103 
102 -90 -77 32 
-19 125 118 -11 

61 72 34 -101 
-46 -7 117 105 
26 97 -43 -15 
62 117 -57 18 

96 -120 125 70 
1 -39 119 -21 
-126 -40 -97 29 
-25 -81 -95 -94 

-26 -118 -45 119 
-58 87 40 119 
110 94 -110 -38 
-53 91 -92 -113 

107 76 -82 67 
12 112 15 -122 
41 35 -2 -101 
78 -19 41 7 

77 71 -24 34 
-9 16 37 -98 
-127 115 21 -115 
-95 -34 95 -116 

-95 -115 50 -20 
100 107 47 -94 
68 76 -44 -116 
-71 -45 -74 37 

-73 14 -55 -16 
38 -57 91 111 
-76 -105 -29 -14 
123 -41 7 81 


80 -40 -125 82 
-32 -32 48 -103 
102 -90 -77 32 
-19 125 118 -11 

61 72 34 -101 
-46 -7 117 105 
26 97 -43 -15 
62 117 -57 18 

96 -120 125 70 
1 -39 119 -21 
-126 -40 -97 29 
-25 -81 -95 -94 

-26 -118 -45 119 
-58 87 40 119 
110 94 -110 -38 
-53 91 -92 -113 

107 76 -82 67 
12 112 15 -122 
41 35 -2 -101 
78 -19 41 7 

77 71 -24 34 
-9 16 37 -98 
-127 115 21 -115 
-95 -34 95 -116 

-95 -115 50 -20 
100 107 47 -94 
68 76 -44 -116 
-71 -45 -74 37 

-73 14 -55 -16 
38 -57 91 111 
-76 -105 -29 -14 
123 -41 7 81 


80 -40 -125 82 
-32 -32 48 -103 
102 -90 -77 32 
-19 125 118 -11 

61 72 34 -101 
-46 -7 117 105 
26 97 -43 -15 
62 117 -57 18 

96 -120 125 70 
1 -39 119 -21 
-126 -40 -97 29 
-25 -81 -95 -94 

-26 -118 -45 119 
-58 87 40 119 
110 94 -110 -38 
-53 91 -92 -113 

107 76 -82 67 
12 112 15 -122 
41 35 -2 -101 
78 -19 41 7 

77 71 -24 34 
-9 16 37 -98 
-127 115 21 -115 
-95 -34 95 -116 

-95 -115 50 -20 
100 107 47 -94 
68 76 -44 -116 
-71 -45 -74 37 

-73 14 -55 -16 
38 -57 91 111 
-76 -105 -29 -14 
123 -41 7 81 


80 -40 -125 82 
-32 -32 48 -103 
102 -90 -77 32 
-19 125 118 -11 

61 72 34 -101 
-46 -7 117 105 
26 97 -43 -15 
62 117 -57 18 

96 -120 125 70 
1 -39 119 -21 
-126 -40 -97 29 
-25 -81 -95 -94 

-26 -118 -45 119 
-58 87 40 119 
110 94 -110 -38 
-53 91 -92 -113 

107 76 -82 67 
12 112 15 -122 
41 35 -2 -101 
78 -19 41 7 

77 71 -24 34 
-9 16 37 -98 
-127 115 21 -115 
-95 -34 95 -116 

-95 -115 50 -20 
100 107 47 -94 
68 76 -44 -116 
-71 -45 -74 37 

-73 14 -55 -16 
38 -57 91 111 
-76 -105 -29 -14 
123 -41 7 81 



80 -40 -125 82 
-32 -32 48 -103 
102 -90 -77 32 
-19 125 118 -11 

61 72 34 -101 
-46 -7 117 105 
26 97 -43 -15 
62 117 -57 18 

96 -120 125 70 
1 -39 119 -21 
-126 -40 -97 29 
-25 -81 -95 -94 

-26 -118 -45 119 
-58 87 40 119 
110 94 -110 -38 
-53 91 -92 -113 

107 76 -82 67 
12 112 15 -122 
41 35 -2 -101 
78 -19 41 7 

77 71 -24 34 
-9 16 37 -98 
-127 115 21 -115 
-95 -34 95 -116 

-95 -115 50 -20 
100 107 47 -94 
68 76 -44 -116 
-71 -45 -74 37 

-73 14 -55 -16 
38 -57 91 111 
-76 -105 -29 -14 
123 -41 7 81 


80 -40 -125 82 
-32 -32 48 -103 
102 -90 -77 32 
-19 125 118 -11 

61 72 34 -101 
-46 -7 117 105 
26 97 -43 -15 
62 117 -57 18 

96 -120 125 70 
1 -39 119 -21 
-126 -40 -97 29 
-25 -81 -95 -94 

-26 -118 -45 119 
-58 87 40 119 
110 94 -110 -38 
-53 91 -92 -113 

107 76 -82 67 
12 112 15 -122 
41 35 -2 -101 
78 -19 41 7 

77 71 -24 34 
-9 16 37 -98 
-127 115 21 -115 
-95 -34 95 -116 

-95 -115 50 -20 
100 107 47 -94 
68 76 -44 -116 
-71 -45 -74 37 

-73 14 -55 -16 
38 -57 91 111 
-76 -105 -29 -14 
123 -41 7 81 


80 -40 -125 82 
-32 -32 48 -103 
102 -90 -77 32 
-19 125 118 -11 

61 72 34 -101 
-46 -7 117 105 
26 97 -43 -15 
62 117 -57 18 

96 -120 125 70 
1 -39 119 -21 
-126 -40 -97 29 
-25 -81 -95 -94 

-26 -118 -45 119 
-58 87 40 119 
110 94 -110 -38 
-53 91 -92 -113 

107 76 -82 67 
12 112 15 -122 
41 35 -2 -101 
78 -19 41 7 

77 71 -24 34 
-9 16 37 -98 
-127 115 21 -115 
-95 -34 95 -116 

-95 -115 50 -20 
100 107 47 -94 
68 76 -44 -116 
-71 -45 -74 37 

-73 14 -55 -16 
38 -57 91 111 
-76 -105 -29 -14 
123 -41 7 81 


80 -40 -125 82 
-32 -32 48 -103 
102 -90 -77 32 
-19 125 118 -11 

61 72 34 -101 
-46 -7 117 105 
26 97 -43 -15 
62 117 -57 18 

96 -120 125 70 
1 -39 119 -21 
-126 -40 -97 29 
-25 -81 -95 -94 

-26 -118 -45 119 
-58 87 40 119 
110 94 -110 -38 
-53 91 -92 -113 

107 76 -82 67 
12 112 15 -122 
41 35 -2 -101 
78 -19 41 7 

77 71 -24 34 
-9 16 37 -98 
-127 115 21 -115 
-95 -34 95 -116 

-95 -115 50 -20 
100 107 47 -94 
68 76 -44 -116 
-71 -45 -74 37 

-73 14 -55 -16 
38 -57 91 111 
-76 -105 -29 -14 
123 -41 7 81 



80 -40 -125 82 
-32 -32 48 -103 
102 -90 -77 32 
-19 125 118 -11 

61 72 34 -101 
-46 -7 117 105 
26 97 -43 -15 
62 117 -57 18 

96 -120 125 70 
1 -39 119 -21 
-126 -40 -97 29 
-25 -81 -95 -94 

-26 -118 -45 119 
-58 87 40 119 
110 94 -110 -38 
-53 91 -92 -113 

107 76 -82 67 
12 112 15 -122 
41 35 -2 -101 
78 -19 41 7 

77 71 -24 34 
-9 16 37 -98 
-127 115 21 -115 
-95 -34 95 -116 

-95 -115 50 -20 
100 107 47 -94 
68 76 -44 -116 
-71 -45 -74 37 

-73 14 -55 -16 
38 -57 91 111 
-76 -105 -29 -14 
123 -41 7 81 


80 -40 -125 82 
-32 -32 48 -103 
102 -90 -77 32 
-19 125 118 -11 

61 72 34 -101 
-46 -7 117 105 
26 97 -43 -15 
62 117 -57 18 

96 -120 125 70 
1 -39 119 -21 
-126 -40 -97 29 
-25 -81 -95 -94 

-26 -118 -45 119 
-58 87 40 119 
110 94 -110 -38 
-53 91 -92 -113 

107 76 -82 67 
12 112 15 -122 
41 35 -2 -101 
78 -19 41 7 

77 71 -24 34 
-9 16 37 -98 
-127 115 21 -115 
-95 -34 95 -116 

-95 -115 50 -20 
100 107 47 -94 
68 76 -44 -116 
-71 -45 -74 37 

-73 14 -55 -16 
38 -57 91 111 
-76 -105 -29 -14 
123 -41 7 81 


80 -40 -125 82 
-32 -32 48 -103 
102 -90 -77 32 
-19 125 118 -11 

61 72 34 -101 
-46 -7 117 105 
26 97 -43 -15 
62 117 -57 18 

96 -120 125 70 
1 -39 119 -21 
-126 -40 -97 29 
-25 -81 -95 -94 

-26 -118 -45 119 
-58 87 40 119 
110 94 -110 -38 
-53 91 -92 -113 

107 76 -82 67 
12 112 15 -122 
41 35 -2 -101 
78 -19 41 7 

77 71 -24 34 
-9 16 37 -98 
-127 115 21 -115 
-95 -34 95 -116 

-95 -115 50 -20 
100 107 47 -94 
68 76 -44 -116 
-71 -45 -74 37 

-73 14 -55 -16 
38 -57 91 111 
-76 -105 -29 -14 
123 -41 7 81 


80 -40 -125 82 
-32 -32 48 -103 
102 -90 -77 32 
-19 125 118 -11 

61 72 34 -101 
-46 -7 117 105 
26 97 -43 -15 
62 117 -57 18 

96 -120 125 70 
1 -39 119 -21 
-126 -40 -97 29 
-25 -81 -95 -94 

-26 -118 -45 119 
-58 87 40 119 
110 94 -110 -38 
-53 91 -92 -113 

107 76 -82 67 
12 112 15 -122 
41 35 -2 -101 
78 -19 41 7 

77 71 -24 34 
-9 16 37 -98 
-127 115 21 -115 
-95 -34 95 -116 

-95 -115 50 -20 
100 107 47 -94 
68 76 -44 -116 
-71 -45 -74 37 

-73 14 -55 -16 
38 -57 91 111 
-76 -105 -29 -14 
123 -41 7 81 



80 -40 -125 82 
-32 -32 48 -103 
102 -90 -77 32 
-19 125 118 -11 

61 72 34 -101 
-46 -7 117 105 
26 97 -43 -15 
62 117 -57 18 

96 -120 125 70 
1 -39 119 -21 
-126 -40 -97 29 
-25 -81 -95 -94 

-26 -118 -45 119 
-58 87 40 119 
110 94 -110 -38 
-53 91 -92 -113 

107 76 -82 67 
12 112 15 -122 
41 35 -2 -101 
78 -19 41 7 

77 71 -24 34 
-9 16 37 -98 
-127 115 21 -115 
-95 -34 95 -116 

-95 -115 50 -20 
100 107 47 -94 
68 76 -44 -116 
-71 -45 -74 37 

-73 14 -55 -16 
38 -57 91 111 
-76 -105 -29 -14 
123 -41 7 81 


80 -40 -125 82 
-32 -32 48 -103 
102 -90 -77 32 
-19 125 118 -11 

61 72 34 -101 
-46 -7 117 105 
26 97 -43 -15 
62 117 -57 18 

96 -120 125 70 
1 -39 119 -21 
-126 -40 -97 29 
-25 -81 -95 -94 

-26 -118 -45 119 
-58 87 40 119 
110 94 -110 -38 
-53 91 -92 -113 

107 76 -82 67 
12 112 15 -122 
41 35 -2 -101 
78 -19 41 7 

77 71 -24 34 
-9 16 37 -98 
-127 115 21 -115 
-95 -34 95 -116 

-95 -115 50 -20 
100 107 47 -94 
68 76 -44 -116 
-71 -45 -74 37 

-73 14 -55 -16 
38 -57 91 111 
-76 -105 -29 -14 
123 -41 7 81 


80 -40 -125 82 
-32 -32 48 -103 
102 -90 -77 32 
-19 125 118 -11 

61 72 34 -101 
-46 -7 117 105 
26 97 -43 -15 
62 117 -57 18 

96 -120 125 70 
1 -39 119 -21 
-126 -40 -97 29 
-25 -81 -95 -94 

-26 -118 -45 119 
-58 87 40 119 
110 94 -110 -38 
-53 91 -92 -113 

107 76 -82 67 
12 112 15 -122 
41 35 -2 -101 
78 -19 41 7 

77 71 -24 34 
-9 16 37 -98 
-127 115 21 -115 
-95 -34 95 -116 

-95 -115 50 -20 
100 107 47 -94 
68 76 -44 -116 
-71 -45 -74 37 

-73 14 -55 -16 
38 -57 91 111 
-76 -105 -29 -14 
123 -41 7 81 


80 -40 -125 82 
-32 -32 48 -103 
102 -90 -77 32 
-19 125 118 -11 

61 72 34 -101 
-46 -7 117 105 
26 97 -43 -15 
62 117 -57 18 

96 -120 125 70 
1 -39 119 -21 
-126 -40 -97 29 
-25 -81 -95 -94 

-26 -118 -45 119 
-58 87 40 119 
110 94 -110 -38 
-53 91 -92 -113 

107 76 -82 67 
12 112 15 -122 
41 35 -2 -101 
78 -19 41 7 

77 71 -24 34 
-9 16 37 -98 
-127 115 21 -115 
-95 -34 95 -116 

-95 -115 50 -20 
100 107 47 -94 
68 76 -44 -116 
-71 -45 -74 37 

-73 14 -55 -16 
38 -57 91 111 
-76 -105 -29 -14 
123 -41 7 81 



80 -40 -125 82 
-32 -32 48 -103 
102 -90 -77 32 
-19 125 118 -11 

61 72 34 -101 
-46 -7 117 105 
26 97 -43 -15 
62 117 -57 18 

96 -120 125 70 
1 -39 119 -21 
-126 -40 -97 29 
-25 -81 -95 -94 

-26 -118 -45 119 
-58 87 40 119 
110 94 -110 -38 
-53 91 -92 -113 

107 76 -82 67 
12 112 15 -122 
41 35 -2 -101 
78 -19 41 7 

77 71 -24 34 
-9 16 37 -98 
-127 115 21 -115 
-95 -34 95 -116 

-95 -115 50 -20 
100 107 47 -94 
68 76 -44 -116 
-71 -45 -74 37 

-73 14 -55 -16 
38 -57 91 111 
-76 -105 -29 -14 
123 -41 7 81 


80 -40 -125 82 
-32 -32 48 -103 
102 -90 -77 32 
-19 125 118 -11 

61 72 34 -101 
-46 -7 117 105 
26 97 -43 -15 
62 117 -57 18 

96 -120 125 70 
1 -39 119 -21 
-126 -40 -97 29 
-25 -81 -95 -94 

-26 -118 -45 119 
-58 87 40 119 
110 94 -110 -38 
-53 91 -92 -113 

107 76 -82 67 
12 112 15 -122 
41 35 -2 -101 
78 -19 41 7 

77 71 -24 34 
-9 16 37 -98 
-127 115 21 -115 
-95 -34 95 -116 

-95 -115 50 -20 
100 107 47 -94 
68 76 -44 -116 
-71 -45 -74 37 

-73 14 -55 -16 
38 -57 91 111 
-76 -105 -29 -14 
123 -41 7 81 


80 -40 -125 82 
-32 -32 48 -103 
102 -90 -77 32 
-19 125 118 -11 

61 72 34 -101 
-46 -7 117 105 
26 97 -43 -15 
62 117 -57 18 

96 -120 125 70 
1 -39 119 -21 
-126 -40 -97 29 
-25 -81 -95 -94 

-26 -118 -45 119 
-58 87 40 119 
110 94 -110 -38 
-53 91 -92 -113 

107 76 -82 67 
12 112 15 -122 
41 35 -2 -101 
78 -19 41 7 

77 71 -24 34 
-9 16 37 -98 
-127 115 21 -115 
-95 -34 95 -116 

-95 -115 50 -20 
100 107 47 -94 
68 76 -44 -116 
-71 -45 -74 37 

-73 14 -55 -16 
38 -57 91 111 
-76 -105 -29 -14 
123 -41 7 81 


80 -40 -125 82 
-32 -32 48 -103 
102 -90 -77 32 
-19 125 118 -11 

61 72 34 -101 
-46 -7 117 105 
26 97 -43 -15 
62 117 -57 18 

96 -120 125 70 
1 -39 119 -21 
-126 -40 -97 29 
-25 -81 -95 -94 

-26 -118 -45 119 
-58 87 40 119 
110 94 -110 -38 
-53 91 -92 -113 

107 76 -82 67 
12 112 15 -122 
41 35 -2 -101 
78 -19 41 7 

77 71 -24 34 
-9 16 37 -98 
-127 115 21 -115 
-95 -34 95 -116 

-95 -115 50 -20 
100 107 47 -94 
68 76 -44 -116 
-71 -45 -74 37 

-73 14 -55 -16 
38 -57 91 111 
-76 -105 -29 -14 
123 -41 7 81 



80 -40 -125 82 
-32 -32 48 -103 
102 -90 -77 32 
-19 125 118 -11 

61 72 34 -101 
-46 -7 117 105 
26 97 -43 -15 
62 117 -57 18 

96 -120 125 70 
1 -39 119 -21 
-126 -40 -97 29 
-25 -81 -95 -94 

-26 -118 -45 119 
-58 87 40 119 
110 94 -110 -38 
-53 91 -92 -113 

107 76 -82 67 
12 112 15 -122 
41 35 -2 -101 
78 -19 41 7 

77 71 -24 34 
-9 16 37 -98 
-127 115 21 -115 
-95 -34 95 -116 

-95 -115 50 -20 
100 107 47 -94 
68 76 -44 -116 
-71 -45 -74 37 

-73 14 -55 -16 
38 -57 91 111 
-76 -105 -29 -14 
123 -41 7 81 


80 -40 -125 82 
-32 -32 48 -103 
102 -90 -77 32 
-19 125 118 -11 

61 72 34 -101 
-46 -7 117 105 
26 97 -43 -15 
62 117 -57 18 

96 -120 125 70 
1 -39 119 -21 
-126 -40 -97 29 
-25 -81 -95 -94 

-26 -118 -45 119 
-58 87 40 119 
110 94 -110 -38 
-53 91 -92 -113 

107 76 -82 67 
12 112 15 -122 
41 35 -2 -101 
78 -19 41 7 

77 71 -24 34 
-9 16 37 -98 
-127 115 21 -115 
-95 -34 95 -116 

-95 -115 50 -20 
100 107 47 -94 
68 76 -44 -116 
-71 -45 -74 37 

-73 14 -55 -16 
38 -57 91 111 
-76 -105 -29 -14 
123 -41 7 81 


80 -40 -125 82 
-32 -32 48 -103 
102 -90 -77 32 
-19 125 118 -11 

61 72 34 -101 
-46 -7 117 105 
26 97 -43 -15 
62 117 -57 18 

96 -120 125 70 
1 -39 119 -21 
-126 -40 -97 29 
-25 -81 -95 -94 

-26 -118 -45 119 
-58 87 40 119 
110 94 -110 -38 
-53 91 -92 -113 

107 76 -82 67 
12 112 15 -122 
41 35 -2 -101 
78 -19 41 7 

77 71 -24 34 
-9 16 37 -98 
-127 115 21 -115 
-95 -34 95 -116 

-95 -115 50 -20 
100 107 47 -94 
68 76 -44 -116 
-71 -45 -74 37 

-73 14 -55 -16 
38 -57 91 111 
-76 -105 -29 -14 
123 -41 7 81 


80 -40 -125 82 
-32 -32 48 -103 
102 -90 -77 32 
-19 125 118 -11 

61 72 34 -101 
-46 -7 117 105 
26 97 -43 -15 
62 117 -57 18 

96 -120 125 70 
1 -39 119 -21 
-126 -40 -97 29 
-25 -81 -95 -94 

-26 -118 -45 119 
-58 87 40 119 
110 94 -110 -38 
-53 91 -92 -113 

107 76 -82 67 
12 112 15 -122 
41 35 -2 -101 
78 -19 41 7 

77 71 -24 34 
-9 16 37 -98 
-127 115 21 -115 
-95 -34 95 -116 

-95 -115 50 -20 
100 107 47 -94 
68 76 -44 -116 
-71 -45 -74 37 

-73 14 -55 -16 
38 -57 91 111 
-76 -105 -29 -14 
123 -41 7 81 



80 -40 -125 82 
-32 -32 48 -103 
102 -90 -77 32 
-19 125 118 -11 

61 72 34 -101 
-46 -7 117 105 
26 97 -43 -15 
62 117 -57 18 

96 -120 125 70 
1 -39 119 -21 
-126 -40 -97 29 
-25 -81 -95 -94 

-26 -118 -45 119 
-58 87 40 119 
110 94 -110 -38 
-53 91 -92 -113 

107 76 -82 67 
12 112 15 -122 
41 35 -2 -101 
78 -19 41 7 

77 71 -24 34 
-9 16 37 -98 
-127 115 21 -115 
-95 -34 95 -116 

-95 -115 50 -20 
100 107 47 -94 
68 76 -44 -116 
-71 -45 -74 37 

-73 14 -55 -16 
38 -57 91 111 
-76 -105 -29 -14 
123 -41 7 81 


80 -40 -125 82 
-32 -32 48 -103 
102 -90 -77 32 
-19 125 118 -11 

61 72 34 -101 
-46 -7 117 105 
26 97 -43 -15 
62 117 -57 18 

96 -120 125 70 
1 -39 119 -21 
-126 -40 -97 29 
-25 -81 -95 -94 

-26 -118 -45 119 
-58 87 40 119 
110 94 -110 -38 
-53 91 -92 -113 

107 76 -82 67 
12 112 15 -122 
41 35 -2 -101 
78 -19 41 7 

77 71 -24 34 
-9 16 37 -98 
-127 115 21 -115 
-95 -34 95 -116 

-95 -115 50 -20 
100 107 47 -94 
68 76 -44 -116 
-71 -45 -74 37 

-73 14 -55 -16 
38 -57 91 111 
-76 -105 -29 -14 
123 -41 7 81 


80 -40 -125 82 
-32 -32 48 -103 
102 -90 -77 32 
-19 125 118 -11 

61 72 34 -101 
-46 -7 117 105 
26 97 -43 -15 
62 117 -57 18 

96 -120 125 70 
1 -39 119 -21 
-126 -40 -97 29 
-25 -81 -95 -94 

-26 -118 -45 119 
-58 87 40 119 
110 94 -110 -38 
-53 91 -92 -113 

107 76 -82 67 
12 112 15 -122 
41 35 -2 -101 
78 -19 41 7 

77 71 -24 34 
-9 16 37 -98 
-127 115 21 -115 
-95 -34 95 -116 

-95 -115 50 -20 
100 107 47 -94 
68 76 -44 -116 
-71 -45 -74 37 

-73 14 -55 -16 
38 -57 91 111 
-76 -105 -29 -14 
123 -41 7 81 


80 -40 -125 82 
-32 -32 48 -103 
102 -90 -77 32 
-19 125 118 -11 

61 72 34 -101 
-46 -7 117 105 
26 97 -43 -15 
62 117 -57 18 

96 -120 125 70 
1 -39 119 -21 
-126 -40 -97 29 
-25 -81 -95 -94 

-26 -118 -45 119 
-58 87 40 119 
110 94 -110 -38 
-53 91 -92 -113 

107 76 -82 67 
12 112 15 -122 
41 35 -2 -101 
78 -19 41 7 

77 71 -24 34 
-9 16 37 -98 
-127 115 21 -115 
-95 -34 95 -116 

-95 -115 50 -20 
100 107 47 -94 
68 76 -44 -116 
-71 -45 -74 37 

-73 14 -55 -16 
38 -57 91 111 
-76 -105 -29 -14 
123 -41 7 81 



80 -40 -125 82 
-32 -32 48 -103 
102 -90 -77 32 
-19 125 118 -11 

61 72 34 -101 
-46 -7 117 105 
26 97 -43 -15 
62 117 -57 18 

96 -120 125 70 
1 -39 119 -21 
-126 -40 -97 29 
-25 -81 -95 -94 

-26 -118 -45 119 
-58 87 40 119 
110 94 -110 -38 
-53 91 -92 -113 

107 76 -82 67 
12 112 15 -122 
41 35 -2 -101 
78 -19 41 7 

77 71 -24 34 
-9 16 37 -98 
-127 115 21 -115 
-95 -34 95 -116 

-95 -115 50 -20 
100 107 47 -94 
68 76 -44 -116 
-71 -45 -74 37 

-73 14 -55 -16 
38 -57 91 111 
-76 -105 -29 -14 
123 -41 7 81 


80 -40 -125 82 
-32 -32 48 -103 
102 -90 -77 32 
-19 125 118 -11 

61 72 34 -101 
-46 -7 117 105 
26 97 -43 -15 
62 117 -57 18 

96 -120 125 70 
1 -39 119 -21 
-126 -40 -97 29 
-25 -81 -95 -94 

-26 -118 -45 119 
-58 87 40 119 
110 94 -110 -38 
-53 91 -92 -113 

107 76 -82 67 
12 112 15 -122 
41 35 -2 -101 
78 -19 41 7 

77 71 -24 34 
-9 16 37 -98 
-127 115 21 -115 
-95 -34 95 -116 

-95 -115 50 -20 
100 107 47 -94 
68 76 -44 -116 
-71 -45 -74 37 

-73 14 -55 -16 
38 -57 91 111 
-76 -105 -29 -14 
123 -41 7 81 


80 -40 -125 82 
-32 -32 48 -103 
102 -90 -77 32 
-19 125 118 -11 

61 72 34 -101 
-46 -7 117 105 
26 97 -43 -15 
62 117 -57 18 

96 -120 125 70 
1 -39 119 -21 
-126 -40 -97 29 
-25 -81 -95 -94 

-26 -118 -45 119 
-58 87 40 119 
110 94 -110 -38 
-53 91 -92 -113 

107 76 -82 67 
12 112 15 -122 
41 35 -2 -101 
78 -19 41 7 

77 71 -24 34 
-9 16 37 -98 
-127 115 21 -115 
-95 -34 95 -116 

-95 -115 50 -20 
100 107 47 -94 
68 76 -44 -116 
-71 -45 -74 37 

-73 14 -55 -16 
38 -57 91 111 
-76 -105 -29 -14 
123 -41 7 81 


80 -40 -125 82 
-32 -32 48 -103 
102 -90 -77 32 
-19 125 118 -11 

61 72 34 -101 
-46 -7 117 105 
26 97 -43 -15 
62 117 -57 18 

96 -120 125 70 
1 -39 119 -21 
-126 -40 -97 29 
-25 -81 -95 -94 

-26 -118 -45 119 
-58 87 40 119 
110 94 -110 -38 
-53 91 -92 -113 

107 76 -82 67 
12 112 15 -122 
41 35 -2 -101 
78 -19 41 7 

77 71 -24 34 
-9 16 37 -98 
-127 115 21 -115 
-95 -34 95 -116 

-95 -115 50 -20 
100 107 47 -94 
68 76 -44 -116 
-71 -45 -74 37 

-73 14 -55 -16 
38 -57 91 111 
-76 -105 -29 -14 
123 -41 7 81 




34 89 111 -116 
-67 94 -94 -21 
-120 -20 -26 118 
-96 120 59 -116 

2 23 87 -52 
-57 -50 -15 -82 
-73 -19 60 113 
-16 -48 7 24 

-17 104 -35 -65 
-113 110 -46 -5 
-112 -118 12 -7 
103 37 -74 85 

-105 -37 -103 46 
5 77 -21 86 
115 -73 -38 109 
45 -39 77 127 

96 62 -117 -108 
41 42 -118 -60 
-88 43 -33 101 
-51 -59 109 101 

-78 -115 -113 92 
22 65 36 -123 
90 87 -116 -127 
-33 -111 -66 -110 

120 10 -79 29 
36 121 -42 -12 
6 65 79 106 
-74 101 19 -16 

-70 19 -100 47 
-64 -23 -15 -46 
69 -122 -45 -14 
75 106 -106 4 


34 89 111 -116 
-67 94 -94 -21 
-120 -20 -26 118 
-96 120 59 -116 

2 23 87 -52 
-57 -50 -15 -82 
-73 -19 60 113 
-16 -48 7 24 

-17 104 -35 -65 
-113 110 -46 -5 
-112 -118 12 -7 
103 37 -74 85 

-105 -37 -103 46 
5 77 -21 86 
115 -73 -38 109 
45 -39 77 127 

96 62 -117 -108 
41 42 -118 -60 
-88 43 -33 101 
-51 -59 109 101 

-78 -115 -113 92 
22 65 36 -123 
90 87 -116 -127 
-33 -111 -66 -110 

120 10 -79 29 
36 121 -42 -12 
6 65 79 106 
-74 101 19 -16 

-70 19 -100 47 
-64 -23 -15 -46 
69 -122 -45 -14 
75 106 -106 4 


34 89 111 -116 
-67 94 -94 -21 
-120 -20 -26 118 
-96 120 59 -116 

2 23 87 -52 
-57 -50 -15 -82 
-73 -19 60 113 
-16 -48 7 24 

-17 104 -35 -65 
-113 110 -46 -5 
-112 -118 12 -7 
103 37 -74 85 

-105 -37 -103 46 
5 77 -21 86 
115 -73 -38 109 
45 -39 77 127 

96 62 -117 -108 
41 42 -118 -60 
-88 43 -33 101 
-51 -59 109 101 

-78 -115 -113 92 
22 65 36 -123 
90 87 -116 -127 
-33 -111 -66 -110 

120 10 -79 29 
36 121 -42 -12 
6 65 79 106 
-74 101 19 -16 

-70 19 -100 47 
-64 -23 -15 -46 
69 -122 -45 -14 
75 106 -106 4 


34 89 111 -116 
-67 94 -94 -21 
-120 -20 -26 118 
-96 120 59 -116 

2 23 87 -52 
-57 -50 -15 -82 
-73 -19 60 113 
-16 -48 7 24 

-17 104 -35 -65 
-113 110 -46 -5 
-112 -118 12 -7 
103 37 -74 85 

-105 -37 -103 46 
5 77 -21 86 
115 -73 -38 109 
45 -39 77 127 

96 62 -117 -108 
41 42 -118 -60 
-88 43 -33 101 
-51 -59 109 101 

-78 -115 -113 92 
22 65 36 -123 
90 87 -116 -127 
-33 -111 -66 -110 

120 10 -79 29 
36 121 -42 -12 
6 65 79 106 
-74 101 19 -16 

-70 19 -100 47 
-64 -23 -15 -46 
69 -122 -45 -14 
75 106 -106 4 



34 89 111 -116 
-67 94 -94 -21 
-120 -20 -26 118 
-96 120 59 -116 

2 23 87 -52 
-57 -50 -15 -82 
-73 -19 60 113 
-16 -48 7 24 

-17 104 -35 -65 
-113 110 -46 -5 
-112 -118 12 -7 
103 37 -74 85 

-105 -37 -103 46 
5 77 -21 86 
115 -73 -38 109 
45 -39 77 127 

96 62 -117 -108 
41 42 -118 -60 
-88 43 -33 101 
-51 -59 109 101 

-78 -115 -113 92 
22 65 36 -123 
90 87 -116 -127 
-33 -111 -66 -110 

120 10 -79 29 
36 121 -42 -12 
6 65 79 106 
-74 101 19 -16 

-70 19 -100 47 
-64 -23 -15 -46 
69 -122 -45 -14 
75 106 -106 4 


34 89 111 -116 
-67 94 -94 -21 
-120 -20 -26 118 
-96 120 59 -116 

2 23 87 -52 
-57 -50 -15 -82 
-73 -19 60 113 
-16 -48 7 24 

-17 104 -35 -65 
-113 110 -46 -5 
-112 -118 12 -7 
103 37 -74 85 

-105 -37 -103 46 
5 77 -21 86 
115 -73 -38 109 
45 -39 77 127 

96 62 -117 -108 
41 42 -118 -60 
-88 43 -33 101 
-51 -59 109 101 

-78 -115 -113 92 
22 65 36 -123 
90 87 -116 -127 
-33 -111 -66 -110 

120 10 -79 29 
36 121 -42 -12 
6 65 79 106 
-74 101 19 -16 

-70 19 -100 47 
-64 -23 -15 -46 
69 -122 -45 -14 
75 106 -106 4 


34 89 111 -116 
-67 94 -94 -21 
-120 -20 -26 118 
-96 120 59 -116 

2 23 87 -52 
-57 -50 -15 -82 
-73 -19 60 113 
-16 -48 7 24 

-17 104 -35 -65 
-113 110 -46 -5 
-112 -118 12 -7 
103 37 -74 85 

-105 -37 -103 46 
5 77 -21 86 
115 -73 -38 109 
45 -39 77 127 

96 62 -117 -108 
41 42 -118 -60 
-88 43 -33 101 
-51 -59 109 101 

-78 -115 -113 92 
22 65 36 -123 
90 87 -116 -127 
-33 -111 -66 -110 

120 10 -79 29 
36 121 -42 -12 
6 65 79 106 
-74 101 19 -16 

-70 19 -100 47 
-64 -23 -15 -46 
69 -122 -45 -14 
75 106 -106 4 


34 89 111 -116 
-67 94 -94 -21 
-120 -20 -26 118 
-96 120 59 -116 

2 23 87 -52 
-57 -50 -15 -82 
-73 -19 60 113 
-16 -48 7 24 

-17 104 -35 -65 
-113 110 -46 -5 
-112 -118 12 -7 
103 37 -74 85 

-105 -37 -103 46 
5 77 -21 86 
115 -73 -38 109 
45 -39 77 127 

96 62 -117 -108 
41 42 -118 -60 
-88 43 -33 101 
-51 -59 109 101 

-78 -115 -113 92 
22 65 36 -123 
90 87 -116 -127 
-33 -111 -66 -110 

120 10 -79 29 
36 121 -42 -12 
6 65 79 106 
-74 101 19 -16 

-70 19 -100 47 
-64 -23 -15 -46 
69 -122 -45 -14 
75 106 -106 4 



34 89 111 -116 
-67 94 -94 -21 
-120 -20 -26 118 
-96 120 59 -116 

2 23 87 -52 
-57 -50 -15 -82 
-73 -19 60 113 
-16 -48 7 24 

-17 104 -35 -65 
-113 110 -46 -5 
-112 -118 12 -7 
103 37 -74 85 

-105 -37 -103 46 
5 77 -21 86 
115 -73 -38 109 
45 -39 77 127 

96 62 -117 -108 
41 42 -118 -60 
-88 43 -33 101 
-51 -59 109 101 

-78 -115 -113 92 
22 65 36 -123 
90 87 -116 -127 
-33 -111 -66 -110 

120 10 -79 29 
36 121 -42 -12 
6 65 79 106 
-74 101 19 -16 

-70 19 -100 47 
-64 -23 -15 -46 
69 -122 -45 -14 
75 106 -106 4 


34 89 111 -116 
-67 94 -94 -21 
-120 -20 -26 118 
-96 120 59 -116 

2 23 87 -52 
-57 -50 -15 -82 
-73 -19 60 113 
-16 -48 7 24 

-17 104 -35 -65 
-113 110 -46 -5 
-112 -118 12 -7 
103 37 -74 85 

-105 -37 -103 46 
5 77 -21 86 
115 -73 -38 109 
45 -39 77 127 

96 62 -117 -108 
41 42 -118 -60 
-88 43 -33 101 
-51 -59 109 101 

-78 -115 -113 92 
22 65 36 -123 
90 87 -116 -127 
-33 -111 -66 -110 

120 10 -79 29 
36 121 -42 -12 
6 65 79 106 
-74 101 19 -16 

-70 19 -100 47 
-64 -23 -15 -46 
69 -122 -45 -14 
75 106 -106 4 


34 89 111 -116 
-67 94 -94 -21 
-120 -20 -26 118 
-96 120 59 -116 

2 23 87 -52 
-57 -50 -15 -82 
-73 -19 60 113 
-16 -48 7 24 

-17 104 -35 -65 
-113 110 -46 -5 
-112 -118 12 -7 
103 37 -74 85 

-105 -37 -103 46 
5 77 -21 86 
115 -73 -38 109 
45 -39 77 127 

96 62 -117 -108 
41 42 -118 -60 
-88 43 -33 101 
-51 -59 109 101 

-78 -115 -113 92 
22 65 36 -123 
90 87 -116 -127 
-33 -111 -66 -110 

120 10 -79 29 
36 121 -42 -12 
6 65 79 106 
-74 101 19 -16 

-70 19 -100 47 
-64 -23 -15 -46 
69 -122 -45 -14 
75 106 -106 4 


34 89 111 -116 
-67 94 -94 -21 
-120 -20 -26 118 
-96 120 59 -116 

2 23 87 -52 
-57 -50 -15 -82 
-73 -19 60 113 
-16 -48 7 24 

-17 104 -35 -65 
-113 110 -46 -5 
-112 -118 12 -7 
103 37 -74 85 

-105 -37 -103 46 
5 77 -21 86 
115 -73 -38 109 
45 -39 77 127 

96 62 -117 -108 
41 42 -118 -60 
-88 43 -33 101 
-51 -59 109 101 

-78 -115 -113 92 
22 65 36 -123 
90 87 -116 -127 
-33 -111 -66 -110 

120 10 -79 29 
36 121 -42 -12 
6 65 79 106 
-74 101 19 -16 

-70 19 -100 47 
-64 -23 -15 -46 
69 -122 -45 -14 
75 106 -106 4 



34 89 111 -116 
-67 94 -94 -21 
-120 -20 -26 118 
-96 120 59 -116 

2 23 87 -52 
-57 -50 -15 -82 
-73 -19 60 113 
-16 -48 7 24 

-17 104 -35 -65 
-113 110 -46 -5 
-112 -118 12 -7 
103 37 -74 85 

-105 -37 -103 46 
5 77 -21 86 
115 -73 -38 109 
45 -39 77 127 

96 62 -117 -108 
41 42 -118 -60 
-88 43 -33 101 
-51 -59 109 101 

-78 -115 -113 92 
22 65 36 -123 
90 87 -116 -127 
-33 -111 -66 -110 

120 10 -79 29 
36 121 -42 -12 
6 65 79 106 
-74 101 19 -16 

-70 19 -100 47 
-64 -23 -15 -46 
69 -122 -45 -14 
75 106 -106 4 


34 89 111 -116 
-67 94 -94 -21 
-120 -20 -26 118 
-96 120 59 -116 

2 23 87 -52 
-57 -50 -15 -82 
-73 -19 60 113 
-16 -48 7 24 

-17 104 -35 -65 
-113 110 -46 -5 
-112 -118 12 -7 
103 37 -74 85 

-105 -37 -103 46 
5 77 -21 86 
115 -73 -38 109 
45 -39 77 127 

96 62 -117 -108 
41 42 -118 -60 
-88 43 -33 101 
-51 -59 109 101 

-78 -115 -113 92 
22 65 36 -123 
90 87 -116 -127 
-33 -111 -66 -110 

120 10 -79 29 
36 121 -42 -12 
6 65 79 106 
-74 101 19 -16 

-70 19 -100 47 
-64 -23 -15 -46 
69 -122 -45 -14 
75 106 -106 4 


34 89 111 -116 
-67 94 -94 -21 
-120 -20 -26 118 
-96 120 59 -116 

2 23 87 -52 
-57 -50 -15 -82 
-73 -19 60 113 
-16 -48 7 24 

-17 104 -35 -65 
-113 110 -46 -5 
-112 -118 12 -7 
103 37 -74 85 

-105 -37 -103 46 
5 77 -21 86 
115 -73 -38 109 
45 -39 77 127 

96 62 -117 -108 
41 42 -118 -60 
-88 43 -33 101 
-51 -59 109 101 

-78 -115 -113 92 
22 65 36 -123 
90 87 -116 -127 
-33 -111 -66 -110 

120 10 -79 29 
36 121 -42 -12 
6 65 79 106 
-74 101 19 -16 

-70 19 -100 47 
-64 -23 -15 -46 
69 -122 -45 -14 
75 106 -106 4 


34 89 111 -116 
-67 94 -94 -21 
-120 -20 -26 118 
-96 120 59 -116 

2 23 87 -52 
-57 -50 -15 -82 
-73 -19 60 113 
-16 -48 7 24 

-17 104 -35 -65 
-113 110 -46 -5 
-112 -118 12 -7 
103 37 -74 85 

-105 -37 -103 46 
5 77 -21 86 
115 -73 -38 109 
45 -39 77 127 

96 62 -117 -108 
41 42 -118 -60 
-88 43 -33 101 
-51 -59 109 101 

-78 -115 -113 92 
22 65 36 -123 
90 87 -116 -127 
-33 -111 -66 -110 

120 10 -79 29 
36 121 -42 -12 
6 65 79 106 
-74 101 19 -16 

-70 19 -100 47 
-64 -23 -15 -46 
69 -122 -45 -14 
75 106 -106 4 



34 89 111 -116 
-67 94 -94 -21 
-120 -20 -26 118 
-96 120 59 -116 

2 23 87 -52 
-57 -50 -15 -82 
-73 -19 60 113 
-16 -48 7 24 

-17 104 -35 -65 
-113 110 -46 -5 
-112 -118 12 -7 
103 37 -74 85 

-105 -37 -103 46 
5 77 -21 86 
115 -73 -38 109 
45 -39 77 127 

96 62 -117 -108 
41 42 -118 -60 
-88 43 -33 101 
-51 -59 109 101 

-78 -115 -113 92 
22 65 36 -123 
90 87 -116 -127 
-33 -111 -66 -110 

120 10 -79 29 
36 121 -42 -12 
6 65 79 106 
-74 101 19 -16 

-70 19 -100 47 
-64 -23 -15 -46 
69 -122 -45 -14 
75 106 -106 4 


34 89 111 -116 
-67 94 -94 -21 
-120 -20 -26 118 
-96 120 59 -116 

2 23 87 -52 
-57 -50 -15 -82 
-73 -19 60 113 
-16 -48 7 24 

-17 104 -35 -65 
-113 110 -46 -5 
-112 -118 12 -7 
103 37 -74 85 

-105 -37 -103 46 
5 77 -21 86 
115 -73 -38 109 
45 -39 77 127 

96 62 -117 -108 
41 42 -118 -60 
-88 43 -33 101 
-51 -59 109 101 

-78 -115 -113 92 
22 65 36 -123 
90 87 -116 -127 
-33 -111 -66 -110 

120 10 -79 29 
36 121 -42 -12 
6 65 79 106 
-74 101 19 -16 

-70 19 -100 47 
-64 -23 -15 -46 
69 -122 -45 -14 
75 106 -106 4 


34 89 111 -116 
-67 94 -94 -21 
-120 -20 -26 118 
-96 120 59 -116 

2 23 87 -52 
-57 -50 -15 -82 
-73 -19 60 113 
-16 -48 7 24 

-17 104 -35 -65 
-113 110 -46 -5 
-112 -118 12 -7 
103 37 -74 85 

-105 -37 -103 46 
5 77 -21 86 
115 -73 -38 109 
45 -39 77 127 

96 62 -117 -108 
41 42 -118 -60 
-88 43 -33 101 
-51 -59 109 101 

-78 -115 -113 92 
22 65 36 -123 
90 87 -116 -127 
-33 -111 -66 -110 

120 10 -79 29 
36 121 -42 -12 
6 65 79 106 
-74 101 19 -16 

-70 19 -100 47 
-64 -23 -15 -46 
69 -122 -45 -14 
75 106 -106 4 


34 89 111 -116 
-67 94 -94 -21 
-120 -20 -26 118 
-96 120 59 -116 

2 23 87 -52 
-57 -50 -15 -82 
-73 -19 60 113 
-16 -48 7 24 

-17 104 -35 -65 
-113 110 -46 -5 
-112 -118 12 -7 
103 37 -74 85 

-105 -37 -103 46 
5 77 -21 86 
115 -73 -38 109 
45 -39 77 127 

96 62 -117 -108 
41 42 -118 -60 
-88 43 -33 101 
-51 -59 109 101 

-78 -115 -113 92 
22 65 36 -123 
90 87 -116 -127 
-33 -111 -66 -110 

120 10 -79 29 
36 121 -42 -12 
6 65 79 106 
-74 101 19 -16 

-70 19 -100 47 
-64 -23 -15 -46 
69 -122 -45 -14 
75 106 -106 4 



34 89 111 -116 
-67 94 -94 -21 
-120 -20 -26 118 
-96 120 59 -116 

2 23 87 -52 
-57 -50 -15 -82 
-73 -19 60 113 
-16 -48 7 24 

-17 104 -35 -65 
-113 110 -46 -5 
-112 -118 12 -7 
103 37 -74 85 

-105 -37 -103 46 
5 77 -21 86 
115 -73 -38 109 
45 -39 77 127 

96 62 -117 -108 
41 42 -118 -60 
-88 43 -33 101 
-51 -59 109 101 

-78 -115 -113 92 
22 65 36 -123 
90 87 -116 -127 
-33 -111 -66 -110 

120 10 -79 29 
36 121 -42 -12 
6 65 79 106 
-74 101 19 -16 

-70 19 -100 47 
-64 -23 -15 -46 
69 -122 -45 -14 
75 106 -106 4 


34 89 111 -116 
-67 94 -94 -21 
-120 -20 -26 118 
-96 120 59 -116 

2 23 87 -52 
-57 -50 -15 -82 
-73 -19 60 113 
-16 -48 7 24 

-17 104 -35 -65 
-113 110 -46 -5 
-112 -118 12 -7 
103 37 -74 85 

-105 -37 -103 46 
5 77 -21 86 
115 -73 -38 109 
45 -39 77 127 

96 62 -117 -108 
41 42 -118 -60 
-88 43 -33 101 
-51 -59 109 101 

-78 -115 -113 92 
22 65 36 -123 
90 87 -116 -127 
-33 -111 -66 -110 

120 10 -79 29 
36 121 -42 -12 
6 65 79 106 
-74 101 19 -16 

-70 19 -100 47 
-64 -23 -15 -46 
69 -122 -45 -14 
75 106 -106 4 


34 89 111 -116 
-67 94 -94 -21 
-120 -20 -26 118 
-96 120 59 -116 

2 23 87 -52 
-57 -50 -15 -82 
-73 -19 60 113 
-16 -48 7 24 

-17 104 -35 -65 
-113 110 -46 -5 
-112 -118 12 -7 
103 37 -74 85 

-105 -37 -103 46 
5 77 -21 86 
115 -73 -38 109 
45 -39 77 127 

96 62 -117 -108 
41 42 -118 -60 
-88 43 -33 101 
-51 -59 109 101 

-78 -115 -113 92 
22 65 36 -123 
90 87 -116 -127 
-33 -111 -66 -110 

120 10 -79 29 
36 121 -42 -12 
6 65 79 106 
-74 101 19 -16 

-70 19 -100 47 
-64 -23 -15 -46 
69 -122 -45 -14 
75 106 -106 4 


34 89 111 -116 
-67 94 -94 -21 
-120 -20 -26 118 
-96 120 59 -116 

2 23 87 -52 
-57 -50 -15 -82 
-73 -19 60 113 
-16 -48 7 24 

-17 104 -35 -65 
-113 110 -46 -5 
-112 -118 12 -7 
103 37 -74 85 

-105 -37 -103 46 
5 77 -21 86 
115 -73 -38 109 
45 -39 77 127 

96 62 -117 -108 
41 42 -118 -60 
-88 43 -33 101 
-51 -59 109 101 

-78 -115 -113 92 
22 65 36 -123 
90 87 -116 -127 
-33 -111 -66 -110 

120 10 -79 29 
36 121 -42 -12 
6 65 79 106 
-74 101 19 -16 

-70 19 -100 47 
-64 -23 -15 -46 
69 -122 -45 -14 
75 106 -106 4 



34 89 111 -116 
-67 94 -94 -21 
-120 -20 -26 118 
-96 120 59 -116 

2 23 87 -52 
-57 -50 -15 -82 
-73 -19 60 113 
-16 -48 7 24 

-17 104 -35 -65 
-113 110 -46 -5 
-112 -118 12 -7 
103 37 -74 85 

-105 -37 -103 46 
5 77 -21 86 
115 -73 -38 109 
45 -39 77 127 

96 62 -117 -108 
41 42 -118 -60 
-88 43 -33 101 
-51 -59 109 101 

-78 -115 -113 92 
22 65 36 -123 
90 87 -116 -127 
-33 -111 -66 -110 

120 10 -79 29 
36 121 -42 -12 
6 65 79 106 
-74 101 19 -16 

-70 19 -100 47 
-64 -23 -15 -46 
69 -122 -45 -14 
75 106 -106 4 


34 89 111 -116 
-67 94 -94 -21 
-120 -20 -26 118 
-96 120 59 -116 

2 23 87 -52 
-57 -50 -15 -82 
-73 -19 60 113 
-16 -48 7 24 

-17 104 -35 -65 
-113 110 -46 -5 
-112 -118 12 -7 
103 37 -74 85 

-105 -37 -103 46 
5 77 -21 86 
115 -73 -38 109 
45 -39 77 127 

96 62 -117 -108 
41 42 -118 -60 
-88 43 -33 101 
-51 -59 109 101 

-78 -115 -113 92 
22 65 36 -123 
90 87 -116 -127 
-33 -111 -66 -110 

120 10 -79 29 
36 121 -42 -12 
6 65 79 106 
-74 101 19 -16 

-70 19 -100 47 
-64 -23 -15 -46 
69 -122 -45 -14 
75 106 -106 4 


34 89 111 -116 
-67 94 -94 -21 
-120 -20 -26 118 
-96 120 59 -116 

2 23 87 -52 
-57 -50 -15 -82 
-73 -19 60 113 
-16 -48 7 24 

-17 104 -35 -65 
-113 110 -46 -5 
-112 -118 12 -7 
103 37 -74 85 

-105 -37 -103 46 
5 77 -21 86 
115 -73 -38 109 
45 -39 77 127 

96 62 -117 -108 
41 42 -118 -60 
-88 43 -33 101 
-51 -59 109 101 

-78 -115 -113 92 
22 65 36 -123 
90 87 -116 -127 
-33 -111 -66 -110 

120 10 -79 29 
36 121 -42 -12 
6 65 79 106 
-74 101 19 -16 

-70 19 -100 47 
-64 -23 -15 -46 
69 -122 -45 -14 
75 106 -106 4 


34 89 111 -116 
-67 94 -94 -21 
-120 -20 -26 118 
-96 120 59 -116 

2 23 87 -52 
-57 -50 -15 -82 
-73 -19 60 113 
-16 -48 7 24 

-17 104 -35 -65 
-113 110 -46 -5 
-112 -118 12 -7 
103 37 -74 85 

-105 -37 -103 46 
5 77 -21 86 
115 -73 -38 109 
45 -39 77 127 

96 62 -117 -108 
41 42 -118 -60 
-88 43 -33 101 
-51 -59 109 101 

-78 -115 -113 92 
22 65 36 -123 
90 87 -116 -127 
-33 -111 -66 -110 

120 10 -79 29 
36 121 -42 -12 
6 65 79 106 
-74 101 19 -16 

-70 19 -100 47 
-64 -23 -15 -46 
69 -122 -45 -14 
75 106 -106 4 



34 89 111 -116 
-67 94 -94 -21 
-120 -20 -26 118 
-96 120 59 -116 

2 23 87 -52 
-57 -50 -15 -82 
-73 -19 60 113 
-16 -48 7 24 

-17 104 -35 -65 
-113 110 -46 -5 
-112 -118 12 -7 
103 37 -74 85 

-105 -37 -103 46 
5 77 -21 86 
115 -73 -38 109 
45 -39 77 127 

96 62 -117 -108 
41 42 -118 -60 
-88 43 -33 101 
-51 -59 109 101 

-78 -115 -113 92 
22 65 36 -123 
90 87 -116 -127 
-33 -111 -66 -110 

120 10 -79 29 
36 121 -42 -12 
6 65 79 106 
-74 101 19 -16 

-70 19 -100 47 
-64 -23 -15 -46 
69 -122 -45 -14 
75 106 -106 4 


34 89 111 -116 
-67 94 -94 -21 
-120 -20 -26 118 
-96 120 59 -116 

2 23 87 -52 
-57 -50 -15 -82 
-73 -19 60 113 
-16 -48 7 24 

-17 104 -35 -65 
-113 110 -46 -5 
-112 -118 12 -7 
103 37 -74 85 

-105 -37 -103 46 
5 77 -21 86 
115 -73 -38 109 
45 -39 77 127 

96 62 -117 -108 
41 42 -118 -60 
-88 43 -33 101 
-51 -59 109 101 

-78 -115 -113 92 
22 65 36 -123 
90 87 -116 -127 
-33 -111 -66 -110 

120 10 -79 29 
36 121 -42 -12 
6 65 79 106 
-74 101 19 -16 

-70 19 -100 47 
-64 -23 -15 -46 
69 -122 -45 -14 
75 106 -106 4 


34 89 111 -116 
-67 94 -94 -21 
-120 -20 -26 118 
-96 120 59 -116 

2 23 87 -52 
-57 -50 -15 -82 
-73 -19 60 113 
-16 -48 7 24 

-17 104 -35 -65 
-113 110 -46 -5 
-112 -118 12 -7 
103 37 -74 85 

-105 -37 -103 46 
5 77 -21 86 
115 -73 -38 109 
45 -39 77 127 

96 62 -117 -108 
41 42 -118 -60 
-88 43 -33 101 
-51 -59 109 101 

-78 -115 -113 92 
22 65 36 -123 
90 87 -116 -127 
-33 -111 -66 -110 

120 10 -79 29 
36 121 -42 -12 
6 65 79 106 
-74 101 19 -16 

-70 19 -100 47 
-64 -23 -15 -46 
69 -122 -45 -14 
75 106 -106 4 


34 89 111 -116 
-67 94 -94 -21 
-120 -20 -26 118 
-96 120 59 -116 

2 23 87 -52 
-57 -50 -15 -82 
-73 -19 60 113 
-16 -48 7 24 

-17 104 -35 -65 
-113 110 -46 -5 
-112 -118 12 -7 
103 37 -74 85 

-105 -37 -103 46 
5 77 -21 86 
115 -73 -38 109 
45 -39 77 127 

96 62 -117 -108 
41 42 -118 -60 
-88 43 -33 101 
-51 -59 109 101 

-78 -115 -113 92 
22 65 36 -123 
90 87 -116 -127 
-33 -111 -66 -110 

120 10 -79 29 
36 121 -42 -12 
6 65 79 106 
-74 101 19 -16 

-70 19 -100 47 
-64 -23 -15 -46 
69 -122 -45 -14 
75 106 -106 4 



34 89 111 -116 
-67 94 -94 -21 
-120 -20 -26 118 
-96 120 59 -116 

2 23 87 -52 
-57 -50 -15 -82 
-73 -19 60 113 
-16 -48 7 24 

-17 104 -35 -65 
-113 110 -46 -5 
-112 -118 12 -7 
103 37 -74 85 

-105 -37 -103 46 
5 77 -21 86 
115 -73 -38 109 
45 -39 77 127 

96 62 -117 -108 
41 42 -118 -60 
-88 43 -33 101 
-51 -59 109 101 

-78 -115 -113 92 
22 65 36 -123 
90 87 -116 -127 
-33 -111 -66 -110 

120 10 -79 29 
36 121 -42 -12 
6 65 79 106 
-74 101 19 -16 

-70 19 -100 47 
-64 -23 -15 -46 
69 -122 -45 -14 
75 106 -106 4 


34 89 111 -116 
-67 94 -94 -21 
-120 -20 -26 118 
-96 120 59 -116 

2 23 87 -52 
-57 -50 -15 -82 
-73 -19 60 113 
-16 -48 7 24 

-17 104 -35 -65 
-113 110 -46 -5 
-112 -118 12 -7 
103 37 -74 85 

-105 -37 -103 46 
5 77 -21 86 
115 -73 -38 109 
45 -39 77 127 

96 62 -117 -108 
41 42 -118 -60 
-88 43 -33 101 
-51 -59 109 101 

-78 -115 -113 92 
22 65 36 -123 
90 87 -116 -127 
-33 -111 -66 -110 

120 10 -79 29 
36 121 -42 -12 
6 65 79 106 
-74 101 19 -16 

-70 19 -100 47 
-64 -23 -15 -46 
69 -122 -45 -14 
75 106 -106 4 


34 89 111 -116 
-67 94 -94 -21 
-120 -20 -26 118 
-96 120 59 -116 

2 23 87 -52 
-57 -50 -15 -82 
-73 -19 60 113 
-16 -48 7 24 

-17 104 -35 -65 
-113 110 -46 -5 
-112 -118 12 -7 
103 37 -74 85 

-105 -37 -103 46 
5 77 -21 86 
115 -73 -38 109 
45 -39 77 127 

96 62 -117 -108 
41 42 -118 -60 
-88 43 -33 101 
-51 -59 109 101 

-78 -115 -113 92 
22 65 36 -123 
90 87 -116 -127 
-33 -111 -66 -110 

120 10 -79 29 
36 121 -42 -12 
6 65 79 106 
-74 101 19 -16 

-70 19 -100 47 
-64 -23 -15 -46 
69 -122 -45 -14 
75 106 -106 4 


34 89 111 -116 
-67 94 -94 -21 
-120 -20 -26 118 
-96 120 59 -116 

2 23 87 -52 
-57 -50 -15 -82 
-73 -19 60 113 
-16 -48 7 24 

-17 104 -35 -65 
-113 110 -46 -5 
-112 -118 12 -7 
103 37 -74 85 

-105 -37 -103 46 
5 77 -21 86 
115 -73 -38 109 
45 -39 77 127 

96 62 -117 -108 
41 42 -118 -60 
-88 43 -33 101 
-51 -59 109 101 

-78 -115 -113 92 
22 65 36 -123 
90 87 -116 -127 
-33 -111 -66 -110 

120 10 -79 29 
36 121 -42 -12 
6 65 79 106 
-74 101 19 -16 

-70 19 -100 47 
-64 -23 -15 -46 
69 -122 -45 -14 
75 106 -106 4 



34 89 111 -116 
-67 94 -94 -21 
-120 -20 -26 118 
-96 120 59 -116 

2 23 87 -52 
-57 -50 -15 -82 
-73 -19 60 113 
-16 -48 7 24 

-17 104 -35 -65 
-113 110 -46 -5 
-112 -118 12 -7 
103 37 -74 85 

-105 -37 -103 46 
5 77 -21 86 
115 -73 -38 109 
45 -39 77 127 

96 62 -117 -108 
41 42 -118 -60 
-88 43 -33 101 
-51 -59 109 101 

-78 -115 -113 92 
22 65 36 -123 
90 87 -116 -127 
-33 -111 -66 -110 

120 10 -79 29 
36 121 -42 -12 
6 65 79 106 
-74 101 19 -16 

-70 19 -100 47 
-64 -23 -15 -46 
69 -122 -45 -14 
75 106 -106 4 


34 89 111 -116 
-67 94 -94 -21 
-120 -20 -26 118 
-96 120 59 -116 

2 23 87 -52 
-57 -50 -15 -82 
-73 -19 60 113 
-16 -48 7 24 

-17 104 -35 -65 
-113 110 -46 -5 
-112 -118 12 -7 
103 37 -74 85 

-105 -37 -103 46 
5 77 -21 86 
115 -73 -38 109 
45 -39 77 127 

96 62 -117 -108 
41 42 -118 -60 
-88 43 -33 101 
-51 -59 109 101 

-78 -115 -113 92 
22 65 36 -123 
90 87 -116 -127 
-33 -111 -66 -110 

120 10 -79 29 
36 121 -42 -12 
6 65 79 106 
-74 101 19 -16 

-70 19 -100 47 
-64 -23 -15 -46 
69 -122 -45 -14 
75 106 -106 4 


34 89 111 -116 
-67 94 -94 -21 
-120 -20 -26 118 
-96 120 59 -116 

2 23 87 -52 
-57 -50 -15 -82 
-73 -19 60 113 
-16 -48 7 24 

-17 104 -35 -65 
-113 110 -46 -5 
-112 -118 12 -7 
103 37 -74 85 

-105 -37 -103 46 
5 77 -21 86 
115 -73 -38 109 
45 -39 77 127 

96 62 -117 -108 
41 42 -118 -60 
-88 43 -33 101 
-51 -59 109 101 

-78 -115 -113 92 
22 65 36 -123 
90 87 -116 -127 
-33 -111 -66 -110 

120 10 -79 29 
36 121 -42 -12 
6 65 79 106 
-74 101 19 -16 

-70 19 -100 47 
-64 -23 -15 -46 
69 -122 -45 -14 
75 106 -106 4 


34 89 111 -116 
-67 94 -94 -21 
-120 -20 -26 118 
-96 120 59 -116 

2 23 87 -52 
-57 -50 -15 -82 
-73 -19 60 113 
-16 -48 7 24 

-17 104 -35 -65 
-113 110 -46 -5 
-112 -118 12 -7 
103 37 -74 85 

-105 -37 -103 46 
5 77 -21 86 
115 -73 -38 109 
45 -39 77 127 

96 62 -117 -108 
41 42 -118 -60 
-88 43 -33 101 
-51 -59 109 101 

-78 -115 -113 92 
22 65 36 -123 
90 87 -116 -127 
-33 -111 -66 -110 

120 10 -79 29 
36 121 -42 -12 
6 65 79 106 
-74 101 19 -16 

-70 19 -100 47 
-64 -23 -15 -46 
69 -122 -45 -14 
75 106 -106 4 



34 89 111 -116 
-67 94 -94 -21 
-120 -20 -26 118 
-96 120 59 -116 

2 23 87 -52 
-57 -50 -15 -82 
-73 -19 60 113 
-16 -48 7 24 

-17 104 -35 -65 
-113 110 -46 -5 
-112 -118 12 -7 
103 37 -74 85 

-105 -37 -103 46 
5 77 -21 86 
115 -73 -38 109 
45 -39 77 127 

96 62 -117 -108 
41 42 -118 -60 
-88 43 -33 101 
-51 -59 109 101 

-78 -115 -113 92 
22 65 36 -123 
90 87 -116 -127 
-33 -111 -66 -110 

120 10 -79 29 
36 121 -42 -12 
6 65 79 106 
-74 101 19 -16 

-70 19 -100 47 
-64 -23 -15 -46 
69 -122 -45 -14 
75 106 -106 4 


34 89 111 -116 
-67 94 -94 -21 
-120 -20 -26 118 
-96 120 59 -116 

2 23 87 -52 
-57 -50 -15 -82 
-73 -19 60 113 
-16 -48 7 24 

-17 104 -35 -65 
-113 110 -46 -5 
-112 -118 12 -7 
103 37 -74 85 

-105 -37 -103 46 
5 77 -21 86 
115 -73 -38 109 
45 -39 77 127 

96 62 -117 -108 
41 42 -118 -60 
-88 43 -33 101 
-51 -59 109 101 

-78 -115 -113 92 
22 65 36 -123 
90 87 -116 -127 
-33 -111 -66 -110 

120 10 -79 29 
36 121 -42 -12 
6 65 79 106 
-74 101 19 -16 

-70 19 -100 47 
-64 -23 -15 -46 
69 -122 -45 -14 
75 106 -106 4 


34 89 111 -116 
-67 94 -94 -21 
-120 -20 -26 118 
-96 120 59 -116 

2 23 87 -52 
-57 -50 -15 -82 
-73 -19 60 113 
-16 -48 7 24 

-17 104 -35 -65 
-113 110 -46 -5 
-112 -118 12 -7 
103 37 -74 85 

-105 -37 -103 46 
5 77 -21 86 
115 -73 -38 109 
45 -39 77 127 

96 62 -117 -108 
41 42 -118 -60 
-88 43 -33 101 
-51 -59 109 101 

-78 -115 -113 92 
22 65 36 -123 
90 87 -116 -127 
-33 -111 -66 -110 

120 10 -79 29 
36 121 -42 -12 
6 65 79 106 
-74 101 19 -16 

-70 19 -100 47 
-64 -23 -15 -46 
69 -122 -45 -14 
75 106 -106 4 


34 89 111 -116 
-67 94 -94 -21 
-120 -20 -26 118 
-96 120 59 -116 

2 23 87 -52 
-57 -50 -15 -82 
-73 -19 60 113 
-16 -48 7 24 

-17 104 -35 -65 
-113 110 -46 -5 
-112 -118 12 -7 
103 37 -74 85 

-105 -37 -103 46 
5 77 -21 86 
115 -73 -38 109 
45 -39 77 127 

96 62 -117 -108 
41 42 -118 -60 
-88 43 -33 101 
-51 -59 109 101 

-78 -115 -113 92 
22 65 36 -123 
90 87 -116 -127 
-33 -111 -66 -110 

120 10 -79 29 
36 121 -42 -12 
6 65 79 106 
-74 101 19 -16 

-70 19 -100 47 
-64 -23 -15 -46 
69 -122 -45 -14 
75 106 -106 4 



34 89 111 -116 
-67 94 -94 -21 
-120 -20 -26 118 
-96 120 59 -116 

2 23 87 -52 
-57 -50 -15 -82 
-73 -19 60 113 
-16 -48 7 24 

-17 104 -35 -65 
-113 110 -46 -5 
-112 -118 12 -7 
103 37 -74 85 

-105 -37 -103 46 
5 77 -21 86 
115 -73 -38 109 
45 -39 77 127 

96 62 -117 -108 
41 42 -118 -60 
-88 43 -33 101 
-51 -59 109 101 

-78 -115 -113 92 
22 65 36 -123 
90 87 -116 -127 
-33 -111 -66 -110 

120 10 -79 29 
36 121 -42 -12 
6 65 79 106 
-74 101 19 -16 

-70 19 -100 47 
-64 -23 -15 -46 
69 -122 -45 -14 
75 106 -106 4 


34 89 111 -116 
-67 94 -94 -21 
-120 -20 -26 118 
-96 120 59 -116 

2 23 87 -52 
-57 -50 -15 -82 
-73 -19 60 113 
-16 -48 7 24 

-17 104 -35 -65 
-113 110 -46 -5 
-112 -118 12 -7 
103 37 -74 85 

-105 -37 -103 46 
5 77 -21 86 
115 -73 -38 109 
45 -39 77 127 

96 62 -117 -108 
41 42 -118 -60 
-88 43 -33 101 
-51 -59 109 101 

-78 -115 -113 92 
22 65 36 -123 
90 87 -116 -127 
-33 -111 -66 -110 

120 10 -79 29 
36 121 -42 -12 
6 65 79 106 
-74 101 19 -16 

-70 19 -100 47 
-64 -23 -15 -46 
69 -122 -45 -14 
75 106 -106 4 


34 89 111 -116 
-67 94 -94 -21 
-120 -20 -26 118 
-96 120 59 -116 

2 23 87 -52 
-57 -50 -15 -82 
-73 -19 60 113 
-16 -48 7 24 

-17 104 -35 -65 
-113 110 -46 -5 
-112 -118 12 -7 
103 37 -74 85 

-105 -37 -103 46 
5 77 -21 86 
115 -73 -38 109 
45 -39 77 127 

96 62 -117 -108 
41 42 -118 -60 
-88 43 -33 101 
-51 -59 109 101 

-78 -115 -113 92 
22 65 36 -123 
90 87 -116 -127 
-33 -111 -66 -110 

120 10 -79 29 
36 121 -42 -12 
6 65 79 106 
-74 101 19 -16 

-70 19 -100 47 
-64 -23 -15 -46 
69 -122 -45 -14 
75 106 -106 4 


34 89 111 -116 
-67 94 -94 -21 
-120 -20 -26 118 
-96 120 59 -116 

2 23 87 -52 
-57 -50 -15 -82 
-73 -19 60 113 
-16 -48 7 24 

-17 104 -35 -65 
-113 110 -46 -5 
-112 -118 12 -7 
103 37 -74 85 

-105 -37 -103 46 
5 77 -21 86 
115 -73 -38 109 
45 -39 77 127 

96 62 -117 -108 
41 42 -118 -60 
-88 43 -33 101 
-51 -59 109 101 

-78 -115 -113 92 
22 65 36 -123 
90 87 -116 -127 
-33 -111 -66 -110 

120 10 -79 29 
36 121 -42 -12 
6 65 79 106 
-74 101 19 -16 

-70 19 -100 47 
-64 -23 -15 -46 
69 -122 -45 -14 
75 106 -106 4 



34 89 111 -116 
-67 94 -94 -21 
-120 -20 -26 118 
-96 120 59 -116 

2 23 87 -52 
-57 -50 -15 -82 
-73 -19 60 113 
-16 -48 7 24 

-17 104 -35 -65 
-113 110 -46 -5 
-112 -118 12 -7 
103 37 -74 85 

-105 -37 -103 46 
5 77 -21 86 
115 -73 -38 109 
45 -39 77 127 

96 62 -117 -108 
41 42 -118 -60 
-88 43 -33 101 
-51 -59 109 101 

-78 -115 -113 92 
22 65 36 -123 
90 87 -116 -127 
-33 -111 -66 -110 

120 10 -79 29 
36 121 -42 -12 
6 65 79 106 
-74 101 19 -16 

-70 19 -100 47 
-64 -23 -15 -46 
69 -122 -45 -14 
75 106 -106 4 


34 89 111 -116 
-67 94 -94 -21 
-120 -20 -26 118 
-96 120 59 -116 

2 23 87 -52 
-57 -50 -15 -82 
-73 -19 60 113 
-16 -48 7 24 

-17 104 -35 -65 
-113 110 -46 -5 
-112 -118 12 -7 
103 37 -74 85 

-105 -37 -103 46 
5 77 -21 86 
115 -73 -38 109 
45 -39 77 127 

96 62 -117 -108 
41 42 -118 -60 
-88 43 -33 101 
-51 -59 109 101 

-78 -115 -113 92 
22 65 36 -123 
90 87 -116 -127 
-33 -111 -66 -110 

120 10 -79 29 
36 121 -42 -12 
6 65 79 106 
-74 101 19 -16 

-70 19 -100 47 
-64 -23 -15 -46 
69 -122 -45 -14 
75 106 -106 4 


34 89 111 -116 
-67 94 -94 -21 
-120 -20 -26 118 
-96 120 59 -116 

2 23 87 -52 
-57 -50 -15 -82 
-73 -19 60 113 
-16 -48 7 24 

-17 104 -35 -65 
-113 110 -46 -5 
-112 -118 12 -7 
103 37 -74 85 

-105 -37 -103 46 
5 77 -21 86 
115 -73 -38 109 
45 -39 77 127 

96 62 -117 -108 
41 42 -118 -60 
-88 43 -33 101 
-51 -59 109 101 

-78 -115 -113 92 
22 65 36 -123 
90 87 -116 -127 
-33 -111 -66 -110 

120 10 -79 29 
36 121 -42 -12 
6 65 79 106 
-74 101 19 -16 

-70 19 -100 47 
-64 -23 -15 -46 
69 -122 -45 -14 
75 106 -106 4 


34 89 111 -116 
-67 94 -94 -21 
-120 -20 -26 118 
-96 120 59 -116 

2 23 87 -52 
-57 -50 -15 -82 
-73 -19 60 113 
-16 -48 7 24 

-17 104 -35 -65 
-113 110 -46 -5 
-112 -118 12 -7 
103 37 -74 85 

-105 -37 -103 46 
5 77 -21 86 
115 -73 -38 109 
45 -39 77 127 

96 62 -117 -108 
41 42 -118 -60 
-88 43 -33 101 
-51 -59 109 101 

-78 -115 -113 92 
22 65 36 -123 
90 87 -116 -127 
-33 -111 -66 -110 

120 10 -79 29 
36 121 -42 -12 
6 65 79 106 
-74 101 19 -16 

-70 19 -100 47 
-64 -23 -15 -46 
69 -122 -45 -14 
75 106 -106 4 




64 -45 46 8 
51 -54 -22 -40 
-63 -114 -59 -128 
-106 -85 -31 -76 

109 -61 29 -42 
115 113 102 108 
47 -20 96 66 
64 34 -44 -107 

83 -21 56 -112 
40 -86 91 87 
-58 8 126 40 
-117 -83 121 -118 

124 30 -41 -99 
-19 87 -55 -74 
87 81 -112 10 
-19 29 5 -109 

-76 106 -34 43 
-47 84 116 109 
41 -10 -81 -21 
-60 -54 -121 -5 

-2 -38 -92 -119 
-9 64 41 45 
-107 -66 81 -13 
-88 89 12 -111 

-90 120 -115 118 
-67 104 77 -70 
52 69 79 57 
8 -26 62 -45 

-5 -4 -21 100 
47 -120 64 64 
-90 45 73 88 
-46 -29 -45 7 


64 -45 46 8 
51 -54 -22 -40 
-63 -114 -59 -128 
-106 -85 -31 -76 

109 -61 29 -42 
115 113 102 108 
47 -20 96 66 
64 34 -44 -107 

83 -21 56 -112 
40 -86 91 87 
-58 8 126 40 
-117 -83 121 -118 

124 30 -41 -99 
-19 87 -55 -74 
87 81 -112 10 
-19 29 5 -109 

-76 106 -34 43 
-47 84 116 109 
41 -10 -81 -21 
-60 -54 -121 -5 

-2 -38 -92 -119 
-9 64 41 45 
-107 -66 81 -13 
-88 89 12 -111 

-90 120 -115 118 
-67 104 77 -70 
52 69 79 57 
8 -26 62 -45 

-5 -4 -21 100 
47 -120 64 64 
-90 45 73 88 
-46 -29 -45 7 


64 -45 46 8 
51 -54 -22 -40 
-63 -114 -59 -128 
-106 -85 -31 -76 

109 -61 29 -42 
115 113 102 108 
47 -20 96 66 
64 34 -44 -107 

83 -21 56 -112 
40 -86 91 87 
-58 8 126 40 
-117 -83 121 -118 

124 30 -41 -99 
-19 87 -55 -74 
87 81 -112 10 
-19 29 5 -109 

-76 106 -34 43 
-47 84 116 109 
41 -10 -81 -21 
-60 -54 -121 -5 

-2 -38 -92 -119 
-9 64 41 45 
-107 -66 81 -13 
-88 89 12 -111 

-90 120 -115 118 
-67 104 77 -70 
52 69 79 57 
8 -26 62 -45 

-5 -4 -21 100 
47 -120 64 64 
-90 45 73 88 
-46 -29 -45 7 


64 -45 46 8 
51 -54 -22 -40 
-63 -114 -59 -128 
-106 -85 -31 -76 

109 -61 29 -42 
115 113 102 108 
47 -20 96 66 
64 34 -44 -107 

83 -21 56 -112 
40 -86 91 87 
-58 8 126 40 
-117 -83 121 -118 

124 30 -41 -99 
-19 87 -55 -74 
87 81 -112 10 
-19 29 5 -109 

-76 106 -34 43 
-47 84 116 109 
41 -10 -81 -21 
-60 -54 -121 -5 

-2 -38 -92 -119 
-9 64 41 45 
-107 -66 81 -13 
-88 89 12 -111 

-90 120 -115 118 
-67 104 77 -70 
52 69 79 57 
8 -26 62 -45 

-5 -4 -21 100 
47 -120 64 64 
-90 45 73 88 
-46 -29 -45 7 



64 -45 46 8 
51 -54 -22 -40 
-63 -114 -59 -128 
-106 -85 -31 -76 

109 -61 29 -42 
115 113 102 108 
47 -20 96 66 
64 34 -44 -107 

83 -21 56 -112 
40 -86 91 87 
-58 8 126 40 
-117 -83 121 -118 

124 30 -41 -99 
-19 87 -55 -74 
87 81 -112 10 
-19 29 5 -109 

-76 106 -34 43 
-47 84 116 109 
41 -10 -81 -21 
-60 -54 -121 -5 

-2 -38 -92 -119 
-9 64 41 45 
-107 -66 81 -13 
-88 89 12 -111 

-90 120 -115 118 
-67 104 77 -70 
52 69 79 57 
8 -26 62 -45 

-5 -4 -21 100 
47 -120 64 64 
-90 45 73 88 
-46 -29 -45 7 


64 -45 46 8 
51 -54 -22 -40 
-63 -114 -59 -128 
-106 -85 -31 -76 

109 -61 29 -42 
115 113 102 108 
47 -20 96 66 
64 34 -44 -107 

83 -21 56 -112 
40 -86 91 87 
-58 8 126 40 
-117 -83 121 -118 

124 30 -41 -99 
-19 87 -55 -74 
87 81 -112 10 
-19 29 5 -109 

-76 106 -34 43 
-47 84 116 109 
41 -10 -81 -21 
-60 -54 -121 -5 

-2 -38 -92 -119 
-9 64 41 45 
-107 -66 81 -13 
-88 89 12 -111 

-90 120 -115 118 
-67 104 77 -70 
52 69 79 57 
8 -26 62 -45 

-5 -4 -21 100 
47 -120 64 64 
-90 45 73 88 
-46 -29 -45 7 


64 -45 46 8 
51 -54 -22 -40 
-63 -114 -59 -128 
-106 -85 -31 -76 

109 -61 29 -42 
115 113 102 108 
47 -20 96 66 
64 34 -44 -107 

83 -21 56 -112 
40 -86 91 87 
-58 8 126 40 
-117 -83 121 -118 

124 30 -41 -99 
-19 87 -55 -74 
87 81 -112 10 
-19 29 5 -109 

-76 106 -34 43 
-47 84 116 109 
41 -10 -81 -21 
-60 -54 -121 -5 

-2 -38 -92 -119 
-9 64 41 45 
-107 -66 81 -13 
-88 89 12 -111 

-90 120 -115 118 
-67 104 77 -70 
52 69 79 57 
8 -26 62 -45 

-5 -4 -21 100 
47 -120 64 64 
-90 45 73 88 
-46 -29 -45 7 


64 -45 46 8 
51 -54 -22 -40 
-63 -114 -59 -128 
-106 -85 -31 -76 

109 -61 29 -42 
115 113 102 108 
47 -20 96 66 
64 34 -44 -107 

83 -21 56 -112 
40 -86 91 87 
-58 8 126 40 
-117 -83 121 -118 

124 30 -41 -99 
-19 87 -55 -74 
87 81 -112 10 
-19 29 5 -109 

-76 106 -34 43 
-47 84 116 109 
41 -10 -81 -21 
-60 -54 -121 -5 

-2 -38 -92 -119 
-9 64 41 45 
-107 -66 81 -13 
-88 89 12 -111 

-90 120 -115 118 
-67 104 77 -70 
52 69 79 57 
8 -26 62 -45 

-5 -4 -21 100 
47 -120 64 64 
-90 45 73 88 
-46 -29 -45 7 



64 -45 46 8 
51 -54 -22 -40 
-63 -114 -59 -128 
-106 -85 -31 -76 

109 -61 29 -42 
115 113 102 108 
47 -20 96 66 
64 34 -44 -107 

83 -21 56 -112 
40 -86 91 87 
-58 8 126 40 
-117 -83 121 -118 

124 30 -41 -99 
-19 87 -55 -74 
87 81 -112 10 
-19 29 5 -109 

-76 106 -34 43 
-47 84 116 109 
41 -10 -81 -21 
-60 -54 -121 -5 

-2 -38 -92 -119 
-9 64 41 45 
-107 -66 81 -13 
-88 89 12 -111 

-90 120 -115 118 
-67 104 77 -70 
52 69 79 57 
8 -26 62 -45 

-5 -4 -21 100 
47 -120 64 64 
-90 45 73 88 
-46 -29 -45 7 


64 -45 46 8 
51 -54 -22 -40 
-63 -114 -59 -128 
-106 -85 -31 -76 

109 -61 29 -42 
115 113 102 108 
47 -20 96 66 
64 34 -44 -107 

83 -21 56 -112 
40 -86 91 87 
-58 8 126 40 
-117 -83 121 -118 

124 30 -41 -99 
-19 87 -55 -74 
87 81 -112 10 
-19 29 5 -109 

-76 106 -34 43 
-47 84 116 109 
41 -10 -81 -21 
-60 -54 -121 -5 

-2 -38 -92 -119 
-9 64 41 45 
-107 -66 81 -13 
-88 89 12 -111 

-90 120 -115 118 
-67 104 77 -70 
52 69 79 57 
8 -26 62 -45 

-5 -4 -21 100 
47 -120 64 64 
-90 45 73 88 
-46 -29 -45 7 


64 -45 46 8 
51 -54 -22 -40 
-63 -114 -59 -128 
-106 -85 -31 -76 

109 -61 29 -42 
115 113 102 108 
47 -20 96 66 
64 34 -44 -107 

83 -21 56 -112 
40 -86 91 87 
-58 8 126 40 
-117 -83 121 -118 

124 30 -41 -99 
-19 87 -55 -74 
87 81 -112 10 
-19 29 5 -109 

-76 106 -34 43 
-47 84 116 109 
41 -10 -81 -21 
-60 -54 -121 -5 

-2 -38 -92 -119 
-9 64 41 45 
-107 -66 81 -13 
-88 89 12 -111 

-90 120 -115 118 
-67 104 77 -70 
52 69 79 57 
8 -26 62 -45 

-5 -4 -21 100 
47 -120 64 64 
-90 45 73 88 
-46 -29 -45 7 


64 -45 46 8 
51 -54 -22 -40 
-63 -114 -59 -128 
-106 -85 -31 -76 

109 -61 29 -42 
115 113 102 108 
47 -20 96 66 
64 34 -44 -107 

83 -21 56 -112 
40 -86 91 87 
-58 8 126 40 
-117 -83 121 -118 

124 30 -41 -99 
-19 87 -55 -74 
87 81 -112 10 
-19 29 5 -109 

-76 106 -34 43 
-47 84 116 109 
41 -10 -81 -21 
-60 -54 -121 -5 

-2 -38 -92 -119 
-9 64 41 45 
-107 -66 81 -13 
-88 89 12 -111 

-90 120 -115 118 
-67 104 77 -70 
52 69 79 57 
8 -26 62 -45 

-5 -4 -21 100 
47 -120 64 64 
-90 45 73 88 
-46 -29 -45 7 



64 -45 46 8 
51 -54 -22 -40 
-63 -114 -59 -128 
-106 -85 -31 -76 

109 -61 29 -42 
115 113 102 108 
47 -20 96 66 
64 34 -44 -107 

83 -21 56 -112 
40 -86 91 87 
-58 8 126 40 
-117 -83 121 -118 

124 30 -41 -99 
-19 87 -55 -74 
87 81 -112 10 
-19 29 5 -109 

-76 106 -34 43 
-47 84 116 109 
41 -10 -81 -21 
-60 -54 -121 -5 

-2 -38 -92 -119 
-9 64 41 45 
-107 -66 81 -13 
-88 89 12 -111 

-90 120 -115 118 
-67 104 77 -70 
52 69 79 57 
8 -26 62 -45 

-5 -4 -21 100 
47 -120 64 64 
-90 45 73 88 
-46 -29 -45 7 


64 -45 46 8 
51 -54 -22 -40 
-63 -114 -59 -128 
-106 -85 -31 -76 

109 -61 29 -42 
115 113 102 108 
47 -20 96 66 
64 34 -44 -107 

83 -21 56 -112 
40 -86 91 87 
-58 8 126 40 
-117 -83 121 -118 

124 30 -41 -99 
-19 87 -55 -74 
87 81 -112 10 
-19 29 5 -109 

-76 106 -34 43 
-47 84 116 109 
41 -10 -81 -21 
-60 -54 -121 -5 

-2 -38 -92 -119 
-9 64 41 45 
-107 -66 81 -13 
-88 89 12 -111 

-90 120 -115 118 
-67 104 77 -70 
52 69 79 57 
8 -26 62 -45 

-5 -4 -21 100 
47 -120 64 64 
-90 45 73 88 
-46 -29 -45 7 


64 -45 46 8 
51 -54 -22 -40 
-63 -114 -59 -128 
-106 -85 -31 -76 

109 -61 29 -42 
115 113 102 108 
47 -20 96 66 
64 34 -44 -107 

83 -21 56 -112 
40 -86 91 87 
-58 8 126 40 
-117 -83 121 -118 

124 30 -41 -99 
-19 87 -55 -74 
87 81 -112 10 
-19 29 5 -109 

-76 106 -34 43 
-47 84 116 109 
41 -10 -81 -21 
-60 -54 -121 -5 

-2 -38 -92 -119 
-9 64 41 45 
-107 -66 81 -13 
-88 89 12 -111 

-90 120 -115 118 
-67 104 77 -70 
52 69 79 57 
8 -26 62 -45 

-5 -4 -21 100 
47 -120 64 64 
-90 45 73 88 
-46 -29 -45 7 


64 -45 46 8 
51 -54 -22 -40 
-63 -114 -59 -128 
-106 -85 -31 -76 

109 -61 29 -42 
115 113 102 108 
47 -20 96 66 
64 34 -44 -107 

83 -21 56 -112 
40 -86 91 87 
-58 8 126 40 
-117 -83 121 -118 

124 30 -41 -99 
-19 87 -55 -74 
87 81 -112 10 
-19 29 5 -109 

-76 106 -34 43 
-47 84 116 109 
41 -10 -81 -21 
-60 -54 -121 -5 

-2 -38 -92 -119 
-9 64 41 45 
-107 -66 81 -13 
-88 89 12 -111 

-90 120 -115 118 
-67 104 77 -70 
52 69 79 57 
8 -26 62 -45 

-5 -4 -21 100 
47 -120 64 64 
-90 45 73 88 
-46 -29 -45 7 



64 -45 46 8 
51 -54 -22 -40 
-63 -114 -59 -128 
-106 -85 -31 -76 

109 -61 29 -42 
115 113 102 108 
47 -20 96 66 
64 34 -44 -107 

83 -21 56 -112 
40 -86 91 87 
-58 8 126 40 
-117 -83 121 -118 

124 30 -41 -99 
-19 87 -55 -74 
87 81 -112 10 
-19 29 5 -109 

-76 106 -34 43 
-47 84 116 109 
41 -10 -81 -21 
-60 -54 -121 -5 

-2 -38 -92 -119 
-9 64 41 45 
-107 -66 81 -13 
-88 89 12 -111 

-90 120 -115 118 
-67 104 77 -70 
52 69 79 57 
8 -26 62 -45 

-5 -4 -21 100 
47 -120 64 64 
-90 45 73 88 
-46 -29 -45 7 


64 -45 46 8 
51 -54 -22 -40 
-63 -114 -59 -128 
-106 -85 -31 -76 

109 -61 29 -42 
115 113 102 108 
47 -20 96 66 
64 34 -44 -107 

83 -21 56 -112 
40 -86 91 87 
-58 8 126 40 
-117 -83 121 -118 

124 30 -41 -99 
-19 87 -55 -74 
87 81 -112 10 
-19 29 5 -109 

-76 106 -34 43 
-47 84 116 109 
41 -10 -81 -21 
-60 -54 -121 -5 

-2 -38 -92 -119 
-9 64 41 45 
-107 -66 81 -13 
-88 89 12 -111 

-90 120 -115 118 
-67 104 77 -70 
52 69 79 57 
8 -26 62 -45 

-5 -4 -21 100 
47 -120 64 64 
-90 45 73 88 
-46 -29 -45 7 


64 -45 46 8 
51 -54 -22 -40 
-63 -114 -59 -128 
-106 -85 -31 -76 

109 -61 29 -42 
115 113 102 108 
47 -20 96 66 
64 34 -44 -107 

83 -21 56 -112 
40 -86 91 87 
-58 8 126 40 
-117 -83 121 -118 

124 30 -41 -99 
-19 87 -55 -74 
87 81 -112 10 
-19 29 5 -109 

-76 106 -34 43 
-47 84 116 109 
41 -10 -81 -21 
-60 -54 -121 -5 

-2 -38 -92 -119 
-9 64 41 45 
-107 -66 81 -13 
-88 89 12 -111 

-90 120 -115 118 
-67 104 77 -70 
52 69 79 57 
8 -26 62 -45 

-5 -4 -21 100 
47 -120 64 64 
-90 45 73 88 
-46 -29 -45 7 


64 -45 46 8 
51 -54 -22 -40 
-63 -114 -59 -128 
-106 -85 -31 -76 

109 -61 29 -42 
115 113 102 108 
47 -20 96 66 
64 34 -44 -107 

83 -21 56 -112 
40 -86 91 87 
-58 8 126 40 
-117 -83 121 -118 

124 30 -41 -99 
-19 87 -55 -74 
87 81 -112 10 
-19 29 5 -109 

-76 106 -34 43 
-47 84 116 109 
41 -10 -81 -21 
-60 -54 -121 -5 

-2 -38 -92 -119 
-9 64 41 45 
-107 -66 81 -13 
-88 89 12 -111 

-90 120 -115 118 
-67 104 77 -70 
52 69 79 57 
8 -26 62 -45 

-5 -4 -21 100 
47 -120 64 64 
-90 45 73 88 
-46 -29 -45 7 



64 -45 46 8 
51 -54 -22 -40 
-63 -114 -59 -128 
-106 -85 -31 -76 

109 -61 29 -42 
115 113 102 108 
47 -20 96 66 
64 34 -44 -107 

83 -21 56 -112 
40 -86 91 87 
-58 8 126 40 
-117 -83 121 -118 

124 30 -41 -99 
-19 87 -55 -74 
87 81 -112 10 
-19 29 5 -109 

-76 106 -34 43 
-47 84 116 109 
41 -10 -81 -21 
-60 -54 -121 -5 

-2 -38 -92 -119 
-9 64 41 45 
-107 -66 81 -13 
-88 89 12 -111 

-90 120 -115 118 
-67 104 77 -70 
52 69 79 57 
8 -26 62 -45 

-5 -4 -21 100 
47 -120 64 64 
-90 45 73 88 
-46 -29 -45 7 


64 -45 46 8 
51 -54 -22 -40 
-63 -114 -59 -128 
-106 -85 -31 -76 

109 -61 29 -42 
115 113 102 108 
47 -20 96 66 
64 34 -44 -107 

83 -21 56 -112 
40 -86 91 87 
-58 8 126 40 
-117 -83 121 -118 

124 30 -41 -99 
-19 87 -55 -74 
87 81 -112 10 
-19 29 5 -109 

-76 106 -34 43 
-47 84 116 109 
41 -10 -81 -21 
-60 -54 -121 -5 

-2 -38 -92 -119 
-9 64 41 45 
-107 -66 81 -13 
-88 89 12 -111 

-90 120 -115 118 
-67 104 77 -70 
52 69 79 57 
8 -26 62 -45 

-5 -4 -21 100 
47 -120 64 64 
-90 45 73 88 
-46 -29 -45 7 


64 -45 46 8 
51 -54 -22 -40 
-63 -114 -59 -128 
-106 -85 -31 -76 

109 -61 29 -42 
115 113 102 108 
47 -20 96 66 
64 34 -44 -107 

83 -21 56 -112 
40 -86 91 87 
-58 8 126 40 
-117 -83 121 -118 

124 30 -41 -99 
-19 87 -55 -74 
87 81 -112 10 
-19 29 5 -109 

-76 106 -34 43 
-47 84 116 109 
41 -10 -81 -21 
-60 -54 -121 -5 

-2 -38 -92 -119 
-9 64 41 45 
-107 -66 81 -13 
-88 89 12 -111 

-90 120 -115 118 
-67 104 77 -70 
52 69 79 57 
8 -26 62 -45 

-5 -4 -21 100 
47 -120 64 64 
-90 45 73 88 
-46 -29 -45 7 


64 -45 46 8 
51 -54 -22 -40 
-63 -114 -59 -128 
-106 -85 -31 -76 

109 -61 29 -42 
115 113 102 108 
47 -20 96 66 
64 34 -44 -107 

83 -21 56 -112 
40 -86 91 87 
-58 8 126 40 
-117 -83 121 -118 

124 30 -41 -99 
-19 87 -55 -74 
87 81 -112 10 
-19 29 5 -109 

-76 106 -34 43 
-47 84 116 109 
41 -10 -81 -21 
-60 -54 -121 -5 

-2 -38 -92 -119 
-9 64 41 45 
-107 -66 81 -13 
-88 89 12 -111 

-90 120 -115 118 
-67 104 77 -70 
52 69 79 57 
8 -26 62 -45 

-5 -4 -21 100 
47 -120 64 64 
-90 45 73 88 
-46 -29 -45 7 



64 -45 46 8 
51 -54 -22 -40 
-63 -114 -59 -128 
-106 -85 -31 -76 

109 -61 29 -42 
115 113 102 108 
47 -20 96 66 
64 34 -44 -107 

83 -21 56 -112 
40 -86 91 87 
-58 8 126 40 
-117 -83 121 -118 

124 30 -41 -99 
-19 87 -55 -74 
87 81 -112 10 
-19 29 5 -109 

-76 106 -34 43 
-47 84 116 109 
41 -10 -81 -21 
-60 -54 -121 -5 

-2 -38 -92 -119 
-9 64 41 45 
-107 -66 81 -13 
-88 89 12 -111 

-90 120 -115 118 
-67 104 77 -70 
52 69 79 57 
8 -26 62 -45 

-5 -4 -21 100 
47 -120 64 64 
-90 45 73 88 
-46 -29 -45 7 


64 -45 46 8 
51 -54 -22 -40 
-63 -114 -59 -128 
-106 -85 -31 -76 

109 -61 29 -42 
115 113 102 108 
47 -20 96 66 
64 34 -44 -107 

83 -21 56 -112 
40 -86 91 87 
-58 8 126 40 
-117 -83 121 -118 

124 30 -41 -99 
-19 87 -55 -74 
87 81 -112 10 
-19 29 5 -109 

-76 106 -34 43 
-47 84 116 109 
41 -10 -81 -21 
-60 -54 -121 -5 

-2 -38 -92 -119 
-9 64 41 45 
-107 -66 81 -13 
-88 89 12 -111 

-90 120 -115 118 
-67 104 77 -70 
52 69 79 57 
8 -26 62 -45 

-5 -4 -21 100 
47 -120 64 64 
-90 45 73 88 
-46 -29 -45 7 


64 -45 46 8 
51 -54 -22 -40 
-63 -114 -59 -128 
-106 -85 -31 -76 

109 -61 29 -42 
115 113 102 108 
47 -20 96 66 
64 34 -44 -107 

83 -21 56 -112 
40 -86 91 87 
-58 8 126 40 
-117 -83 121 -118 

124 30 -41 -99 
-19 87 -55 -74 
87 81 -112 10 
-19 29 5 -109 

-76 106 -34 43 
-47 84 116 109 
41 -10 -81 -21 
-60 -54 -121 -5 

-2 -38 -92 -119 
-9 64 41 45 
-107 -66 81 -13 
-88 89 12 -111 

-90 120 -115 118 
-67 104 77 -70 
52 69 79 57 
8 -26 62 -45 

-5 -4 -21 100 
47 -120 64 64 
-90 45 73 88 
-46 -29 -45 7 


64 -45 46 8 
51 -54 -22 -40 
-63 -114 -59 -128 
-106 -85 -31 -76 

109 -61 29 -42 
115 113 102 108 
47 -20 96 66 
64 34 -44 -107 

83 -21 56 -112 
40 -86 91 87 
-58 8 126 40 
-117 -83 121 -118 

124 30 -41 -99 
-19 87 -55 -74 
87 81 -112 10 
-19 29 5 -109 

-76 106 -34 43 
-47 84 116 109 
41 -10 -81 -21 
-60 -54 -121 -5 

-2 -38 -92 -119 
-9 64 41 45 
-107 -66 81 -13 
-88 89 12 -111 

-90 120 -115 118 
-67 104 77 -70 
52 69 79 57 
8 -26 62 -45 

-5 -4 -21 100 
47 -120 64 64 
-90 45 73 88 
-46 -29 -45 7 



64 -45 46 8 
51 -54 -22 -40 
-63 -114 -59 -128 
-106 -85 -31 -76 

109 -61 29 -42 
115 113 102 108 
47 -20 96 66 
64 34 -44 -107 

83 -21 56 -112 
40 -86 91 87 
-58 8 126 40 
-117 -83 121 -118 

124 30 -41 -99 
-19 87 -55 -74 
87 81 -112 10 
-19 29 5 -109 

-76 106 -34 43 
-47 84 116 109 
41 -10 -81 -21 
-60 -54 -121 -5 

-2 -38 -92 -119 
-9 64 41 45 
-107 -66 81 -13 
-88 89 12 -111 

-90 120 -115 118 
-67 104 77 -70 
52 69 79 57 
8 -26 62 -45 

-5 -4 -21 100 
47 -120 64 64 
-90 45 73 88 
-46 -29 -45 7 


64 -45 46 8 
51 -54 -22 -40 
-63 -114 -59 -128 
-106 -85 -31 -76 

109 -61 29 -42 
115 113 102 108 
47 -20 96 66 
64 34 -44 -107 

83 -21 56 -112 
40 -86 91 87 
-58 8 126 40 
-117 -83 121 -118 

124 30 -41 -99 
-19 87 -55 -74 
87 81 -112 10 
-19 29 5 -109 

-76 106 -34 43 
-47 84 116 109 
41 -10 -81 -21 
-60 -54 -121 -5 

-2 -38 -92 -119 
-9 64 41 45 
-107 -66 81 -13 
-88 89 12 -111 

-90 120 -115 118 
-67 104 77 -70 
52 69 79 57 
8 -26 62 -45 

-5 -4 -21 100 
47 -120 64 64 
-90 45 73 88 
-46 -29 -45 7 


64 -45 46 8 
51 -54 -22 -40 
-63 -114 -59 -128 
-106 -85 -31 -76 

109 -61 29 -42 
115 113 102 108 
47 -20 96 66 
64 34 -44 -107 

83 -21 56 -112 
40 -86 91 87 
-58 8 126 40 
-117 -83 121 -118 

124 30 -41 -99 
-19 87 -55 -74 
87 81 -112 10 
-19 29 5 -109 

-76 106 -34 43 
-47 84 116 109 
41 -10 -81 -21 
-60 -54 -121 -5 

-2 -38 -92 -119 
-9 64 41 45 
-107 -66 81 -13 
-88 89 12 -111 

-90 120 -115 118 
-67 104 77 -70 
52 69 79 57 
8 -26 62 -45 

-5 -4 -21 100 
47 -120 64 64 
-90 45 73 88 
-46 -29 -45 7 


64 -45 46 8 
51 -54 -22 -40 
-63 -114 -59 -128 
-106 -85 -31 -76 

109 -61 29 -42 
115 113 102 108 
47 -20 96 66 
64 34 -44 -107 

83 -21 56 -112 
40 -86 91 87 
-58 8 126 40 
-117 -83 121 -118 

124 30 -41 -99 
-19 87 -55 -74 
87 81 -112 10 
-19 29 5 -109 

-76 106 -34 43 
-47 84 116 109 
41 -10 -81 -21 
-60 -54 -121 -5 

-2 -38 -92 -119 
-9 64 41 45 
-107 -66 81 -13 
-88 89 12 -111 

-90 120 -115 118 
-67 104 77 -70 
52 69 79 57 
8 -26 62 -45 

-5 -4 -21 100 
47 -120 64 64 
-90 45 73 88 
-46 -29 -45 7 



64 -45 46 8 
51 -54 -22 -40 
-63 -114 -59 -128 
-106 -85 -31 -76 

109 -61 29 -42 
115 113 102 108 
47 -20 96 66 
64 34 -44 -107 

83 -21 56 -112 
40 -86 91 87 
-58 8 126 40 
-117 -83 121 -118 

124 30 -41 -99 
-19 87 -55 -74 
87 81 -112 10 
-19 29 5 -109 

-76 106 -34 43 
-47 84 116 109 
41 -10 -81 -21 
-60 -54 -121 -5 

-2 -38 -92 -119 
-9 64 41 45 
-107 -66 81 -13 
-88 89 12 -111 

-90 120 -115 118 
-67 104 77 -70 
52 69 79 57 
8 -26 62 -45 

-5 -4 -21 100 
47 -120 64 64 
-90 45 73 88 
-46 -29 -45 7 


64 -45 46 8 
51 -54 -22 -40 
-63 -114 -59 -128 
-106 -85 -31 -76 

109 -61 29 -42 
115 113 102 108 
47 -20 96 66 
64 34 -44 -107 

83 -21 56 -112 
40 -86 91 87 
-58 8 126 40 
-117 -83 121 -118 

124 30 -41 -99 
-19 87 -55 -74 
87 81 -112 10 
-19 29 5 -109 

-76 106 -34 43 
-47 84 116 109 
41 -10 -81 -21 
-60 -54 -121 -5 

-2 -38 -92 -119 
-9 64 41 45 
-107 -66 81 -13 
-88 89 12 -111 

-90 120 -115 118 
-67 104 77 -70 
52 69 79 57 
8 -26 62 -45 

-5 -4 -21 100 
47 -120 64 64 
-90 45 73 88 
-46 -29 -45 7 


64 -45 46 8 
51 -54 -22 -40 
-63 -114 -59 -128 
-106 -85 -31 -76 

109 -61 29 -42 
115 113 102 108 
47 -20 96 66 
64 34 -44 -107 

83 -21 56 -112 
40 -86 91 87 
-58 8 126 40 
-117 -83 121 -118 

124 30 -41 -99 
-19 87 -55 -74 
87 81 -112 10 
-19 29 5 -109 

-76 106 -34 43 
-47 84 116 109 
41 -10 -81 -21 
-60 -54 -121 -5 

-2 -38 -92 -119 
-9 64 41 45 
-107 -66 81 -13 
-88 89 12 -111 

-90 120 -115 118 
-67 104 77 -70 
52 69 79 57 
8 -26 62 -45 

-5 -4 -21 100 
47 -120 64 64 
-90 45 73 88 
-46 -29 -45 7 


64 -45 46 8 
51 -54 -22 -40 
-63 -114 -59 -128 
-106 -85 -31 -76 

109 -61 29 -42 
115 113 102 108 
47 -20 96 66 
64 34 -44 -107 

83 -21 56 -112 
40 -86 91 87 
-58 8 126 40 
-117 -83 121 -118 

124 30 -41 -99 
-19 87 -55 -74 
87 81 -112 10 
-19 29 5 -109 

-76 106 -34 43 
-47 84 116 109 
41 -10 -81 -21 
-60 -54 -121 -5 

-2 -38 -92 -119 
-9 64 41 45 
-107 -66 81 -13 
-88 89 12 -111 

-90 120 -115 118 
-67 104 77 -70 
52 69 79 57 
8 -26 62 -45 

-5 -4 -21 100 
47 -120 64 64 
-90 45 73 88 
-46 -29 -45 7 



64 -45 46 8 
51 -54 -22 -40 
-63 -114 -59 -128 
-106 -85 -31 -76 

109 -61 29 -42 
115 113 102 108 
47 -20 96 66 
64 34 -44 -107 

83 -21 56 -112 
40 -86 91 87 
-58 8 126 40 
-117 -83 121 -118 

124 30 -41 -99 
-19 87 -55 -74 
87 81 -112 10 
-19 29 5 -109 

-76 106 -34 43 
-47 84 116 109 
41 -10 -81 -21 
-60 -54 -121 -5 

-2 -38 -92 -119 
-9 64 41 45 
-107 -66 81 -13 
-88 89 12 -111 

-90 120 -115 118 
-67 104 77 -70 
52 69 79 57 
8 -26 62 -45 

-5 -4 -21 100 
47 -120 64 64 
-90 45 73 88 
-46 -29 -45 7 


64 -45 46 8 
51 -54 -22 -40 
-63 -114 -59 -128 
-106 -85 -31 -76 

109 -61 29 -42 
115 113 102 108 
47 -20 96 66 
64 34 -44 -107 

83 -21 56 -112 
40 -86 91 87 
-58 8 126 40 
-117 -83 121 -118 

124 30 -41 -99 
-19 87 -55 -74 
87 81 -112 10 
-19 29 5 -109 

-76 106 -34 43 
-47 84 116 109 
41 -10 -81 -21 
-60 -54 -121 -5 

-2 -38 -92 -119 
-9 64 41 45 
-107 -66 81 -13 
-88 89 12 -111 

-90 120 -115 118 
-67 104 77 -70 
52 69 79 57 
8 -26 62 -45 

-5 -4 -21 100 
47 -120 64 64 
-90 45 73 88 
-46 -29 -45 7 


64 -45 46 8 
51 -54 -22 -40 
-63 -114 -59 -128 
-106 -85 -31 -76 

109 -61 29 -42 
115 113 102 108 
47 -20 96 66 
64 34 -44 -107 

83 -21 56 -112 
40 -86 91 87 
-58 8 126 40 
-117 -83 121 -118 

124 30 -41 -99 
-19 87 -55 -74 
87 81 -112 10 
-19 29 5 -109 

-76 106 -34 43 
-47 84 116 109 
41 -10 -81 -21 
-60 -54 -121 -5 

-2 -38 -92 -119 
-9 64 41 45 
-107 -66 81 -13 
-88 89 12 -111 

-90 120 -115 118 
-67 104 77 -70 
52 69 79 57 
8 -26 62 -45 

-5 -4 -21 100 
47 -120 64 64 
-90 45 73 88 
-46 -29 -45 7 


64 -45 46 8 
51 -54 -22 -40 
-63 -114 -59 -128 
-106 -85 -31 -76 

109 -61 29 -42 
115 113 102 108 
47 -20 96 66 
64 34 -44 -107 

83 -21 56 -112 
40 -86 91 87 
-58 8 126 40 
-117 -83 121 -118 

124 30 -41 -99 
-19 87 -55 -74 
87 81 -112 10 
-19 29 5 -109 

-76 106 -34 43 
-47 84 116 109 
41 -10 -81 -21 
-60 -54 -121 -5 

-2 -38 -92 -119 
-9 64 41 45 
-107 -66 81 -13 
-88 89 12 -111 

-90 120 -115 118 
-67 104 77 -70 
52 69 79 57 
8 -26 62 -45 

-5 -4 -21 100 
47 -120 64 64 
-90 45 73 88 
-46 -29 -45 7 



64 -45 46 8 
51 -54 -22 -40 
-63 -114 -59 -128 
-106 -85 -31 -76 

109 -61 29 -42 
115 113 102 108 
47 -20 96 66 
64 34 -44 -107 

83 -21 56 -112 
40 -86 91 87 
-58 8 126 40 
-117 -83 121 -118 

124 30 -41 -99 
-19 87 -55 -74 
87 81 -112 10 
-19 29 5 -109 

-76 106 -34 43 
-47 84 116 109 
41 -10 -81 -21 
-60 -54 -121 -5 

-2 -38 -92 -119 
-9 64 41 45 
-107 -66 81 -13 
-88 89 12 -111 

-90 120 -115 118 
-67 104 77 -70 
52 69 79 57 
8 -26 62 -45 

-5 -4 -21 100 
47 -120 64 64 
-90 45 73 88 
-46 -29 -45 7 


64 -45 46 8 
51 -54 -22 -40 
-63 -114 -59 -128 
-106 -85 -31 -76 

109 -61 29 -42 
115 113 102 108 
47 -20 96 66 
64 34 -44 -107 

83 -21 56 -112 
40 -86 91 87 
-58 8 126 40 
-117 -83 121 -118 

124 30 -41 -99 
-19 87 -55 -74 
87 81 -112 10 
-19 29 5 -109 

-76 106 -34 43 
-47 84 116 109 
41 -10 -81 -21 
-60 -54 -121 -5 

-2 -38 -92 -119 
-9 64 41 45 
-107 -66 81 -13 
-88 89 12 -111 

-90 120 -115 118 
-67 104 77 -70 
52 69 79 57 
8 -26 62 -45 

-5 -4 -21 100 
47 -120 64 64 
-90 45 73 88 
-46 -29 -45 7 


64 -45 46 8 
51 -54 -22 -40 
-63 -114 -59 -128 
-106 -85 -31 -76 

109 -61 29 -42 
115 113 102 108 
47 -20 96 66 
64 34 -44 -107 

83 -21 56 -112 
40 -86 91 87 
-58 8 126 40 
-117 -83 121 -118 

124 30 -41 -99 
-19 87 -55 -74 
87 81 -112 10 
-19 29 5 -109 

-76 106 -34 43 
-47 84 116 109 
41 -10 -81 -21 
-60 -54 -121 -5 

-2 -38 -92 -119 
-9 64 41 45 
-107 -66 81 -13 
-88 89 12 -111 

-90 120 -115 118 
-67 104 77 -70 
52 69 79 57 
8 -26 62 -45 

-5 -4 -21 100 
47 -120 64 64 
-90 45 73 88 
-46 -29 -45 7 


64 -45 46 8 
51 -54 -22 -40 
-63 -114 -59 -128 
-106 -85 -31 -76 

109 -61 29 -42 
115 113 102 108 
47 -20 96 66 
64 34 -44 -107 

83 -21 56 -112 
40 -86 91 87 
-58 8 126 40 
-117 -83 121 -118 

124 30 -41 -99 
-19 87 -55 -74 
87 81 -112 10 
-19 29 5 -109 

-76 106 -34 43 
-47 84 116 109 
41 -10 -81 -21 
-60 -54 -121 -5 

-2 -38 -92 -119 
-9 64 41 45 
-107 -66 81 -13 
-88 89 12 -111 

-90 120 -115 118 
-67 104 77 -70 
52 69 79 57 
8 -26 62 -45 

-5 -4 -21 100 
47 -120 64 64 
-90 45 73 88 
-46 -29 -45 7 



64 -45 46 8 
51 -54 -22 -40 
-63 -114 -59 -128 
-106 -85 -31 -76 

109 -61 29 -42 
115 113 102 108 
47 -20 96 66 
64 34 -44 -107 

83 -21 56 -112 
40 -86 91 87 
-58 8 126 40 
-117 -83 121 -118 

124 30 -41 -99 
-19 87 -55 -74 
87 81 -112 10 
-19 29 5 -109 

-76 106 -34 43 
-47 84 116 109 
41 -10 -81 -21 
-60 -54 -121 -5 

-2 -38 -92 -119 
-9 64 41 45 
-107 -66 81 -13 
-88 89 12 -111 

-90 120 -115 118 
-67 104 77 -70 
52 69 79 57 
8 -26 62 -45 

-5 -4 -21 100 
47 -120 64 64 
-90 45 73 88 
-46 -29 -45 7 


64 -45 46 8 
51 -54 -22 -40 
-63 -114 -59 -128 
-106 -85 -31 -76 

109 -61 29 -42 
115 113 102 108 
47 -20 96 66 
64 34 -44 -107 

83 -21 56 -112 
40 -86 91 87 
-58 8 126 40 
-117 -83 121 -118 

124 30 -41 -99 
-19 87 -55 -74 
87 81 -112 10 
-19 29 5 -109 

-76 106 -34 43 
-47 84 116 109 
41 -10 -81 -21 
-60 -54 -121 -5 

-2 -38 -92 -119 
-9 64 41 45 
-107 -66 81 -13 
-88 89 12 -111 

-90 120 -115 118 
-67 104 77 -70 
52 69 79 57 
8 -26 62 -45 

-5 -4 -21 100 
47 -120 64 64 
-90 45 73 88 
-46 -29 -45 7 


64 -45 46 8 
51 -54 -22 -40 
-63 -114 -59 -128 
-106 -85 -31 -76 

109 -61 29 -42 
115 113 102 108 
47 -20 96 66 
64 34 -44 -107 

83 -21 56 -112 
40 -86 91 87 
-58 8 126 40 
-117 -83 121 -118 

124 30 -41 -99 
-19 87 -55 -74 
87 81 -112 10 
-19 29 5 -109 

-76 106 -34 43 
-47 84 116 109 
41 -10 -81 -21 
-60 -54 -121 -5 

-2 -38 -92 -119 
-9 64 41 45 
-107 -66 81 -13 
-88 89 12 -111 

-90 120 -115 118 
-67 104 77 -70 
52 69 79 57 
8 -26 62 -45 

-5 -4 -21 100 
47 -120 64 64 
-90 45 73 88 
-46 -29 -45 7 


64 -45 46 8 
51 -54 -22 -40 
-63 -114 -59 -128 
-106 -85 -31 -76 

109 -61 29 -42 
115 113 102 108 
47 -20 96 66 
64 34 -44 -107 

83 -21 56 -112 
40 -86 91 87 
-58 8 126 40 
-117 -83 121 -118 

124 30 -41 -99 
-19 87 -55 -74 
87 81 -112 10 
-19 29 5 -109 

-76 106 -34 43 
-47 84 116 109 
41 -10 -81 -21 
-60 -54 -121 -5 

-2 -38 -92 -119 
-9 64 41 45 
-107 -66 81 -13 
-88 89 12 -111 

-90 120 -115 118 
-67 104 77 -70 
52 69 79 57 
8 -26 62 -45 

-5 -4 -21 100 
47 -120 64 64 
-90 45 73 88 
-46 -29 -45 7 



64 -45 46 8 
51 -54 -22 -40 
-63 -114 -59 -128 
-106 -85 -31 -76 

109 -61 29 -42 
115 113 102 108 
47 -20 96 66 
64 34 -44 -107 

83 -21 56 -112 
40 -86 91 87 
-58 8 126 40 
-117 -83 121 -118 

124 30 -41 -99 
-19 87 -55 -74 
87 81 -112 10 
-19 29 5 -109 

-76 106 -34 43 
-47 84 116 109 
41 -10 -81 -21 
-60 -54 -121 -5 

-2 -38 -92 -119 
-9 64 41 45 
-107 -66 81 -13 
-88 89 12 -111 

-90 120 -115 118 
-67 104 77 -70 
52 69 79 57 
8 -26 62 -45 

-5 -4 -21 100 
47 -120 64 64 
-90 45 73 88 
-46 -29 -45 7 


64 -45 46 8 
51 -54 -22 -40 
-63 -114 -59 -128 
-106 -85 -31 -76 

109 -61 29 -42 
115 113 102 108 
47 -20 96 66 
64 34 -44 -107 

83 -21 56 -112 
40 -86 91 87 
-58 8 126 40 
-117 -83 121 -118 

124 30 -41 -99 
-19 87 -55 -74 
87 81 -112 10 
-19 29 5 -109 

-76 106 -34 43 
-47 84 116 109 
41 -10 -81 -21 
-60 -54 -121 -5 

-2 -38 -92 -119 
-9 64 41 45 
-107 -66 81 -13 
-88 89 12 -111 

-90 120 -115 118 
-67 104 77 -70 
52 69 79 57 
8 -26 62 -45 

-5 -4 -21 100 
47 -120 64 64 
-90 45 73 88 
-46 -29 -45 7 


64 -45 46 8 
51 -54 -22 -40 
-63 -114 -59 -128 
-106 -85 -31 -76 

109 -61 29 -42 
115 113 102 108 
47 -20 96 66 
64 34 -44 -107 

83 -21 56 -112 
40 -86 91 87 
-58 8 126 40 
-117 -83 121 -118 

124 30 -41 -99 
-19 87 -55 -74 
87 81 -112 10 
-19 29 5 -109 

-76 106 -34 43 
-47 84 116 109 
41 -10 -81 -21 
-60 -54 -121 -5 

-2 -38 -92 -119 
-9 64 41 45 
-107 -66 81 -13 
-88 89 12 -111 

-90 120 -115 118 
-67 104 77 -70 
52 69 79 57 
8 -26 62 -45 

-5 -4 -21 100 
47 -120 64 64 
-90 45 73 88 
-46 -29 -45 7 


64 -45 46 8 
51 -54 -22 -40 
-63 -114 -59 -128 
-106 -85 -31 -76 

109 -61 29 -42 
115 113 102 108 
47 -20 96 66 
64 34 -44 -107 

83 -21 56 -112 
40 -86 91 87 
-58 8 126 40 
-117 -83 121 -118 

124 30 -41 -99 
-19 87 -55 -74 
87 81 -112 10 
-19 29 5 -109 

-76 106 -34 43 
-47 84 116 109 
41 -10 -81 -21 
-60 -54 -121 -5 

-2 -38 -92 -119 
-9 64 41 45 
-107 -66 81 -13 
-88 89 12 -111 

-90 120 -115 118 
-67 104 77 -70 
52 69 79 57 
8 -26 62 -45 

-5 -4 -21 100 
47 -120 64 64 
-90 45 73 88 
-46 -29 -45 7 




64 82 22 67 
1 74 52 -51 
-74 9 27 44 
-75 20 53 123 

-75 -27 17 -32 
-65 112 -121 -122 
-86 71 -91 90 
57 -76 -52 115 

-13 6 1 -46 
-54 -5 104 -90 
126 96 31 64 
-58 -35 44 -120 

25 51 -59 81 
29 103 112 54 
-24 33 -9 29 
-70 38 -120 42 

-108 -68 110 29 
-67 -48 20 13 
-72 100 -81 -8 
-25 4 57 107 

-28 84 81 8 
34 59 75 -30 
57 83 -122 -50 
-90 73 42 -20 

117 38 44 -55 
-10 33 124 -33 
-100 -55 10 -126 
-118 72 29 -34 

61 126 -76 -74 
5 -107 15 -109 
1 -53 -14 69 
-89 56 -118 105 


64 82 22 67 
1 74 52 -51 
-74 9 27 44 
-75 20 53 123 

-75 -27 17 -32 
-65 112 -121 -122 
-86 71 -91 90 
57 -76 -52 115 

-13 6 1 -46 
-54 -5 104 -90 
126 96 31 64 
-58 -35 44 -120 

25 51 -59 81 
29 103 112 54 
-24 33 -9 29 
-70 38 -120 42 

-108 -68 110 29 
-67 -48 20 13 
-72 100 -81 -8 
-25 4 57 107 

-28 84 81 8 
34 59 75 -30 
57 83 -122 -50 
-90 73 42 -20 

117 38 44 -55 
-10 33 124 -33 
-100 -55 10 -126 
-118 72 29 -34 

61 126 -76 -74 
5 -107 15 -109 
1 -53 -14 69 
-89 56 -118 105 


64 82 22 67 
1 74 52 -51 
-74 9 27 44 
-75 20 53 123 

-75 -27 17 -32 
-65 112 -121 -122 
-86 71 -91 90 
57 -76 -52 115 

-13 6 1 -46 
-54 -5 104 -90 
126 96 31 64 
-58 -35 44 -120 

25 51 -59 81 
29 103 112 54 
-24 33 -9 29 
-70 38 -120 42 

-108 -68 110 29 
-67 -48 20 13 
-72 100 -81 -8 
-25 4 57 107 

-28 84 81 8 
34 59 75 -30 
57 83 -122 -50 
-90 73 42 -20 

117 38 44 -55 
-10 33 124 -33 
-100 -55 10 -126 
-118 72 29 -34 

61 126 -76 -74 
5 -107 15 -109 
1 -53 -14 69 
-89 56 -118 105 


64 82 22 67 
1 74 52 -51 
-74 9 27 44 
-75 20 53 123 

-75 -27 17 -32 
-65 112 -121 -122 
-86 71 -91 90 
57 -76 -52 115 

-13 6 1 -46 
-54 -5 104 -90 
126 96 31 64 
-58 -35 44 -120 

25 51 -59 81 
29 103 112 54 
-24 33 -9 29 
-70 38 -120 42 

-108 -68 110 29 
-67 -48 20 13 
-72 100 -81 -8 
-25 4 57 107 

-28 84 81 8 
34 59 75 -30 
57 83 -122 -50 
-90 73 42 -20 

117 38 44 -55 
-10 33 124 -33 
-100 -55 10 -126 
-118 72 29 -34 

61 126 -76 -74 
5 -107 15 -109 
1 -53 -14 69 
-89 56 -118 105 



64 82 22 67 
1 74 52 -51 
-74 9 27 44 
-75 20 53 123 

-75 -27 17 -32 
-65 112 -121 -122 
-86 71 -91 90 
57 -76 -52 115 

-13 6 1 -46 
-54 -5 104 -90 
126 96 31 64 
-58 -35 44 -120 

25 51 -59 81 
29 103 112 54 
-24 33 -9 29 
-70 38 -120 42 

-108 -68 110 29 
-67 -48 20 13 
-72 100 -81 -8 
-25 4 57 107 

-28 84 81 8 
34 59 75 -30 
57 83 -122 -50 
-90 73 42 -20 

117 38 44 -55 
-10 33 124 -33 
-100 -55 10 -126 
-118 72 29 -34 

61 126 -76 -74 
5 -107 15 -109 
1 -53 -14 69 
-89 56 -118 105 


64 82 22 67 
1 74 52 -51 
-74 9 27 44 
-75 20 53 123 

-75 -27 17 -32 
-65 112 -121 -122 
-86 71 -91 90 
57 -76 -52 115 

-13 6 1 -46 
-54 -5 104 -90 
126 96 31 64 
-58 -35 44 -120 

25 51 -59 81 
29 103 112 54 
-24 33 -9 29 
-70 38 -120 42 

-108 -68 110 29 
-67 -48 20 13 
-72 100 -81 -8 
-25 4 57 107 

-28 84 81 8 
34 59 75 -30 
57 83 -122 -50 
-90 73 42 -20 

117 38 44 -55 
-10 33 124 -33 
-100 -55 10 -126 
-118 72 29 -34 

61 126 -76 -74 
5 -107 15 -109 
1 -53 -14 69 
-89 56 -118 105 


64 82 22 67 
1 74 52 -51 
-74 9 27 44 
-75 20 53 123 

-75 -27 17 -32 
-65 112 -121 -122 
-86 71 -91 90 
57 -76 -52 115 

-13 6 1 -46 
-54 -5 104 -90 
126 96 31 64 
-58 -35 44 -120 

25 51 -59 81 
29 103 112 54 
-24 33 -9 29 
-70 38 -120 42 

-108 -68 110 29 
-67 -48 20 13 
-72 100 -81 -8 
-25 4 57 107 

-28 84 81 8 
34 59 75 -30 
57 83 -122 -50 
-90 73 42 -20 

117 38 44 -55 
-10 33 124 -33 
-100 -55 10 -126 
-118 72 29 -34 

61 126 -76 -74 
5 -107 15 -109 
1 -53 -14 69 
-89 56 -118 105 


64 82 22 67 
1 74 52 -51 
-74 9 27 44 
-75 20 53 123 

-75 -27 17 -32 
-65 112 -121 -122 
-86 71 -91 90 
57 -76 -52 115 

-13 6 1 -46 
-54 -5 104 -90 
126 96 31 64 
-58 -35 44 -120 

25 51 -59 81 
29 103 112 54 
-24 33 -9 29 
-70 38 -120 42 

-108 -68 110 29 
-67 -48 20 13 
-72 100 -81 -8 
-25 4 57 107 

-28 84 81 8 
34 59 75 -30 
57 83 -122 -50 
-90 73 42 -20 

117 38 44 -55 
-10 33 124 -33 
-100 -55 10 -126 
-118 72 29 -34 

61 126 -76 -74 
5 -107 15 -109 
1 -53 -14 69 
-89 56 -118 105 



64 82 22 67 
1 74 52 -51 
-74 9 27 44 
-75 20 53 123 

-75 -27 17 -32 
-65 112 -121 -122 
-86 71 -91 90 
57 -76 -52 115 

-13 6 1 -46 
-54 -5 104 -90 
126 96 31 64 
-58 -35 44 -120 

25 51 -59 81 
29 103 112 54 
-24 33 -9 29 
-70 38 -120 42 

-108 -68 110 29 
-67 -48 20 13 
-72 100 -81 -8 
-25 4 57 107 

-28 84 81 8 
34 59 75 -30 
57 83 -122 -50 
-90 73 42 -20 

117 38 44 -55 
-10 33 124 -33 
-100 -55 10 -126 
-118 72 29 -34 

61 126 -76 -74 
5 -107 15 -109 
1 -53 -14 69 
-89 56 -118 105 


64 82 22 67 
1 74 52 -51 
-74 9 27 44 
-75 20 53 123 

-75 -27 17 -32 
-65 112 -121 -122 
-86 71 -91 90 
57 -76 -52 115 

-13 6 1 -46 
-54 -5 104 -90 
126 96 31 64 
-58 -35 44 -120 

25 51 -59 81 
29 103 112 54 
-24 33 -9 29 
-70 38 -120 42 

-108 -68 110 29 
-67 -48 20 13 
-72 100 -81 -8 
-25 4 57 107 

-28 84 81 8 
34 59 75 -30 
57 83 -122 -50 
-90 73 42 -20 

117 38 44 -55 
-10 33 124 -33 
-100 -55 10 -126 
-118 72 29 -34 

61 126 -76 -74 
5 -107 15 -109 
1 -53 -14 69 
-89 56 -118 105 


64 82 22 67 
1 74 52 -51 
-74 9 27 44 
-75 20 53 123 

-75 -27 17 -32 
-65 112 -121 -122 
-86 71 -91 90 
57 -76 -52 115 

-13 6 1 -46 
-54 -5 104 -90 
126 96 31 64 
-58 -35 44 -120 

25 51 -59 81 
29 103 112 54 
-24 33 -9 29 
-70 38 -120 42 

-108 -68 110 29 
-67 -48 20 13 
-72 100 -81 -8 
-25 4 57 107 

-28 84 81 8 
34 59 75 -30 
57 83 -122 -50 
-90 73 42 -20 

117 38 44 -55 
-10 33 124 -33 
-100 -55 10 -126 
-118 72 29 -34 

61 126 -76 -74 
5 -107 15 -109 
1 -53 -14 69 
-89 56 -118 105 


64 82 22 67 
1 74 52 -51 
-74 9 27 44 
-75 20 53 123 

-75 -27 17 -32 
-65 112 -121 -122 
-86 71 -91 90 
57 -76 -52 115 

-13 6 1 -46 
-54 -5 104 -90 
126 96 31 64 
-58 -35 44 -120 

25 51 -59 81 
29 103 112 54 
-24 33 -9 29 
-70 38 -120 42 

-108 -68 110 29 
-67 -48 20 13 
-72 100 -81 -8 
-25 4 57 107 

-28 84 81 8 
34 59 75 -30 
57 83 -122 -50 
-90 73 42 -20 

117 38 44 -55 
-10 33 124 -33 
-100 -55 10 -126 
-118 72 29 -34 

61 126 -76 -74 
5 -107 15 -109 
1 -53 -14 69 
-89 56 -118 105 



64 82 22 67 
1 74 52 -51 
-74 9 27 44 
-75 20 53 123 

-75 -27 17 -32 
-65 112 -121 -122 
-86 71 -91 90 
57 -76 -52 115 

-13 6 1 -46 
-54 -5 104 -90 
126 96 31 64 
-58 -35 44 -120 

25 51 -59 81 
29 103 112 54 
-24 33 -9 29 
-70 38 -120 42 

-108 -68 110 29 
-67 -48 20 13 
-72 100 -81 -8 
-25 4 57 107 

-28 84 81 8 
34 59 75 -30 
57 83 -122 -50 
-90 73 42 -20 

117 38 44 -55 
-10 33 124 -33 
-100 -55 10 -126 
-118 72 29 -34 

61 126 -76 -74 
5 -107 15 -109 
1 -53 -14 69 
-89 56 -118 105 


64 82 22 67 
1 74 52 -51 
-74 9 27 44 
-75 20 53 123 

-75 -27 17 -32 
-65 112 -121 -122 
-86 71 -91 90 
57 -76 -52 115 

-13 6 1 -46 
-54 -5 104 -90 
126 96 31 64 
-58 -35 44 -120 

25 51 -59 81 
29 103 112 54 
-24 33 -9 29 
-70 38 -120 42 

-108 -68 110 29 
-67 -48 20 13 
-72 100 -81 -8 
-25 4 57 107 

-28 84 81 8 
34 59 75 -30 
57 83 -122 -50 
-90 73 42 -20 

117 38 44 -55 
-10 33 124 -33 
-100 -55 10 -126 
-118 72 29 -34 

61 126 -76 -74 
5 -107 15 -109 
1 -53 -14 69 
-89 56 -118 105 


64 82 22 67 
1 74 52 -51 
-74 9 27 44 
-75 20 53 123 

-75 -27 17 -32 
-65 112 -121 -122 
-86 71 -91 90 
57 -76 -52 115 

-13 6 1 -46 
-54 -5 104 -90 
126 96 31 64 
-58 -35 44 -120 

25 51 -59 81 
29 103 112 54 
-24 33 -9 29 
-70 38 -120 42 

-108 -68 110 29 
-67 -48 20 13 
-72 100 -81 -8 
-25 4 57 107 

-28 84 81 8 
34 59 75 -30 
57 83 -122 -50 
-90 73 42 -20 

117 38 44 -55 
-10 33 124 -33 
-100 -55 10 -126 
-118 72 29 -34 

61 126 -76 -74 
5 -107 15 -109 
1 -53 -14 69 
-89 56 -118 105 


64 82 22 67 
1 74 52 -51 
-74 9 27 44 
-75 20 53 123 

-75 -27 17 -32 
-65 112 -121 -122 
-86 71 -91 90 
57 -76 -52 115 

-13 6 1 -46 
-54 -5 104 -90 
126 96 31 64 
-58 -35 44 -120 

25 51 -59 81 
29 103 112 54 
-24 33 -9 29 
-70 38 -120 42 

-108 -68 110 29 
-67 -48 20 13 
-72 100 -81 -8 
-25 4 57 107 

-28 84 81 8 
34 59 75 -30 
57 83 -122 -50 
-90 73 42 -20 

117 38 44 -55 
-10 33 124 -33 
-100 -55 10 -126 
-118 72 29 -34 

61 126 -76 -74 
5 -107 15 -109 
1 -53 -14 69 
-89 56 -118 105 



64 82 22 67 
1 74 52 -51 
-74 9 27 44 
-75 20 53 123 

-75 -27 17 -32 
-65 112 -121 -122 
-86 71 -91 90 
57 -76 -52 115 

-13 6 1 -46 
-54 -5 104 -90 
126 96 31 64 
-58 -35 44 -120 

25 51 -59 81 
29 103 112 54 
-24 33 -9 29 
-70 38 -120 42 

-108 -68 110 29 
-67 -48 20 13 
-72 100 -81 -8 
-25 4 57 107 

-28 84 81 8 
34 59 75 -30 
57 83 -122 -50 
-90 73 42 -20 

117 38 44 -55 
-10 33 124 -33 
-100 -55 10 -126 
-118 72 29 -34 

61 126 -76 -74 
5 -107 15 -109 
1 -53 -14 69 
-89 56 -118 105 


64 82 22 67 
1 74 52 -51 
-74 9 27 44 
-75 20 53 123 

-75 -27 17 -32 
-65 112 -121 -122 
-86 71 -91 90 
57 -76 -52 115 

-13 6 1 -46 
-54 -5 104 -90 
126 96 31 64 
-58 -35 44 -120 

25 51 -59 81 
29 103 112 54 
-24 33 -9 29 
-70 38 -120 42 

-108 -68 110 29 
-67 -48 20 13 
-72 100 -81 -8 
-25 4 57 107 

-28 84 81 8 
34 59 75 -30 
57 83 -122 -50 
-90 73 42 -20 

117 38 44 -55 
-10 33 124 -33 
-100 -55 10 -126 
-118 72 29 -34 

61 126 -76 -74 
5 -107 15 -109 
1 -53 -14 69 
-89 56 -118 105 


64 82 22 67 
1 74 52 -51 
-74 9 27 44 
-75 20 53 123 

-75 -27 17 -32 
-65 112 -121 -122 
-86 71 -91 90 
57 -76 -52 115 

-13 6 1 -46 
-54 -5 104 -90 
126 96 31 64 
-58 -35 44 -120 

25 51 -59 81 
29 103 112 54 
-24 33 -9 29 
-70 38 -120 42 

-108 -68 110 29 
-67 -48 20 13 
-72 100 -81 -8 
-25 4 57 107 

-28 84 81 8 
34 59 75 -30 
57 83 -122 -50 
-90 73 42 -20 

117 38 44 -55 
-10 33 124 -33 
-100 -55 10 -126 
-118 72 29 -34 

61 126 -76 -74 
5 -107 15 -109 
1 -53 -14 69 
-89 56 -118 105 


64 82 22 67 
1 74 52 -51 
-74 9 27 44 
-75 20 53 123 

-75 -27 17 -32 
-65 112 -121 -122 
-86 71 -91 90 
57 -76 -52 115 

-13 6 1 -46 
-54 -5 104 -90 
126 96 31 64 
-58 -35 44 -120 

25 51 -59 81 
29 103 112 54 
-24 33 -9 29 
-70 38 -120 42 

-108 -68 110 29 
-67 -48 20 13 
-72 100 -81 -8 
-25 4 57 107 

-28 84 81 8 
34 59 75 -30 
57 83 -122 -50 
-90 73 42 -20 

117 38 44 -55 
-10 33 124 -33 
-100 -55 10 -126 
-118 72 29 -34 

61 126 -76 -74 
5 -107 15 -109 
1 -53 -14 69 
-89 56 -118 105 



64 82 22 67 
1 74 52 -51 
-74 9 27 44 
-75 20 53 123 

-75 -27 17 -32 
-65 112 -121 -122 
-86 71 -91 90 
57 -76 -52 115 

-13 6 1 -46 
-54 -5 104 -90 
126 96 31 64 
-58 -35 44 -120 

25 51 -59 81 
29 103 112 54 
-24 33 -9 29 
-70 38 -120 42 

-108 -68 110 29 
-67 -48 20 13 
-72 100 -81 -8 
-25 4 57 107 

-28 84 81 8 
34 59 75 -30 
57 83 -122 -50 
-90 73 42 -20 

117 38 44 -55 
-10 33 124 -33 
-100 -55 10 -126 
-118 72 29 -34 

61 126 -76 -74 
5 -107 15 -109 
1 -53 -14 69 
-89 56 -118 105 


64 82 22 67 
1 74 52 -51 
-74 9 27 44 
-75 20 53 123 

-75 -27 17 -32 
-65 112 -121 -122 
-86 71 -91 90 
57 -76 -52 115 

-13 6 1 -46 
-54 -5 104 -90 
126 96 31 64 
-58 -35 44 -120 

25 51 -59 81 
29 103 112 54 
-24 33 -9 29 
-70 38 -120 42 

-108 -68 110 29 
-67 -48 20 13 
-72 100 -81 -8 
-25 4 57 107 

-28 84 81 8 
34 59 75 -30 
57 83 -122 -50 
-90 73 42 -20 

117 38 44 -55 
-10 33 124 -33 
-100 -55 10 -126 
-118 72 29 -34 

61 126 -76 -74 
5 -107 15 -109 
1 -53 -14 69 
-89 56 -118 105 


64 82 22 67 
1 74 52 -51 
-74 9 27 44 
-75 20 53 123 

-75 -27 17 -32 
-65 112 -121 -122 
-86 71 -91 90 
57 -76 -52 115 

-13 6 1 -46 
-54 -5 104 -90 
126 96 31 64 
-58 -35 44 -120 

25 51 -59 81 
29 103 112 54 
-24 33 -9 29 
-70 38 -120 42 

-108 -68 110 29 
-67 -48 20 13 
-72 100 -81 -8 
-25 4 57 107 

-28 84 81 8 
34 59 75 -30 
57 83 -122 -50 
-90 73 42 -20 

117 38 44 -55 
-10 33 124 -33 
-100 -55 10 -126 
-118 72 29 -34 

61 126 -76 -74 
5 -107 15 -109 
1 -53 -14 69 
-89 56 -118 105 


64 82 22 67 
1 74 52 -51 
-74 9 27 44 
-75 20 53 123 

-75 -27 17 -32 
-65 112 -121 -122 
-86 71 -91 90 
57 -76 -52 115 

-13 6 1 -46 
-54 -5 104 -90 
126 96 31 64 
-58 -35 44 -120 

25 51 -59 81 
29 103 112 54 
-24 33 -9 29 
-70 38 -120 42 

-108 -68 110 29 
-67 -48 20 13 
-72 100 -81 -8 
-25 4 57 107 

-28 84 81 8 
34 59 75 -30 
57 83 -122 -50 
-90 73 42 -20 

117 38 44 -55 
-10 33 124 -33 
-100 -55 10 -126 
-118 72 29 -34 

61 126 -76 -74 
5 -107 15 -109 
1 -53 -14 69 
-89 56 -118 105 



64 82 22 67 
1 74 52 -51 
-74 9 27 44 
-75 20 53 123 

-75 -27 17 -32 
-65 112 -121 -122 
-86 71 -91 90 
57 -76 -52 115 

-13 6 1 -46 
-54 -5 104 -90 
126 96 31 64 
-58 -35 44 -120 

25 51 -59 81 
29 103 112 54 
-24 33 -9 29 
-70 38 -120 42 

-108 -68 110 29 
-67 -48 20 13 
-72 100 -81 -8 
-25 4 57 107 

-28 84 81 8 
34 59 75 -30 
57 83 -122 -50 
-90 73 42 -20 

117 38 44 -55 
-10 33 124 -33 
-100 -55 10 -126 
-118 72 29 -34 

61 126 -76 -74 
5 -107 15 -109 
1 -53 -14 69 
-89 56 -118 105 


64 82 22 67 
1 74 52 -51 
-74 9 27 44 
-75 20 53 123 

-75 -27 17 -32 
-65 112 -121 -122 
-86 71 -91 90 
57 -76 -52 115 

-13 6 1 -46 
-54 -5 104 -90 
126 96 31 64 
-58 -35 44 -120 

25 51 -59 81 
29 103 112 54 
-24 33 -9 29 
-70 38 -120 42 

-108 -68 110 29 
-67 -48 20 13 
-72 100 -81 -8 
-25 4 57 107 

-28 84 81 8 
34 59 75 -30 
57 83 -122 -50 
-90 73 42 -20 

117 38 44 -55 
-10 33 124 -33 
-100 -55 10 -126 
-118 72 29 -34 

61 126 -76 -74 
5 -107 15 -109 
1 -53 -14 69 
-89 56 -118 105 


64 82 22 67 
1 74 52 -51 
-74 9 27 44 
-75 20 53 123 

-75 -27 17 -32 
-65 112 -121 -122 
-86 71 -91 90 
57 -76 -52 115 

-13 6 1 -46 
-54 -5 104 -90 
126 96 31 64 
-58 -35 44 -120 

25 51 -59 81 
29 103 112 54 
-24 33 -9 29 
-70 38 -120 42 

-108 -68 110 29 
-67 -48 20 13 
-72 100 -81 -8 
-25 4 57 107 

-28 84 81 8 
34 59 75 -30 
57 83 -122 -50 
-90 73 42 -20 

117 38 44 -55 
-10 33 124 -33 
-100 -55 10 -126 
-118 72 29 -34 

61 126 -76 -74 
5 -107 15 -109 
1 -53 -14 69 
-89 56 -118 105 


64 82 22 67 
1 74 52 -51 
-74 9 27 44 
-75 20 53 123 

-75 -27 17 -32 
-65 112 -121 -122 
-86 71 -91 90 
57 -76 -52 115 

-13 6 1 -46 
-54 -5 104 -90 
126 96 31 64 
-58 -35 44 -120 

25 51 -59 81 
29 103 112 54 
-24 33 -9 29 
-70 38 -120 42 

-108 -68 110 29 
-67 -48 20 13 
-72 100 -81 -8 
-25 4 57 107 

-28 84 81 8 
34 59 75 -30 
57 83 -122 -50 
-90 73 42 -20 

117 38 44 -55 
-10 33 124 -33 
-100 -55 10 -126 
-118 72 29 -34 

61 126 -76 -74 
5 -107 15 -109 
1 -53 -14 69 
-89 56 -118 105 



64 82 22 67 
1 74 52 -51 
-74 9 27 44 
-75 20 53 123 

-75 -27 17 -32 
-65 112 -121 -122 
-86 71 -91 90 
57 -76 -52 115 

-13 6 1 -46 
-54 -5 104 -90 
126 96 31 64 
-58 -35 44 -120 

25 51 -59 81 
29 103 112 54 
-24 33 -9 29 
-70 38 -120 42 

-108 -68 110 29 
-67 -48 20 13 
-72 100 -81 -8 
-25 4 57 107 

-28 84 81 8 
34 59 75 -30 
57 83 -122 -50 
-90 73 42 -20 

117 38 44 -55 
-10 33 124 -33 
-100 -55 10 -126 
-118 72 29 -34 

61 126 -76 -74 
5 -107 15 -109 
1 -53 -14 69 
-89 56 -118 105 


64 82 22 67 
1 74 52 -51 
-74 9 27 44 
-75 20 53 123 

-75 -27 17 -32 
-65 112 -121 -122 
-86 71 -91 90 
57 -76 -52 115 

-13 6 1 -46 
-54 -5 104 -90 
126 96 31 64 
-58 -35 44 -120 

25 51 -59 81 
29 103 112 54 
-24 33 -9 29 
-70 38 -120 42 

-108 -68 110 29 
-67 -48 20 13 
-72 100 -81 -8 
-25 4 57 107 

-28 84 81 8 
34 59 75 -30 
57 83 -122 -50 
-90 73 42 -20 

117 38 44 -55 
-10 33 124 -33 
-100 -55 10 -126 
-118 72 29 -34 

61 126 -76 -74 
5 -107 15 -109 
1 -53 -14 69 
-89 56 -118 105 


64 82 22 67 
1 74 52 -51 
-74 9 27 44 
-75 20 53 123 

-75 -27 17 -32 
-65 112 -121 -122 
-86 71 -91 90 
57 -76 -52 115 

-13 6 1 -46 
-54 -5 104 -90 
126 96 31 64 
-58 -35 44 -120 

25 51 -59 81 
29 103 112 54 
-24 33 -9 29 
-70 38 -120 42 

-108 -68 110 29 
-67 -48 20 13 
-72 100 -81 -8 
-25 4 57 107 

-28 84 81 8 
34 59 75 -30 
57 83 -122 -50 
-90 73 42 -20 

117 38 44 -55 
-10 33 124 -33 
-100 -55 10 -126 
-118 72 29 -34 

61 126 -76 -74 
5 -107 15 -109 
1 -53 -14 69 
-89 56 -118 105 


64 82 22 67 
1 74 52 -51 
-74 9 27 44 
-75 20 53 123 

-75 -27 17 -32 
-65 112 -121 -122 
-86 71 -91 90 
57 -76 -52 115 

-13 6 1 -46 
-54 -5 104 -90 
126 96 31 64 
-58 -35 44 -120 

25 51 -59 81 
29 103 112 54 
-24 33 -9 29 
-70 38 -120 42 

-108 -68 110 29 
-67 -48 20 13 
-72 100 -81 -8 
-25 4 57 107 

-28 84 81 8 
34 59 75 -30 
57 83 -122 -50 
-90 73 42 -20 

117 38 44 -55 
-10 33 124 -33 
-100 -55 10 -126 
-118 72 29 -34 

61 126 -76 -74 
5 -107 15 -109 
1 -53 -14 69 
-89 56 -118 105 



64 82 22 67 
1 74 52 -51 
-74 9 27 44 
-75 20 53 123 

-75 -27 17 -32 
-65 112 -121 -122 
-86 71 -91 90 
57 -76 -52 115 

-13 6 1 -46 
-54 -5 104 -90 
126 96 31 64 
-58 -35 44 -120 

25 51 -59 81 
29 103 112 54 
-24 33 -9 29 
-70 38 -120 42 

-108 -68 110 29 
-67 -48 20 13 
-72 100 -81 -8 
-25 4 57 107 

-28 84 81 8 
34 59 75 -30 
57 83 -122 -50 
-90 73 42 -20 

117 38 44 -55 
-10 33 124 -33 
-100 -55 10 -126 
-118 72 29 -34 

61 126 -76 -74 
5 -107 15 -109 
1 -53 -14 69 
-89 56 -118 105 


64 82 22 67 
1 74 52 -51 
-74 9 27 44 
-75 20 53 123 

-75 -27 17 -32 
-65 112 -121 -122 
-86 71 -91 90 
57 -76 -52 115 

-13 6 1 -46 
-54 -5 104 -90 
126 96 31 64 
-58 -35 44 -120 

25 51 -59 81 
29 103 112 54 
-24 33 -9 29 
-70 38 -120 42 

-108 -68 110 29 
-67 -48 20 13 
-72 100 -81 -8 
-25 4 57 107 

-28 84 81 8 
34 59 75 -30 
57 83 -122 -50 
-90 73 42 -20 

117 38 44 -55 
-10 33 124 -33 
-100 -55 10 -126 
-118 72 29 -34 

61 126 -76 -74 
5 -107 15 -109 
1 -53 -14 69 
-89 56 -118 105 


64 82 22 67 
1 74 52 -51 
-74 9 27 44 
-75 20 53 123 

-75 -27 17 -32 
-65 112 -121 -122 
-86 71 -91 90 
57 -76 -52 115 

-13 6 1 -46 
-54 -5 104 -90 
126 96 31 64 
-58 -35 44 -120 

25 51 -59 81 
29 103 112 54 
-24 33 -9 29 
-70 38 -120 42 

-108 -68 110 29 
-67 -48 20 13 
-72 100 -81 -8 
-25 4 57 107 

-28 84 81 8 
34 59 75 -30 
57 83 -122 -50 
-90 73 42 -20 

117 38 44 -55 
-10 33 124 -33 
-100 -55 10 -126 
-118 72 29 -34 

61 126 -76 -74 
5 -107 15 -109 
1 -53 -14 69 
-89 56 -118 105 


64 82 22 67 
1 74 52 -51 
-74 9 27 44 
-75 20 53 123 

-75 -27 17 -32 
-65 112 -121 -122 
-86 71 -91 90 
57 -76 -52 115 

-13 6 1 -46 
-54 -5 104 -90 
126 96 31 64 
-58 -35 44 -120 

25 51 -59 81 
29 103 112 54 
-24 33 -9 29 
-70 38 -120 42 

-108 -68 110 29 
-67 -48 20 13 
-72 100 -81 -8 
-25 4 57 107 

-28 84 81 8 
34 59 75 -30 
57 83 -122 -50 
-90 73 42 -20 

117 38 44 -55 
-10 33 124 -33 
-100 -55 10 -126 
-118 72 29 -34 

61 126 -76 -74 
5 -107 15 -109 
1 -53 -14 69 
-89 56 -118 105 



64 82 22 67 
1 74 52 -51 
-74 9 27 44 
-75 20 53 123 

-75 -27 17 -32 
-65 112 -121 -122 
-86 71 -91 90 
57 -76 -52 115 

-13 6 1 -46 
-54 -5 104 -90 
126 96 31 64 
-58 -35 44 -120 

25 51 -59 81 
29 103 112 54 
-24 33 -9 29 
-70 38 -120 42 

-108 -68 110 29 
-67 -48 20 13 
-72 100 -81 -8 
-25 4 57 107 

-28 84 81 8 
34 59 75 -30 
57 83 -122 -50 
-90 73 42 -20 

117 38 44 -55 
-10 33 124 -33 
-100 -55 10 -126 
-118 72 29 -34 

61 126 -76 -74 
5 -107 15 -109 
1 -53 -14 69 
-89 56 -118 105 


64 82 22 67 
1 74 52 -51 
-74 9 27 44 
-75 20 53 123 

-75 -27 17 -32 
-65 112 -121 -122 
-86 71 -91 90 
57 -76 -52 115 

-13 6 1 -46 
-54 -5 104 -90 
126 96 31 64 
-58 -35 44 -120 

25 51 -59 81 
29 103 112 54 
-24 33 -9 29 
-70 38 -120 42 

-108 -68 110 29 
-67 -48 20 13 
-72 100 -81 -8 
-25 4 57 107 

-28 84 81 8 
34 59 75 -30 
57 83 -122 -50 
-90 73 42 -20 

117 38 44 -55 
-10 33 124 -33 
-100 -55 10 -126 
-118 72 29 -34 

61 126 -76 -74 
5 -107 15 -109 
1 -53 -14 69 
-89 56 -118 105 


64 82 22 67 
1 74 52 -51 
-74 9 27 44 
-75 20 53 123 

-75 -27 17 -32 
-65 112 -121 -122 
-86 71 -91 90 
57 -76 -52 115 

-13 6 1 -46 
-54 -5 104 -90 
126 96 31 64 
-58 -35 44 -120 

25 51 -59 81 
29 103 112 54 
-24 33 -9 29 
-70 38 -120 42 

-108 -68 110 29 
-67 -48 20 13 
-72 100 -81 -8 
