80 -32 102 -19 
-40 -32 -90 125 
-125 48 -77 118 
82 -103 32 -11 

61 -46 26 62 
72 -7 97 117 
34 117 -43 -57 
-101 105 -15 18 

96 1 -126 -25 
-120 -39 -40 -81 
125 119 -97 -95 
70 -21 29 -94 

-26 -58 110 -53 
-118 87 94 91 
-45 40 -110 -92 
119 119 -38 -113 

107 12 41 78 
76 112 35 -19 
-82 15 -2 41 
67 -122 -101 7 

77 -9 -127 -95 
71 16 115 -34 
-24 37 21 95 
34 -98 -115 -116 

-95 100 68 -71 
-115 107 76 -45 
50 47 -44 -74 
-20 -94 -116 37 

-73 38 -76 123 
14 -57 -105 -41 
-55 91 -29 7 
-16 111 -14 81 


34 -67 -120 -96 
89 94 -20 120 
111 -94 -26 59 
-116 -21 118 -116 

2 -57 -73 -16 
23 -50 -19 -48 
87 -15 60 7 
-52 -82 113 24 

-17 -113 -112 103 
104 110 -118 37 
-35 -46 12 -74 
-65 -5 -7 85 

-105 5 115 45 
-37 77 -73 -39 
-103 -21 -38 77 
46 86 109 127 

96 41 -88 -51 
62 42 43 -59 
-117 -118 -33 109 
-108 -60 101 101 

-78 22 90 -33 
-115 65 87 -111 
-113 36 -116 -66 
92 -123 -127 -110 

120 36 6 -74 
10 121 65 101 
-79 -42 79 19 
29 -12 106 -16 

-70 -64 69 75 
19 -23 -122 106 
-100 -15 -45 -106 
47 -46 -14 4 


64 51 -63 -106 
-45 -54 -114 -85 
46 -22 -59 -31 
8 -40 -128 -76 

109 115 47 64 
-61 113 -20 34 
29 102 96 -44 
-42 108 66 -107 

83 40 -58 -117 
-21 -86 8 -83 
56 91 126 121 
-112 87 40 -118 

124 -19 87 -19 
30 87 81 29 
-41 -55 -112 5 
-99 -74 10 -109 

-76 -47 41 -60 
106 84 -10 -54 
-34 116 -81 -121 
43 109 -21 -5 

-2 -9 -107 -88 
-38 64 -66 89 
-92 41 81 12 
-119 45 -13 -111 

-90 -67 52 8 
120 104 69 -26 
-115 77 79 62 
118 -70 57 -45 

-5 47 -90 -46 
-4 -120 45 -29 
-21 64 73 -45 
100 64 88 7 


64 1 -74 -75 
82 74 9 20 
22 52 27 53 
67 -51 44 123 

-75 -65 -86 57 
-27 112 71 -76 
17 -121 -91 -52 
-32 -122 90 115 

-13 -54 126 -58 
6 -5 96 -35 
1 104 31 44 
-46 -90 64 -120 

25 29 -24 -70 
51 103 33 38 
-59 112 -9 -120 
81 54 29 42 

-108 -67 -72 -25 
-68 -48 100 4 
110 20 -81 57 
29 13 -8 107 

-28 34 57 -90 
84 59 83 73 
81 75 -122 42 
8 -30 -50 -20 

117 -10 -100 -118 
38 33 -55 72 
44 124 10 29 
-55 -33 -126 -34 

61 5 1 -89 
126 -107 -53 56 
-76 15 -14 -118 
-74 -109 69 105 


12 -101 30 -13 
86 -11 87 -82 
93 -25 118 11 
17 90 75 -87 

-115 17 70 112 
-119 -72 -122 82 
-11 -58 -55 87 
122 -8 -36 23 

-115 47 -55 107 
106 80 51 -25 
-61 -77 79 -123 
-47 -92 51 -65 

-124 -66 -95 -27 
-45 108 -19 -70 
88 -101 107 -8 
48 41 -90 -37 

-69 -29 -37 6 
100 -66 38 -40 
11 -60 51 -58 
-79 56 -78 -38 

-95 -28 -26 82 
-3 61 -102 22 
-4 49 -62 -53 
116 59 -83 101 

27 -78 -32 -62 
-120 62 121 -50 
-118 -88 54 43 
-117 103 90 -66 

105 -48 23 -125 
-118 5 -31 59 
28 -71 -5 -61 
-112 -128 17 43 


0 -99 -60 -36 
-59 -6 -118 -74 
28 56 -50 121 
-92 71 87 -54 

-45 -38 20 -5 
-30 -49 86 -127 
-28 -108 -11 122 
40 -42 -39 69 

-102 -121 -2 75 
-16 87 119 121 
79 -111 47 -126 
-20 -13 -96 71 

85 -60 0 8 
69 90 -63 42 
-16 -11 122 68 
-16 68 11 -52 

117 -53 -119 25 
-39 67 29 -77 
-113 -108 61 94 
-109 -102 -100 27 

124 0 -2 1 
27 -96 -111 -38 
124 -70 -103 68 
78 -9 62 -121 

-60 7 22 -43 
-30 -32 -112 26 
13 74 -12 89 
-62 90 -74 -92 

-10 -52 26 3 
-127 52 97 -108 
-7 -88 19 9 
107 25 -26 35 


61 -76 74 -100 
43 118 -47 36 
-42 -85 85 -30 
-126 -24 -49 -24 

-3 41 -59 16 
-8 -84 46 -64 
4 -39 -60 115 
-25 -104 -40 91 

-24 108 111 20 
-2 78 -18 72 
-122 -64 -49 70 
-108 88 28 54 

60 86 23 -90 
56 -71 64 -62 
-34 -20 27 -60 
37 62 2 -22 

-53 15 -20 -45 
42 -89 61 23 
53 7 -74 8 
59 48 -28 30 

-104 -3 68 14 
105 16 -61 29 
-122 115 40 28 
14 -42 61 -63 

76 97 -27 119 
-44 104 -84 -77 
-78 -56 115 73 
94 54 -39 -106 

-45 -89 -127 127 
-82 21 -17 -118 
14 84 -41 34 
44 -50 -22 51 


-124 75 126 61 
47 20 55 78 
-111 33 -76 16 
58 76 33 -86 

-114 -110 105 103 
15 -23 -105 -5 
-103 35 13 -65 
51 -16 54 115 

-81 119 -63 61 
29 -6 -64 -90 
9 -117 58 -119 
-73 -76 -4 21 

-110 -30 -44 123 
112 71 -10 120 
106 77 108 -101 
4 -112 94 101 

-99 -108 -127 -102 
125 61 -105 85 
-85 104 -97 -47 
51 -63 104 -32 

-9 -34 -3 -118 
-23 34 -100 80 
-13 -88 -54 -112 
-79 -119 15 -113 

-48 -18 -47 109 
34 -49 123 88 
-35 -100 56 111 
8 80 78 63 

-26 26 -67 -79 
43 -41 -76 77 
85 110 113 46 
69 84 72 -26 


