-30 -51 -127 -71 76 
-21 -112 -2 58 -78 
29 11 -107 63 19 
113 -17 36 -35 -93 
-48 28 40 92 96 

124 98 12 42 -3 
-93 17 -66 -39 71 
16 98 -58 52 -4 
42 73 92 -23 93 
-34 104 78 26 110 

38 84 -48 -65 1 
0 -29 29 -57 -94 
-116 -30 -13 67 -37 
-98 -18 125 -120 -108 
-71 -44 -26 60 32 

86 -114 81 0 -59 
18 84 -47 -109 79 
27 -93 90 53 -21 
95 54 80 -89 6 
-90 -5 103 50 -81 

-21 -127 -124 -11 38 
-101 1 -102 -120 -36 
-93 -23 -5 58 32 
-84 -115 88 -34 -54 
-24 -25 83 -70 -85 

43 57 34 55 44 
8 29 -13 -67 -19 
43 62 58 -24 83 
-77 101 4 6 -117 
31 115 -81 117 111 

-63 -114 59 49 99 
4 123 -95 88 24 
-89 97 79 -25 -46 
-62 -44 -49 55 48 
110 -10 102 120 45 

117 19 78 32 67 
-54 118 10 -111 -83 
-55 -35 92 -22 -14 
-49 36 8 -71 -107 
-111 110 44 -54 112 


-30 -51 -127 -71 76 
-21 -112 -2 58 -78 
29 11 -107 63 19 
113 -17 36 -35 -93 
-48 28 40 92 96 

124 98 12 42 -3 
-93 17 -66 -39 71 
16 98 -58 52 -4 
42 73 92 -23 93 
-34 104 78 26 110 

38 84 -48 -65 1 
0 -29 29 -57 -94 
-116 -30 -13 67 -37 
-98 -18 125 -120 -108 
-71 -44 -26 60 32 

86 -114 81 0 -59 
18 84 -47 -109 79 
27 -93 90 53 -21 
95 54 80 -89 6 
-90 -5 103 50 -81 

-21 -127 -124 -11 38 
-101 1 -102 -120 -36 
-93 -23 -5 58 32 
-84 -115 88 -34 -54 
-24 -25 83 -70 -85 

43 57 34 55 44 
8 29 -13 -67 -19 
43 62 58 -24 83 
-77 101 4 6 -117 
31 115 -81 117 111 

-63 -114 59 49 99 
4 123 -95 88 24 
-89 97 79 -25 -46 
-62 -44 -49 55 48 
110 -10 102 120 45 

117 19 78 32 67 
-54 118 10 -111 -83 
-55 -35 92 -22 -14 
-49 36 8 -71 -107 
-111 110 44 -54 112 


-30 -51 -127 -71 76 
-21 -112 -2 58 -78 
29 11 -107 63 19 
113 -17 36 -35 -93 
-48 28 40 92 96 

124 98 12 42 -3 
-93 17 -66 -39 71 
16 98 -58 52 -4 
42 73 92 -23 93 
-34 104 78 26 110 

38 84 -48 -65 1 
0 -29 29 -57 -94 
-116 -30 -13 67 -37 
-98 -18 125 -120 -108 
-71 -44 -26 60 32 

86 -114 81 0 -59 
18 84 -47 -109 79 
27 -93 90 53 -21 
95 54 80 -89 6 
-90 -5 103 50 -81 

-21 -127 -124 -11 38 
-101 1 -102 -120 -36 
-93 -23 -5 58 32 
-84 -115 88 -34 -54 
-24 -25 83 -70 -85 

43 57 34 55 44 
8 29 -13 -67 -19 
43 62 58 -24 83 
-77 101 4 6 -117 
31 115 -81 117 111 

-63 -114 59 49 99 
4 123 -95 88 24 
-89 97 79 -25 -46 
-62 -44 -49 55 48 
110 -10 102 120 45 

117 19 78 32 67 
-54 118 10 -111 -83 
-55 -35 92 -22 -14 
-49 36 8 -71 -107 
-111 110 44 -54 112 


-30 -51 -127 -71 76 
-21 -112 -2 58 -78 
29 11 -107 63 19 
113 -17 36 -35 -93 
-48 28 40 92 96 

124 98 12 42 -3 
-93 17 -66 -39 71 
16 98 -58 52 -4 
42 73 92 -23 93 
-34 104 78 26 110 

38 84 -48 -65 1 
0 -29 29 -57 -94 
-116 -30 -13 67 -37 
-98 -18 125 -120 -108 
-71 -44 -26 60 32 

86 -114 81 0 -59 
18 84 -47 -109 79 
27 -93 90 53 -21 
95 54 80 -89 6 
-90 -5 103 50 -81 

-21 -127 -124 -11 38 
-101 1 -102 -120 -36 
-93 -23 -5 58 32 
-84 -115 88 -34 -54 
-24 -25 83 -70 -85 

43 57 34 55 44 
8 29 -13 -67 -19 
43 62 58 -24 83 
-77 101 4 6 -117 
31 115 -81 117 111 

-63 -114 59 49 99 
4 123 -95 88 24 
-89 97 79 -25 -46 
-62 -44 -49 55 48 
110 -10 102 120 45 

117 19 78 32 67 
-54 118 10 -111 -83 
-55 -35 92 -22 -14 
-49 36 8 -71 -107 
-111 110 44 -54 112 



-30 -51 -127 -71 76 
-21 -112 -2 58 -78 
29 11 -107 63 19 
113 -17 36 -35 -93 
-48 28 40 92 96 

124 98 12 42 -3 
-93 17 -66 -39 71 
16 98 -58 52 -4 
42 73 92 -23 93 
-34 104 78 26 110 

38 84 -48 -65 1 
0 -29 29 -57 -94 
-116 -30 -13 67 -37 
-98 -18 125 -120 -108 
-71 -44 -26 60 32 

86 -114 81 0 -59 
18 84 -47 -109 79 
27 -93 90 53 -21 
95 54 80 -89 6 
-90 -5 103 50 -81 

-21 -127 -124 -11 38 
-101 1 -102 -120 -36 
-93 -23 -5 58 32 
-84 -115 88 -34 -54 
-24 -25 83 -70 -85 

43 57 34 55 44 
8 29 -13 -67 -19 
43 62 58 -24 83 
-77 101 4 6 -117 
31 115 -81 117 111 

-63 -114 59 49 99 
4 123 -95 88 24 
-89 97 79 -25 -46 
-62 -44 -49 55 48 
110 -10 102 120 45 

117 19 78 32 67 
-54 118 10 -111 -83 
-55 -35 92 -22 -14 
-49 36 8 -71 -107 
-111 110 44 -54 112 


-30 -51 -127 -71 76 
-21 -112 -2 58 -78 
29 11 -107 63 19 
113 -17 36 -35 -93 
-48 28 40 92 96 

124 98 12 42 -3 
-93 17 -66 -39 71 
16 98 -58 52 -4 
42 73 92 -23 93 
-34 104 78 26 110 

38 84 -48 -65 1 
0 -29 29 -57 -94 
-116 -30 -13 67 -37 
-98 -18 125 -120 -108 
-71 -44 -26 60 32 

86 -114 81 0 -59 
18 84 -47 -109 79 
27 -93 90 53 -21 
95 54 80 -89 6 
-90 -5 103 50 -81 

-21 -127 -124 -11 38 
-101 1 -102 -120 -36 
-93 -23 -5 58 32 
-84 -115 88 -34 -54 
-24 -25 83 -70 -85 

43 57 34 55 44 
8 29 -13 -67 -19 
43 62 58 -24 83 
-77 101 4 6 -117 
31 115 -81 117 111 

-63 -114 59 49 99 
4 123 -95 88 24 
-89 97 79 -25 -46 
-62 -44 -49 55 48 
110 -10 102 120 45 

117 19 78 32 67 
-54 118 10 -111 -83 
-55 -35 92 -22 -14 
-49 36 8 -71 -107 
-111 110 44 -54 112 


-30 -51 -127 -71 76 
-21 -112 -2 58 -78 
29 11 -107 63 19 
113 -17 36 -35 -93 
-48 28 40 92 96 

124 98 12 42 -3 
-93 17 -66 -39 71 
16 98 -58 52 -4 
42 73 92 -23 93 
-34 104 78 26 110 

38 84 -48 -65 1 
0 -29 29 -57 -94 
-116 -30 -13 67 -37 
-98 -18 125 -120 -108 
-71 -44 -26 60 32 

86 -114 81 0 -59 
18 84 -47 -109 79 
27 -93 90 53 -21 
95 54 80 -89 6 
-90 -5 103 50 -81 

-21 -127 -124 -11 38 
-101 1 -102 -120 -36 
-93 -23 -5 58 32 
-84 -115 88 -34 -54 
-24 -25 83 -70 -85 

43 57 34 55 44 
8 29 -13 -67 -19 
43 62 58 -24 83 
-77 101 4 6 -117 
31 115 -81 117 111 

-63 -114 59 49 99 
4 123 -95 88 24 
-89 97 79 -25 -46 
-62 -44 -49 55 48 
110 -10 102 120 45 

117 19 78 32 67 
-54 118 10 -111 -83 
-55 -35 92 -22 -14 
-49 36 8 -71 -107 
-111 110 44 -54 112 


-30 -51 -127 -71 76 
-21 -112 -2 58 -78 
29 11 -107 63 19 
113 -17 36 -35 -93 
-48 28 40 92 96 

124 98 12 42 -3 
-93 17 -66 -39 71 
16 98 -58 52 -4 
42 73 92 -23 93 
-34 104 78 26 110 

38 84 -48 -65 1 
0 -29 29 -57 -94 
-116 -30 -13 67 -37 
-98 -18 125 -120 -108 
-71 -44 -26 60 32 

86 -114 81 0 -59 
18 84 -47 -109 79 
27 -93 90 53 -21 
95 54 80 -89 6 
-90 -5 103 50 -81 

-21 -127 -124 -11 38 
-101 1 -102 -120 -36 
-93 -23 -5 58 32 
-84 -115 88 -34 -54 
-24 -25 83 -70 -85 

43 57 34 55 44 
8 29 -13 -67 -19 
43 62 58 -24 83 
-77 101 4 6 -117 
31 115 -81 117 111 

-63 -114 59 49 99 
4 123 -95 88 24 
-89 97 79 -25 -46 
-62 -44 -49 55 48 
110 -10 102 120 45 

117 19 78 32 67 
-54 118 10 -111 -83 
-55 -35 92 -22 -14 
-49 36 8 -71 -107 
-111 110 44 -54 112 



-30 -51 -127 -71 76 
-21 -112 -2 58 -78 
29 11 -107 63 19 
113 -17 36 -35 -93 
-48 28 40 92 96 

124 98 12 42 -3 
-93 17 -66 -39 71 
16 98 -58 52 -4 
42 73 92 -23 93 
-34 104 78 26 110 

38 84 -48 -65 1 
0 -29 29 -57 -94 
-116 -30 -13 67 -37 
-98 -18 125 -120 -108 
-71 -44 -26 60 32 

86 -114 81 0 -59 
18 84 -47 -109 79 
27 -93 90 53 -21 
95 54 80 -89 6 
-90 -5 103 50 -81 

-21 -127 -124 -11 38 
-101 1 -102 -120 -36 
-93 -23 -5 58 32 
-84 -115 88 -34 -54 
-24 -25 83 -70 -85 

43 57 34 55 44 
8 29 -13 -67 -19 
43 62 58 -24 83 
-77 101 4 6 -117 
31 115 -81 117 111 

-63 -114 59 49 99 
4 123 -95 88 24 
-89 97 79 -25 -46 
-62 -44 -49 55 48 
110 -10 102 120 45 

117 19 78 32 67 
-54 118 10 -111 -83 
-55 -35 92 -22 -14 
-49 36 8 -71 -107 
-111 110 44 -54 112 


-30 -51 -127 -71 76 
-21 -112 -2 58 -78 
29 11 -107 63 19 
113 -17 36 -35 -93 
-48 28 40 92 96 

124 98 12 42 -3 
-93 17 -66 -39 71 
16 98 -58 52 -4 
42 73 92 -23 93 
-34 104 78 26 110 

38 84 -48 -65 1 
0 -29 29 -57 -94 
-116 -30 -13 67 -37 
-98 -18 125 -120 -108 
-71 -44 -26 60 32 

86 -114 81 0 -59 
18 84 -47 -109 79 
27 -93 90 53 -21 
95 54 80 -89 6 
-90 -5 103 50 -81 

-21 -127 -124 -11 38 
-101 1 -102 -120 -36 
-93 -23 -5 58 32 
-84 -115 88 -34 -54 
-24 -25 83 -70 -85 

43 57 34 55 44 
8 29 -13 -67 -19 
43 62 58 -24 83 
-77 101 4 6 -117 
31 115 -81 117 111 

-63 -114 59 49 99 
4 123 -95 88 24 
-89 97 79 -25 -46 
-62 -44 -49 55 48 
110 -10 102 120 45 

117 19 78 32 67 
-54 118 10 -111 -83 
-55 -35 92 -22 -14 
-49 36 8 -71 -107 
-111 110 44 -54 112 


-30 -51 -127 -71 76 
-21 -112 -2 58 -78 
29 11 -107 63 19 
113 -17 36 -35 -93 
-48 28 40 92 96 

124 98 12 42 -3 
-93 17 -66 -39 71 
16 98 -58 52 -4 
42 73 92 -23 93 
-34 104 78 26 110 

38 84 -48 -65 1 
0 -29 29 -57 -94 
-116 -30 -13 67 -37 
-98 -18 125 -120 -108 
-71 -44 -26 60 32 

86 -114 81 0 -59 
18 84 -47 -109 79 
27 -93 90 53 -21 
95 54 80 -89 6 
-90 -5 103 50 -81 

-21 -127 -124 -11 38 
-101 1 -102 -120 -36 
-93 -23 -5 58 32 
-84 -115 88 -34 -54 
-24 -25 83 -70 -85 

43 57 34 55 44 
8 29 -13 -67 -19 
43 62 58 -24 83 
-77 101 4 6 -117 
31 115 -81 117 111 

-63 -114 59 49 99 
4 123 -95 88 24 
-89 97 79 -25 -46 
-62 -44 -49 55 48 
110 -10 102 120 45 

117 19 78 32 67 
-54 118 10 -111 -83 
-55 -35 92 -22 -14 
-49 36 8 -71 -107 
-111 110 44 -54 112 


-30 -51 -127 -71 76 
-21 -112 -2 58 -78 
29 11 -107 63 19 
113 -17 36 -35 -93 
-48 28 40 92 96 

124 98 12 42 -3 
-93 17 -66 -39 71 
16 98 -58 52 -4 
42 73 92 -23 93 
-34 104 78 26 110 

38 84 -48 -65 1 
0 -29 29 -57 -94 
-116 -30 -13 67 -37 
-98 -18 125 -120 -108 
-71 -44 -26 60 32 

86 -114 81 0 -59 
18 84 -47 -109 79 
27 -93 90 53 -21 
95 54 80 -89 6 
-90 -5 103 50 -81 

-21 -127 -124 -11 38 
-101 1 -102 -120 -36 
-93 -23 -5 58 32 
-84 -115 88 -34 -54 
-24 -25 83 -70 -85 

43 57 34 55 44 
8 29 -13 -67 -19 
43 62 58 -24 83 
-77 101 4 6 -117 
31 115 -81 117 111 

-63 -114 59 49 99 
4 123 -95 88 24 
-89 97 79 -25 -46 
-62 -44 -49 55 48 
110 -10 102 120 45 

117 19 78 32 67 
-54 118 10 -111 -83 
-55 -35 92 -22 -14 
-49 36 8 -71 -107 
-111 110 44 -54 112 



-30 -51 -127 -71 76 
-21 -112 -2 58 -78 
29 11 -107 63 19 
113 -17 36 -35 -93 
-48 28 40 92 96 

124 98 12 42 -3 
-93 17 -66 -39 71 
16 98 -58 52 -4 
42 73 92 -23 93 
-34 104 78 26 110 

38 84 -48 -65 1 
0 -29 29 -57 -94 
-116 -30 -13 67 -37 
-98 -18 125 -120 -108 
-71 -44 -26 60 32 

86 -114 81 0 -59 
18 84 -47 -109 79 
27 -93 90 53 -21 
95 54 80 -89 6 
-90 -5 103 50 -81 

-21 -127 -124 -11 38 
-101 1 -102 -120 -36 
-93 -23 -5 58 32 
-84 -115 88 -34 -54 
-24 -25 83 -70 -85 

43 57 34 55 44 
8 29 -13 -67 -19 
43 62 58 -24 83 
-77 101 4 6 -117 
31 115 -81 117 111 

-63 -114 59 49 99 
4 123 -95 88 24 
-89 97 79 -25 -46 
-62 -44 -49 55 48 
110 -10 102 120 45 

117 19 78 32 67 
-54 118 10 -111 -83 
-55 -35 92 -22 -14 
-49 36 8 -71 -107 
-111 110 44 -54 112 


-30 -51 -127 -71 76 
-21 -112 -2 58 -78 
29 11 -107 63 19 
113 -17 36 -35 -93 
-48 28 40 92 96 

124 98 12 42 -3 
-93 17 -66 -39 71 
16 98 -58 52 -4 
42 73 92 -23 93 
-34 104 78 26 110 

38 84 -48 -65 1 
0 -29 29 -57 -94 
-116 -30 -13 67 -37 
-98 -18 125 -120 -108 
-71 -44 -26 60 32 

86 -114 81 0 -59 
18 84 -47 -109 79 
27 -93 90 53 -21 
95 54 80 -89 6 
-90 -5 103 50 -81 

-21 -127 -124 -11 38 
-101 1 -102 -120 -36 
-93 -23 -5 58 32 
-84 -115 88 -34 -54 
-24 -25 83 -70 -85 

43 57 34 55 44 
8 29 -13 -67 -19 
43 62 58 -24 83 
-77 101 4 6 -117 
31 115 -81 117 111 

-63 -114 59 49 99 
4 123 -95 88 24 
-89 97 79 -25 -46 
-62 -44 -49 55 48 
110 -10 102 120 45 

117 19 78 32 67 
-54 118 10 -111 -83 
-55 -35 92 -22 -14 
-49 36 8 -71 -107 
-111 110 44 -54 112 


-30 -51 -127 -71 76 
-21 -112 -2 58 -78 
29 11 -107 63 19 
113 -17 36 -35 -93 
-48 28 40 92 96 

124 98 12 42 -3 
-93 17 -66 -39 71 
16 98 -58 52 -4 
42 73 92 -23 93 
-34 104 78 26 110 

38 84 -48 -65 1 
0 -29 29 -57 -94 
-116 -30 -13 67 -37 
-98 -18 125 -120 -108 
-71 -44 -26 60 32 

86 -114 81 0 -59 
18 84 -47 -109 79 
27 -93 90 53 -21 
95 54 80 -89 6 
-90 -5 103 50 -81 

-21 -127 -124 -11 38 
-101 1 -102 -120 -36 
-93 -23 -5 58 32 
-84 -115 88 -34 -54 
-24 -25 83 -70 -85 

43 57 34 55 44 
8 29 -13 -67 -19 
43 62 58 -24 83 
-77 101 4 6 -117 
31 115 -81 117 111 

-63 -114 59 49 99 
4 123 -95 88 24 
-89 97 79 -25 -46 
-62 -44 -49 55 48 
110 -10 102 120 45 

117 19 78 32 67 
-54 118 10 -111 -83 
-55 -35 92 -22 -14 
-49 36 8 -71 -107 
-111 110 44 -54 112 


-30 -51 -127 -71 76 
-21 -112 -2 58 -78 
29 11 -107 63 19 
113 -17 36 -35 -93 
-48 28 40 92 96 

124 98 12 42 -3 
-93 17 -66 -39 71 
16 98 -58 52 -4 
42 73 92 -23 93 
-34 104 78 26 110 

38 84 -48 -65 1 
0 -29 29 -57 -94 
-116 -30 -13 67 -37 
-98 -18 125 -120 -108 
-71 -44 -26 60 32 

86 -114 81 0 -59 
18 84 -47 -109 79 
27 -93 90 53 -21 
95 54 80 -89 6 
-90 -5 103 50 -81 

-21 -127 -124 -11 38 
-101 1 -102 -120 -36 
-93 -23 -5 58 32 
-84 -115 88 -34 -54 
-24 -25 83 -70 -85 

43 57 34 55 44 
8 29 -13 -67 -19 
43 62 58 -24 83 
-77 101 4 6 -117 
31 115 -81 117 111 

-63 -114 59 49 99 
4 123 -95 88 24 
-89 97 79 -25 -46 
-62 -44 -49 55 48 
110 -10 102 120 45 

117 19 78 32 67 
-54 118 10 -111 -83 
-55 -35 92 -22 -14 
-49 36 8 -71 -107 
-111 110 44 -54 112 



-30 -51 -127 -71 76 
-21 -112 -2 58 -78 
29 11 -107 63 19 
113 -17 36 -35 -93 
-48 28 40 92 96 

124 98 12 42 -3 
-93 17 -66 -39 71 
16 98 -58 52 -4 
42 73 92 -23 93 
-34 104 78 26 110 

38 84 -48 -65 1 
0 -29 29 -57 -94 
-116 -30 -13 67 -37 
-98 -18 125 -120 -108 
-71 -44 -26 60 32 

86 -114 81 0 -59 
18 84 -47 -109 79 
27 -93 90 53 -21 
95 54 80 -89 6 
-90 -5 103 50 -81 

-21 -127 -124 -11 38 
-101 1 -102 -120 -36 
-93 -23 -5 58 32 
-84 -115 88 -34 -54 
-24 -25 83 -70 -85 

43 57 34 55 44 
8 29 -13 -67 -19 
43 62 58 -24 83 
-77 101 4 6 -117 
31 115 -81 117 111 

-63 -114 59 49 99 
4 123 -95 88 24 
-89 97 79 -25 -46 
-62 -44 -49 55 48 
110 -10 102 120 45 

117 19 78 32 67 
-54 118 10 -111 -83 
-55 -35 92 -22 -14 
-49 36 8 -71 -107 
-111 110 44 -54 112 


-30 -51 -127 -71 76 
-21 -112 -2 58 -78 
29 11 -107 63 19 
113 -17 36 -35 -93 
-48 28 40 92 96 

124 98 12 42 -3 
-93 17 -66 -39 71 
16 98 -58 52 -4 
42 73 92 -23 93 
-34 104 78 26 110 

38 84 -48 -65 1 
0 -29 29 -57 -94 
-116 -30 -13 67 -37 
-98 -18 125 -120 -108 
-71 -44 -26 60 32 

86 -114 81 0 -59 
18 84 -47 -109 79 
27 -93 90 53 -21 
95 54 80 -89 6 
-90 -5 103 50 -81 

-21 -127 -124 -11 38 
-101 1 -102 -120 -36 
-93 -23 -5 58 32 
-84 -115 88 -34 -54 
-24 -25 83 -70 -85 

43 57 34 55 44 
8 29 -13 -67 -19 
43 62 58 -24 83 
-77 101 4 6 -117 
31 115 -81 117 111 

-63 -114 59 49 99 
4 123 -95 88 24 
-89 97 79 -25 -46 
-62 -44 -49 55 48 
110 -10 102 120 45 

117 19 78 32 67 
-54 118 10 -111 -83 
-55 -35 92 -22 -14 
-49 36 8 -71 -107 
-111 110 44 -54 112 


-30 -51 -127 -71 76 
-21 -112 -2 58 -78 
29 11 -107 63 19 
113 -17 36 -35 -93 
-48 28 40 92 96 

124 98 12 42 -3 
-93 17 -66 -39 71 
16 98 -58 52 -4 
42 73 92 -23 93 
-34 104 78 26 110 

38 84 -48 -65 1 
0 -29 29 -57 -94 
-116 -30 -13 67 -37 
-98 -18 125 -120 -108 
-71 -44 -26 60 32 

86 -114 81 0 -59 
18 84 -47 -109 79 
27 -93 90 53 -21 
95 54 80 -89 6 
-90 -5 103 50 -81 

-21 -127 -124 -11 38 
-101 1 -102 -120 -36 
-93 -23 -5 58 32 
-84 -115 88 -34 -54 
-24 -25 83 -70 -85 

43 57 34 55 44 
8 29 -13 -67 -19 
43 62 58 -24 83 
-77 101 4 6 -117 
31 115 -81 117 111 

-63 -114 59 49 99 
4 123 -95 88 24 
-89 97 79 -25 -46 
-62 -44 -49 55 48 
110 -10 102 120 45 

117 19 78 32 67 
-54 118 10 -111 -83 
-55 -35 92 -22 -14 
-49 36 8 -71 -107 
-111 110 44 -54 112 


-30 -51 -127 -71 76 
-21 -112 -2 58 -78 
29 11 -107 63 19 
113 -17 36 -35 -93 
-48 28 40 92 96 

124 98 12 42 -3 
-93 17 -66 -39 71 
16 98 -58 52 -4 
42 73 92 -23 93 
-34 104 78 26 110 

38 84 -48 -65 1 
0 -29 29 -57 -94 
-116 -30 -13 67 -37 
-98 -18 125 -120 -108 
-71 -44 -26 60 32 

86 -114 81 0 -59 
18 84 -47 -109 79 
27 -93 90 53 -21 
95 54 80 -89 6 
-90 -5 103 50 -81 

-21 -127 -124 -11 38 
-101 1 -102 -120 -36 
-93 -23 -5 58 32 
-84 -115 88 -34 -54 
-24 -25 83 -70 -85 

43 57 34 55 44 
8 29 -13 -67 -19 
43 62 58 -24 83 
-77 101 4 6 -117 
31 115 -81 117 111 

-63 -114 59 49 99 
4 123 -95 88 24 
-89 97 79 -25 -46 
-62 -44 -49 55 48 
110 -10 102 120 45 

117 19 78 32 67 
-54 118 10 -111 -83 
-55 -35 92 -22 -14 
-49 36 8 -71 -107 
-111 110 44 -54 112 



-30 -51 -127 -71 76 
-21 -112 -2 58 -78 
29 11 -107 63 19 
113 -17 36 -35 -93 
-48 28 40 92 96 

124 98 12 42 -3 
-93 17 -66 -39 71 
16 98 -58 52 -4 
42 73 92 -23 93 
-34 104 78 26 110 

38 84 -48 -65 1 
0 -29 29 -57 -94 
-116 -30 -13 67 -37 
-98 -18 125 -120 -108 
-71 -44 -26 60 32 

86 -114 81 0 -59 
18 84 -47 -109 79 
27 -93 90 53 -21 
95 54 80 -89 6 
-90 -5 103 50 -81 

-21 -127 -124 -11 38 
-101 1 -102 -120 -36 
-93 -23 -5 58 32 
-84 -115 88 -34 -54 
-24 -25 83 -70 -85 

43 57 34 55 44 
8 29 -13 -67 -19 
43 62 58 -24 83 
-77 101 4 6 -117 
31 115 -81 117 111 

-63 -114 59 49 99 
4 123 -95 88 24 
-89 97 79 -25 -46 
-62 -44 -49 55 48 
110 -10 102 120 45 

117 19 78 32 67 
-54 118 10 -111 -83 
-55 -35 92 -22 -14 
-49 36 8 -71 -107 
-111 110 44 -54 112 


-30 -51 -127 -71 76 
-21 -112 -2 58 -78 
29 11 -107 63 19 
113 -17 36 -35 -93 
-48 28 40 92 96 

124 98 12 42 -3 
-93 17 -66 -39 71 
16 98 -58 52 -4 
42 73 92 -23 93 
-34 104 78 26 110 

38 84 -48 -65 1 
0 -29 29 -57 -94 
-116 -30 -13 67 -37 
-98 -18 125 -120 -108 
-71 -44 -26 60 32 

86 -114 81 0 -59 
18 84 -47 -109 79 
27 -93 90 53 -21 
95 54 80 -89 6 
-90 -5 103 50 -81 

-21 -127 -124 -11 38 
-101 1 -102 -120 -36 
-93 -23 -5 58 32 
-84 -115 88 -34 -54 
-24 -25 83 -70 -85 

43 57 34 55 44 
8 29 -13 -67 -19 
43 62 58 -24 83 
-77 101 4 6 -117 
31 115 -81 117 111 

-63 -114 59 49 99 
4 123 -95 88 24 
-89 97 79 -25 -46 
-62 -44 -49 55 48 
110 -10 102 120 45 

117 19 78 32 67 
-54 118 10 -111 -83 
-55 -35 92 -22 -14 
-49 36 8 -71 -107 
-111 110 44 -54 112 


-30 -51 -127 -71 76 
-21 -112 -2 58 -78 
29 11 -107 63 19 
113 -17 36 -35 -93 
-48 28 40 92 96 

124 98 12 42 -3 
-93 17 -66 -39 71 
16 98 -58 52 -4 
42 73 92 -23 93 
-34 104 78 26 110 

38 84 -48 -65 1 
0 -29 29 -57 -94 
-116 -30 -13 67 -37 
-98 -18 125 -120 -108 
-71 -44 -26 60 32 

86 -114 81 0 -59 
18 84 -47 -109 79 
27 -93 90 53 -21 
95 54 80 -89 6 
-90 -5 103 50 -81 

-21 -127 -124 -11 38 
-101 1 -102 -120 -36 
-93 -23 -5 58 32 
-84 -115 88 -34 -54 
-24 -25 83 -70 -85 

43 57 34 55 44 
8 29 -13 -67 -19 
43 62 58 -24 83 
-77 101 4 6 -117 
31 115 -81 117 111 

-63 -114 59 49 99 
4 123 -95 88 24 
-89 97 79 -25 -46 
-62 -44 -49 55 48 
110 -10 102 120 45 

117 19 78 32 67 
-54 118 10 -111 -83 
-55 -35 92 -22 -14 
-49 36 8 -71 -107 
-111 110 44 -54 112 


-30 -51 -127 -71 76 
-21 -112 -2 58 -78 
29 11 -107 63 19 
113 -17 36 -35 -93 
-48 28 40 92 96 

124 98 12 42 -3 
-93 17 -66 -39 71 
16 98 -58 52 -4 
42 73 92 -23 93 
-34 104 78 26 110 

38 84 -48 -65 1 
0 -29 29 -57 -94 
-116 -30 -13 67 -37 
-98 -18 125 -120 -108 
-71 -44 -26 60 32 

86 -114 81 0 -59 
18 84 -47 -109 79 
27 -93 90 53 -21 
95 54 80 -89 6 
-90 -5 103 50 -81 

-21 -127 -124 -11 38 
-101 1 -102 -120 -36 
-93 -23 -5 58 32 
-84 -115 88 -34 -54 
-24 -25 83 -70 -85 

43 57 34 55 44 
8 29 -13 -67 -19 
43 62 58 -24 83 
-77 101 4 6 -117 
31 115 -81 117 111 

-63 -114 59 49 99 
4 123 -95 88 24 
-89 97 79 -25 -46 
-62 -44 -49 55 48 
110 -10 102 120 45 

117 19 78 32 67 
-54 118 10 -111 -83 
-55 -35 92 -22 -14 
-49 36 8 -71 -107 
-111 110 44 -54 112 



-30 -51 -127 -71 76 
-21 -112 -2 58 -78 
29 11 -107 63 19 
113 -17 36 -35 -93 
-48 28 40 92 96 

124 98 12 42 -3 
-93 17 -66 -39 71 
16 98 -58 52 -4 
42 73 92 -23 93 
-34 104 78 26 110 

38 84 -48 -65 1 
0 -29 29 -57 -94 
-116 -30 -13 67 -37 
-98 -18 125 -120 -108 
-71 -44 -26 60 32 

86 -114 81 0 -59 
18 84 -47 -109 79 
27 -93 90 53 -21 
95 54 80 -89 6 
-90 -5 103 50 -81 

-21 -127 -124 -11 38 
-101 1 -102 -120 -36 
-93 -23 -5 58 32 
-84 -115 88 -34 -54 
-24 -25 83 -70 -85 

43 57 34 55 44 
8 29 -13 -67 -19 
43 62 58 -24 83 
-77 101 4 6 -117 
31 115 -81 117 111 

-63 -114 59 49 99 
4 123 -95 88 24 
-89 97 79 -25 -46 
-62 -44 -49 55 48 
110 -10 102 120 45 

117 19 78 32 67 
-54 118 10 -111 -83 
-55 -35 92 -22 -14 
-49 36 8 -71 -107 
-111 110 44 -54 112 


-30 -51 -127 -71 76 
-21 -112 -2 58 -78 
29 11 -107 63 19 
113 -17 36 -35 -93 
-48 28 40 92 96 

124 98 12 42 -3 
-93 17 -66 -39 71 
16 98 -58 52 -4 
42 73 92 -23 93 
-34 104 78 26 110 

38 84 -48 -65 1 
0 -29 29 -57 -94 
-116 -30 -13 67 -37 
-98 -18 125 -120 -108 
-71 -44 -26 60 32 

86 -114 81 0 -59 
18 84 -47 -109 79 
27 -93 90 53 -21 
95 54 80 -89 6 
-90 -5 103 50 -81 

-21 -127 -124 -11 38 
-101 1 -102 -120 -36 
-93 -23 -5 58 32 
-84 -115 88 -34 -54 
-24 -25 83 -70 -85 

43 57 34 55 44 
8 29 -13 -67 -19 
43 62 58 -24 83 
-77 101 4 6 -117 
31 115 -81 117 111 

-63 -114 59 49 99 
4 123 -95 88 24 
-89 97 79 -25 -46 
-62 -44 -49 55 48 
110 -10 102 120 45 

117 19 78 32 67 
-54 118 10 -111 -83 
-55 -35 92 -22 -14 
-49 36 8 -71 -107 
-111 110 44 -54 112 


-30 -51 -127 -71 76 
-21 -112 -2 58 -78 
29 11 -107 63 19 
113 -17 36 -35 -93 
-48 28 40 92 96 

124 98 12 42 -3 
-93 17 -66 -39 71 
16 98 -58 52 -4 
42 73 92 -23 93 
-34 104 78 26 110 

38 84 -48 -65 1 
0 -29 29 -57 -94 
-116 -30 -13 67 -37 
-98 -18 125 -120 -108 
-71 -44 -26 60 32 

86 -114 81 0 -59 
18 84 -47 -109 79 
27 -93 90 53 -21 
95 54 80 -89 6 
-90 -5 103 50 -81 

-21 -127 -124 -11 38 
-101 1 -102 -120 -36 
-93 -23 -5 58 32 
-84 -115 88 -34 -54 
-24 -25 83 -70 -85 

43 57 34 55 44 
8 29 -13 -67 -19 
43 62 58 -24 83 
-77 101 4 6 -117 
31 115 -81 117 111 

-63 -114 59 49 99 
4 123 -95 88 24 
-89 97 79 -25 -46 
-62 -44 -49 55 48 
110 -10 102 120 45 

117 19 78 32 67 
-54 118 10 -111 -83 
-55 -35 92 -22 -14 
-49 36 8 -71 -107 
-111 110 44 -54 112 


-30 -51 -127 -71 76 
-21 -112 -2 58 -78 
29 11 -107 63 19 
113 -17 36 -35 -93 
-48 28 40 92 96 

124 98 12 42 -3 
-93 17 -66 -39 71 
16 98 -58 52 -4 
42 73 92 -23 93 
-34 104 78 26 110 

38 84 -48 -65 1 
0 -29 29 -57 -94 
-116 -30 -13 67 -37 
-98 -18 125 -120 -108 
-71 -44 -26 60 32 

86 -114 81 0 -59 
18 84 -47 -109 79 
27 -93 90 53 -21 
95 54 80 -89 6 
-90 -5 103 50 -81 

-21 -127 -124 -11 38 
-101 1 -102 -120 -36 
-93 -23 -5 58 32 
-84 -115 88 -34 -54 
-24 -25 83 -70 -85 

43 57 34 55 44 
8 29 -13 -67 -19 
43 62 58 -24 83 
-77 101 4 6 -117 
31 115 -81 117 111 

-63 -114 59 49 99 
4 123 -95 88 24 
-89 97 79 -25 -46 
-62 -44 -49 55 48 
110 -10 102 120 45 

117 19 78 32 67 
-54 118 10 -111 -83 
-55 -35 92 -22 -14 
-49 36 8 -71 -107 
-111 110 44 -54 112 



-30 -51 -127 -71 76 
-21 -112 -2 58 -78 
29 11 -107 63 19 
113 -17 36 -35 -93 
-48 28 40 92 96 

124 98 12 42 -3 
-93 17 -66 -39 71 
16 98 -58 52 -4 
42 73 92 -23 93 
-34 104 78 26 110 

38 84 -48 -65 1 
0 -29 29 -57 -94 
-116 -30 -13 67 -37 
-98 -18 125 -120 -108 
-71 -44 -26 60 32 

86 -114 81 0 -59 
18 84 -47 -109 79 
27 -93 90 53 -21 
95 54 80 -89 6 
-90 -5 103 50 -81 

-21 -127 -124 -11 38 
-101 1 -102 -120 -36 
-93 -23 -5 58 32 
-84 -115 88 -34 -54 
-24 -25 83 -70 -85 

43 57 34 55 44 
8 29 -13 -67 -19 
43 62 58 -24 83 
-77 101 4 6 -117 
31 115 -81 117 111 

-63 -114 59 49 99 
4 123 -95 88 24 
-89 97 79 -25 -46 
-62 -44 -49 55 48 
110 -10 102 120 45 

117 19 78 32 67 
-54 118 10 -111 -83 
-55 -35 92 -22 -14 
-49 36 8 -71 -107 
-111 110 44 -54 112 


-30 -51 -127 -71 76 
-21 -112 -2 58 -78 
29 11 -107 63 19 
113 -17 36 -35 -93 
-48 28 40 92 96 

124 98 12 42 -3 
-93 17 -66 -39 71 
16 98 -58 52 -4 
42 73 92 -23 93 
-34 104 78 26 110 

38 84 -48 -65 1 
0 -29 29 -57 -94 
-116 -30 -13 67 -37 
-98 -18 125 -120 -108 
-71 -44 -26 60 32 

86 -114 81 0 -59 
18 84 -47 -109 79 
27 -93 90 53 -21 
95 54 80 -89 6 
-90 -5 103 50 -81 

-21 -127 -124 -11 38 
-101 1 -102 -120 -36 
-93 -23 -5 58 32 
-84 -115 88 -34 -54 
-24 -25 83 -70 -85 

43 57 34 55 44 
8 29 -13 -67 -19 
43 62 58 -24 83 
-77 101 4 6 -117 
31 115 -81 117 111 

-63 -114 59 49 99 
4 123 -95 88 24 
-89 97 79 -25 -46 
-62 -44 -49 55 48 
110 -10 102 120 45 

117 19 78 32 67 
-54 118 10 -111 -83 
-55 -35 92 -22 -14 
-49 36 8 -71 -107 
-111 110 44 -54 112 


-30 -51 -127 -71 76 
-21 -112 -2 58 -78 
29 11 -107 63 19 
113 -17 36 -35 -93 
-48 28 40 92 96 

124 98 12 42 -3 
-93 17 -66 -39 71 
16 98 -58 52 -4 
42 73 92 -23 93 
-34 104 78 26 110 

38 84 -48 -65 1 
0 -29 29 -57 -94 
-116 -30 -13 67 -37 
-98 -18 125 -120 -108 
-71 -44 -26 60 32 

86 -114 81 0 -59 
18 84 -47 -109 79 
27 -93 90 53 -21 
95 54 80 -89 6 
-90 -5 103 50 -81 

-21 -127 -124 -11 38 
-101 1 -102 -120 -36 
-93 -23 -5 58 32 
-84 -115 88 -34 -54 
-24 -25 83 -70 -85 

43 57 34 55 44 
8 29 -13 -67 -19 
43 62 58 -24 83 
-77 101 4 6 -117 
31 115 -81 117 111 

-63 -114 59 49 99 
4 123 -95 88 24 
-89 97 79 -25 -46 
-62 -44 -49 55 48 
110 -10 102 120 45 

117 19 78 32 67 
-54 118 10 -111 -83 
-55 -35 92 -22 -14 
-49 36 8 -71 -107 
-111 110 44 -54 112 


-30 -51 -127 -71 76 
-21 -112 -2 58 -78 
29 11 -107 63 19 
113 -17 36 -35 -93 
-48 28 40 92 96 

124 98 12 42 -3 
-93 17 -66 -39 71 
16 98 -58 52 -4 
42 73 92 -23 93 
-34 104 78 26 110 

38 84 -48 -65 1 
0 -29 29 -57 -94 
-116 -30 -13 67 -37 
-98 -18 125 -120 -108 
-71 -44 -26 60 32 

86 -114 81 0 -59 
18 84 -47 -109 79 
27 -93 90 53 -21 
95 54 80 -89 6 
-90 -5 103 50 -81 

-21 -127 -124 -11 38 
-101 1 -102 -120 -36 
-93 -23 -5 58 32 
-84 -115 88 -34 -54 
-24 -25 83 -70 -85 

43 57 34 55 44 
8 29 -13 -67 -19 
43 62 58 -24 83 
-77 101 4 6 -117 
31 115 -81 117 111 

-63 -114 59 49 99 
4 123 -95 88 24 
-89 97 79 -25 -46 
-62 -44 -49 55 48 
110 -10 102 120 45 

117 19 78 32 67 
-54 118 10 -111 -83 
-55 -35 92 -22 -14 
-49 36 8 -71 -107 
-111 110 44 -54 112 



-30 -51 -127 -71 76 
-21 -112 -2 58 -78 
29 11 -107 63 19 
113 -17 36 -35 -93 
-48 28 40 92 96 

124 98 12 42 -3 
-93 17 -66 -39 71 
16 98 -58 52 -4 
42 73 92 -23 93 
-34 104 78 26 110 

38 84 -48 -65 1 
0 -29 29 -57 -94 
-116 -30 -13 67 -37 
-98 -18 125 -120 -108 
-71 -44 -26 60 32 

86 -114 81 0 -59 
18 84 -47 -109 79 
27 -93 90 53 -21 
95 54 80 -89 6 
-90 -5 103 50 -81 

-21 -127 -124 -11 38 
-101 1 -102 -120 -36 
-93 -23 -5 58 32 
-84 -115 88 -34 -54 
-24 -25 83 -70 -85 

43 57 34 55 44 
8 29 -13 -67 -19 
43 62 58 -24 83 
-77 101 4 6 -117 
31 115 -81 117 111 

-63 -114 59 49 99 
4 123 -95 88 24 
-89 97 79 -25 -46 
-62 -44 -49 55 48 
110 -10 102 120 45 

117 19 78 32 67 
-54 118 10 -111 -83 
-55 -35 92 -22 -14 
-49 36 8 -71 -107 
-111 110 44 -54 112 


-30 -51 -127 -71 76 
-21 -112 -2 58 -78 
29 11 -107 63 19 
113 -17 36 -35 -93 
-48 28 40 92 96 

124 98 12 42 -3 
-93 17 -66 -39 71 
16 98 -58 52 -4 
42 73 92 -23 93 
-34 104 78 26 110 

38 84 -48 -65 1 
0 -29 29 -57 -94 
-116 -30 -13 67 -37 
-98 -18 125 -120 -108 
-71 -44 -26 60 32 

86 -114 81 0 -59 
18 84 -47 -109 79 
27 -93 90 53 -21 
95 54 80 -89 6 
-90 -5 103 50 -81 

-21 -127 -124 -11 38 
-101 1 -102 -120 -36 
-93 -23 -5 58 32 
-84 -115 88 -34 -54 
-24 -25 83 -70 -85 

43 57 34 55 44 
8 29 -13 -67 -19 
43 62 58 -24 83 
-77 101 4 6 -117 
31 115 -81 117 111 

-63 -114 59 49 99 
4 123 -95 88 24 
-89 97 79 -25 -46 
-62 -44 -49 55 48 
110 -10 102 120 45 

117 19 78 32 67 
-54 118 10 -111 -83 
-55 -35 92 -22 -14 
-49 36 8 -71 -107 
-111 110 44 -54 112 


-30 -51 -127 -71 76 
-21 -112 -2 58 -78 
29 11 -107 63 19 
113 -17 36 -35 -93 
-48 28 40 92 96 

124 98 12 42 -3 
-93 17 -66 -39 71 
16 98 -58 52 -4 
42 73 92 -23 93 
-34 104 78 26 110 

38 84 -48 -65 1 
0 -29 29 -57 -94 
-116 -30 -13 67 -37 
-98 -18 125 -120 -108 
-71 -44 -26 60 32 

86 -114 81 0 -59 
18 84 -47 -109 79 
27 -93 90 53 -21 
95 54 80 -89 6 
-90 -5 103 50 -81 

-21 -127 -124 -11 38 
-101 1 -102 -120 -36 
-93 -23 -5 58 32 
-84 -115 88 -34 -54 
-24 -25 83 -70 -85 

43 57 34 55 44 
8 29 -13 -67 -19 
43 62 58 -24 83 
-77 101 4 6 -117 
31 115 -81 117 111 

-63 -114 59 49 99 
4 123 -95 88 24 
-89 97 79 -25 -46 
-62 -44 -49 55 48 
110 -10 102 120 45 

117 19 78 32 67 
-54 118 10 -111 -83 
-55 -35 92 -22 -14 
-49 36 8 -71 -107 
-111 110 44 -54 112 


-30 -51 -127 -71 76 
-21 -112 -2 58 -78 
29 11 -107 63 19 
113 -17 36 -35 -93 
-48 28 40 92 96 

124 98 12 42 -3 
-93 17 -66 -39 71 
16 98 -58 52 -4 
42 73 92 -23 93 
-34 104 78 26 110 

38 84 -48 -65 1 
0 -29 29 -57 -94 
-116 -30 -13 67 -37 
-98 -18 125 -120 -108 
-71 -44 -26 60 32 

86 -114 81 0 -59 
18 84 -47 -109 79 
27 -93 90 53 -21 
95 54 80 -89 6 
-90 -5 103 50 -81 

-21 -127 -124 -11 38 
-101 1 -102 -120 -36 
-93 -23 -5 58 32 
-84 -115 88 -34 -54 
-24 -25 83 -70 -85 

43 57 34 55 44 
8 29 -13 -67 -19 
43 62 58 -24 83 
-77 101 4 6 -117 
31 115 -81 117 111 

-63 -114 59 49 99 
4 123 -95 88 24 
-89 97 79 -25 -46 
-62 -44 -49 55 48 
110 -10 102 120 45 

117 19 78 32 67 
-54 118 10 -111 -83 
-55 -35 92 -22 -14 
-49 36 8 -71 -107 
-111 110 44 -54 112 



-30 -51 -127 -71 76 
-21 -112 -2 58 -78 
29 11 -107 63 19 
113 -17 36 -35 -93 
-48 28 40 92 96 

124 98 12 42 -3 
-93 17 -66 -39 71 
16 98 -58 52 -4 
42 73 92 -23 93 
-34 104 78 26 110 

38 84 -48 -65 1 
0 -29 29 -57 -94 
-116 -30 -13 67 -37 
-98 -18 125 -120 -108 
-71 -44 -26 60 32 

86 -114 81 0 -59 
18 84 -47 -109 79 
27 -93 90 53 -21 
95 54 80 -89 6 
-90 -5 103 50 -81 

-21 -127 -124 -11 38 
-101 1 -102 -120 -36 
-93 -23 -5 58 32 
-84 -115 88 -34 -54 
-24 -25 83 -70 -85 

43 57 34 55 44 
8 29 -13 -67 -19 
43 62 58 -24 83 
-77 101 4 6 -117 
31 115 -81 117 111 

-63 -114 59 49 99 
4 123 -95 88 24 
-89 97 79 -25 -46 
-62 -44 -49 55 48 
110 -10 102 120 45 

117 19 78 32 67 
-54 118 10 -111 -83 
-55 -35 92 -22 -14 
-49 36 8 -71 -107 
-111 110 44 -54 112 


-30 -51 -127 -71 76 
-21 -112 -2 58 -78 
29 11 -107 63 19 
113 -17 36 -35 -93 
-48 28 40 92 96 

124 98 12 42 -3 
-93 17 -66 -39 71 
16 98 -58 52 -4 
42 73 92 -23 93 
-34 104 78 26 110 

38 84 -48 -65 1 
0 -29 29 -57 -94 
-116 -30 -13 67 -37 
-98 -18 125 -120 -108 
-71 -44 -26 60 32 

86 -114 81 0 -59 
18 84 -47 -109 79 
27 -93 90 53 -21 
95 54 80 -89 6 
-90 -5 103 50 -81 

-21 -127 -124 -11 38 
-101 1 -102 -120 -36 
-93 -23 -5 58 32 
-84 -115 88 -34 -54 
-24 -25 83 -70 -85 

43 57 34 55 44 
8 29 -13 -67 -19 
43 62 58 -24 83 
-77 101 4 6 -117 
31 115 -81 117 111 

-63 -114 59 49 99 
4 123 -95 88 24 
-89 97 79 -25 -46 
-62 -44 -49 55 48 
110 -10 102 120 45 

117 19 78 32 67 
-54 118 10 -111 -83 
-55 -35 92 -22 -14 
-49 36 8 -71 -107 
-111 110 44 -54 112 


-30 -51 -127 -71 76 
-21 -112 -2 58 -78 
29 11 -107 63 19 
113 -17 36 -35 -93 
-48 28 40 92 96 

124 98 12 42 -3 
-93 17 -66 -39 71 
16 98 -58 52 -4 
42 73 92 -23 93 
-34 104 78 26 110 

38 84 -48 -65 1 
0 -29 29 -57 -94 
-116 -30 -13 67 -37 
-98 -18 125 -120 -108 
-71 -44 -26 60 32 

86 -114 81 0 -59 
18 84 -47 -109 79 
27 -93 90 53 -21 
95 54 80 -89 6 
-90 -5 103 50 -81 

-21 -127 -124 -11 38 
-101 1 -102 -120 -36 
-93 -23 -5 58 32 
-84 -115 88 -34 -54 
-24 -25 83 -70 -85 

43 57 34 55 44 
8 29 -13 -67 -19 
43 62 58 -24 83 
-77 101 4 6 -117 
31 115 -81 117 111 

-63 -114 59 49 99 
4 123 -95 88 24 
-89 97 79 -25 -46 
-62 -44 -49 55 48 
110 -10 102 120 45 

117 19 78 32 67 
-54 118 10 -111 -83 
-55 -35 92 -22 -14 
-49 36 8 -71 -107 
-111 110 44 -54 112 


-30 -51 -127 -71 76 
-21 -112 -2 58 -78 
29 11 -107 63 19 
113 -17 36 -35 -93 
-48 28 40 92 96 

124 98 12 42 -3 
-93 17 -66 -39 71 
16 98 -58 52 -4 
42 73 92 -23 93 
-34 104 78 26 110 

38 84 -48 -65 1 
0 -29 29 -57 -94 
-116 -30 -13 67 -37 
-98 -18 125 -120 -108 
-71 -44 -26 60 32 

86 -114 81 0 -59 
18 84 -47 -109 79 
27 -93 90 53 -21 
95 54 80 -89 6 
-90 -5 103 50 -81 

-21 -127 -124 -11 38 
-101 1 -102 -120 -36 
-93 -23 -5 58 32 
-84 -115 88 -34 -54 
-24 -25 83 -70 -85 

43 57 34 55 44 
8 29 -13 -67 -19 
43 62 58 -24 83 
-77 101 4 6 -117 
31 115 -81 117 111 

-63 -114 59 49 99 
4 123 -95 88 24 
-89 97 79 -25 -46 
-62 -44 -49 55 48 
110 -10 102 120 45 

117 19 78 32 67 
-54 118 10 -111 -83 
-55 -35 92 -22 -14 
-49 36 8 -71 -107 
-111 110 44 -54 112 



-30 -51 -127 -71 76 
-21 -112 -2 58 -78 
29 11 -107 63 19 
113 -17 36 -35 -93 
-48 28 40 92 96 

124 98 12 42 -3 
-93 17 -66 -39 71 
16 98 -58 52 -4 
42 73 92 -23 93 
-34 104 78 26 110 

38 84 -48 -65 1 
0 -29 29 -57 -94 
-116 -30 -13 67 -37 
-98 -18 125 -120 -108 
-71 -44 -26 60 32 

86 -114 81 0 -59 
18 84 -47 -109 79 
27 -93 90 53 -21 
95 54 80 -89 6 
-90 -5 103 50 -81 

-21 -127 -124 -11 38 
-101 1 -102 -120 -36 
-93 -23 -5 58 32 
-84 -115 88 -34 -54 
-24 -25 83 -70 -85 

43 57 34 55 44 
8 29 -13 -67 -19 
43 62 58 -24 83 
-77 101 4 6 -117 
31 115 -81 117 111 

-63 -114 59 49 99 
4 123 -95 88 24 
-89 97 79 -25 -46 
-62 -44 -49 55 48 
110 -10 102 120 45 

117 19 78 32 67 
-54 118 10 -111 -83 
-55 -35 92 -22 -14 
-49 36 8 -71 -107 
-111 110 44 -54 112 


-30 -51 -127 -71 76 
-21 -112 -2 58 -78 
29 11 -107 63 19 
113 -17 36 -35 -93 
-48 28 40 92 96 

124 98 12 42 -3 
-93 17 -66 -39 71 
16 98 -58 52 -4 
42 73 92 -23 93 
-34 104 78 26 110 

38 84 -48 -65 1 
0 -29 29 -57 -94 
-116 -30 -13 67 -37 
-98 -18 125 -120 -108 
-71 -44 -26 60 32 

86 -114 81 0 -59 
18 84 -47 -109 79 
27 -93 90 53 -21 
95 54 80 -89 6 
-90 -5 103 50 -81 

-21 -127 -124 -11 38 
-101 1 -102 -120 -36 
-93 -23 -5 58 32 
-84 -115 88 -34 -54 
-24 -25 83 -70 -85 

43 57 34 55 44 
8 29 -13 -67 -19 
43 62 58 -24 83 
-77 101 4 6 -117 
31 115 -81 117 111 

-63 -114 59 49 99 
4 123 -95 88 24 
-89 97 79 -25 -46 
-62 -44 -49 55 48 
110 -10 102 120 45 

117 19 78 32 67 
-54 118 10 -111 -83 
-55 -35 92 -22 -14 
-49 36 8 -71 -107 
-111 110 44 -54 112 


-30 -51 -127 -71 76 
-21 -112 -2 58 -78 
29 11 -107 63 19 
113 -17 36 -35 -93 
-48 28 40 92 96 

124 98 12 42 -3 
-93 17 -66 -39 71 
16 98 -58 52 -4 
42 73 92 -23 93 
-34 104 78 26 110 

38 84 -48 -65 1 
0 -29 29 -57 -94 
-116 -30 -13 67 -37 
-98 -18 125 -120 -108 
-71 -44 -26 60 32 

86 -114 81 0 -59 
18 84 -47 -109 79 
27 -93 90 53 -21 
95 54 80 -89 6 
-90 -5 103 50 -81 

-21 -127 -124 -11 38 
-101 1 -102 -120 -36 
-93 -23 -5 58 32 
-84 -115 88 -34 -54 
-24 -25 83 -70 -85 

43 57 34 55 44 
8 29 -13 -67 -19 
43 62 58 -24 83 
-77 101 4 6 -117 
31 115 -81 117 111 

-63 -114 59 49 99 
4 123 -95 88 24 
-89 97 79 -25 -46 
-62 -44 -49 55 48 
110 -10 102 120 45 

117 19 78 32 67 
-54 118 10 -111 -83 
-55 -35 92 -22 -14 
-49 36 8 -71 -107 
-111 110 44 -54 112 


-30 -51 -127 -71 76 
-21 -112 -2 58 -78 
29 11 -107 63 19 
113 -17 36 -35 -93 
-48 28 40 92 96 

124 98 12 42 -3 
-93 17 -66 -39 71 
16 98 -58 52 -4 
42 73 92 -23 93 
-34 104 78 26 110 

38 84 -48 -65 1 
0 -29 29 -57 -94 
-116 -30 -13 67 -37 
-98 -18 125 -120 -108 
-71 -44 -26 60 32 

86 -114 81 0 -59 
18 84 -47 -109 79 
27 -93 90 53 -21 
95 54 80 -89 6 
-90 -5 103 50 -81 

-21 -127 -124 -11 38 
-101 1 -102 -120 -36 
-93 -23 -5 58 32 
-84 -115 88 -34 -54 
-24 -25 83 -70 -85 

43 57 34 55 44 
8 29 -13 -67 -19 
43 62 58 -24 83 
-77 101 4 6 -117 
31 115 -81 117 111 

-63 -114 59 49 99 
4 123 -95 88 24 
-89 97 79 -25 -46 
-62 -44 -49 55 48 
110 -10 102 120 45 

117 19 78 32 67 
-54 118 10 -111 -83 
-55 -35 92 -22 -14 
-49 36 8 -71 -107 
-111 110 44 -54 112 



-30 -51 -127 -71 76 
-21 -112 -2 58 -78 
29 11 -107 63 19 
113 -17 36 -35 -93 
-48 28 40 92 96 

124 98 12 42 -3 
-93 17 -66 -39 71 
16 98 -58 52 -4 
42 73 92 -23 93 
-34 104 78 26 110 

38 84 -48 -65 1 
0 -29 29 -57 -94 
-116 -30 -13 67 -37 
-98 -18 125 -120 -108 
-71 -44 -26 60 32 

86 -114 81 0 -59 
18 84 -47 -109 79 
27 -93 90 53 -21 
95 54 80 -89 6 
-90 -5 103 50 -81 

-21 -127 -124 -11 38 
-101 1 -102 -120 -36 
-93 -23 -5 58 32 
-84 -115 88 -34 -54 
-24 -25 83 -70 -85 

43 57 34 55 44 
8 29 -13 -67 -19 
43 62 58 -24 83 
-77 101 4 6 -117 
31 115 -81 117 111 

-63 -114 59 49 99 
4 123 -95 88 24 
-89 97 79 -25 -46 
-62 -44 -49 55 48 
110 -10 102 120 45 

117 19 78 32 67 
-54 118 10 -111 -83 
-55 -35 92 -22 -14 
-49 36 8 -71 -107 
-111 110 44 -54 112 


-30 -51 -127 -71 76 
-21 -112 -2 58 -78 
29 11 -107 63 19 
113 -17 36 -35 -93 
-48 28 40 92 96 

124 98 12 42 -3 
-93 17 -66 -39 71 
16 98 -58 52 -4 
42 73 92 -23 93 
-34 104 78 26 110 

38 84 -48 -65 1 
0 -29 29 -57 -94 
-116 -30 -13 67 -37 
-98 -18 125 -120 -108 
-71 -44 -26 60 32 

86 -114 81 0 -59 
18 84 -47 -109 79 
27 -93 90 53 -21 
95 54 80 -89 6 
-90 -5 103 50 -81 

-21 -127 -124 -11 38 
-101 1 -102 -120 -36 
-93 -23 -5 58 32 
-84 -115 88 -34 -54 
-24 -25 83 -70 -85 

43 57 34 55 44 
8 29 -13 -67 -19 
43 62 58 -24 83 
-77 101 4 6 -117 
31 115 -81 117 111 

-63 -114 59 49 99 
4 123 -95 88 24 
-89 97 79 -25 -46 
-62 -44 -49 55 48 
110 -10 102 120 45 

117 19 78 32 67 
-54 118 10 -111 -83 
-55 -35 92 -22 -14 
-49 36 8 -71 -107 
-111 110 44 -54 112 


-30 -51 -127 -71 76 
-21 -112 -2 58 -78 
29 11 -107 63 19 
113 -17 36 -35 -93 
-48 28 40 92 96 

124 98 12 42 -3 
-93 17 -66 -39 71 
16 98 -58 52 -4 
42 73 92 -23 93 
-34 104 78 26 110 

38 84 -48 -65 1 
0 -29 29 -57 -94 
-116 -30 -13 67 -37 
-98 -18 125 -120 -108 
-71 -44 -26 60 32 

86 -114 81 0 -59 
18 84 -47 -109 79 
27 -93 90 53 -21 
95 54 80 -89 6 
-90 -5 103 50 -81 

-21 -127 -124 -11 38 
-101 1 -102 -120 -36 
-93 -23 -5 58 32 
-84 -115 88 -34 -54 
-24 -25 83 -70 -85 

43 57 34 55 44 
8 29 -13 -67 -19 
43 62 58 -24 83 
-77 101 4 6 -117 
31 115 -81 117 111 

-63 -114 59 49 99 
4 123 -95 88 24 
-89 97 79 -25 -46 
-62 -44 -49 55 48 
110 -10 102 120 45 

117 19 78 32 67 
-54 118 10 -111 -83 
-55 -35 92 -22 -14 
-49 36 8 -71 -107 
-111 110 44 -54 112 


-30 -51 -127 -71 76 
-21 -112 -2 58 -78 
29 11 -107 63 19 
113 -17 36 -35 -93 
-48 28 40 92 96 

124 98 12 42 -3 
-93 17 -66 -39 71 
16 98 -58 52 -4 
42 73 92 -23 93 
-34 104 78 26 110 

38 84 -48 -65 1 
0 -29 29 -57 -94 
-116 -30 -13 67 -37 
-98 -18 125 -120 -108 
-71 -44 -26 60 32 

86 -114 81 0 -59 
18 84 -47 -109 79 
27 -93 90 53 -21 
95 54 80 -89 6 
-90 -5 103 50 -81 

-21 -127 -124 -11 38 
-101 1 -102 -120 -36 
-93 -23 -5 58 32 
-84 -115 88 -34 -54 
-24 -25 83 -70 -85 

43 57 34 55 44 
8 29 -13 -67 -19 
43 62 58 -24 83 
-77 101 4 6 -117 
31 115 -81 117 111 

-63 -114 59 49 99 
4 123 -95 88 24 
-89 97 79 -25 -46 
-62 -44 -49 55 48 
110 -10 102 120 45 

117 19 78 32 67 
-54 118 10 -111 -83 
-55 -35 92 -22 -14 
-49 36 8 -71 -107 
-111 110 44 -54 112 



-30 -51 -127 -71 76 
-21 -112 -2 58 -78 
29 11 -107 63 19 
113 -17 36 -35 -93 
-48 28 40 92 96 

124 98 12 42 -3 
-93 17 -66 -39 71 
16 98 -58 52 -4 
42 73 92 -23 93 
-34 104 78 26 110 

38 84 -48 -65 1 
0 -29 29 -57 -94 
-116 -30 -13 67 -37 
-98 -18 125 -120 -108 
-71 -44 -26 60 32 

86 -114 81 0 -59 
18 84 -47 -109 79 
27 -93 90 53 -21 
95 54 80 -89 6 
-90 -5 103 50 -81 

-21 -127 -124 -11 38 
-101 1 -102 -120 -36 
-93 -23 -5 58 32 
-84 -115 88 -34 -54 
-24 -25 83 -70 -85 

43 57 34 55 44 
8 29 -13 -67 -19 
43 62 58 -24 83 
-77 101 4 6 -117 
31 115 -81 117 111 

-63 -114 59 49 99 
4 123 -95 88 24 
-89 97 79 -25 -46 
-62 -44 -49 55 48 
110 -10 102 120 45 

117 19 78 32 67 
-54 118 10 -111 -83 
-55 -35 92 -22 -14 
-49 36 8 -71 -107 
-111 110 44 -54 112 


-30 -51 -127 -71 76 
-21 -112 -2 58 -78 
29 11 -107 63 19 
113 -17 36 -35 -93 
-48 28 40 92 96 

124 98 12 42 -3 
-93 17 -66 -39 71 
16 98 -58 52 -4 
42 73 92 -23 93 
-34 104 78 26 110 

38 84 -48 -65 1 
0 -29 29 -57 -94 
-116 -30 -13 67 -37 
-98 -18 125 -120 -108 
-71 -44 -26 60 32 

86 -114 81 0 -59 
18 84 -47 -109 79 
27 -93 90 53 -21 
95 54 80 -89 6 
-90 -5 103 50 -81 

-21 -127 -124 -11 38 
-101 1 -102 -120 -36 
-93 -23 -5 58 32 
-84 -115 88 -34 -54 
-24 -25 83 -70 -85 

43 57 34 55 44 
8 29 -13 -67 -19 
43 62 58 -24 83 
-77 101 4 6 -117 
31 115 -81 117 111 

-63 -114 59 49 99 
4 123 -95 88 24 
-89 97 79 -25 -46 
-62 -44 -49 55 48 
110 -10 102 120 45 

117 19 78 32 67 
-54 118 10 -111 -83 
-55 -35 92 -22 -14 
-49 36 8 -71 -107 
-111 110 44 -54 112 


-30 -51 -127 -71 76 
-21 -112 -2 58 -78 
29 11 -107 63 19 
113 -17 36 -35 -93 
-48 28 40 92 96 

124 98 12 42 -3 
-93 17 -66 -39 71 
16 98 -58 52 -4 
42 73 92 -23 93 
-34 104 78 26 110 

38 84 -48 -65 1 
0 -29 29 -57 -94 
-116 -30 -13 67 -37 
-98 -18 125 -120 -108 
-71 -44 -26 60 32 

86 -114 81 0 -59 
18 84 -47 -109 79 
27 -93 90 53 -21 
95 54 80 -89 6 
-90 -5 103 50 -81 

-21 -127 -124 -11 38 
-101 1 -102 -120 -36 
-93 -23 -5 58 32 
-84 -115 88 -34 -54 
-24 -25 83 -70 -85 

43 57 34 55 44 
8 29 -13 -67 -19 
43 62 58 -24 83 
-77 101 4 6 -117 
31 115 -81 117 111 

-63 -114 59 49 99 
4 123 -95 88 24 
-89 97 79 -25 -46 
-62 -44 -49 55 48 
110 -10 102 120 45 

117 19 78 32 67 
-54 118 10 -111 -83 
-55 -35 92 -22 -14 
-49 36 8 -71 -107 
-111 110 44 -54 112 


-30 -51 -127 -71 76 
-21 -112 -2 58 -78 
29 11 -107 63 19 
113 -17 36 -35 -93 
-48 28 40 92 96 

124 98 12 42 -3 
-93 17 -66 -39 71 
16 98 -58 52 -4 
42 73 92 -23 93 
-34 104 78 26 110 

38 84 -48 -65 1 
0 -29 29 -57 -94 
-116 -30 -13 67 -37 
-98 -18 125 -120 -108 
-71 -44 -26 60 32 

86 -114 81 0 -59 
18 84 -47 -109 79 
27 -93 90 53 -21 
95 54 80 -89 6 
-90 -5 103 50 -81 

-21 -127 -124 -11 38 
-101 1 -102 -120 -36 
-93 -23 -5 58 32 
-84 -115 88 -34 -54 
-24 -25 83 -70 -85 

43 57 34 55 44 
8 29 -13 -67 -19 
43 62 58 -24 83 
-77 101 4 6 -117 
31 115 -81 117 111 

-63 -114 59 49 99 
4 123 -95 88 24 
-89 97 79 -25 -46 
-62 -44 -49 55 48 
110 -10 102 120 45 

117 19 78 32 67 
-54 118 10 -111 -83 
-55 -35 92 -22 -14 
-49 36 8 -71 -107 
-111 110 44 -54 112 




10 77 62 104 -65 
-90 74 -79 -63 -28 
41 -65 121 -78 44 
56 -73 64 119 -4 
42 -24 -14 6 -86 

57 -111 9 -59 69 
41 -8 -50 37 -8 
-47 98 -1 -126 90 
-120 -10 -31 81 43 
63 57 31 93 -117 

-2 -118 101 8 44 
-1 16 59 121 13 
83 54 89 38 13 
37 -102 82 83 -115 
-115 106 -95 121 5 

-48 57 74 -25 77 
-17 58 61 -99 106 
114 45 -93 -125 -34 
-73 -15 -95 -122 -42 
-56 16 -17 112 12 

112 96 -39 -88 -33 
85 41 120 -32 102 
-57 -72 -83 -77 55 
124 90 29 -103 -53 
-116 -89 88 10 114 

-111 -95 -29 62 102 
-1 25 -70 67 -17 
32 107 -25 -7 25 
-97 21 30 26 117 
-13 104 112 -106 117 

-97 17 -96 -96 -122 
35 -67 -36 34 -125 
90 114 82 21 -2 
45 -90 -25 -116 -119 
-56 81 102 77 -8 

-122 -53 102 81 79 
58 -102 -56 81 115 
37 -47 -8 63 97 
-76 30 63 -89 72 
100 93 -105 -48 6 


10 77 62 104 -65 
-90 74 -79 -63 -28 
41 -65 121 -78 44 
56 -73 64 119 -4 
42 -24 -14 6 -86 

57 -111 9 -59 69 
41 -8 -50 37 -8 
-47 98 -1 -126 90 
-120 -10 -31 81 43 
63 57 31 93 -117 

-2 -118 101 8 44 
-1 16 59 121 13 
83 54 89 38 13 
37 -102 82 83 -115 
-115 106 -95 121 5 

-48 57 74 -25 77 
-17 58 61 -99 106 
114 45 -93 -125 -34 
-73 -15 -95 -122 -42 
-56 16 -17 112 12 

112 96 -39 -88 -33 
85 41 120 -32 102 
-57 -72 -83 -77 55 
124 90 29 -103 -53 
-116 -89 88 10 114 

-111 -95 -29 62 102 
-1 25 -70 67 -17 
32 107 -25 -7 25 
-97 21 30 26 117 
-13 104 112 -106 117 

-97 17 -96 -96 -122 
35 -67 -36 34 -125 
90 114 82 21 -2 
45 -90 -25 -116 -119 
-56 81 102 77 -8 

-122 -53 102 81 79 
58 -102 -56 81 115 
37 -47 -8 63 97 
-76 30 63 -89 72 
100 93 -105 -48 6 


10 77 62 104 -65 
-90 74 -79 -63 -28 
41 -65 121 -78 44 
56 -73 64 119 -4 
42 -24 -14 6 -86 

57 -111 9 -59 69 
41 -8 -50 37 -8 
-47 98 -1 -126 90 
-120 -10 -31 81 43 
63 57 31 93 -117 

-2 -118 101 8 44 
-1 16 59 121 13 
83 54 89 38 13 
37 -102 82 83 -115 
-115 106 -95 121 5 

-48 57 74 -25 77 
-17 58 61 -99 106 
114 45 -93 -125 -34 
-73 -15 -95 -122 -42 
-56 16 -17 112 12 

112 96 -39 -88 -33 
85 41 120 -32 102 
-57 -72 -83 -77 55 
124 90 29 -103 -53 
-116 -89 88 10 114 

-111 -95 -29 62 102 
-1 25 -70 67 -17 
32 107 -25 -7 25 
-97 21 30 26 117 
-13 104 112 -106 117 

-97 17 -96 -96 -122 
35 -67 -36 34 -125 
90 114 82 21 -2 
45 -90 -25 -116 -119 
-56 81 102 77 -8 

-122 -53 102 81 79 
58 -102 -56 81 115 
37 -47 -8 63 97 
-76 30 63 -89 72 
100 93 -105 -48 6 


10 77 62 104 -65 
-90 74 -79 -63 -28 
41 -65 121 -78 44 
56 -73 64 119 -4 
42 -24 -14 6 -86 

57 -111 9 -59 69 
41 -8 -50 37 -8 
-47 98 -1 -126 90 
-120 -10 -31 81 43 
63 57 31 93 -117 

-2 -118 101 8 44 
-1 16 59 121 13 
83 54 89 38 13 
37 -102 82 83 -115 
-115 106 -95 121 5 

-48 57 74 -25 77 
-17 58 61 -99 106 
114 45 -93 -125 -34 
-73 -15 -95 -122 -42 
-56 16 -17 112 12 

112 96 -39 -88 -33 
85 41 120 -32 102 
-57 -72 -83 -77 55 
124 90 29 -103 -53 
-116 -89 88 10 114 

-111 -95 -29 62 102 
-1 25 -70 67 -17 
32 107 -25 -7 25 
-97 21 30 26 117 
-13 104 112 -106 117 

-97 17 -96 -96 -122 
35 -67 -36 34 -125 
90 114 82 21 -2 
45 -90 -25 -116 -119 
-56 81 102 77 -8 

-122 -53 102 81 79 
58 -102 -56 81 115 
37 -47 -8 63 97 
-76 30 63 -89 72 
100 93 -105 -48 6 



10 77 62 104 -65 
-90 74 -79 -63 -28 
41 -65 121 -78 44 
56 -73 64 119 -4 
42 -24 -14 6 -86 

57 -111 9 -59 69 
41 -8 -50 37 -8 
-47 98 -1 -126 90 
-120 -10 -31 81 43 
63 57 31 93 -117 

-2 -118 101 8 44 
-1 16 59 121 13 
83 54 89 38 13 
37 -102 82 83 -115 
-115 106 -95 121 5 

-48 57 74 -25 77 
-17 58 61 -99 106 
114 45 -93 -125 -34 
-73 -15 -95 -122 -42 
-56 16 -17 112 12 

112 96 -39 -88 -33 
85 41 120 -32 102 
-57 -72 -83 -77 55 
124 90 29 -103 -53 
-116 -89 88 10 114 

-111 -95 -29 62 102 
-1 25 -70 67 -17 
32 107 -25 -7 25 
-97 21 30 26 117 
-13 104 112 -106 117 

-97 17 -96 -96 -122 
35 -67 -36 34 -125 
90 114 82 21 -2 
45 -90 -25 -116 -119 
-56 81 102 77 -8 

-122 -53 102 81 79 
58 -102 -56 81 115 
37 -47 -8 63 97 
-76 30 63 -89 72 
100 93 -105 -48 6 


10 77 62 104 -65 
-90 74 -79 -63 -28 
41 -65 121 -78 44 
56 -73 64 119 -4 
42 -24 -14 6 -86 

57 -111 9 -59 69 
41 -8 -50 37 -8 
-47 98 -1 -126 90 
-120 -10 -31 81 43 
63 57 31 93 -117 

-2 -118 101 8 44 
-1 16 59 121 13 
83 54 89 38 13 
37 -102 82 83 -115 
-115 106 -95 121 5 

-48 57 74 -25 77 
-17 58 61 -99 106 
114 45 -93 -125 -34 
-73 -15 -95 -122 -42 
-56 16 -17 112 12 

112 96 -39 -88 -33 
85 41 120 -32 102 
-57 -72 -83 -77 55 
124 90 29 -103 -53 
-116 -89 88 10 114 

-111 -95 -29 62 102 
-1 25 -70 67 -17 
32 107 -25 -7 25 
-97 21 30 26 117 
-13 104 112 -106 117 

-97 17 -96 -96 -122 
35 -67 -36 34 -125 
90 114 82 21 -2 
45 -90 -25 -116 -119 
-56 81 102 77 -8 

-122 -53 102 81 79 
58 -102 -56 81 115 
37 -47 -8 63 97 
-76 30 63 -89 72 
100 93 -105 -48 6 


10 77 62 104 -65 
-90 74 -79 -63 -28 
41 -65 121 -78 44 
56 -73 64 119 -4 
42 -24 -14 6 -86 

57 -111 9 -59 69 
41 -8 -50 37 -8 
-47 98 -1 -126 90 
-120 -10 -31 81 43 
63 57 31 93 -117 

-2 -118 101 8 44 
-1 16 59 121 13 
83 54 89 38 13 
37 -102 82 83 -115 
-115 106 -95 121 5 

-48 57 74 -25 77 
-17 58 61 -99 106 
114 45 -93 -125 -34 
-73 -15 -95 -122 -42 
-56 16 -17 112 12 

112 96 -39 -88 -33 
85 41 120 -32 102 
-57 -72 -83 -77 55 
124 90 29 -103 -53 
-116 -89 88 10 114 

-111 -95 -29 62 102 
-1 25 -70 67 -17 
32 107 -25 -7 25 
-97 21 30 26 117 
-13 104 112 -106 117 

-97 17 -96 -96 -122 
35 -67 -36 34 -125 
90 114 82 21 -2 
45 -90 -25 -116 -119 
-56 81 102 77 -8 

-122 -53 102 81 79 
58 -102 -56 81 115 
37 -47 -8 63 97 
-76 30 63 -89 72 
100 93 -105 -48 6 


10 77 62 104 -65 
-90 74 -79 -63 -28 
41 -65 121 -78 44 
56 -73 64 119 -4 
42 -24 -14 6 -86 

57 -111 9 -59 69 
41 -8 -50 37 -8 
-47 98 -1 -126 90 
-120 -10 -31 81 43 
63 57 31 93 -117 

-2 -118 101 8 44 
-1 16 59 121 13 
83 54 89 38 13 
37 -102 82 83 -115 
-115 106 -95 121 5 

-48 57 74 -25 77 
-17 58 61 -99 106 
114 45 -93 -125 -34 
-73 -15 -95 -122 -42 
-56 16 -17 112 12 

112 96 -39 -88 -33 
85 41 120 -32 102 
-57 -72 -83 -77 55 
124 90 29 -103 -53 
-116 -89 88 10 114 

-111 -95 -29 62 102 
-1 25 -70 67 -17 
32 107 -25 -7 25 
-97 21 30 26 117 
-13 104 112 -106 117 

-97 17 -96 -96 -122 
35 -67 -36 34 -125 
90 114 82 21 -2 
45 -90 -25 -116 -119 
-56 81 102 77 -8 

-122 -53 102 81 79 
58 -102 -56 81 115 
37 -47 -8 63 97 
-76 30 63 -89 72 
100 93 -105 -48 6 



10 77 62 104 -65 
-90 74 -79 -63 -28 
41 -65 121 -78 44 
56 -73 64 119 -4 
42 -24 -14 6 -86 

57 -111 9 -59 69 
41 -8 -50 37 -8 
-47 98 -1 -126 90 
-120 -10 -31 81 43 
63 57 31 93 -117 

-2 -118 101 8 44 
-1 16 59 121 13 
83 54 89 38 13 
37 -102 82 83 -115 
-115 106 -95 121 5 

-48 57 74 -25 77 
-17 58 61 -99 106 
114 45 -93 -125 -34 
-73 -15 -95 -122 -42 
-56 16 -17 112 12 

112 96 -39 -88 -33 
85 41 120 -32 102 
-57 -72 -83 -77 55 
124 90 29 -103 -53 
-116 -89 88 10 114 

-111 -95 -29 62 102 
-1 25 -70 67 -17 
32 107 -25 -7 25 
-97 21 30 26 117 
-13 104 112 -106 117 

-97 17 -96 -96 -122 
35 -67 -36 34 -125 
90 114 82 21 -2 
45 -90 -25 -116 -119 
-56 81 102 77 -8 

-122 -53 102 81 79 
58 -102 -56 81 115 
37 -47 -8 63 97 
-76 30 63 -89 72 
100 93 -105 -48 6 


10 77 62 104 -65 
-90 74 -79 -63 -28 
41 -65 121 -78 44 
56 -73 64 119 -4 
42 -24 -14 6 -86 

57 -111 9 -59 69 
41 -8 -50 37 -8 
-47 98 -1 -126 90 
-120 -10 -31 81 43 
63 57 31 93 -117 

-2 -118 101 8 44 
-1 16 59 121 13 
83 54 89 38 13 
37 -102 82 83 -115 
-115 106 -95 121 5 

-48 57 74 -25 77 
-17 58 61 -99 106 
114 45 -93 -125 -34 
-73 -15 -95 -122 -42 
-56 16 -17 112 12 

112 96 -39 -88 -33 
85 41 120 -32 102 
-57 -72 -83 -77 55 
124 90 29 -103 -53 
-116 -89 88 10 114 

-111 -95 -29 62 102 
-1 25 -70 67 -17 
32 107 -25 -7 25 
-97 21 30 26 117 
-13 104 112 -106 117 

-97 17 -96 -96 -122 
35 -67 -36 34 -125 
90 114 82 21 -2 
45 -90 -25 -116 -119 
-56 81 102 77 -8 

-122 -53 102 81 79 
58 -102 -56 81 115 
37 -47 -8 63 97 
-76 30 63 -89 72 
100 93 -105 -48 6 


10 77 62 104 -65 
-90 74 -79 -63 -28 
41 -65 121 -78 44 
56 -73 64 119 -4 
42 -24 -14 6 -86 

57 -111 9 -59 69 
41 -8 -50 37 -8 
-47 98 -1 -126 90 
-120 -10 -31 81 43 
63 57 31 93 -117 

-2 -118 101 8 44 
-1 16 59 121 13 
83 54 89 38 13 
37 -102 82 83 -115 
-115 106 -95 121 5 

-48 57 74 -25 77 
-17 58 61 -99 106 
114 45 -93 -125 -34 
-73 -15 -95 -122 -42 
-56 16 -17 112 12 

112 96 -39 -88 -33 
85 41 120 -32 102 
-57 -72 -83 -77 55 
124 90 29 -103 -53 
-116 -89 88 10 114 

-111 -95 -29 62 102 
-1 25 -70 67 -17 
32 107 -25 -7 25 
-97 21 30 26 117 
-13 104 112 -106 117 

-97 17 -96 -96 -122 
35 -67 -36 34 -125 
90 114 82 21 -2 
45 -90 -25 -116 -119 
-56 81 102 77 -8 

-122 -53 102 81 79 
58 -102 -56 81 115 
37 -47 -8 63 97 
-76 30 63 -89 72 
100 93 -105 -48 6 


10 77 62 104 -65 
-90 74 -79 -63 -28 
41 -65 121 -78 44 
56 -73 64 119 -4 
42 -24 -14 6 -86 

57 -111 9 -59 69 
41 -8 -50 37 -8 
-47 98 -1 -126 90 
-120 -10 -31 81 43 
63 57 31 93 -117 

-2 -118 101 8 44 
-1 16 59 121 13 
83 54 89 38 13 
37 -102 82 83 -115 
-115 106 -95 121 5 

-48 57 74 -25 77 
-17 58 61 -99 106 
114 45 -93 -125 -34 
-73 -15 -95 -122 -42 
-56 16 -17 112 12 

112 96 -39 -88 -33 
85 41 120 -32 102 
-57 -72 -83 -77 55 
124 90 29 -103 -53 
-116 -89 88 10 114 

-111 -95 -29 62 102 
-1 25 -70 67 -17 
32 107 -25 -7 25 
-97 21 30 26 117 
-13 104 112 -106 117 

-97 17 -96 -96 -122 
35 -67 -36 34 -125 
90 114 82 21 -2 
45 -90 -25 -116 -119 
-56 81 102 77 -8 

-122 -53 102 81 79 
58 -102 -56 81 115 
37 -47 -8 63 97 
-76 30 63 -89 72 
100 93 -105 -48 6 



10 77 62 104 -65 
-90 74 -79 -63 -28 
41 -65 121 -78 44 
56 -73 64 119 -4 
42 -24 -14 6 -86 

57 -111 9 -59 69 
41 -8 -50 37 -8 
-47 98 -1 -126 90 
-120 -10 -31 81 43 
63 57 31 93 -117 

-2 -118 101 8 44 
-1 16 59 121 13 
83 54 89 38 13 
37 -102 82 83 -115 
-115 106 -95 121 5 

-48 57 74 -25 77 
-17 58 61 -99 106 
114 45 -93 -125 -34 
-73 -15 -95 -122 -42 
-56 16 -17 112 12 

112 96 -39 -88 -33 
85 41 120 -32 102 
-57 -72 -83 -77 55 
124 90 29 -103 -53 
-116 -89 88 10 114 

-111 -95 -29 62 102 
-1 25 -70 67 -17 
32 107 -25 -7 25 
-97 21 30 26 117 
-13 104 112 -106 117 

-97 17 -96 -96 -122 
35 -67 -36 34 -125 
90 114 82 21 -2 
45 -90 -25 -116 -119 
-56 81 102 77 -8 

-122 -53 102 81 79 
58 -102 -56 81 115 
37 -47 -8 63 97 
-76 30 63 -89 72 
100 93 -105 -48 6 


10 77 62 104 -65 
-90 74 -79 -63 -28 
41 -65 121 -78 44 
56 -73 64 119 -4 
42 -24 -14 6 -86 

57 -111 9 -59 69 
41 -8 -50 37 -8 
-47 98 -1 -126 90 
-120 -10 -31 81 43 
63 57 31 93 -117 

-2 -118 101 8 44 
-1 16 59 121 13 
83 54 89 38 13 
37 -102 82 83 -115 
-115 106 -95 121 5 

-48 57 74 -25 77 
-17 58 61 -99 106 
114 45 -93 -125 -34 
-73 -15 -95 -122 -42 
-56 16 -17 112 12 

112 96 -39 -88 -33 
85 41 120 -32 102 
-57 -72 -83 -77 55 
124 90 29 -103 -53 
-116 -89 88 10 114 

-111 -95 -29 62 102 
-1 25 -70 67 -17 
32 107 -25 -7 25 
-97 21 30 26 117 
-13 104 112 -106 117 

-97 17 -96 -96 -122 
35 -67 -36 34 -125 
90 114 82 21 -2 
45 -90 -25 -116 -119 
-56 81 102 77 -8 

-122 -53 102 81 79 
58 -102 -56 81 115 
37 -47 -8 63 97 
-76 30 63 -89 72 
100 93 -105 -48 6 


10 77 62 104 -65 
-90 74 -79 -63 -28 
41 -65 121 -78 44 
56 -73 64 119 -4 
42 -24 -14 6 -86 

57 -111 9 -59 69 
41 -8 -50 37 -8 
-47 98 -1 -126 90 
-120 -10 -31 81 43 
63 57 31 93 -117 

-2 -118 101 8 44 
-1 16 59 121 13 
83 54 89 38 13 
37 -102 82 83 -115 
-115 106 -95 121 5 

-48 57 74 -25 77 
-17 58 61 -99 106 
114 45 -93 -125 -34 
-73 -15 -95 -122 -42 
-56 16 -17 112 12 

112 96 -39 -88 -33 
85 41 120 -32 102 
-57 -72 -83 -77 55 
124 90 29 -103 -53 
-116 -89 88 10 114 

-111 -95 -29 62 102 
-1 25 -70 67 -17 
32 107 -25 -7 25 
-97 21 30 26 117 
-13 104 112 -106 117 

-97 17 -96 -96 -122 
35 -67 -36 34 -125 
90 114 82 21 -2 
45 -90 -25 -116 -119 
-56 81 102 77 -8 

-122 -53 102 81 79 
58 -102 -56 81 115 
37 -47 -8 63 97 
-76 30 63 -89 72 
100 93 -105 -48 6 


10 77 62 104 -65 
-90 74 -79 -63 -28 
41 -65 121 -78 44 
56 -73 64 119 -4 
42 -24 -14 6 -86 

57 -111 9 -59 69 
41 -8 -50 37 -8 
-47 98 -1 -126 90 
-120 -10 -31 81 43 
63 57 31 93 -117 

-2 -118 101 8 44 
-1 16 59 121 13 
83 54 89 38 13 
37 -102 82 83 -115 
-115 106 -95 121 5 

-48 57 74 -25 77 
-17 58 61 -99 106 
114 45 -93 -125 -34 
-73 -15 -95 -122 -42 
-56 16 -17 112 12 

112 96 -39 -88 -33 
85 41 120 -32 102 
-57 -72 -83 -77 55 
124 90 29 -103 -53 
-116 -89 88 10 114 

-111 -95 -29 62 102 
-1 25 -70 67 -17 
32 107 -25 -7 25 
-97 21 30 26 117 
-13 104 112 -106 117 

-97 17 -96 -96 -122 
35 -67 -36 34 -125 
90 114 82 21 -2 
45 -90 -25 -116 -119 
-56 81 102 77 -8 

-122 -53 102 81 79 
58 -102 -56 81 115 
37 -47 -8 63 97 
-76 30 63 -89 72 
100 93 -105 -48 6 



10 77 62 104 -65 
-90 74 -79 -63 -28 
41 -65 121 -78 44 
56 -73 64 119 -4 
42 -24 -14 6 -86 

57 -111 9 -59 69 
41 -8 -50 37 -8 
-47 98 -1 -126 90 
-120 -10 -31 81 43 
63 57 31 93 -117 

-2 -118 101 8 44 
-1 16 59 121 13 
83 54 89 38 13 
37 -102 82 83 -115 
-115 106 -95 121 5 

-48 57 74 -25 77 
-17 58 61 -99 106 
114 45 -93 -125 -34 
-73 -15 -95 -122 -42 
-56 16 -17 112 12 

112 96 -39 -88 -33 
85 41 120 -32 102 
-57 -72 -83 -77 55 
124 90 29 -103 -53 
-116 -89 88 10 114 

-111 -95 -29 62 102 
-1 25 -70 67 -17 
32 107 -25 -7 25 
-97 21 30 26 117 
-13 104 112 -106 117 

-97 17 -96 -96 -122 
35 -67 -36 34 -125 
90 114 82 21 -2 
45 -90 -25 -116 -119 
-56 81 102 77 -8 

-122 -53 102 81 79 
58 -102 -56 81 115 
37 -47 -8 63 97 
-76 30 63 -89 72 
100 93 -105 -48 6 


10 77 62 104 -65 
-90 74 -79 -63 -28 
41 -65 121 -78 44 
56 -73 64 119 -4 
42 -24 -14 6 -86 

57 -111 9 -59 69 
41 -8 -50 37 -8 
-47 98 -1 -126 90 
-120 -10 -31 81 43 
63 57 31 93 -117 

-2 -118 101 8 44 
-1 16 59 121 13 
83 54 89 38 13 
37 -102 82 83 -115 
-115 106 -95 121 5 

-48 57 74 -25 77 
-17 58 61 -99 106 
114 45 -93 -125 -34 
-73 -15 -95 -122 -42 
-56 16 -17 112 12 

112 96 -39 -88 -33 
85 41 120 -32 102 
-57 -72 -83 -77 55 
124 90 29 -103 -53 
-116 -89 88 10 114 

-111 -95 -29 62 102 
-1 25 -70 67 -17 
32 107 -25 -7 25 
-97 21 30 26 117 
-13 104 112 -106 117 

-97 17 -96 -96 -122 
35 -67 -36 34 -125 
90 114 82 21 -2 
45 -90 -25 -116 -119 
-56 81 102 77 -8 

-122 -53 102 81 79 
58 -102 -56 81 115 
37 -47 -8 63 97 
-76 30 63 -89 72 
100 93 -105 -48 6 


10 77 62 104 -65 
-90 74 -79 -63 -28 
41 -65 121 -78 44 
56 -73 64 119 -4 
42 -24 -14 6 -86 

57 -111 9 -59 69 
41 -8 -50 37 -8 
-47 98 -1 -126 90 
-120 -10 -31 81 43 
63 57 31 93 -117 

-2 -118 101 8 44 
-1 16 59 121 13 
83 54 89 38 13 
37 -102 82 83 -115 
-115 106 -95 121 5 

-48 57 74 -25 77 
-17 58 61 -99 106 
114 45 -93 -125 -34 
-73 -15 -95 -122 -42 
-56 16 -17 112 12 

112 96 -39 -88 -33 
85 41 120 -32 102 
-57 -72 -83 -77 55 
124 90 29 -103 -53 
-116 -89 88 10 114 

-111 -95 -29 62 102 
-1 25 -70 67 -17 
32 107 -25 -7 25 
-97 21 30 26 117 
-13 104 112 -106 117 

-97 17 -96 -96 -122 
35 -67 -36 34 -125 
90 114 82 21 -2 
45 -90 -25 -116 -119 
-56 81 102 77 -8 

-122 -53 102 81 79 
58 -102 -56 81 115 
37 -47 -8 63 97 
-76 30 63 -89 72 
100 93 -105 -48 6 


10 77 62 104 -65 
-90 74 -79 -63 -28 
41 -65 121 -78 44 
56 -73 64 119 -4 
42 -24 -14 6 -86 

57 -111 9 -59 69 
41 -8 -50 37 -8 
-47 98 -1 -126 90 
-120 -10 -31 81 43 
63 57 31 93 -117 

-2 -118 101 8 44 
-1 16 59 121 13 
83 54 89 38 13 
37 -102 82 83 -115 
-115 106 -95 121 5 

-48 57 74 -25 77 
-17 58 61 -99 106 
114 45 -93 -125 -34 
-73 -15 -95 -122 -42 
-56 16 -17 112 12 

112 96 -39 -88 -33 
85 41 120 -32 102 
-57 -72 -83 -77 55 
124 90 29 -103 -53 
-116 -89 88 10 114 

-111 -95 -29 62 102 
-1 25 -70 67 -17 
32 107 -25 -7 25 
-97 21 30 26 117 
-13 104 112 -106 117 

-97 17 -96 -96 -122 
35 -67 -36 34 -125 
90 114 82 21 -2 
45 -90 -25 -116 -119 
-56 81 102 77 -8 

-122 -53 102 81 79 
58 -102 -56 81 115 
37 -47 -8 63 97 
-76 30 63 -89 72 
100 93 -105 -48 6 



10 77 62 104 -65 
-90 74 -79 -63 -28 
41 -65 121 -78 44 
56 -73 64 119 -4 
42 -24 -14 6 -86 

57 -111 9 -59 69 
41 -8 -50 37 -8 
-47 98 -1 -126 90 
-120 -10 -31 81 43 
63 57 31 93 -117 

-2 -118 101 8 44 
-1 16 59 121 13 
83 54 89 38 13 
37 -102 82 83 -115 
-115 106 -95 121 5 

-48 57 74 -25 77 
-17 58 61 -99 106 
114 45 -93 -125 -34 
-73 -15 -95 -122 -42 
-56 16 -17 112 12 

112 96 -39 -88 -33 
85 41 120 -32 102 
-57 -72 -83 -77 55 
124 90 29 -103 -53 
-116 -89 88 10 114 

-111 -95 -29 62 102 
-1 25 -70 67 -17 
32 107 -25 -7 25 
-97 21 30 26 117 
-13 104 112 -106 117 

-97 17 -96 -96 -122 
35 -67 -36 34 -125 
90 114 82 21 -2 
45 -90 -25 -116 -119 
-56 81 102 77 -8 

-122 -53 102 81 79 
58 -102 -56 81 115 
37 -47 -8 63 97 
-76 30 63 -89 72 
100 93 -105 -48 6 


10 77 62 104 -65 
-90 74 -79 -63 -28 
41 -65 121 -78 44 
56 -73 64 119 -4 
42 -24 -14 6 -86 

57 -111 9 -59 69 
41 -8 -50 37 -8 
-47 98 -1 -126 90 
-120 -10 -31 81 43 
63 57 31 93 -117 

-2 -118 101 8 44 
-1 16 59 121 13 
83 54 89 38 13 
37 -102 82 83 -115 
-115 106 -95 121 5 

-48 57 74 -25 77 
-17 58 61 -99 106 
114 45 -93 -125 -34 
-73 -15 -95 -122 -42 
-56 16 -17 112 12 

112 96 -39 -88 -33 
85 41 120 -32 102 
-57 -72 -83 -77 55 
124 90 29 -103 -53 
-116 -89 88 10 114 

-111 -95 -29 62 102 
-1 25 -70 67 -17 
32 107 -25 -7 25 
-97 21 30 26 117 
-13 104 112 -106 117 

-97 17 -96 -96 -122 
35 -67 -36 34 -125 
90 114 82 21 -2 
45 -90 -25 -116 -119 
-56 81 102 77 -8 

-122 -53 102 81 79 
58 -102 -56 81 115 
37 -47 -8 63 97 
-76 30 63 -89 72 
100 93 -105 -48 6 


10 77 62 104 -65 
-90 74 -79 -63 -28 
41 -65 121 -78 44 
56 -73 64 119 -4 
42 -24 -14 6 -86 

57 -111 9 -59 69 
41 -8 -50 37 -8 
-47 98 -1 -126 90 
-120 -10 -31 81 43 
63 57 31 93 -117 

-2 -118 101 8 44 
-1 16 59 121 13 
83 54 89 38 13 
37 -102 82 83 -115 
-115 106 -95 121 5 

-48 57 74 -25 77 
-17 58 61 -99 106 
114 45 -93 -125 -34 
-73 -15 -95 -122 -42 
-56 16 -17 112 12 

112 96 -39 -88 -33 
85 41 120 -32 102 
-57 -72 -83 -77 55 
124 90 29 -103 -53 
-116 -89 88 10 114 

-111 -95 -29 62 102 
-1 25 -70 67 -17 
32 107 -25 -7 25 
-97 21 30 26 117 
-13 104 112 -106 117 

-97 17 -96 -96 -122 
35 -67 -36 34 -125 
90 114 82 21 -2 
45 -90 -25 -116 -119 
-56 81 102 77 -8 

-122 -53 102 81 79 
58 -102 -56 81 115 
37 -47 -8 63 97 
-76 30 63 -89 72 
100 93 -105 -48 6 


10 77 62 104 -65 
-90 74 -79 -63 -28 
41 -65 121 -78 44 
56 -73 64 119 -4 
42 -24 -14 6 -86 

57 -111 9 -59 69 
41 -8 -50 37 -8 
-47 98 -1 -126 90 
-120 -10 -31 81 43 
63 57 31 93 -117 

-2 -118 101 8 44 
-1 16 59 121 13 
83 54 89 38 13 
37 -102 82 83 -115 
-115 106 -95 121 5 

-48 57 74 -25 77 
-17 58 61 -99 106 
114 45 -93 -125 -34 
-73 -15 -95 -122 -42 
-56 16 -17 112 12 

112 96 -39 -88 -33 
85 41 120 -32 102 
-57 -72 -83 -77 55 
124 90 29 -103 -53 
-116 -89 88 10 114 

-111 -95 -29 62 102 
-1 25 -70 67 -17 
32 107 -25 -7 25 
-97 21 30 26 117 
-13 104 112 -106 117 

-97 17 -96 -96 -122 
35 -67 -36 34 -125 
90 114 82 21 -2 
45 -90 -25 -116 -119 
-56 81 102 77 -8 

-122 -53 102 81 79 
58 -102 -56 81 115 
37 -47 -8 63 97 
-76 30 63 -89 72 
100 93 -105 -48 6 



10 77 62 104 -65 
-90 74 -79 -63 -28 
41 -65 121 -78 44 
56 -73 64 119 -4 
42 -24 -14 6 -86 

57 -111 9 -59 69 
41 -8 -50 37 -8 
-47 98 -1 -126 90 
-120 -10 -31 81 43 
63 57 31 93 -117 

-2 -118 101 8 44 
-1 16 59 121 13 
83 54 89 38 13 
37 -102 82 83 -115 
-115 106 -95 121 5 

-48 57 74 -25 77 
-17 58 61 -99 106 
114 45 -93 -125 -34 
-73 -15 -95 -122 -42 
-56 16 -17 112 12 

112 96 -39 -88 -33 
85 41 120 -32 102 
-57 -72 -83 -77 55 
124 90 29 -103 -53 
-116 -89 88 10 114 

-111 -95 -29 62 102 
-1 25 -70 67 -17 
32 107 -25 -7 25 
-97 21 30 26 117 
-13 104 112 -106 117 

-97 17 -96 -96 -122 
35 -67 -36 34 -125 
90 114 82 21 -2 
45 -90 -25 -116 -119 
-56 81 102 77 -8 

-122 -53 102 81 79 
58 -102 -56 81 115 
37 -47 -8 63 97 
-76 30 63 -89 72 
100 93 -105 -48 6 


10 77 62 104 -65 
-90 74 -79 -63 -28 
41 -65 121 -78 44 
56 -73 64 119 -4 
42 -24 -14 6 -86 

57 -111 9 -59 69 
41 -8 -50 37 -8 
-47 98 -1 -126 90 
-120 -10 -31 81 43 
63 57 31 93 -117 

-2 -118 101 8 44 
-1 16 59 121 13 
83 54 89 38 13 
37 -102 82 83 -115 
-115 106 -95 121 5 

-48 57 74 -25 77 
-17 58 61 -99 106 
114 45 -93 -125 -34 
-73 -15 -95 -122 -42 
-56 16 -17 112 12 

112 96 -39 -88 -33 
85 41 120 -32 102 
-57 -72 -83 -77 55 
124 90 29 -103 -53 
-116 -89 88 10 114 

-111 -95 -29 62 102 
-1 25 -70 67 -17 
32 107 -25 -7 25 
-97 21 30 26 117 
-13 104 112 -106 117 

-97 17 -96 -96 -122 
35 -67 -36 34 -125 
90 114 82 21 -2 
45 -90 -25 -116 -119 
-56 81 102 77 -8 

-122 -53 102 81 79 
58 -102 -56 81 115 
37 -47 -8 63 97 
-76 30 63 -89 72 
100 93 -105 -48 6 


10 77 62 104 -65 
-90 74 -79 -63 -28 
41 -65 121 -78 44 
56 -73 64 119 -4 
42 -24 -14 6 -86 

57 -111 9 -59 69 
41 -8 -50 37 -8 
-47 98 -1 -126 90 
-120 -10 -31 81 43 
63 57 31 93 -117 

-2 -118 101 8 44 
-1 16 59 121 13 
83 54 89 38 13 
37 -102 82 83 -115 
-115 106 -95 121 5 

-48 57 74 -25 77 
-17 58 61 -99 106 
114 45 -93 -125 -34 
-73 -15 -95 -122 -42 
-56 16 -17 112 12 

112 96 -39 -88 -33 
85 41 120 -32 102 
-57 -72 -83 -77 55 
124 90 29 -103 -53 
-116 -89 88 10 114 

-111 -95 -29 62 102 
-1 25 -70 67 -17 
32 107 -25 -7 25 
-97 21 30 26 117 
-13 104 112 -106 117 

-97 17 -96 -96 -122 
35 -67 -36 34 -125 
90 114 82 21 -2 
45 -90 -25 -116 -119 
-56 81 102 77 -8 

-122 -53 102 81 79 
58 -102 -56 81 115 
37 -47 -8 63 97 
-76 30 63 -89 72 
100 93 -105 -48 6 


10 77 62 104 -65 
-90 74 -79 -63 -28 
41 -65 121 -78 44 
56 -73 64 119 -4 
42 -24 -14 6 -86 

57 -111 9 -59 69 
41 -8 -50 37 -8 
-47 98 -1 -126 90 
-120 -10 -31 81 43 
63 57 31 93 -117 

-2 -118 101 8 44 
-1 16 59 121 13 
83 54 89 38 13 
37 -102 82 83 -115 
-115 106 -95 121 5 

-48 57 74 -25 77 
-17 58 61 -99 106 
114 45 -93 -125 -34 
-73 -15 -95 -122 -42 
-56 16 -17 112 12 

112 96 -39 -88 -33 
85 41 120 -32 102 
-57 -72 -83 -77 55 
124 90 29 -103 -53 
-116 -89 88 10 114 

-111 -95 -29 62 102 
-1 25 -70 67 -17 
32 107 -25 -7 25 
-97 21 30 26 117 
-13 104 112 -106 117 

-97 17 -96 -96 -122 
35 -67 -36 34 -125 
90 114 82 21 -2 
45 -90 -25 -116 -119 
-56 81 102 77 -8 

-122 -53 102 81 79 
58 -102 -56 81 115 
37 -47 -8 63 97 
-76 30 63 -89 72 
100 93 -105 -48 6 



10 77 62 104 -65 
-90 74 -79 -63 -28 
41 -65 121 -78 44 
56 -73 64 119 -4 
42 -24 -14 6 -86 

57 -111 9 -59 69 
41 -8 -50 37 -8 
-47 98 -1 -126 90 
-120 -10 -31 81 43 
63 57 31 93 -117 

-2 -118 101 8 44 
-1 16 59 121 13 
83 54 89 38 13 
37 -102 82 83 -115 
-115 106 -95 121 5 

-48 57 74 -25 77 
-17 58 61 -99 106 
114 45 -93 -125 -34 
-73 -15 -95 -122 -42 
-56 16 -17 112 12 

112 96 -39 -88 -33 
85 41 120 -32 102 
-57 -72 -83 -77 55 
124 90 29 -103 -53 
-116 -89 88 10 114 

-111 -95 -29 62 102 
-1 25 -70 67 -17 
32 107 -25 -7 25 
-97 21 30 26 117 
-13 104 112 -106 117 

-97 17 -96 -96 -122 
35 -67 -36 34 -125 
90 114 82 21 -2 
45 -90 -25 -116 -119 
-56 81 102 77 -8 

-122 -53 102 81 79 
58 -102 -56 81 115 
37 -47 -8 63 97 
-76 30 63 -89 72 
100 93 -105 -48 6 


10 77 62 104 -65 
-90 74 -79 -63 -28 
41 -65 121 -78 44 
56 -73 64 119 -4 
42 -24 -14 6 -86 

57 -111 9 -59 69 
41 -8 -50 37 -8 
-47 98 -1 -126 90 
-120 -10 -31 81 43 
63 57 31 93 -117 

-2 -118 101 8 44 
-1 16 59 121 13 
83 54 89 38 13 
37 -102 82 83 -115 
-115 106 -95 121 5 

-48 57 74 -25 77 
-17 58 61 -99 106 
114 45 -93 -125 -34 
-73 -15 -95 -122 -42 
-56 16 -17 112 12 

112 96 -39 -88 -33 
85 41 120 -32 102 
-57 -72 -83 -77 55 
124 90 29 -103 -53 
-116 -89 88 10 114 

-111 -95 -29 62 102 
-1 25 -70 67 -17 
32 107 -25 -7 25 
-97 21 30 26 117 
-13 104 112 -106 117 

-97 17 -96 -96 -122 
35 -67 -36 34 -125 
90 114 82 21 -2 
45 -90 -25 -116 -119 
-56 81 102 77 -8 

-122 -53 102 81 79 
58 -102 -56 81 115 
37 -47 -8 63 97 
-76 30 63 -89 72 
100 93 -105 -48 6 


10 77 62 104 -65 
-90 74 -79 -63 -28 
41 -65 121 -78 44 
56 -73 64 119 -4 
42 -24 -14 6 -86 

57 -111 9 -59 69 
41 -8 -50 37 -8 
-47 98 -1 -126 90 
-120 -10 -31 81 43 
63 57 31 93 -117 

-2 -118 101 8 44 
-1 16 59 121 13 
83 54 89 38 13 
37 -102 82 83 -115 
-115 106 -95 121 5 

-48 57 74 -25 77 
-17 58 61 -99 106 
114 45 -93 -125 -34 
-73 -15 -95 -122 -42 
-56 16 -17 112 12 

112 96 -39 -88 -33 
85 41 120 -32 102 
-57 -72 -83 -77 55 
124 90 29 -103 -53 
-116 -89 88 10 114 

-111 -95 -29 62 102 
-1 25 -70 67 -17 
32 107 -25 -7 25 
-97 21 30 26 117 
-13 104 112 -106 117 

-97 17 -96 -96 -122 
35 -67 -36 34 -125 
90 114 82 21 -2 
45 -90 -25 -116 -119 
-56 81 102 77 -8 

-122 -53 102 81 79 
58 -102 -56 81 115 
37 -47 -8 63 97 
-76 30 63 -89 72 
100 93 -105 -48 6 


10 77 62 104 -65 
-90 74 -79 -63 -28 
41 -65 121 -78 44 
56 -73 64 119 -4 
42 -24 -14 6 -86 

57 -111 9 -59 69 
41 -8 -50 37 -8 
-47 98 -1 -126 90 
-120 -10 -31 81 43 
63 57 31 93 -117 

-2 -118 101 8 44 
-1 16 59 121 13 
83 54 89 38 13 
37 -102 82 83 -115 
-115 106 -95 121 5 

-48 57 74 -25 77 
-17 58 61 -99 106 
114 45 -93 -125 -34 
-73 -15 -95 -122 -42 
-56 16 -17 112 12 

112 96 -39 -88 -33 
85 41 120 -32 102 
-57 -72 -83 -77 55 
124 90 29 -103 -53 
-116 -89 88 10 114 

-111 -95 -29 62 102 
-1 25 -70 67 -17 
32 107 -25 -7 25 
-97 21 30 26 117 
-13 104 112 -106 117 

-97 17 -96 -96 -122 
35 -67 -36 34 -125 
90 114 82 21 -2 
45 -90 -25 -116 -119 
-56 81 102 77 -8 

-122 -53 102 81 79 
58 -102 -56 81 115 
37 -47 -8 63 97 
-76 30 63 -89 72 
100 93 -105 -48 6 



10 77 62 104 -65 
-90 74 -79 -63 -28 
41 -65 121 -78 44 
56 -73 64 119 -4 
42 -24 -14 6 -86 

57 -111 9 -59 69 
41 -8 -50 37 -8 
-47 98 -1 -126 90 
-120 -10 -31 81 43 
63 57 31 93 -117 

-2 -118 101 8 44 
-1 16 59 121 13 
83 54 89 38 13 
37 -102 82 83 -115 
-115 106 -95 121 5 

-48 57 74 -25 77 
-17 58 61 -99 106 
114 45 -93 -125 -34 
-73 -15 -95 -122 -42 
-56 16 -17 112 12 

112 96 -39 -88 -33 
85 41 120 -32 102 
-57 -72 -83 -77 55 
124 90 29 -103 -53 
-116 -89 88 10 114 

-111 -95 -29 62 102 
-1 25 -70 67 -17 
32 107 -25 -7 25 
-97 21 30 26 117 
-13 104 112 -106 117 

-97 17 -96 -96 -122 
35 -67 -36 34 -125 
90 114 82 21 -2 
45 -90 -25 -116 -119 
-56 81 102 77 -8 

-122 -53 102 81 79 
58 -102 -56 81 115 
37 -47 -8 63 97 
-76 30 63 -89 72 
100 93 -105 -48 6 


10 77 62 104 -65 
-90 74 -79 -63 -28 
41 -65 121 -78 44 
56 -73 64 119 -4 
42 -24 -14 6 -86 

57 -111 9 -59 69 
41 -8 -50 37 -8 
-47 98 -1 -126 90 
-120 -10 -31 81 43 
63 57 31 93 -117 

-2 -118 101 8 44 
-1 16 59 121 13 
83 54 89 38 13 
37 -102 82 83 -115 
-115 106 -95 121 5 

-48 57 74 -25 77 
-17 58 61 -99 106 
114 45 -93 -125 -34 
-73 -15 -95 -122 -42 
-56 16 -17 112 12 

112 96 -39 -88 -33 
85 41 120 -32 102 
-57 -72 -83 -77 55 
124 90 29 -103 -53 
-116 -89 88 10 114 

-111 -95 -29 62 102 
-1 25 -70 67 -17 
32 107 -25 -7 25 
-97 21 30 26 117 
-13 104 112 -106 117 

-97 17 -96 -96 -122 
35 -67 -36 34 -125 
90 114 82 21 -2 
45 -90 -25 -116 -119 
-56 81 102 77 -8 

-122 -53 102 81 79 
58 -102 -56 81 115 
37 -47 -8 63 97 
-76 30 63 -89 72 
100 93 -105 -48 6 


10 77 62 104 -65 
-90 74 -79 -63 -28 
41 -65 121 -78 44 
56 -73 64 119 -4 
42 -24 -14 6 -86 

57 -111 9 -59 69 
41 -8 -50 37 -8 
-47 98 -1 -126 90 
-120 -10 -31 81 43 
63 57 31 93 -117 

-2 -118 101 8 44 
-1 16 59 121 13 
83 54 89 38 13 
37 -102 82 83 -115 
-115 106 -95 121 5 

-48 57 74 -25 77 
-17 58 61 -99 106 
114 45 -93 -125 -34 
-73 -15 -95 -122 -42 
-56 16 -17 112 12 

112 96 -39 -88 -33 
85 41 120 -32 102 
-57 -72 -83 -77 55 
124 90 29 -103 -53 
-116 -89 88 10 114 

-111 -95 -29 62 102 
-1 25 -70 67 -17 
32 107 -25 -7 25 
-97 21 30 26 117 
-13 104 112 -106 117 

-97 17 -96 -96 -122 
35 -67 -36 34 -125 
90 114 82 21 -2 
45 -90 -25 -116 -119 
-56 81 102 77 -8 

-122 -53 102 81 79 
58 -102 -56 81 115 
37 -47 -8 63 97 
-76 30 63 -89 72 
100 93 -105 -48 6 


10 77 62 104 -65 
-90 74 -79 -63 -28 
41 -65 121 -78 44 
56 -73 64 119 -4 
42 -24 -14 6 -86 

57 -111 9 -59 69 
41 -8 -50 37 -8 
-47 98 -1 -126 90 
-120 -10 -31 81 43 
63 57 31 93 -117 

-2 -118 101 8 44 
-1 16 59 121 13 
83 54 89 38 13 
37 -102 82 83 -115 
-115 106 -95 121 5 

-48 57 74 -25 77 
-17 58 61 -99 106 
114 45 -93 -125 -34 
-73 -15 -95 -122 -42 
-56 16 -17 112 12 

112 96 -39 -88 -33 
85 41 120 -32 102 
-57 -72 -83 -77 55 
124 90 29 -103 -53 
-116 -89 88 10 114 

-111 -95 -29 62 102 
-1 25 -70 67 -17 
32 107 -25 -7 25 
-97 21 30 26 117 
-13 104 112 -106 117 

-97 17 -96 -96 -122 
35 -67 -36 34 -125 
90 114 82 21 -2 
45 -90 -25 -116 -119 
-56 81 102 77 -8 

-122 -53 102 81 79 
58 -102 -56 81 115 
37 -47 -8 63 97 
-76 30 63 -89 72 
100 93 -105 -48 6 



10 77 62 104 -65 
-90 74 -79 -63 -28 
41 -65 121 -78 44 
56 -73 64 119 -4 
42 -24 -14 6 -86 

57 -111 9 -59 69 
41 -8 -50 37 -8 
-47 98 -1 -126 90 
-120 -10 -31 81 43 
63 57 31 93 -117 

-2 -118 101 8 44 
-1 16 59 121 13 
83 54 89 38 13 
37 -102 82 83 -115 
-115 106 -95 121 5 

-48 57 74 -25 77 
-17 58 61 -99 106 
114 45 -93 -125 -34 
-73 -15 -95 -122 -42 
-56 16 -17 112 12 

112 96 -39 -88 -33 
85 41 120 -32 102 
-57 -72 -83 -77 55 
124 90 29 -103 -53 
-116 -89 88 10 114 

-111 -95 -29 62 102 
-1 25 -70 67 -17 
32 107 -25 -7 25 
-97 21 30 26 117 
-13 104 112 -106 117 

-97 17 -96 -96 -122 
35 -67 -36 34 -125 
90 114 82 21 -2 
45 -90 -25 -116 -119 
-56 81 102 77 -8 

-122 -53 102 81 79 
58 -102 -56 81 115 
37 -47 -8 63 97 
-76 30 63 -89 72 
100 93 -105 -48 6 


10 77 62 104 -65 
-90 74 -79 -63 -28 
41 -65 121 -78 44 
56 -73 64 119 -4 
42 -24 -14 6 -86 

57 -111 9 -59 69 
41 -8 -50 37 -8 
-47 98 -1 -126 90 
-120 -10 -31 81 43 
63 57 31 93 -117 

-2 -118 101 8 44 
-1 16 59 121 13 
83 54 89 38 13 
37 -102 82 83 -115 
-115 106 -95 121 5 

-48 57 74 -25 77 
-17 58 61 -99 106 
114 45 -93 -125 -34 
-73 -15 -95 -122 -42 
-56 16 -17 112 12 

112 96 -39 -88 -33 
85 41 120 -32 102 
-57 -72 -83 -77 55 
124 90 29 -103 -53 
-116 -89 88 10 114 

-111 -95 -29 62 102 
-1 25 -70 67 -17 
32 107 -25 -7 25 
-97 21 30 26 117 
-13 104 112 -106 117 

-97 17 -96 -96 -122 
35 -67 -36 34 -125 
90 114 82 21 -2 
45 -90 -25 -116 -119 
-56 81 102 77 -8 

-122 -53 102 81 79 
58 -102 -56 81 115 
37 -47 -8 63 97 
-76 30 63 -89 72 
100 93 -105 -48 6 


10 77 62 104 -65 
-90 74 -79 -63 -28 
41 -65 121 -78 44 
56 -73 64 119 -4 
42 -24 -14 6 -86 

57 -111 9 -59 69 
41 -8 -50 37 -8 
-47 98 -1 -126 90 
-120 -10 -31 81 43 
63 57 31 93 -117 

-2 -118 101 8 44 
-1 16 59 121 13 
83 54 89 38 13 
37 -102 82 83 -115 
-115 106 -95 121 5 

-48 57 74 -25 77 
-17 58 61 -99 106 
114 45 -93 -125 -34 
-73 -15 -95 -122 -42 
-56 16 -17 112 12 

112 96 -39 -88 -33 
85 41 120 -32 102 
-57 -72 -83 -77 55 
124 90 29 -103 -53 
-116 -89 88 10 114 

-111 -95 -29 62 102 
-1 25 -70 67 -17 
32 107 -25 -7 25 
-97 21 30 26 117 
-13 104 112 -106 117 

-97 17 -96 -96 -122 
35 -67 -36 34 -125 
90 114 82 21 -2 
45 -90 -25 -116 -119 
-56 81 102 77 -8 

-122 -53 102 81 79 
58 -102 -56 81 115 
37 -47 -8 63 97 
-76 30 63 -89 72 
100 93 -105 -48 6 


10 77 62 104 -65 
-90 74 -79 -63 -28 
41 -65 121 -78 44 
56 -73 64 119 -4 
42 -24 -14 6 -86 

57 -111 9 -59 69 
41 -8 -50 37 -8 
-47 98 -1 -126 90 
-120 -10 -31 81 43 
63 57 31 93 -117 

-2 -118 101 8 44 
-1 16 59 121 13 
83 54 89 38 13 
37 -102 82 83 -115 
-115 106 -95 121 5 

-48 57 74 -25 77 
-17 58 61 -99 106 
114 45 -93 -125 -34 
-73 -15 -95 -122 -42 
-56 16 -17 112 12 

112 96 -39 -88 -33 
85 41 120 -32 102 
-57 -72 -83 -77 55 
124 90 29 -103 -53 
-116 -89 88 10 114 

-111 -95 -29 62 102 
-1 25 -70 67 -17 
32 107 -25 -7 25 
-97 21 30 26 117 
-13 104 112 -106 117 

-97 17 -96 -96 -122 
35 -67 -36 34 -125 
90 114 82 21 -2 
45 -90 -25 -116 -119 
-56 81 102 77 -8 

-122 -53 102 81 79 
58 -102 -56 81 115 
37 -47 -8 63 97 
-76 30 63 -89 72 
100 93 -105 -48 6 



10 77 62 104 -65 
-90 74 -79 -63 -28 
41 -65 121 -78 44 
56 -73 64 119 -4 
42 -24 -14 6 -86 

57 -111 9 -59 69 
41 -8 -50 37 -8 
-47 98 -1 -126 90 
-120 -10 -31 81 43 
63 57 31 93 -117 

-2 -118 101 8 44 
-1 16 59 121 13 
83 54 89 38 13 
37 -102 82 83 -115 
-115 106 -95 121 5 

-48 57 74 -25 77 
-17 58 61 -99 106 
114 45 -93 -125 -34 
-73 -15 -95 -122 -42 
-56 16 -17 112 12 

112 96 -39 -88 -33 
85 41 120 -32 102 
-57 -72 -83 -77 55 
124 90 29 -103 -53 
-116 -89 88 10 114 

-111 -95 -29 62 102 
-1 25 -70 67 -17 
32 107 -25 -7 25 
-97 21 30 26 117 
-13 104 112 -106 117 

-97 17 -96 -96 -122 
35 -67 -36 34 -125 
90 114 82 21 -2 
45 -90 -25 -116 -119 
-56 81 102 77 -8 

-122 -53 102 81 79 
58 -102 -56 81 115 
37 -47 -8 63 97 
-76 30 63 -89 72 
100 93 -105 -48 6 


10 77 62 104 -65 
-90 74 -79 -63 -28 
41 -65 121 -78 44 
56 -73 64 119 -4 
42 -24 -14 6 -86 

57 -111 9 -59 69 
41 -8 -50 37 -8 
-47 98 -1 -126 90 
-120 -10 -31 81 43 
63 57 31 93 -117 

-2 -118 101 8 44 
-1 16 59 121 13 
83 54 89 38 13 
37 -102 82 83 -115 
-115 106 -95 121 5 

-48 57 74 -25 77 
-17 58 61 -99 106 
114 45 -93 -125 -34 
-73 -15 -95 -122 -42 
-56 16 -17 112 12 

112 96 -39 -88 -33 
85 41 120 -32 102 
-57 -72 -83 -77 55 
124 90 29 -103 -53 
-116 -89 88 10 114 

-111 -95 -29 62 102 
-1 25 -70 67 -17 
32 107 -25 -7 25 
-97 21 30 26 117 
-13 104 112 -106 117 

-97 17 -96 -96 -122 
35 -67 -36 34 -125 
90 114 82 21 -2 
45 -90 -25 -116 -119 
-56 81 102 77 -8 

-122 -53 102 81 79 
58 -102 -56 81 115 
37 -47 -8 63 97 
-76 30 63 -89 72 
100 93 -105 -48 6 


10 77 62 104 -65 
-90 74 -79 -63 -28 
41 -65 121 -78 44 
56 -73 64 119 -4 
42 -24 -14 6 -86 

57 -111 9 -59 69 
41 -8 -50 37 -8 
-47 98 -1 -126 90 
-120 -10 -31 81 43 
63 57 31 93 -117 

-2 -118 101 8 44 
-1 16 59 121 13 
83 54 89 38 13 
37 -102 82 83 -115 
-115 106 -95 121 5 

-48 57 74 -25 77 
-17 58 61 -99 106 
114 45 -93 -125 -34 
-73 -15 -95 -122 -42 
-56 16 -17 112 12 

112 96 -39 -88 -33 
85 41 120 -32 102 
-57 -72 -83 -77 55 
124 90 29 -103 -53 
-116 -89 88 10 114 

-111 -95 -29 62 102 
-1 25 -70 67 -17 
32 107 -25 -7 25 
-97 21 30 26 117 
-13 104 112 -106 117 

-97 17 -96 -96 -122 
35 -67 -36 34 -125 
90 114 82 21 -2 
45 -90 -25 -116 -119 
-56 81 102 77 -8 

-122 -53 102 81 79 
58 -102 -56 81 115 
37 -47 -8 63 97 
-76 30 63 -89 72 
100 93 -105 -48 6 


10 77 62 104 -65 
-90 74 -79 -63 -28 
41 -65 121 -78 44 
56 -73 64 119 -4 
42 -24 -14 6 -86 

57 -111 9 -59 69 
41 -8 -50 37 -8 
-47 98 -1 -126 90 
-120 -10 -31 81 43 
63 57 31 93 -117 

-2 -118 101 8 44 
-1 16 59 121 13 
83 54 89 38 13 
37 -102 82 83 -115 
-115 106 -95 121 5 

-48 57 74 -25 77 
-17 58 61 -99 106 
114 45 -93 -125 -34 
-73 -15 -95 -122 -42 
-56 16 -17 112 12 

112 96 -39 -88 -33 
85 41 120 -32 102 
-57 -72 -83 -77 55 
124 90 29 -103 -53 
-116 -89 88 10 114 

-111 -95 -29 62 102 
-1 25 -70 67 -17 
32 107 -25 -7 25 
-97 21 30 26 117 
-13 104 112 -106 117 

-97 17 -96 -96 -122 
35 -67 -36 34 -125 
90 114 82 21 -2 
45 -90 -25 -116 -119 
-56 81 102 77 -8 

-122 -53 102 81 79 
58 -102 -56 81 115 
37 -47 -8 63 97 
-76 30 63 -89 72 
100 93 -105 -48 6 



10 77 62 104 -65 
-90 74 -79 -63 -28 
41 -65 121 -78 44 
56 -73 64 119 -4 
42 -24 -14 6 -86 

57 -111 9 -59 69 
41 -8 -50 37 -8 
-47 98 -1 -126 90 
-120 -10 -31 81 43 
63 57 31 93 -117 

-2 -118 101 8 44 
-1 16 59 121 13 
83 54 89 38 13 
37 -102 82 83 -115 
-115 106 -95 121 5 

-48 57 74 -25 77 
-17 58 61 -99 106 
114 45 -93 -125 -34 
-73 -15 -95 -122 -42 
-56 16 -17 112 12 

112 96 -39 -88 -33 
85 41 120 -32 102 
-57 -72 -83 -77 55 
124 90 29 -103 -53 
-116 -89 88 10 114 

-111 -95 -29 62 102 
-1 25 -70 67 -17 
32 107 -25 -7 25 
-97 21 30 26 117 
-13 104 112 -106 117 

-97 17 -96 -96 -122 
35 -67 -36 34 -125 
90 114 82 21 -2 
45 -90 -25 -116 -119 
-56 81 102 77 -8 

-122 -53 102 81 79 
58 -102 -56 81 115 
37 -47 -8 63 97 
-76 30 63 -89 72 
100 93 -105 -48 6 


10 77 62 104 -65 
-90 74 -79 -63 -28 
41 -65 121 -78 44 
56 -73 64 119 -4 
42 -24 -14 6 -86 

57 -111 9 -59 69 
41 -8 -50 37 -8 
-47 98 -1 -126 90 
-120 -10 -31 81 43 
63 57 31 93 -117 

-2 -118 101 8 44 
-1 16 59 121 13 
83 54 89 38 13 
37 -102 82 83 -115 
-115 106 -95 121 5 

-48 57 74 -25 77 
-17 58 61 -99 106 
114 45 -93 -125 -34 
-73 -15 -95 -122 -42 
-56 16 -17 112 12 

112 96 -39 -88 -33 
85 41 120 -32 102 
-57 -72 -83 -77 55 
124 90 29 -103 -53 
-116 -89 88 10 114 

-111 -95 -29 62 102 
-1 25 -70 67 -17 
32 107 -25 -7 25 
-97 21 30 26 117 
-13 104 112 -106 117 

-97 17 -96 -96 -122 
35 -67 -36 34 -125 
90 114 82 21 -2 
45 -90 -25 -116 -119 
-56 81 102 77 -8 

-122 -53 102 81 79 
58 -102 -56 81 115 
37 -47 -8 63 97 
-76 30 63 -89 72 
100 93 -105 -48 6 


10 77 62 104 -65 
-90 74 -79 -63 -28 
41 -65 121 -78 44 
56 -73 64 119 -4 
42 -24 -14 6 -86 

57 -111 9 -59 69 
41 -8 -50 37 -8 
-47 98 -1 -126 90 
-120 -10 -31 81 43 
63 57 31 93 -117 

-2 -118 101 8 44 
-1 16 59 121 13 
83 54 89 38 13 
37 -102 82 83 -115 
-115 106 -95 121 5 

-48 57 74 -25 77 
-17 58 61 -99 106 
114 45 -93 -125 -34 
-73 -15 -95 -122 -42 
-56 16 -17 112 12 

112 96 -39 -88 -33 
85 41 120 -32 102 
-57 -72 -83 -77 55 
124 90 29 -103 -53 
-116 -89 88 10 114 

-111 -95 -29 62 102 
-1 25 -70 67 -17 
32 107 -25 -7 25 
-97 21 30 26 117 
-13 104 112 -106 117 

-97 17 -96 -96 -122 
35 -67 -36 34 -125 
90 114 82 21 -2 
45 -90 -25 -116 -119 
-56 81 102 77 -8 

-122 -53 102 81 79 
58 -102 -56 81 115 
37 -47 -8 63 97 
-76 30 63 -89 72 
100 93 -105 -48 6 


10 77 62 104 -65 
-90 74 -79 -63 -28 
41 -65 121 -78 44 
56 -73 64 119 -4 
42 -24 -14 6 -86 

57 -111 9 -59 69 
41 -8 -50 37 -8 
-47 98 -1 -126 90 
-120 -10 -31 81 43 
63 57 31 93 -117 

-2 -118 101 8 44 
-1 16 59 121 13 
83 54 89 38 13 
37 -102 82 83 -115 
-115 106 -95 121 5 

-48 57 74 -25 77 
-17 58 61 -99 106 
114 45 -93 -125 -34 
-73 -15 -95 -122 -42 
-56 16 -17 112 12 

112 96 -39 -88 -33 
85 41 120 -32 102 
-57 -72 -83 -77 55 
124 90 29 -103 -53 
-116 -89 88 10 114 

-111 -95 -29 62 102 
-1 25 -70 67 -17 
32 107 -25 -7 25 
-97 21 30 26 117 
-13 104 112 -106 117 

-97 17 -96 -96 -122 
35 -67 -36 34 -125 
90 114 82 21 -2 
45 -90 -25 -116 -119 
-56 81 102 77 -8 

-122 -53 102 81 79 
58 -102 -56 81 115 
37 -47 -8 63 97 
-76 30 63 -89 72 
100 93 -105 -48 6 



10 77 62 104 -65 
-90 74 -79 -63 -28 
41 -65 121 -78 44 
56 -73 64 119 -4 
42 -24 -14 6 -86 

57 -111 9 -59 69 
41 -8 -50 37 -8 
-47 98 -1 -126 90 
-120 -10 -31 81 43 
63 57 31 93 -117 

-2 -118 101 8 44 
-1 16 59 121 13 
83 54 89 38 13 
37 -102 82 83 -115 
-115 106 -95 121 5 

-48 57 74 -25 77 
-17 58 61 -99 106 
114 45 -93 -125 -34 
-73 -15 -95 -122 -42 
-56 16 -17 112 12 

112 96 -39 -88 -33 
85 41 120 -32 102 
-57 -72 -83 -77 55 
124 90 29 -103 -53 
-116 -89 88 10 114 

-111 -95 -29 62 102 
-1 25 -70 67 -17 
32 107 -25 -7 25 
-97 21 30 26 117 
-13 104 112 -106 117 

-97 17 -96 -96 -122 
35 -67 -36 34 -125 
90 114 82 21 -2 
45 -90 -25 -116 -119 
-56 81 102 77 -8 

-122 -53 102 81 79 
58 -102 -56 81 115 
37 -47 -8 63 97 
-76 30 63 -89 72 
100 93 -105 -48 6 


10 77 62 104 -65 
-90 74 -79 -63 -28 
41 -65 121 -78 44 
56 -73 64 119 -4 
42 -24 -14 6 -86 

57 -111 9 -59 69 
41 -8 -50 37 -8 
-47 98 -1 -126 90 
-120 -10 -31 81 43 
63 57 31 93 -117 

-2 -118 101 8 44 
-1 16 59 121 13 
83 54 89 38 13 
37 -102 82 83 -115 
-115 106 -95 121 5 

-48 57 74 -25 77 
-17 58 61 -99 106 
114 45 -93 -125 -34 
-73 -15 -95 -122 -42 
-56 16 -17 112 12 

112 96 -39 -88 -33 
85 41 120 -32 102 
-57 -72 -83 -77 55 
124 90 29 -103 -53 
-116 -89 88 10 114 

-111 -95 -29 62 102 
-1 25 -70 67 -17 
32 107 -25 -7 25 
-97 21 30 26 117 
-13 104 112 -106 117 

-97 17 -96 -96 -122 
35 -67 -36 34 -125 
90 114 82 21 -2 
45 -90 -25 -116 -119 
-56 81 102 77 -8 

-122 -53 102 81 79 
58 -102 -56 81 115 
37 -47 -8 63 97 
-76 30 63 -89 72 
100 93 -105 -48 6 


10 77 62 104 -65 
-90 74 -79 -63 -28 
41 -65 121 -78 44 
56 -73 64 119 -4 
42 -24 -14 6 -86 

57 -111 9 -59 69 
41 -8 -50 37 -8 
-47 98 -1 -126 90 
-120 -10 -31 81 43 
63 57 31 93 -117 

-2 -118 101 8 44 
-1 16 59 121 13 
83 54 89 38 13 
37 -102 82 83 -115 
-115 106 -95 121 5 

-48 57 74 -25 77 
-17 58 61 -99 106 
114 45 -93 -125 -34 
-73 -15 -95 -122 -42 
-56 16 -17 112 12 

112 96 -39 -88 -33 
85 41 120 -32 102 
-57 -72 -83 -77 55 
124 90 29 -103 -53 
-116 -89 88 10 114 

-111 -95 -29 62 102 
-1 25 -70 67 -17 
32 107 -25 -7 25 
-97 21 30 26 117 
-13 104 112 -106 117 

-97 17 -96 -96 -122 
35 -67 -36 34 -125 
90 114 82 21 -2 
45 -90 -25 -116 -119 
-56 81 102 77 -8 

-122 -53 102 81 79 
58 -102 -56 81 115 
37 -47 -8 63 97 
-76 30 63 -89 72 
100 93 -105 -48 6 


10 77 62 104 -65 
-90 74 -79 -63 -28 
41 -65 121 -78 44 
56 -73 64 119 -4 
42 -24 -14 6 -86 

57 -111 9 -59 69 
41 -8 -50 37 -8 
-47 98 -1 -126 90 
-120 -10 -31 81 43 
63 57 31 93 -117 

-2 -118 101 8 44 
-1 16 59 121 13 
83 54 89 38 13 
37 -102 82 83 -115 
-115 106 -95 121 5 

-48 57 74 -25 77 
-17 58 61 -99 106 
114 45 -93 -125 -34 
-73 -15 -95 -122 -42 
-56 16 -17 112 12 

112 96 -39 -88 -33 
85 41 120 -32 102 
-57 -72 -83 -77 55 
124 90 29 -103 -53 
-116 -89 88 10 114 

-111 -95 -29 62 102 
-1 25 -70 67 -17 
32 107 -25 -7 25 
-97 21 30 26 117 
-13 104 112 -106 117 

-97 17 -96 -96 -122 
35 -67 -36 34 -125 
90 114 82 21 -2 
45 -90 -25 -116 -119 
-56 81 102 77 -8 

-122 -53 102 81 79 
58 -102 -56 81 115 
37 -47 -8 63 97 
-76 30 63 -89 72 
100 93 -105 -48 6 




-111 -83 -117 -2 120 
91 -123 -22 -44 -128 
-57 -34 29 -93 -75 
-103 -80 22 -109 -13 
107 -84 -91 20 124 

29 -89 -106 3 -58 
66 28 -55 -95 -123 
-47 -117 22 -92 -45 
34 -59 19 58 -68 
45 -81 -3 57 -56 

28 35 -31 62 -57 
46 -37 33 -20 -49 
-40 -57 46 124 -124 
-34 99 36 -89 59 
28 -22 18 18 42 

-67 -50 122 -13 -70 
46 23 56 77 -68 
37 -82 -38 82 12 
59 51 -68 66 30 
85 19 -35 -66 107 

-58 42 -91 -110 16 
-65 -50 -1 39 23 
-78 14 84 -50 -93 
113 -42 15 127 -86 
58 118 1 22 49 

81 -109 102 -77 -19 
55 37 -66 109 116 
-39 -77 -78 69 34 
84 115 -121 53 71 
-63 24 115 -74 -97 

-21 84 90 -14 -120 
-32 123 112 64 33 
34 -50 -65 27 111 
7 88 -55 -115 119 
-114 -25 -90 21 -70 

-101 21 104 0 97 
116 44 53 -56 22 
-65 -34 -72 -72 25 
24 -11 -100 84 64 
60 89 76 104 37 


-111 -83 -117 -2 120 
91 -123 -22 -44 -128 
-57 -34 29 -93 -75 
-103 -80 22 -109 -13 
107 -84 -91 20 124 

29 -89 -106 3 -58 
66 28 -55 -95 -123 
-47 -117 22 -92 -45 
34 -59 19 58 -68 
45 -81 -3 57 -56 

28 35 -31 62 -57 
46 -37 33 -20 -49 
-40 -57 46 124 -124 
-34 99 36 -89 59 
28 -22 18 18 42 

-67 -50 122 -13 -70 
46 23 56 77 -68 
37 -82 -38 82 12 
59 51 -68 66 30 
85 19 -35 -66 107 

-58 42 -91 -110 16 
-65 -50 -1 39 23 
-78 14 84 -50 -93 
113 -42 15 127 -86 
58 118 1 22 49 

81 -109 102 -77 -19 
55 37 -66 109 116 
-39 -77 -78 69 34 
84 115 -121 53 71 
-63 24 115 -74 -97 

-21 84 90 -14 -120 
-32 123 112 64 33 
34 -50 -65 27 111 
7 88 -55 -115 119 
-114 -25 -90 21 -70 

-101 21 104 0 97 
116 44 53 -56 22 
-65 -34 -72 -72 25 
24 -11 -100 84 64 
60 89 76 104 37 


-111 -83 -117 -2 120 
91 -123 -22 -44 -128 
-57 -34 29 -93 -75 
-103 -80 22 -109 -13 
107 -84 -91 20 124 

29 -89 -106 3 -58 
66 28 -55 -95 -123 
-47 -117 22 -92 -45 
34 -59 19 58 -68 
45 -81 -3 57 -56 

28 35 -31 62 -57 
46 -37 33 -20 -49 
-40 -57 46 124 -124 
-34 99 36 -89 59 
28 -22 18 18 42 

-67 -50 122 -13 -70 
46 23 56 77 -68 
37 -82 -38 82 12 
59 51 -68 66 30 
85 19 -35 -66 107 

-58 42 -91 -110 16 
-65 -50 -1 39 23 
-78 14 84 -50 -93 
113 -42 15 127 -86 
58 118 1 22 49 

81 -109 102 -77 -19 
55 37 -66 109 116 
-39 -77 -78 69 34 
84 115 -121 53 71 
-63 24 115 -74 -97 

-21 84 90 -14 -120 
-32 123 112 64 33 
34 -50 -65 27 111 
7 88 -55 -115 119 
-114 -25 -90 21 -70 

-101 21 104 0 97 
116 44 53 -56 22 
-65 -34 -72 -72 25 
24 -11 -100 84 64 
60 89 76 104 37 


-111 -83 -117 -2 120 
91 -123 -22 -44 -128 
-57 -34 29 -93 -75 
-103 -80 22 -109 -13 
107 -84 -91 20 124 

29 -89 -106 3 -58 
66 28 -55 -95 -123 
-47 -117 22 -92 -45 
34 -59 19 58 -68 
45 -81 -3 57 -56 

28 35 -31 62 -57 
46 -37 33 -20 -49 
-40 -57 46 124 -124 
-34 99 36 -89 59 
28 -22 18 18 42 

-67 -50 122 -13 -70 
46 23 56 77 -68 
37 -82 -38 82 12 
59 51 -68 66 30 
85 19 -35 -66 107 

-58 42 -91 -110 16 
-65 -50 -1 39 23 
-78 14 84 -50 -93 
113 -42 15 127 -86 
58 118 1 22 49 

81 -109 102 -77 -19 
55 37 -66 109 116 
-39 -77 -78 69 34 
84 115 -121 53 71 
-63 24 115 -74 -97 

-21 84 90 -14 -120 
-32 123 112 64 33 
34 -50 -65 27 111 
7 88 -55 -115 119 
-114 -25 -90 21 -70 

-101 21 104 0 97 
116 44 53 -56 22 
-65 -34 -72 -72 25 
24 -11 -100 84 64 
60 89 76 104 37 



-111 -83 -117 -2 120 
91 -123 -22 -44 -128 
-57 -34 29 -93 -75 
-103 -80 22 -109 -13 
107 -84 -91 20 124 

29 -89 -106 3 -58 
66 28 -55 -95 -123 
-47 -117 22 -92 -45 
34 -59 19 58 -68 
45 -81 -3 57 -56 

28 35 -31 62 -57 
46 -37 33 -20 -49 
-40 -57 46 124 -124 
-34 99 36 -89 59 
28 -22 18 18 42 

-67 -50 122 -13 -70 
46 23 56 77 -68 
37 -82 -38 82 12 
59 51 -68 66 30 
85 19 -35 -66 107 

-58 42 -91 -110 16 
-65 -50 -1 39 23 
-78 14 84 -50 -93 
113 -42 15 127 -86 
58 118 1 22 49 

81 -109 102 -77 -19 
55 37 -66 109 116 
-39 -77 -78 69 34 
84 115 -121 53 71 
-63 24 115 -74 -97 

-21 84 90 -14 -120 
-32 123 112 64 33 
34 -50 -65 27 111 
7 88 -55 -115 119 
-114 -25 -90 21 -70 

-101 21 104 0 97 
116 44 53 -56 22 
-65 -34 -72 -72 25 
24 -11 -100 84 64 
60 89 76 104 37 


-111 -83 -117 -2 120 
91 -123 -22 -44 -128 
-57 -34 29 -93 -75 
-103 -80 22 -109 -13 
107 -84 -91 20 124 

29 -89 -106 3 -58 
66 28 -55 -95 -123 
-47 -117 22 -92 -45 
34 -59 19 58 -68 
45 -81 -3 57 -56 

28 35 -31 62 -57 
46 -37 33 -20 -49 
-40 -57 46 124 -124 
-34 99 36 -89 59 
28 -22 18 18 42 

-67 -50 122 -13 -70 
46 23 56 77 -68 
37 -82 -38 82 12 
59 51 -68 66 30 
85 19 -35 -66 107 

-58 42 -91 -110 16 
-65 -50 -1 39 23 
-78 14 84 -50 -93 
113 -42 15 127 -86 
58 118 1 22 49 

81 -109 102 -77 -19 
55 37 -66 109 116 
-39 -77 -78 69 34 
84 115 -121 53 71 
-63 24 115 -74 -97 

-21 84 90 -14 -120 
-32 123 112 64 33 
34 -50 -65 27 111 
7 88 -55 -115 119 
-114 -25 -90 21 -70 

-101 21 104 0 97 
116 44 53 -56 22 
-65 -34 -72 -72 25 
24 -11 -100 84 64 
60 89 76 104 37 


-111 -83 -117 -2 120 
91 -123 -22 -44 -128 
-57 -34 29 -93 -75 
-103 -80 22 -109 -13 
107 -84 -91 20 124 

29 -89 -106 3 -58 
66 28 -55 -95 -123 
-47 -117 22 -92 -45 
34 -59 19 58 -68 
45 -81 -3 57 -56 

28 35 -31 62 -57 
46 -37 33 -20 -49 
-40 -57 46 124 -124 
-34 99 36 -89 59 
28 -22 18 18 42 

-67 -50 122 -13 -70 
46 23 56 77 -68 
37 -82 -38 82 12 
59 51 -68 66 30 
85 19 -35 -66 107 

-58 42 -91 -110 16 
-65 -50 -1 39 23 
-78 14 84 -50 -93 
113 -42 15 127 -86 
58 118 1 22 49 

81 -109 102 -77 -19 
55 37 -66 109 116 
-39 -77 -78 69 34 
84 115 -121 53 71 
-63 24 115 -74 -97 

-21 84 90 -14 -120 
-32 123 112 64 33 
34 -50 -65 27 111 
7 88 -55 -115 119 
-114 -25 -90 21 -70 

-101 21 104 0 97 
116 44 53 -56 22 
-65 -34 -72 -72 25 
24 -11 -100 84 64 
60 89 76 104 37 


-111 -83 -117 -2 120 
91 -123 -22 -44 -128 
-57 -34 29 -93 -75 
-103 -80 22 -109 -13 
107 -84 -91 20 124 

29 -89 -106 3 -58 
66 28 -55 -95 -123 
-47 -117 22 -92 -45 
34 -59 19 58 -68 
45 -81 -3 57 -56 

28 35 -31 62 -57 
46 -37 33 -20 -49 
-40 -57 46 124 -124 
-34 99 36 -89 59 
28 -22 18 18 42 

-67 -50 122 -13 -70 
46 23 56 77 -68 
37 -82 -38 82 12 
59 51 -68 66 30 
85 19 -35 -66 107 

-58 42 -91 -110 16 
-65 -50 -1 39 23 
-78 14 84 -50 -93 
113 -42 15 127 -86 
58 118 1 22 49 

81 -109 102 -77 -19 
55 37 -66 109 116 
-39 -77 -78 69 34 
84 115 -121 53 71 
-63 24 115 -74 -97 

-21 84 90 -14 -120 
-32 123 112 64 33 
34 -50 -65 27 111 
7 88 -55 -115 119 
-114 -25 -90 21 -70 

-101 21 104 0 97 
116 44 53 -56 22 
-65 -34 -72 -72 25 
24 -11 -100 84 64 
60 89 76 104 37 



-111 -83 -117 -2 120 
91 -123 -22 -44 -128 
-57 -34 29 -93 -75 
-103 -80 22 -109 -13 
107 -84 -91 20 124 

29 -89 -106 3 -58 
66 28 -55 -95 -123 
-47 -117 22 -92 -45 
34 -59 19 58 -68 
45 -81 -3 57 -56 

28 35 -31 62 -57 
46 -37 33 -20 -49 
-40 -57 46 124 -124 
-34 99 36 -89 59 
28 -22 18 18 42 

-67 -50 122 -13 -70 
46 23 56 77 -68 
37 -82 -38 82 12 
59 51 -68 66 30 
85 19 -35 -66 107 

-58 42 -91 -110 16 
-65 -50 -1 39 23 
-78 14 84 -50 -93 
113 -42 15 127 -86 
58 118 1 22 49 

81 -109 102 -77 -19 
55 37 -66 109 116 
-39 -77 -78 69 34 
84 115 -121 53 71 
-63 24 115 -74 -97 

-21 84 90 -14 -120 
-32 123 112 64 33 
34 -50 -65 27 111 
7 88 -55 -115 119 
-114 -25 -90 21 -70 

-101 21 104 0 97 
116 44 53 -56 22 
-65 -34 -72 -72 25 
24 -11 -100 84 64 
60 89 76 104 37 


-111 -83 -117 -2 120 
91 -123 -22 -44 -128 
-57 -34 29 -93 -75 
-103 -80 22 -109 -13 
107 -84 -91 20 124 

29 -89 -106 3 -58 
66 28 -55 -95 -123 
-47 -117 22 -92 -45 
34 -59 19 58 -68 
45 -81 -3 57 -56 

28 35 -31 62 -57 
46 -37 33 -20 -49 
-40 -57 46 124 -124 
-34 99 36 -89 59 
28 -22 18 18 42 

-67 -50 122 -13 -70 
46 23 56 77 -68 
37 -82 -38 82 12 
59 51 -68 66 30 
85 19 -35 -66 107 

-58 42 -91 -110 16 
-65 -50 -1 39 23 
-78 14 84 -50 -93 
113 -42 15 127 -86 
58 118 1 22 49 

81 -109 102 -77 -19 
55 37 -66 109 116 
-39 -77 -78 69 34 
84 115 -121 53 71 
-63 24 115 -74 -97 

-21 84 90 -14 -120 
-32 123 112 64 33 
34 -50 -65 27 111 
7 88 -55 -115 119 
-114 -25 -90 21 -70 

-101 21 104 0 97 
116 44 53 -56 22 
-65 -34 -72 -72 25 
24 -11 -100 84 64 
60 89 76 104 37 


-111 -83 -117 -2 120 
91 -123 -22 -44 -128 
-57 -34 29 -93 -75 
-103 -80 22 -109 -13 
107 -84 -91 20 124 

29 -89 -106 3 -58 
66 28 -55 -95 -123 
-47 -117 22 -92 -45 
34 -59 19 58 -68 
45 -81 -3 57 -56 

28 35 -31 62 -57 
46 -37 33 -20 -49 
-40 -57 46 124 -124 
-34 99 36 -89 59 
28 -22 18 18 42 

-67 -50 122 -13 -70 
46 23 56 77 -68 
37 -82 -38 82 12 
59 51 -68 66 30 
85 19 -35 -66 107 

-58 42 -91 -110 16 
-65 -50 -1 39 23 
-78 14 84 -50 -93 
113 -42 15 127 -86 
58 118 1 22 49 

81 -109 102 -77 -19 
55 37 -66 109 116 
-39 -77 -78 69 34 
84 115 -121 53 71 
-63 24 115 -74 -97 

-21 84 90 -14 -120 
-32 123 112 64 33 
34 -50 -65 27 111 
7 88 -55 -115 119 
-114 -25 -90 21 -70 

-101 21 104 0 97 
116 44 53 -56 22 
-65 -34 -72 -72 25 
24 -11 -100 84 64 
60 89 76 104 37 


-111 -83 -117 -2 120 
91 -123 -22 -44 -128 
-57 -34 29 -93 -75 
-103 -80 22 -109 -13 
107 -84 -91 20 124 

29 -89 -106 3 -58 
66 28 -55 -95 -123 
-47 -117 22 -92 -45 
34 -59 19 58 -68 
45 -81 -3 57 -56 

28 35 -31 62 -57 
46 -37 33 -20 -49 
-40 -57 46 124 -124 
-34 99 36 -89 59 
28 -22 18 18 42 

-67 -50 122 -13 -70 
46 23 56 77 -68 
37 -82 -38 82 12 
59 51 -68 66 30 
85 19 -35 -66 107 

-58 42 -91 -110 16 
-65 -50 -1 39 23 
-78 14 84 -50 -93 
113 -42 15 127 -86 
58 118 1 22 49 

81 -109 102 -77 -19 
55 37 -66 109 116 
-39 -77 -78 69 34 
84 115 -121 53 71 
-63 24 115 -74 -97 

-21 84 90 -14 -120 
-32 123 112 64 33 
34 -50 -65 27 111 
7 88 -55 -115 119 
-114 -25 -90 21 -70 

-101 21 104 0 97 
116 44 53 -56 22 
-65 -34 -72 -72 25 
24 -11 -100 84 64 
60 89 76 104 37 



-111 -83 -117 -2 120 
91 -123 -22 -44 -128 
-57 -34 29 -93 -75 
-103 -80 22 -109 -13 
107 -84 -91 20 124 

29 -89 -106 3 -58 
66 28 -55 -95 -123 
-47 -117 22 -92 -45 
34 -59 19 58 -68 
45 -81 -3 57 -56 

28 35 -31 62 -57 
46 -37 33 -20 -49 
-40 -57 46 124 -124 
-34 99 36 -89 59 
28 -22 18 18 42 

-67 -50 122 -13 -70 
46 23 56 77 -68 
37 -82 -38 82 12 
59 51 -68 66 30 
85 19 -35 -66 107 

-58 42 -91 -110 16 
-65 -50 -1 39 23 
-78 14 84 -50 -93 
113 -42 15 127 -86 
58 118 1 22 49 

81 -109 102 -77 -19 
55 37 -66 109 116 
-39 -77 -78 69 34 
84 115 -121 53 71 
-63 24 115 -74 -97 

-21 84 90 -14 -120 
-32 123 112 64 33 
34 -50 -65 27 111 
7 88 -55 -115 119 
-114 -25 -90 21 -70 

-101 21 104 0 97 
116 44 53 -56 22 
-65 -34 -72 -72 25 
24 -11 -100 84 64 
60 89 76 104 37 


-111 -83 -117 -2 120 
91 -123 -22 -44 -128 
-57 -34 29 -93 -75 
-103 -80 22 -109 -13 
107 -84 -91 20 124 

29 -89 -106 3 -58 
66 28 -55 -95 -123 
-47 -117 22 -92 -45 
34 -59 19 58 -68 
45 -81 -3 57 -56 

28 35 -31 62 -57 
46 -37 33 -20 -49 
-40 -57 46 124 -124 
-34 99 36 -89 59 
28 -22 18 18 42 

-67 -50 122 -13 -70 
46 23 56 77 -68 
37 -82 -38 82 12 
59 51 -68 66 30 
85 19 -35 -66 107 

-58 42 -91 -110 16 
-65 -50 -1 39 23 
-78 14 84 -50 -93 
113 -42 15 127 -86 
58 118 1 22 49 

81 -109 102 -77 -19 
55 37 -66 109 116 
-39 -77 -78 69 34 
84 115 -121 53 71 
-63 24 115 -74 -97 

-21 84 90 -14 -120 
-32 123 112 64 33 
34 -50 -65 27 111 
7 88 -55 -115 119 
-114 -25 -90 21 -70 

-101 21 104 0 97 
116 44 53 -56 22 
-65 -34 -72 -72 25 
24 -11 -100 84 64 
60 89 76 104 37 


-111 -83 -117 -2 120 
91 -123 -22 -44 -128 
-57 -34 29 -93 -75 
-103 -80 22 -109 -13 
107 -84 -91 20 124 

29 -89 -106 3 -58 
66 28 -55 -95 -123 
-47 -117 22 -92 -45 
34 -59 19 58 -68 
45 -81 -3 57 -56 

28 35 -31 62 -57 
46 -37 33 -20 -49 
-40 -57 46 124 -124 
-34 99 36 -89 59 
28 -22 18 18 42 

-67 -50 122 -13 -70 
46 23 56 77 -68 
37 -82 -38 82 12 
59 51 -68 66 30 
85 19 -35 -66 107 

-58 42 -91 -110 16 
-65 -50 -1 39 23 
-78 14 84 -50 -93 
113 -42 15 127 -86 
58 118 1 22 49 

81 -109 102 -77 -19 
55 37 -66 109 116 
-39 -77 -78 69 34 
84 115 -121 53 71 
-63 24 115 -74 -97 

-21 84 90 -14 -120 
-32 123 112 64 33 
34 -50 -65 27 111 
7 88 -55 -115 119 
-114 -25 -90 21 -70 

-101 21 104 0 97 
116 44 53 -56 22 
-65 -34 -72 -72 25 
24 -11 -100 84 64 
60 89 76 104 37 


-111 -83 -117 -2 120 
91 -123 -22 -44 -128 
-57 -34 29 -93 -75 
-103 -80 22 -109 -13 
107 -84 -91 20 124 

29 -89 -106 3 -58 
66 28 -55 -95 -123 
-47 -117 22 -92 -45 
34 -59 19 58 -68 
45 -81 -3 57 -56 

28 35 -31 62 -57 
46 -37 33 -20 -49 
-40 -57 46 124 -124 
-34 99 36 -89 59 
28 -22 18 18 42 

-67 -50 122 -13 -70 
46 23 56 77 -68 
37 -82 -38 82 12 
59 51 -68 66 30 
85 19 -35 -66 107 

-58 42 -91 -110 16 
-65 -50 -1 39 23 
-78 14 84 -50 -93 
113 -42 15 127 -86 
58 118 1 22 49 

81 -109 102 -77 -19 
55 37 -66 109 116 
-39 -77 -78 69 34 
84 115 -121 53 71 
-63 24 115 -74 -97 

-21 84 90 -14 -120 
-32 123 112 64 33 
34 -50 -65 27 111 
7 88 -55 -115 119 
-114 -25 -90 21 -70 

-101 21 104 0 97 
116 44 53 -56 22 
-65 -34 -72 -72 25 
24 -11 -100 84 64 
60 89 76 104 37 



-111 -83 -117 -2 120 
91 -123 -22 -44 -128 
-57 -34 29 -93 -75 
-103 -80 22 -109 -13 
107 -84 -91 20 124 

29 -89 -106 3 -58 
66 28 -55 -95 -123 
-47 -117 22 -92 -45 
34 -59 19 58 -68 
45 -81 -3 57 -56 

28 35 -31 62 -57 
46 -37 33 -20 -49 
-40 -57 46 124 -124 
-34 99 36 -89 59 
28 -22 18 18 42 

-67 -50 122 -13 -70 
46 23 56 77 -68 
37 -82 -38 82 12 
59 51 -68 66 30 
85 19 -35 -66 107 

-58 42 -91 -110 16 
-65 -50 -1 39 23 
-78 14 84 -50 -93 
113 -42 15 127 -86 
58 118 1 22 49 

81 -109 102 -77 -19 
55 37 -66 109 116 
-39 -77 -78 69 34 
84 115 -121 53 71 
-63 24 115 -74 -97 

-21 84 90 -14 -120 
-32 123 112 64 33 
34 -50 -65 27 111 
7 88 -55 -115 119 
-114 -25 -90 21 -70 

-101 21 104 0 97 
116 44 53 -56 22 
-65 -34 -72 -72 25 
24 -11 -100 84 64 
60 89 76 104 37 


-111 -83 -117 -2 120 
91 -123 -22 -44 -128 
-57 -34 29 -93 -75 
-103 -80 22 -109 -13 
107 -84 -91 20 124 

29 -89 -106 3 -58 
66 28 -55 -95 -123 
-47 -117 22 -92 -45 
34 -59 19 58 -68 
45 -81 -3 57 -56 

28 35 -31 62 -57 
46 -37 33 -20 -49 
-40 -57 46 124 -124 
-34 99 36 -89 59 
28 -22 18 18 42 

-67 -50 122 -13 -70 
46 23 56 77 -68 
37 -82 -38 82 12 
59 51 -68 66 30 
85 19 -35 -66 107 

-58 42 -91 -110 16 
-65 -50 -1 39 23 
-78 14 84 -50 -93 
113 -42 15 127 -86 
58 118 1 22 49 

81 -109 102 -77 -19 
55 37 -66 109 116 
-39 -77 -78 69 34 
84 115 -121 53 71 
-63 24 115 -74 -97 

-21 84 90 -14 -120 
-32 123 112 64 33 
34 -50 -65 27 111 
7 88 -55 -115 119 
-114 -25 -90 21 -70 

-101 21 104 0 97 
116 44 53 -56 22 
-65 -34 -72 -72 25 
24 -11 -100 84 64 
60 89 76 104 37 


-111 -83 -117 -2 120 
91 -123 -22 -44 -128 
-57 -34 29 -93 -75 
-103 -80 22 -109 -13 
107 -84 -91 20 124 

29 -89 -106 3 -58 
66 28 -55 -95 -123 
-47 -117 22 -92 -45 
34 -59 19 58 -68 
45 -81 -3 57 -56 

28 35 -31 62 -57 
46 -37 33 -20 -49 
-40 -57 46 124 -124 
-34 99 36 -89 59 
28 -22 18 18 42 

-67 -50 122 -13 -70 
46 23 56 77 -68 
37 -82 -38 82 12 
59 51 -68 66 30 
85 19 -35 -66 107 

-58 42 -91 -110 16 
-65 -50 -1 39 23 
-78 14 84 -50 -93 
113 -42 15 127 -86 
58 118 1 22 49 

81 -109 102 -77 -19 
55 37 -66 109 116 
-39 -77 -78 69 34 
84 115 -121 53 71 
-63 24 115 -74 -97 

-21 84 90 -14 -120 
-32 123 112 64 33 
34 -50 -65 27 111 
7 88 -55 -115 119 
-114 -25 -90 21 -70 

-101 21 104 0 97 
116 44 53 -56 22 
-65 -34 -72 -72 25 
24 -11 -100 84 64 
60 89 76 104 37 


-111 -83 -117 -2 120 
91 -123 -22 -44 -128 
-57 -34 29 -93 -75 
-103 -80 22 -109 -13 
107 -84 -91 20 124 

29 -89 -106 3 -58 
66 28 -55 -95 -123 
-47 -117 22 -92 -45 
34 -59 19 58 -68 
45 -81 -3 57 -56 

28 35 -31 62 -57 
46 -37 33 -20 -49 
-40 -57 46 124 -124 
-34 99 36 -89 59 
28 -22 18 18 42 

-67 -50 122 -13 -70 
46 23 56 77 -68 
37 -82 -38 82 12 
59 51 -68 66 30 
85 19 -35 -66 107 

-58 42 -91 -110 16 
-65 -50 -1 39 23 
-78 14 84 -50 -93 
113 -42 15 127 -86 
58 118 1 22 49 

81 -109 102 -77 -19 
55 37 -66 109 116 
-39 -77 -78 69 34 
84 115 -121 53 71 
-63 24 115 -74 -97 

-21 84 90 -14 -120 
-32 123 112 64 33 
34 -50 -65 27 111 
7 88 -55 -115 119 
-114 -25 -90 21 -70 

-101 21 104 0 97 
116 44 53 -56 22 
-65 -34 -72 -72 25 
24 -11 -100 84 64 
60 89 76 104 37 



-111 -83 -117 -2 120 
91 -123 -22 -44 -128 
-57 -34 29 -93 -75 
-103 -80 22 -109 -13 
107 -84 -91 20 124 

29 -89 -106 3 -58 
66 28 -55 -95 -123 
-47 -117 22 -92 -45 
34 -59 19 58 -68 
45 -81 -3 57 -56 

28 35 -31 62 -57 
46 -37 33 -20 -49 
-40 -57 46 124 -124 
-34 99 36 -89 59 
28 -22 18 18 42 

-67 -50 122 -13 -70 
46 23 56 77 -68 
37 -82 -38 82 12 
59 51 -68 66 30 
85 19 -35 -66 107 

-58 42 -91 -110 16 
-65 -50 -1 39 23 
-78 14 84 -50 -93 
113 -42 15 127 -86 
58 118 1 22 49 

81 -109 102 -77 -19 
55 37 -66 109 116 
-39 -77 -78 69 34 
84 115 -121 53 71 
-63 24 115 -74 -97 

-21 84 90 -14 -120 
-32 123 112 64 33 
34 -50 -65 27 111 
7 88 -55 -115 119 
-114 -25 -90 21 -70 

-101 21 104 0 97 
116 44 53 -56 22 
-65 -34 -72 -72 25 
24 -11 -100 84 64 
60 89 76 104 37 


-111 -83 -117 -2 120 
91 -123 -22 -44 -128 
-57 -34 29 -93 -75 
-103 -80 22 -109 -13 
107 -84 -91 20 124 

29 -89 -106 3 -58 
66 28 -55 -95 -123 
-47 -117 22 -92 -45 
34 -59 19 58 -68 
45 -81 -3 57 -56 

28 35 -31 62 -57 
46 -37 33 -20 -49 
-40 -57 46 124 -124 
-34 99 36 -89 59 
28 -22 18 18 42 

-67 -50 122 -13 -70 
46 23 56 77 -68 
37 -82 -38 82 12 
59 51 -68 66 30 
85 19 -35 -66 107 

-58 42 -91 -110 16 
-65 -50 -1 39 23 
-78 14 84 -50 -93 
113 -42 15 127 -86 
58 118 1 22 49 

81 -109 102 -77 -19 
55 37 -66 109 116 
-39 -77 -78 69 34 
84 115 -121 53 71 
-63 24 115 -74 -97 

-21 84 90 -14 -120 
-32 123 112 64 33 
34 -50 -65 27 111 
7 88 -55 -115 119 
-114 -25 -90 21 -70 

-101 21 104 0 97 
116 44 53 -56 22 
-65 -34 -72 -72 25 
24 -11 -100 84 64 
60 89 76 104 37 


-111 -83 -117 -2 120 
91 -123 -22 -44 -128 
-57 -34 29 -93 -75 
-103 -80 22 -109 -13 
107 -84 -91 20 124 

29 -89 -106 3 -58 
66 28 -55 -95 -123 
-47 -117 22 -92 -45 
34 -59 19 58 -68 
45 -81 -3 57 -56 

28 35 -31 62 -57 
46 -37 33 -20 -49 
-40 -57 46 124 -124 
-34 99 36 -89 59 
28 -22 18 18 42 

-67 -50 122 -13 -70 
46 23 56 77 -68 
37 -82 -38 82 12 
59 51 -68 66 30 
85 19 -35 -66 107 

-58 42 -91 -110 16 
-65 -50 -1 39 23 
-78 14 84 -50 -93 
113 -42 15 127 -86 
58 118 1 22 49 

81 -109 102 -77 -19 
55 37 -66 109 116 
-39 -77 -78 69 34 
84 115 -121 53 71 
-63 24 115 -74 -97 

-21 84 90 -14 -120 
-32 123 112 64 33 
34 -50 -65 27 111 
7 88 -55 -115 119 
-114 -25 -90 21 -70 

-101 21 104 0 97 
116 44 53 -56 22 
-65 -34 -72 -72 25 
24 -11 -100 84 64 
60 89 76 104 37 


-111 -83 -117 -2 120 
91 -123 -22 -44 -128 
-57 -34 29 -93 -75 
-103 -80 22 -109 -13 
107 -84 -91 20 124 

29 -89 -106 3 -58 
66 28 -55 -95 -123 
-47 -117 22 -92 -45 
34 -59 19 58 -68 
45 -81 -3 57 -56 

28 35 -31 62 -57 
46 -37 33 -20 -49 
-40 -57 46 124 -124 
-34 99 36 -89 59 
28 -22 18 18 42 

-67 -50 122 -13 -70 
46 23 56 77 -68 
37 -82 -38 82 12 
59 51 -68 66 30 
85 19 -35 -66 107 

-58 42 -91 -110 16 
-65 -50 -1 39 23 
-78 14 84 -50 -93 
113 -42 15 127 -86 
58 118 1 22 49 

81 -109 102 -77 -19 
55 37 -66 109 116 
-39 -77 -78 69 34 
84 115 -121 53 71 
-63 24 115 -74 -97 

-21 84 90 -14 -120 
-32 123 112 64 33 
34 -50 -65 27 111 
7 88 -55 -115 119 
-114 -25 -90 21 -70 

-101 21 104 0 97 
116 44 53 -56 22 
-65 -34 -72 -72 25 
24 -11 -100 84 64 
60 89 76 104 37 



-111 -83 -117 -2 120 
91 -123 -22 -44 -128 
-57 -34 29 -93 -75 
-103 -80 22 -109 -13 
107 -84 -91 20 124 

29 -89 -106 3 -58 
66 28 -55 -95 -123 
-47 -117 22 -92 -45 
34 -59 19 58 -68 
45 -81 -3 57 -56 

28 35 -31 62 -57 
46 -37 33 -20 -49 
-40 -57 46 124 -124 
-34 99 36 -89 59 
28 -22 18 18 42 

-67 -50 122 -13 -70 
46 23 56 77 -68 
37 -82 -38 82 12 
59 51 -68 66 30 
85 19 -35 -66 107 

-58 42 -91 -110 16 
-65 -50 -1 39 23 
-78 14 84 -50 -93 
113 -42 15 127 -86 
58 118 1 22 49 

81 -109 102 -77 -19 
55 37 -66 109 116 
-39 -77 -78 69 34 
84 115 -121 53 71 
-63 24 115 -74 -97 

-21 84 90 -14 -120 
-32 123 112 64 33 
34 -50 -65 27 111 
7 88 -55 -115 119 
-114 -25 -90 21 -70 

-101 21 104 0 97 
116 44 53 -56 22 
-65 -34 -72 -72 25 
24 -11 -100 84 64 
60 89 76 104 37 


-111 -83 -117 -2 120 
91 -123 -22 -44 -128 
-57 -34 29 -93 -75 
-103 -80 22 -109 -13 
107 -84 -91 20 124 

29 -89 -106 3 -58 
66 28 -55 -95 -123 
-47 -117 22 -92 -45 
34 -59 19 58 -68 
45 -81 -3 57 -56 

28 35 -31 62 -57 
46 -37 33 -20 -49 
-40 -57 46 124 -124 
-34 99 36 -89 59 
28 -22 18 18 42 

-67 -50 122 -13 -70 
46 23 56 77 -68 
37 -82 -38 82 12 
59 51 -68 66 30 
85 19 -35 -66 107 

-58 42 -91 -110 16 
-65 -50 -1 39 23 
-78 14 84 -50 -93 
113 -42 15 127 -86 
58 118 1 22 49 

81 -109 102 -77 -19 
55 37 -66 109 116 
-39 -77 -78 69 34 
84 115 -121 53 71 
