-30 -21 29 113 -48 
-51 -112 11 -17 28 
-127 -2 -107 36 40 
-71 58 63 -35 92 
76 -78 19 -93 96 

124 -93 16 42 -34 
98 17 98 73 104 
12 -66 -58 92 78 
42 -39 52 -23 26 
-3 71 -4 93 110 

38 0 -116 -98 -71 
84 -29 -30 -18 -44 
-48 29 -13 125 -26 
-65 -57 67 -120 60 
1 -94 -37 -108 32 

86 18 27 95 -90 
-114 84 -93 54 -5 
81 -47 90 80 103 
0 -109 53 -89 50 
-59 79 -21 6 -81 

-21 -101 -93 -84 -24 
-127 1 -23 -115 -25 
-124 -102 -5 88 83 
-11 -120 58 -34 -70 
38 -36 32 -54 -85 

43 8 43 -77 31 
57 29 62 101 115 
34 -13 58 4 -81 
55 -67 -24 6 117 
44 -19 83 -117 111 

-63 4 -89 -62 110 
-114 123 97 -44 -10 
59 -95 79 -49 102 
49 88 -25 55 120 
99 24 -46 48 45 

117 -54 -55 -49 -111 
19 118 -35 36 110 
78 10 92 8 44 
32 -111 -22 -71 -54 
67 -83 -14 -107 112 


10 -90 41 56 42 
77 74 -65 -73 -24 
62 -79 121 64 -14 
104 -63 -78 119 6 
-65 -28 44 -4 -86 

57 41 -47 -120 63 
-111 -8 98 -10 57 
9 -50 -1 -31 31 
-59 37 -126 81 93 
69 -8 90 43 -117 

-2 -1 83 37 -115 
-118 16 54 -102 106 
101 59 89 82 -95 
8 121 38 83 121 
44 13 13 -115 5 

-48 -17 114 -73 -56 
57 58 45 -15 16 
74 61 -93 -95 -17 
-25 -99 -125 -122 112 
77 106 -34 -42 12 

112 85 -57 124 -116 
96 41 -72 90 -89 
-39 120 -83 29 88 
-88 -32 -77 -103 10 
-33 102 55 -53 114 

-111 -1 32 -97 -13 
-95 25 107 21 104 
-29 -70 -25 30 112 
62 67 -7 26 -106 
102 -17 25 117 117 

-97 35 90 45 -56 
17 -67 114 -90 81 
-96 -36 82 -25 102 
-96 34 21 -116 77 
-122 -125 -2 -119 -8 

-122 58 37 -76 100 
-53 -102 -47 30 93 
102 -56 -8 63 -105 
81 81 63 -89 -48 
79 115 97 72 6 


-111 91 -57 -103 107 
-83 -123 -34 -80 -84 
-117 -22 29 22 -91 
-2 -44 -93 -109 20 
120 -128 -75 -13 124 

29 66 -47 34 45 
-89 28 -117 -59 -81 
-106 -55 22 19 -3 
3 -95 -92 58 57 
-58 -123 -45 -68 -56 

28 46 -40 -34 28 
35 -37 -57 99 -22 
-31 33 46 36 18 
62 -20 124 -89 18 
-57 -49 -124 59 42 

-67 46 37 59 85 
-50 23 -82 51 19 
122 56 -38 -68 -35 
-13 77 82 66 -66 
-70 -68 12 30 107 

-58 -65 -78 113 58 
42 -50 14 -42 118 
-91 -1 84 15 1 
-110 39 -50 127 22 
16 23 -93 -86 49 

81 55 -39 84 -63 
-109 37 -77 115 24 
102 -66 -78 -121 115 
-77 109 69 53 -74 
-19 116 34 71 -97 

-21 -32 34 7 -114 
84 123 -50 88 -25 
90 112 -65 -55 -90 
-14 64 27 -115 21 
-120 33 111 119 -70 

-101 116 -65 24 60 
21 44 -34 -11 89 
104 53 -72 -100 76 
0 -56 -72 84 104 
97 22 25 64 37 


-126 -63 -9 39 37 
67 -106 -94 -70 -40 
-69 -74 -122 106 -110 
-46 35 -12 -50 -78 
65 -65 97 31 -86 

-117 18 76 -53 -26 
11 2 112 -50 88 
52 9 -52 -105 -21 
-48 -7 -44 117 -8 
31 -105 94 61 10 

-23 -113 115 -110 46 
-70 102 -89 -103 122 
-75 52 -78 -116 0 
66 6 -108 -43 -127 
-96 77 1 34 -74 

-40 71 65 -104 -90 
-71 -81 11 61 99 
42 99 -122 36 119 
-14 22 -72 27 92 
40 -60 65 -18 8 

-21 -104 74 -60 76 
-107 112 0 -8 -103 
97 52 -88 108 -104 
-4 -38 -3 34 -109 
37 63 -104 83 -89 

59 53 67 -114 44 
-113 -1 116 -66 64 
103 49 101 -69 -84 
-83 79 -25 90 41 
-1 80 74 -72 -3 

96 1 62 75 75 
37 77 51 -117 -79 
114 -128 42 -101 73 
26 -64 -116 -116 9 
36 -107 -107 45 -68 

110 74 -78 14 -19 
-69 1 -120 48 18 
-68 -95 -12 -19 120 
-41 116 -4 23 110 
84 116 -78 15 21 


-94 13 75 9 39 
57 -36 3 -87 -73 
-11 100 -94 -33 59 
-26 -23 -2 83 54 
-48 -96 50 -65 56 

105 -63 52 107 -114 
-99 -119 79 -117 12 
-48 114 126 89 94 
-20 -88 -35 -100 -67 
48 36 114 -57 62 

110 111 85 -76 -78 
4 -67 20 -12 -11 
46 -85 -44 -11 104 
-74 -113 -124 95 -69 
34 71 -22 32 85 

114 63 8 98 67 
0 -50 16 -128 -107 
4 88 97 121 -40 
114 -112 87 -112 -8 
41 -97 -77 126 101 

-68 -90 -8 66 -20 
-100 66 33 10 51 
106 12 -113 103 109 
121 77 -64 -39 6 
-70 -33 101 -27 -24 

11 -67 -107 -30 -120 
-13 -58 43 -77 -73 
-77 70 -101 -100 77 
61 -9 6 50 13 
11 -96 67 -8 -2 

71 -84 -23 42 120 
-52 -41 89 -41 74 
78 -56 4 -30 112 
61 102 45 73 -31 
39 -32 -112 48 50 

105 93 23 -49 -2 
-15 126 16 118 72 
49 -122 -92 -72 5 
93 60 57 -102 10 
-14 -25 70 94 -51 


-30 97 -40 -109 -113 
69 -69 -19 96 -63 
73 -45 45 47 -124 
-29 -53 -17 113 113 
-111 29 53 49 -23 

-2 66 99 33 -12 
42 -20 -126 27 -74 
89 62 12 6 -88 
-33 -45 93 -30 49 
-101 66 -85 -79 80 

-127 126 -103 -58 -67 
2 -76 -113 50 44 
-63 63 88 119 66 
114 68 121 -35 -116 
127 44 -127 122 -93 

48 -17 -74 -54 79 
-77 19 -66 61 -11 
120 41 -39 122 -11 
86 -1 -113 119 -67 
99 -80 84 -80 -65 

-58 31 18 -4 -87 
-112 56 101 -32 84 
-25 83 14 -19 -42 
-48 6 125 -32 -89 
49 21 57 1 70 

-126 -101 127 36 2 
17 -60 -79 -40 -78 
111 55 -91 111 -118 
-123 9 6 -42 -65 
19 9 70 116 -18 

80 13 63 28 27 
73 26 -111 106 -85 
109 52 36 124 120 
20 -93 108 96 54 
-109 14 -13 61 -50 

34 76 -46 -66 -87 
-49 -21 -55 96 -95 
109 65 -37 -7 -67 
86 16 -75 -23 107 
121 34 11 94 -94 


-84 -85 49 89 111 
119 -12 127 -30 7 
66 -45 73 24 -126 
-109 -14 -102 43 -101 
-95 -122 -73 11 83 

-28 3 -79 -5 -43 
19 -35 44 63 -37 
-114 -127 20 -6 -48 
-46 119 -18 -106 31 
39 16 -31 18 70 

3 -59 -96 34 93 
21 -118 -23 52 -120 
21 87 58 -33 -127 
-66 73 -112 -58 11 
12 -92 8 -23 -18 

-56 -25 107 -9 -94 
101 -57 101 105 87 
-87 -5 90 -85 98 
51 -101 -12 94 40 
20 -119 55 1 124 

115 39 -86 39 -76 
12 -61 80 -39 66 
53 -41 26 -104 18 
0 -25 46 27 13 
110 -73 44 3 16 

65 -98 -73 77 37 
43 65 -18 -10 -26 
-3 3 -76 96 95 
127 -35 -59 93 96 
122 97 -71 -28 91 

67 -25 -97 -16 -91 
25 51 60 16 27 
97 100 54 -20 53 
-86 0 -94 -69 -54 
-41 -113 -19 -103 -117 

-121 -4 -39 53 79 
-99 65 -50 17 31 
-55 26 -69 -76 4 
-118 92 -92 -57 22 
42 44 -17 -86 -121 


3 -30 21 45 108 
57 -77 68 -15 27 
94 -58 -70 -100 -45 
-56 10 1 114 -126 
-109 119 -100 22 97 

112 67 -17 -120 -21 
25 -75 90 108 19 
-110 70 -107 71 96 
-56 -112 116 74 46 
-4 51 107 -84 -101 

23 61 55 -10 -124 
55 -119 -125 -60 -44 
91 81 32 -28 -84 
-97 125 80 -46 -37 
-19 37 -46 99 93 

-104 -64 -67 29 -78 
25 54 -56 -24 -90 
50 -91 -52 106 -58 
-63 67 -24 76 -9 
-116 81 45 103 53 

-83 56 -102 49 50 
79 65 -75 110 53 
-35 -1 -35 -83 -11 
-6 77 104 -51 35 
83 -97 -28 -92 -29 

-38 -80 -82 -53 -89 
-32 28 116 -29 83 
104 -40 -4 113 11 
71 -39 3 33 108 
-106 -110 -66 84 -34 

-69 -10 74 -107 -25 
-76 44 93 -11 5 
62 -48 3 -104 -20 
-97 -105 -74 113 -33 
-98 32 17 -101 -67 

-105 -81 -126 -13 103 
68 -13 114 -98 -48 
4 61 61 5 9 
-21 -26 112 32 -66 
-53 -119 89 -123 121 


